tree
version=v4
num_class=1
num_tree_per_iteration=1
label_index=0
max_feature_idx=22
objective=binary sigmoid:1
feature_names=Column_0 Column_1 Column_2 Column_3 Column_4 Column_5 Column_6 Column_7 Column_8 Column_9 Column_10 Column_11 Column_12 Column_13 Column_14 Column_15 Column_16 Column_17 Column_18 Column_19 Column_20 Column_21 Column_22
feature_infos=[0:1] [0:0.99999999999999989] [0:1] [0:0.99999999999999989] [0:0.99999999999999989] [0:0.99999999999999989] [0:1] [0:1] [0:1] [0:1] [0:1.0000000000000002] [0:1.0000000000000002] [0:1] none [0:1] [0:1] [0:1] [0:0.99999999999999989] [0:1] [0:1] none [0:1.0000000000000002] [0:1]
tree_sizes=3422 3478 3508 3507 3497 3489 3498 3498 3521 3507 3482 3502 3498 3528 3463 3517 3510 3489 3472 3458 3507 3508 3473 3488 3452 3504 3498 3507 3489 3482 3512 3490 3495 3498 3502 3475 3471 3503 3491 3456 3481 3469 3503 3469 3476 3513 3507 3426 3482 3474 3391 3464 3411 3482 3443 3463 3479 3486 3479 3475 3449 3431 3452 3445 3402 3478 3453 3441 3464 3498 3474 3478 3470 3463 3477 3433 3430 3484 3427 3422 3442 3441 3445 3438 3430 3481 3480 3465 3487

Tree=0
num_leaves=31
num_cat=0
split_feature=16 15 17 4 0 15 15 7 4 17 21 18 22 18 12 6 14 17 12 12 12 15 4 7 18 22 21 22 12 15
split_gain=392.377 40.6156 39.4136 24.3512 57.3835 38.6983 22.6652 17.402 14.3595 13.4083 11.8775 11.1769 10.3624 12.2531 10.2891 10.2881 11.6461 9.8437 9.58955 10.0534 9.29046 8.9273 8.7312 8.64199 8.19392 10.4807 8.11404 10.212 8.07174 8.20062
threshold=0.0001440875092220379 0.017041508093222052 0.66192522561289346 4.6462193321497201e-05 0.0057576450083317134 0.013859521198524001 0.015090359262484769 0.59058170263905108 1.7005332654541001e-07 0.67026159594258483 0.59448964342711075 0.60388126124027475 0.1019169870979431 0.57381524056432009 0.033026295283375591 0.58407727045527047 0.14486192650576216 0.68030077424398649 0.015181474890161797 0.009706405446135059 0.095075811920106418 0.039242961392293899 0.019358717784943753 0.59138472292795596 0.61859778134770416 0.28211180193565205 0.55531515267680798 0.15494503778817867 0.020188589030362306 0.024351688834366541
decision_type=2 2 2 2 2 2 2 2 2 2 2 2 2 2 2 2 2 2 2 2 2 2 2 2 2 2 2 2 2 2
left_child=1 7 3 4 5 -2 11 -1 -7 14 17 18 13 -10 -8 21 -17 24 19 -4 22 -6 26 -24 25 -11 27 -5 -3 -30
right_child=2 28 6 20 15 8 9 -9 12 10 -12 -13 -14 -15 -16 16 -18 -19 -20 -21 -22 -23 23 -25 -26 -27 -28 -29 29 -31
leaf_value=-0.1529050251287897 -0.21332482854073526 -0.16305834850168491 -0.15502465941708529 -0.12647325498213219 -0.13351301508291624 -0.18891440763335104 -0.17280320895559276 -0.23370716557354221 -0.13718359582293999 -0.20140105635864847 -0.17178340842576351 -0.20940623327371738 -0.17375702566204973 -0.16885635129010876 -0.16311857183823938 -0.16206792263603159 -0.20593337889143071 -0.22192179273983181 -0.1425598473577798 -0.22313533160330976 -0.17554303337890168 -0.15702123694377423 -0.11131544058062076 -0.15941157817376572 -0.17035398161581689 -0.17826548583783497 -0.16055357151290836 -0.15536090023402863 -0.21699493700092268 -0.19163777366338985
leaf_weight=5.9563282728195182 64.526889622211456 13.153558269143103 7.9417710304260281 40.453396186232567 56.585118591785431 132.5283040702343 666.36422552168369 238.74949160218239 43.183379977941513 85.8703992664814 399.07399427890778 62.54144686460495 736.10290238261223 105.72482684254646 461.36726079881191 1150.8122583776712 14.146279647946356 16.379902750253677 13.649918958544729 11.912656545639036 72.220480307936668 167.76991301774979 19.854427576065063 20.847148954868317 91.826727539300919 122.84927062690258 811.30154682695866 149.4045675098896 57.826020315289497 90.089465126395226
leaf_count=24 260 53 32 163 228 534 2685 962 174 346 1608 252 2966 426 1859 4637 57 66 55 48 291 676 80 84 370 495 3269 602 233 363
internal_value=-0.171248 -0.218646 -0.167764 -0.164656 -0.16744 -0.176055 -0.173495 -0.231573 -0.173628 -0.17224 -0.177596 -0.197059 -0.171293 -0.15934 -0.16886 -0.160713 -0.162651 -0.18481 -0.172844 -0.19523 -0.158513 -0.150841 -0.157305 -0.134481 -0.182543 -0.188002 -0.158294 -0.148873 -0.1986 -0.201961
internal_weight=5931.01 405.775 5525.24 3585.46 2471.38 1082.07 1939.78 244.706 1017.54 1843.73 716 96.0458 885.011 148.908 1127.73 1389.31 1164.96 316.926 33.5043 19.8544 1114.08 224.355 1041.86 40.7016 300.546 208.72 1001.16 189.858 161.069 147.915
internal_count=23898 1635 22263 14447 9958 4360 7816 986 4100 7429 2885 387 3566 600 4544 5598 4694 1277 135 80 4489 904 4198 164 1211 841 4034 765 649 596
is_linear=0
shrinkage=1


Tree=1
num_leaves=31
num_cat=0
split_feature=16 15 17 4 0 15 15 7 4 5 6 22 17 16 15 18 18 15 6 14 15 4 22 0 8 17 18 0 7 14
split_gain=355.965 37.1251 35.6202 21.9879 58.8125 30.7569 20.5305 15.9809 13.2539 12.4516 13.4446 12.2018 12.135 10.9125 20.9766 10.1803 8.52103 8.35827 8.34046 9.51385 10.341 9.39607 8.2362 8.14251 7.93106 9.00533 7.74465 10.0705 9.92954 8.38769
threshold=0.0001440875092220379 0.017041508093222052 0.66192522561289346 1.393170758800725e-05 0.005538940911734078 0.013859521198524001 0.015090359262484769 0.59058170263905108 1.7005332654541001e-07 0.41012567000394418 0.62827773903126927 0.44172672687978165 0.67026159594258483 0.12029367050078922 0.038192521136133903 0.60388126124027475 0.60063081935873963 0.09413936023821734 0.62827113560960002 4.5770819743422567e-05 0.032109545516441872 0.016559541179752908 0.13274591977087571 0.00033111361353785096 0.70461538372184374 0.6629770011932743 0.61174637357601747 0.00051163592470941058 0.59139795282847607 0.00045770819743422503
decision_type=2 2 2 2 2 2 2 2 2 2 2 2 2 2 2 2 2 2 2 2 2 2 2 2 2 2 2 2 2 2
left_child=1 7 3 4 5 -2 15 -1 -7 10 11 17 22 -10 -15 16 -4 23 19 21 -21 -11 24 -5 -8 -26 29 28 -28 -24
right_child=2 -3 6 9 -6 8 12 -9 13 18 -12 -13 -14 14 -16 -17 -18 -19 -20 20 -22 -23 26 -25 25 -27 27 -29 -30 -31
leaf_value=0.017341164758680076 -0.041169518713186089 -0.026264631895616671 -0.040879868696018361 0.016231190164513142 0.009258450285771231 -0.020392578197580655 0.0007001558534927095 -0.059927181913255183 -1.1099171765505368e-05 -0.012323650999914434 0.053520860709588738 0 -0.0062366534321401353 -0.050549514385264706 0.014117988475966146 -0.036607334934617999 0.013185835380741676 -0.00918514103085496 0.010253739006224406 0.045533609684427538 0.0029895716675412756 0.051253952035991292 -0.001949847962365155 0.033476835133979012 -0.046555139987426081 -0.0084270913547447278 -0.030659561241867406 0.002457319893416827 0.036222206646483013 0.0092983663345033059
leaf_weight=5.9650661945343009 62.288657784461975 160.65383331477642 9.1697057485580427 249.97425183653831 1379.2280908077955 114.72337274253368 204.77412369847298 237.24570146203041 595.11979027092457 128.89987915754318 24.095670580863953 104.06699581444263 715.58022204041481 29.528215810656548 19.855854272842407 62.314365148544312 24.31465819478035 22.090916216373444 652.46467806398869 16.885463774204254 79.945383980870247 4.9795549213886252 413.52840401232243 103.07380011677742 19.110632136464119 82.669466719031334 4.9644702076911917 72.497217416763306 57.851345479488373 272.54031026363373
leaf_count=24 252 649 37 1006 5553 463 825 962 2398 519 97 419 2885 119 80 252 98 89 2627 68 322 20 1666 415 77 333 20 292 233 1098
internal_value=-0.00019398 -0.0454532 0.00311655 0.00606936 0.00294446 -0.00762395 -0.0023328 -0.0578665 -0.00478838 0.0110058 0.0173165 0.0153364 -0.00113941 -0.00194478 -0.0242883 -0.0247907 -0.00165122 0.0195289 0.00736559 -0.000703392 0.0110536 -0.00941111 0.00207488 0.0214171 -0.00486831 -0.0162127 0.00469937 0.0156219 0.030147 0.00248914
internal_weight=5930.4 403.865 5526.54 3587.22 2200.74 821.516 1939.31 243.211 759.227 1386.48 503.302 479.206 1843.52 644.504 49.3841 95.7987 33.4844 375.139 883.175 230.71 96.8308 133.879 1127.94 353.048 306.554 101.78 821.382 135.313 62.8158 686.069
internal_count=23898 1635 22263 14447 8865 3312 7816 986 3060 5582 2026 1929 7429 2597 199 387 135 1510 3556 929 390 539 4544 1421 1235 410 3309 545 253 2764
is_linear=0
shrinkage=0.05


Tree=2
num_leaves=31
num_cat=0
split_feature=4 15 17 15 5 21 15 4 12 4 0 11 4 15 6 15 11 11 15 15 6 21 21 5 9 8 15 17 12 15
split_gain=318.762 33.6408 32.8005 20.9481 16.8486 20.8408 14.9899 14.4837 13.8322 19.6529 14.1907 13.4416 22.0827 13.1201 12.098 11.6307 10.3737 8.9392 8.31957 9.52669 8.27303 9.21858 8.83645 8.89063 8.10678 11.0616 7.9588 7.6179 7.37016 7.51579
threshold=1.0000000180025095e-35 0.017041508093222052 0.65443100345163718 0.010509963329551295 0.66368851295577069 0.56726552736286906 0.015090359262484769 9.3852394881256893e-05 0.025776130014547202 2.293313007661855e-06 0.0047866427065478981 0.0074829342986834123 5.4912088029116161e-05 0.012068688228443243 0.61682803280040055 0.048499087191554088 0.0048703585084638708 0.00050593236047954862 0.020233676751765749 0.038373259051326776 0.62828430458790319 0.57858476598288633 0.57002155623683148 0.49022688132230469 0.62155536359274721 0.71988860905160312 0.023057923202214239 0.65247805117951341 0.020188589030362306 0.023057923202214239
decision_type=2 2 2 2 2 2 2 2 2 2 2 2 2 2 2 2 2 2 2 2 2 2 2 2 2 2 2 2 2 2
left_child=1 16 3 -2 5 7 -6 14 -5 10 15 12 13 -7 -4 -10 17 -1 -11 -20 21 22 23 -14 25 -13 -9 -12 -3 -30
right_child=2 28 4 8 6 11 -8 26 9 18 27 24 20 -15 -16 -17 -18 -19 19 -21 -22 -23 -24 -25 -26 -27 -28 -29 29 -31
leaf_value=-0.007344486293001622 -0.043894957741104905 0.010723224436467435 0.0022625335108911039 0.016145028149929085 -0.031489081573604381 -0.034775347183850509 -0.004913103497005385 -0.040513368220196716 -0.021826349626870054 -0.044793614543950172 0.0089692775576023856 0.026420348656461892 0.0068899012491039149 -0.0031270445859286275 -0.026181370805547079 0.0035646716036151199 0.00070460685748104015 -0.060054664442132734 0.020496922447538816 0.0079773636102539597 0.011286645882916889 -0.010613434662475378 0.010679468538649265 -0.028849741212253074 0.0059695925351078774 -0.01063536210670892 0.011823649941811435 -0.016283894624261368 -0.045406606040560495 -0.018832084397854384
leaf_weight=9.7875070571899396 17.987156867980957 11.893109321594237 47.97838306427002 472.32206827402115 58.670217856764793 33.029252424836159 533.6979243606329 6.9606007784605017 124.14137621223927 5.7048373371362677 209.67237754166126 107.34836567938328 35.28571093082428 1058.5251480340958 144.68379661440849 67.72595152258873 6.8970944583415976 219.73786789178848 194.63301539421082 769.47563304007053 446.45966929197311 113.3923581391573 232.78269591927528 31.311300754547119 711.45581099390984 23.085398524999619 70.325606778264046 33.284971296787262 43.848115354776382 86.931309625506401
leaf_count=40 73 48 193 1901 238 134 2152 28 501 23 844 432 142 4266 583 273 28 898 783 3096 1798 457 937 126 2864 93 283 134 178 352
internal_value=-0.000185461 -0.0444865 0.00284353 0.00818016 6.84164e-05 0.00156877 -0.00763605 -0.0116538 0.00871562 0.00618993 -0.00259303 0.00285956 0.000565722 -0.00413852 -0.0189938 -0.0127621 -0.0561447 -0.057957 0.0101522 0.0105493 0.00656885 0.00139065 0.00604071 -0.00972185 0.0081381 0.0196407 0.0063334 0.00535457 -0.0247373 -0.0282087
internal_weight=5929.03 379.095 5549.94 1894.95 3654.99 3062.62 592.368 269.948 1876.96 1404.64 434.825 2792.68 1950.79 1091.55 192.662 191.867 236.422 229.525 969.813 964.109 859.232 412.772 299.38 66.597 841.89 130.434 77.2862 242.957 142.673 130.779
internal_count=23898 1544 22354 7628 14726 12336 2390 1087 7555 5654 1752 11249 7860 4400 776 774 966 938 3902 3879 3460 1662 1205 268 3389 525 311 978 578 530
is_linear=0
shrinkage=0.05


Tree=3
num_leaves=31
num_cat=0
split_feature=16 15 17 15 16 6 5 15 21 11 22 17 21 21 10 5 15 5 22 22 15 15 3 6 1 6 22 3 6 22
split_gain=294.641 31.5342 29.9053 17.2912 16.4099 14.9328 14.174 23.5634 22.9752 11.8948 11.7305 10.6112 10.1836 10.1522 9.72845 9.41491 9.74573 9.30298 10.097 8.89267 8.77523 8.75153 7.45772 10.5682 7.78871 7.50476 8.02715 7.88596 7.16921 7.02805
threshold=0.0001440875092220379 0.022885512280769484 0.66192522561289346 0.021631176409709661 0.012878856268089484 0.62767330787523246 0.43913220276603482 0.011000670984135244 0.57002155623683148 0.00050057064313131306 0.44715702226925252 0.66952603167533808 0.58418327360513822 0.59576622168775561 0.00052309137168707125 0.53943254929478679 0.013859521198524001 0.63778672090593702 0.16232500742528896 0.0798971356555883 0.10833887128241633 0.063296416592933294 7.8050423254979675e-05 0.62849575078245534 0.85423403227041728 0.62828676923506344 0.16483741975716643 0.00035093943823247367 0.62859070248697757 0.24748336670626225
decision_type=2 2 2 2 2 2 2 2 2 2 2 2 2 2 2 2 2 2 2 2 2 2 2 2 2 2 2 2 2 2
left_child=1 5 4 17 15 -1 7 -6 19 -7 21 12 -5 -13 -11 16 -2 18 -4 -8 -12 -9 -10 25 -25 -24 -27 -28 -19 -26
right_child=2 -3 3 11 6 9 8 10 22 14 20 13 -14 -15 -16 -17 -18 28 -20 -21 -22 -23 23 24 29 26 27 -29 -30 -31
leaf_value=0.021060288397156769 -0.036858143069689139 -0.017737925617895372 -0.02391998328466247 -0.0003084244450430448 -0.035742651930485474 -0.0074726772950782262 0.014890762689243831 0.016135118055375024 0.016784947148306126 -0.067971021555400815 -0.00082451164497385492 -0.010459265726060613 0.010871936106021163 0.0011017508154624858 -0.046141302495281922 0.016419141829783501 -0.0028243518109467912 -0.034007877693760673 0.0080461932646477032 -0.0055576738551989108 0.040398648136808275 0.003972966217694671 0.0058678517844335965 0.015532404400832129 0.002148742031285174 0.0061449728338545291 0.011031703534210419 -0.023400396162823474 -0.010531524801407982 -0.059274184668725118
leaf_weight=6.201130509376525 21.171144604682922 106.50424516201019 36.925190016627312 647.74578359723091 25.351249694824219 15.934958830475805 57.15338708460331 882.7321949005127 215.65681946277618 97.517995476722717 218.23964728415012 385.57497519254684 293.3583083152771 365.99278105795383 172.84885603189468 59.826775729656219 502.23611964285374 72.317304581403732 68.692182913422585 568.34623612463474 12.667722910642622 185.48091432452202 362.78366379439831 296.36858882009983 13.917215108871462 65.750007376074791 19.38357737660408 77.147058799862862 67.942920222878456 5.4682151824235907
leaf_count=25 86 432 149 2609 103 65 230 3549 867 402 878 1556 1181 1476 711 241 2024 293 277 2288 51 746 1460 1192 56 265 78 311 275 22
internal_value=-0.000180136 -0.0416237 0.00281357 -0.00218074 0.00551749 -0.0501456 0.00700804 0.0108863 0.00393457 -0.0518428 0.0118423 -0.000362408 0.00315799 -0.00480217 -0.0543286 -0.00212206 -0.00431631 -0.0145451 -0.00301464 -0.00362856 0.00149366 0.0140524 0.00843526 0.0062466 0.0134726 0.00183628 -0.00700407 -0.0161878 -0.0229678 -0.0160087
internal_weight=5927.24 399.007 5528.23 1938.55 3589.68 292.503 3006.45 1324.47 1681.97 286.302 1299.12 1692.67 941.104 751.568 270.367 583.234 523.407 245.878 105.617 625.5 230.907 1068.21 1056.48 840.818 315.754 525.064 162.281 96.5306 140.26 19.3854
internal_count=23898 1635 22263 7816 14447 1203 12096 5327 6769 1178 5224 6822 3790 3032 1113 2351 2110 994 426 2518 929 4295 4251 3384 1270 2114 654 389 568 78
is_linear=0
shrinkage=0.05


Tree=4
num_leaves=31
num_cat=0
split_feature=16 15 17 15 4 2 15 6 21 5 4 6 8 5 16 8 12 17 21 17 21 4 22 0 16 15 17 12 12 2
split_gain=268.099 29.2793 27.0079 19.3268 16.58 40.6578 29.0368 12.2852 10.2754 10.072 9.67604 9.52934 8.94071 8.28773 12.2856 11.9689 8.14033 8.10172 10.2072 9.51995 9.5041 10.868 8.12015 12.7792 9.84394 7.48114 7.34621 7.199 11.4002 6.98666
threshold=0.0001440875092220379 0.017041508093222052 0.66399711419454399 0.022549348116680728 4.6462193321497201e-05 0.0057958698939743576 0.013859521198524001 0.62767330787523246 0.57828749946178026 0.44842796595230533 1.1916089139853208e-07 0.62835627120303605 0.70480962887230214 0.44528014743544786 0.15272439799248536 0.70417919089611547 0.05465951147397273 0.66952603167533808 0.59448964342711075 0.68030077424398649 0.58395692129963717 3.7364880938641024e-06 0.21404243560054073 0.0069038300229420603 0.0052121026748274454 0.0076339812047639339 0.6623322340684944 0.037911778947246129 0.025269775398387803 0.89936692046568123
decision_type=2 2 2 2 2 2 2 2 2 2 2 2 2 2 2 2 2 2 2 2 2 2 2 2 2 2 2 2 2 2
left_child=1 7 4 -4 5 6 8 -1 -2 -7 26 25 13 14 -12 -15 -3 20 19 -19 -5 22 24 -24 -22 -11 -8 28 -23 -13
right_child=2 16 3 17 -6 9 10 -9 -10 11 12 29 -14 15 -16 -17 -18 18 -20 -21 21 27 23 -25 -26 -27 -28 -29 -30 -31
leaf_value=0.017012421261366643 -0.040347285763907517 -0.015573563991845172 -0.018739343239363958 -0.0020059048651364839 0.0096452957623273557 0.013211109204962095 -0.021090500604853762 -0.0528747453194304 0.021055737686798425 0.053504987444422551 0.0052964487272446157 0.010130797754297701 0.017526982132095498 -0.04092796066305638 -0.026090930278318943 -0.0045647975167490548 -0.042242242557978038 -0.0087690651981625727 0.0009548949880471187 -0.048460883685759966 0.025799967346904734 0.040612426240499273 -0.0099267912543246697 0.04163220244781464 -0.027300825881144769 -0.0016401665559316369 0.021977127993134393 0.028030048547483855 -0.0036020259541579914 -0.022900241018089299
leaf_weight=5.4744932800531378 67.284429013729095 118.47098463773727 171.30931302905083 356.54821747541428 1240.6216918826103 582.49936701357365 94.415987521409988 231.46384789049625 6.3933088928461066 5.2287786900997153 420.33736501634121 538.72533424198627 61.83446703851223 23.045781865715981 32.502716168761253 479.15163932740688 40.724377632141113 332.0155186355114 396.74685809016228 15.276117220520971 9.69067235291004 17.886900156736374 26.342886164784431 19.89462685585022 41.249868392944336 416.82433320581913 9.6758292317390424 88.055952772498131 60.153298571705818 15.134551540017126
leaf_count=22 275 483 694 1436 4986 2340 382 964 26 21 1692 2167 249 93 131 1932 166 1341 1600 62 39 72 106 80 166 1677 39 354 242 61
internal_value=-0.000173723 -0.0398592 0.00267186 -0.00295314 0.00484056 0.00266359 -0.00426075 -0.0510902 -0.0344737 0.00798699 -0.0022237 0.00483291 -0.000704574 -0.00192824 0.002936 -0.0063612 -0.0227729 -0.000939697 -0.00446847 -0.0107209 0.00325637 0.0104582 -0.00258892 0.01214 -0.0164156 -0.000773025 -0.0166782 0.0182111 0.00660129 0.0091435
internal_weight=5924.98 396.134 5528.85 1535.17 3993.68 2753.05 1194.64 236.938 73.6777 1558.41 1120.96 975.913 1016.87 955.038 452.84 502.197 159.195 1363.86 744.038 347.292 619.822 263.274 97.1781 46.2375 50.9405 422.053 104.092 166.096 78.0402 553.86
internal_count=23898 1635 22263 6192 16071 11085 4819 986 301 6266 4518 3926 4097 3848 1823 2025 649 5498 3003 1403 2495 1059 391 186 205 1698 421 668 314 2228
is_linear=0
shrinkage=0.05


Tree=5
num_leaves=31
num_cat=0
split_feature=4 15 0 4 15 8 0 4 21 6 5 4 15 4 11 5 8 22 5 15 8 5 8 15 15 8 15 22 5 6
split_gain=252.511 28.743 20.552 38.5492 32.9213 13.3268 14.9304 11.8746 11.6903 17.5376 13.3319 13.2289 14.5238 11.1706 10.8538 10.5869 8.74982 7.77627 11.1994 8.69501 7.94292 7.73735 7.37022 7.17763 7.05092 6.91795 6.87783 7.7398 6.86794 6.78613
threshold=1.0000000180025095e-35 0.02386799066893917 0.0060099958890212921 3.1532973410808354e-05 0.013859521198524001 0.7046701069098581 0.00048801003066224123 8.2478180177337819e-08 0.57569844939687864 0.62828430458790319 0.65628728427651806 0.0041486782051735815 0.071552974106489586 0.00029105865040639727 1.7614297492560271e-05 0.3854317993084258 0.70463230991878312 0.071968455577364254 0.55247642769099492 0.091691282689280854 0.70526489228678957 0.64443803606701899 0.70427243802066886 0.010044719776932319 0.027353925411942977 0.70462954090949337 0.096965400407747676 0.47401247115085182 0.56261013380300584 0.62827773903126927
decision_type=2 2 2 2 2 2 2 2 2 2 2 2 2 2 2 2 2 2 2 2 2 2 2 2 2 2 2 2 2 2
left_child=1 -1 3 4 5 6 29 -6 25 11 13 12 -10 14 -11 26 -12 18 -9 20 -19 28 -3 -17 -18 -5 27 -4 -15 -2
right_child=2 22 15 8 7 -7 -8 17 9 10 16 -13 -14 21 -16 23 24 19 -20 -21 -22 -23 -24 -25 -26 -27 -28 -29 -30 -31
leaf_value=-0.048065676130085264 0.045346749529267767 0.030840207104008269 0.018444945887725554 0.0091085389361415716 -0.019272576048772486 0.015545929190092173 -0.048006378011162726 0.022948140258289909 -0.012854689553577957 -0.066927843674367174 -0.011282091761383055 -0.041061808006926548 0.026032830131754787 0.03231877490939377 0.00018800023476411298 0.020239012473978111 -0.038952065764376063 -0.0030817424310772357 -0.010414815937943502 -0.019935478757335829 0.018411508017208738 0.040812168606671924 -0.018639713550261911 0.0042262344483838367 0.016608831115511327 -0.013543300955149683 0.054953021362539115 -0.0015507028805580238 0.0087824656162244757 -0.021976653185699833
leaf_weight=283.77258431911469 5.872393071651457 7.1110307276248923 203.60907515883446 1073.893737912178 110.61054265499115 11.252202704548834 75.439711138606071 67.124299451708794 143.50668385624886 5.4664713442325583 152.09885756671429 32.509536981582642 27.530250579118729 37.857970491051674 77.747029900550842 73.345191687345505 5.1801063865423194 1337.4202692508698 37.934251755475998 73.950150102376938 43.148660331964493 28.318593993782997 74.29851983487606 1598.0745107233524 55.523566618561745 33.071727395057678 10.206830844283102 60.259291142225266 195.38155713677406 6.8404257297515869
leaf_count=1189 24 29 817 4313 448 46 310 270 578 22 614 131 111 152 313 295 21 5393 153 298 174 114 303 6431 224 133 41 242 786 28
internal_value=-0.00030326 -0.0405295 0.00233015 0.000104266 -0.00517565 -0.0330143 -0.039598 -0.00348505 0.00511927 0.000313715 0.00493205 -0.0121773 -0.00633507 0.0110163 -0.0046665 0.00647708 -0.00481385 -0.0023377 0.0106812 -0.00330191 -0.00237905 0.0160997 -0.0136926 0.00495554 0.010908 0.00839762 0.0156134 0.0137956 0.0128311 0.00833777
internal_weight=5948.36 365.182 5583.17 3637.68 1769.59 99.4047 88.1525 1670.19 1868.09 761.121 557.574 203.546 171.037 344.772 83.2135 1945.49 212.803 1559.58 105.059 1454.52 1380.57 261.558 81.4096 1671.42 60.7037 1106.97 274.075 263.868 233.24 12.7128
internal_count=24003 1521 22482 14656 7144 408 362 6736 7512 3066 2246 820 689 1387 335 7826 859 6288 423 5865 5567 1052 332 6726 245 4446 1100 1059 938 52
is_linear=0
shrinkage=0.05


Tree=6
num_leaves=31
num_cat=0
split_feature=16 15 1 15 4 21 6 5 12 8 3 5 15 15 14 4 0 4 16 5 6 15 12 15 12 15 21 15 5 21
split_gain=235.937 32.5799 17.0446 31.8225 21.8026 11.5618 18.2747 12.2773 12.7061 10.4334 10.0032 9.52699 9.14052 8.62484 8.54416 8.45124 7.34174 7.10986 6.87588 6.81835 6.82222 6.56301 6.3342 6.24762 5.98951 21.9203 7.1535 6.33033 9.55722 8.54194
threshold=0.00051660838311704796 0.02386799066893917 0.0060197925156229232 0.012068688228443243 5.4912088029116161e-05 0.57582573394223302 0.62828430458790319 0.65628728427651806 0.028230001056764289 0.70463230991878312 0.00038239250653323203 0.3854317993084258 0.06547171890918517 0.046103785492743667 2.0961078495325059e-05 4.1020280934016173e-08 0.00047718454360657232 0.0044786256779251422 0.0058754866742151803 0.68489621343183804 0.6289650019545916 0.0096170504043865644 0.013251559677406351 0.096965400407747676 0.020335947239930367 0.024497112045229728 0.56511249267892094 0.067820169683821943 0.28353732104965351 0.59056861507850689
decision_type=2 2 2 2 2 2 2 2 2 2 2 2 2 2 2 2 2 2 2 2 2 2 2 2 2 2 2 2 2 2
left_child=1 14 3 10 15 18 12 8 -8 -9 -2 23 13 -7 -1 -5 -16 -14 -6 20 -3 -13 -18 -4 26 -26 -17 28 -27 -29
right_child=2 19 11 4 5 6 7 9 -10 -11 -12 21 17 -15 16 24 22 -19 -20 -21 -22 -23 -24 -25 25 27 -28 29 -30 -31
leaf_value=-0.053803738157047289 0.011983474601729903 -0.0130636756184777 0.013196425689973658 -0.021960077159625373 -0.020244491175443382 -0.0095517287205779677 -0.0017941470976929497 -0.011360480382997104 0.018765262135046326 0.014117856472324518 -0.03929560203541322 0.021195254246983847 0.01975246770244362 -0.03529319526139512 0.01640264047121295 0.028066606254334964 -0.00098432663845277458 -0.034193903661869716 0.0091142864558469948 -0.048935785752028359 0.03944510828649541 0.0041832232863512455 -0.040870271986476456 0.052424157593495328 -0.020526625845422405 0.027453934021542649 0.0017303692186604683 -0.014582975727471723 -0.000367042410677324 0.0065989333997640669
leaf_weight=153.4098746329546 9.861410588026045 109.47448527812958 263.80264617502689 54.705893933773041 18.91969533264637 101.68170630931854 115.89622193574905 148.72044931352139 201.55619944632053 53.329685539007187 63.25678089261055 58.758132636547089 29.808346703648567 50.798133879899979 5.3803602159023276 28.260860413312912 12.226215809583662 6.4204644560813895 1003.7711199074984 12.244062125682829 5.3886595815420142 1596.4245568364859 129.62307539582253 10.233832612633703 164.59482511878014 30.791540056467056 244.54098637402058 167.98027686774731 1029.6633661985397 63.718643039464951
leaf_count=653 40 446 1058 222 76 410 466 601 810 215 262 236 120 205 22 114 51 26 4029 50 22 6422 544 41 666 124 987 677 4151 257
internal_value=-0.000288876 -0.0360215 0.00248281 0.000437144 0.00112733 0.00512894 0.00018092 0.00505745 0.0111988 -0.00447612 -0.031974 0.00627252 -0.013068 -0.0184644 -0.0450199 -0.00274131 -0.0353975 0.0088589 0.00852748 -0.0143576 -0.0100653 0.00481467 -0.0376384 0.0149376 -0.00210663 -0.00338999 0.00464252 -0.00117361 0.000442323 -0.00864706
internal_weight=5945.24 427.747 5517.5 3588.28 3515.16 1730.9 708.211 519.503 317.452 202.05 73.1182 1929.22 188.709 152.48 300.64 1784.26 147.23 36.2288 1022.69 127.107 114.863 1655.18 141.849 274.036 1729.55 1456.75 272.802 1292.15 1060.45 231.699
internal_count=24003 1788 22215 14458 14156 6958 2853 2092 1276 816 302 7757 761 615 1270 7198 617 146 4105 518 468 6658 595 1099 6976 5875 1101 5209 4275 934
is_linear=0
shrinkage=0.05


Tree=7
num_leaves=31
num_cat=0
split_feature=16 15 17 6 4 10 15 4 9 4 7 5 15 15 21 9 1 14 9 15 16 5 0 5 21 5 5 15 21 5
split_gain=214.919 30.1805 20.2987 12.5355 11.8283 26.7897 10.1525 9.02429 9.73427 15.8741 8.77882 8.77313 8.75393 9.43328 8.62173 8.56036 8.38448 8.03248 7.03962 8.05578 8.821 7.35497 6.77423 6.74302 7.17487 6.84632 6.73822 6.48468 6.41735 6.28253
threshold=0.00051660838311704796 0.02386799066893917 0.6617114405281963 0.62828880514370244 1.7005332654541001e-07 0.0055570206705475933 0.026998187041088102 0.019358717784943753 0.0059822009242535773 5.4912088029116161e-05 0.59140086661637459 0.6516341378319922 0.012068688228443243 0.067820169683821943 0.57296218781985986 0.00032204701146937542 0.67344567178516213 2.0961078495325059e-05 0.0047016735701316025 0.07922708639353232 0.035012961338493888 0.4586327042891763 0.00047718454360657232 0.56657829615325428 0.57925626197362579 0.59298374755020655 0.40116962695725039 0.015766317368225542 0.58246231527457215 0.68489621343183804
decision_type=2 2 2 2 2 2 2 2 2 2 2 2 2 2 2 2 2 2 2 2 2 2 2 2 2 2 2 2 2 2
left_child=1 17 4 11 5 27 -5 8 9 12 28 -4 14 -14 -6 -15 -10 -1 19 20 -17 26 -19 24 -7 -25 -20 -2 -11 -3
right_child=2 29 3 6 7 23 -8 -9 16 10 -12 -13 13 15 -16 18 -18 22 21 -21 -22 -23 -24 25 -26 -27 -28 -29 -30 -31
leaf_value=-0.05185630369114879 -0.044852041991978599 -0.0095544162032596535 -0.0065431957904204243 -0.0062135954385608124 -0.046877848254055471 0.0042102744206315513 0.0032107437698735961 0.027065462114535688 0.01517780058344716 0.0064861695416932935 0.021138232674854381 -0.032912324080232279 0.0014495175847554266 -0.03862777438367572 0.014583382455045858 -0.035527725269001866 0.0058176689738849326 0.015679718538592884 -0.018760981119577434 0.031672989259094474 0.036565097260979146 -0.044212273067307427 -0.036083364325467597 0.060341207363510466 -0.039404735739276137 -0.003318537708437019 0.020527883345016668 -0.01619421808411679 -0.027434128074874043 -0.047006870796839767
leaf_weight=151.30395838618279 28.205920353531837 114.69659282267094 486.64209571480751 388.54298567771912 18.653600454330448 272.66126708686352 1066.333465129137 48.161718145012856 381.17296886444092 915.62858833372593 107.46411514282227 33.523192971944809 829.7978154271841 25.54925511777401 6.7266238033771506 12.64265760779381 685.11227044463158 5.3927811384201041 31.262643873691559 20.101177379488945 4.9624222218990317 16.568190336227417 140.68045896291733 9.4626882970333082 8.6943953782320005 5.7355271726846686 15.134215012192724 85.85709011554718 12.923574477434157 12.152527645230291
leaf_count=653 117 468 1963 1572 78 1096 4297 193 1530 3674 431 136 3344 103 28 51 2750 22 126 81 20 67 595 38 35 23 61 349 52 50
internal_value=-0.000276258 -0.0345314 0.00235877 -0.00169303 0.00462468 -0.00330979 0.000674145 0.00567366 0.00532279 0.00325855 0.00757574 -0.00835047 -0.00127654 -0.000465434 -0.0297055 -0.0131636 0.00919822 -0.0432674 -0.00613886 0.0103772 -0.0129898 -0.0164278 -0.0339088 0.00455098 0.00263917 0.0360521 -0.00525515 -0.0238263 0.00595817 -0.0136776
internal_weight=5941.75 424.226 5517.52 1975.04 3542.48 410.617 1454.88 3131.86 3083.7 2017.41 1036.02 520.165 981.399 956.018 25.3802 126.221 1066.29 297.377 100.671 37.7063 17.6051 62.965 146.073 296.554 281.356 15.1982 46.3969 114.063 928.552 126.849
internal_count=24003 1788 22215 7968 14247 1658 5869 12589 12396 8116 4157 2099 3959 3853 106 509 4280 1270 406 152 71 254 617 1192 1131 61 187 466 3726 518
is_linear=0
shrinkage=0.05


Tree=8
num_leaves=31
num_cat=0
split_feature=4 14 17 2 6 9 4 15 10 15 2 11 5 11 11 6 18 21 12 15 17 15 14 5 12 6 4 4 14 14
split_gain=191.812 23.6894 19.0285 15.3259 11.0863 10.7224 22.6826 20.3304 13.2513 8.66691 8.13751 7.86165 7.7798 8.48184 7.3573 9.60838 10.6264 8.3678 7.342 11.3247 9.55535 8.31192 7.94247 7.70245 6.8857 9.42229 7.3322 6.82999 6.36604 6.24225
threshold=1.0605808437285639e-08 3.9030223961730913e-05 0.6617114405281963 0.00052020710798248695 0.62828880514370244 0.0070772301417853485 5.4912088029116161e-05 0.015766317368225542 0.00048786406642821554 0.026998187041088102 0.67215133479205214 0.00055737632199448419 0.63356161859501381 9.4613756092777563e-05 0.004474737362103084 0.62829619251786673 0.60372538164695255 0.59448964342711075 0.028230001056764289 0.032427568654326576 0.65507450144759816 0.03484066133887103 0.00063165905631659247 0.5113064177940686 0.095075811920106418 0.62819062994636488 0.019358717784943753 1.8541578858231131e-05 0.00045009784735811949 3.9030223961730913e-05
decision_type=2 2 2 2 2 2 2 2 2 2 2 2 2 2 2 2 2 2 2 2 2 2 2 2 2 2 2 2 2 2
left_child=1 3 5 -1 12 6 7 8 -2 14 -7 -10 -4 -14 15 -6 -17 -16 20 23 22 -21 28 27 25 -8 -27 -20 -9 -23
right_child=2 -3 4 -5 9 10 24 18 11 -11 -12 -13 13 -15 17 16 -18 -19 19 21 -22 29 -24 -25 -26 26 -28 -29 -30 -31
leaf_value=-0.0082432662077661211 0.013346412386379888 -0.019979641578148515 -0.0057945974696400927 -0.049581538155188551 0.0053956963514536702 0.015337525162649513 0.055669357571290316 0.010027272249092199 -0.055996760497399128 0.0028139242466403199 0.0056210464065798082 -0.020517551305022554 -0.011615690918795591 -0.055512294245144922 -0.0026548291227565884 0.029581756320680865 -0.028413453963397384 0.043645650586606473 -0.022130014890065185 0.021009951932672317 -0.00091043911123810269 0.021828939908014842 -0.024598539603078378 0.007569802238812047 -0.0068024542180201517 0.0076030704282879814 0.028377200708606012 0.015917269960069976 0.031340837153925431 -0.0024171450092761774
leaf_weight=27.572617307305336 20.933925092220306 191.91281214356422 467.03398305177689 191.09506937861443 38.273991733789444 320.22227515280247 9.9842192530632001 168.72553341090679 21.690078139305115 1070.5233260095119 706.02553096413612 74.274380758404732 38.722182437777519 16.181776806712151 238.43850848078728 7.4232736378908148 90.513217821717262 9.1550038754940015 132.94394010305405 44.433407321572304 304.08387400209904 26.793688580393791 12.200597569346426 31.948916509747505 70.215712383389473 960.19015316665173 44.711748540401459 11.44806633889675 46.548314243555069 543.85755261778831
leaf_count=115 85 797 1885 834 155 1284 40 679 91 4313 2833 305 157 66 963 30 369 37 537 179 1226 108 49 129 282 3851 179 46 187 2192
internal_value=-0.000265988 -0.0331994 0.00218134 -0.0445441 -0.00174162 0.00437138 0.00260381 -0.00149563 -0.0213937 0.000486913 0.00868922 -0.0292893 -0.00798808 -0.025762 -0.00592917 -0.0152257 -0.0235103 -0.000673576 0.000258498 -0.00277296 0.00481565 0.000396473 0.0125501 -0.0139089 0.00806297 0.00912174 0.00857953 -0.0188528 0.0148751 -0.0011988
internal_weight=5938.08 410.58 5527.5 218.668 1976.27 3551.23 2524.98 1439.88 116.898 1454.33 1026.25 95.9645 521.938 54.904 383.804 136.21 97.9365 247.594 1322.98 791.426 531.558 615.085 227.474 176.341 1085.1 1014.89 1004.9 144.392 215.274 570.651
internal_count=24003 1746 22257 949 7975 14282 10165 5813 481 5867 4117 396 2108 223 1554 554 399 1000 5332 3191 2141 2479 915 712 4352 4070 4030 583 866 2300
is_linear=0
shrinkage=0.05


Tree=9
num_leaves=31
num_cat=0
split_feature=16 15 17 22 9 4 4 6 22 22 5 15 4 15 5 18 6 0 8 7 8 6 15 11 7 22 22 17 8 5
split_gain=179.522 26.3387 16.5209 10.938 10.8451 25.246 15.1834 10.3045 11.703 10.5558 11.4137 10.2502 9.59721 9.42116 9.34286 9.13457 9.3475 8.76882 8.41759 7.85731 7.62773 7.34013 6.90231 6.87372 6.80523 6.72291 12.5306 6.57855 6.28499 6.80793
threshold=0.00051660838311704796 0.02386799066893917 0.6617114405281963 0.074758521822631332 0.0059822009242535773 5.4912088029116161e-05 4.1856904172394291e-08 0.62828880514370244 0.10977520407941006 0.45727208417605231 0.68152450045258106 0.017848076556532054 5.383876476991076e-06 0.067820169683821943 0.6516341378319922 0.60738406461674166 0.628808084895219 0.00048801003066224123 0.70484372528977102 0.59140086661637459 0.70473131266920042 0.62828130789123937 0.048499087191554088 0.00021059061605647862 0.59139283623331795 0.073331780249122611 0.10535828816011858 0.62118920920002052 0.70441337878682619 0.4586327042891763
decision_type=2 2 2 2 2 2 2 2 2 2 2 2 2 2 2 2 2 2 2 2 2 2 2 2 2 2 2 2 2 2
left_child=1 20 3 27 5 6 -5 8 -4 10 12 17 15 18 -10 -9 -17 21 23 -7 -1 -8 24 -13 -14 -18 -27 -2 29 -15
right_child=2 -3 7 4 -6 19 11 9 14 -11 -12 13 22 28 -16 16 25 -19 -20 -21 -22 -23 -24 -25 -26 26 -28 -29 -30 -31
leaf_value=-0.04285546346623343 -0.033783292862836982 -0.012362553592036737 -0.027527602227170541 -0.033889221754208346 0.0070811843365584382 0.0053828356427532403 0.023361166249846313 0.0045085440862747241 -0.0025551723974039011 0.010886613518668259 -0.0089782186599861365 0.024795473164359941 -0.029563011300135958 0.0081940365115083635 -0.029935235042262642 -0.018936643294218833 0.030135586824994776 -0.028106465682838252 0.026795723555637141 0.020835247368846704 -0.013463790185851365 -0.02634317703993691 0.016174050725145953 -0.0012971313221462463 0.0045357367178807768 -0.034408127594611135 0.0037903202440684766 0.014630583701064721 -0.024131372278492002 -0.037576933347898508
leaf_weight=262.63478174805641 5.9715800434350959 126.30193181335926 63.818952217698097 40.697331383824348 1211.5514936745167 890.08080033957958 18.309991925954822 221.0007262378931 422.46426171064377 213.15886631608009 336.96955859661102 25.090733721852303 14.396282643079756 40.370883673429489 33.023998975753784 127.00038157403469 15.124873667955397 68.24622118473053 28.529311284422874 91.61852240562439 28.149829536676407 10.870924487709997 144.89794783294201 746.868153616786 256.37167872488499 26.064830034971237 99.825347736477852 286.92872942984104 68.780604317784309 9.0894973427057248
leaf_count=1151 24 518 258 168 4860 3569 74 891 1706 860 1364 101 58 163 135 513 61 283 115 367 119 44 583 3011 1032 105 402 1153 278 37
internal_value=-0.000253345 -0.0318461 0.00213583 0.00417965 0.00333292 0.00109062 -0.00425569 -0.00151988 -0.00756255 0.00062365 -0.00112546 -0.00301213 0.00177857 -0.00133836 -0.00465629 -0.00293083 -0.0091521 -0.0183677 0.000584049 0.00687013 -0.0401517 0.00375688 0.00737274 -0.000385727 0.00252866 -9.26468e-05 -0.00413026 0.0134469 -0.0144584 -0.000299995
internal_weight=5934.21 417.087 5517.12 3543 3250.1 2038.55 1056.85 1974.12 519.307 1454.81 1241.65 1016.16 904.682 918.729 455.488 489.016 268.015 97.4271 800.488 981.699 290.785 29.1809 415.666 771.959 270.768 141.015 125.89 292.9 118.241 49.4604
internal_count=24003 1788 22215 14247 13070 8210 4274 7968 2099 5869 5009 4106 3645 3705 1841 1972 1081 401 3227 3936 1270 118 1673 3112 1090 568 507 1177 478 200
is_linear=0
shrinkage=0.05


Tree=10
num_leaves=31
num_cat=0
split_feature=15 11 15 2 2 8 11 17 17 5 17 6 5 22 15 18 6 15 21 17 9 14 22 15 1 22 6 22 8 17
split_gain=83.3748 29.1376 59.5439 37.5818 22.5655 11.1038 10.9455 10.2881 10.1807 9.62607 9.34018 8.6344 11.5959 14.3874 8.77187 16.0435 12.6638 7.85912 9.12068 8.5184 7.79486 7.77273 7.64955 7.50234 7.35829 7.1642 12.0791 10.2336 8.0959 7.11255
threshold=0.0068831895734155196 0.006024255185263133 0.019369500847107993 0.0005138940040120512 0.00053342058140898069 0.70445643631652277 0.00057196667926121198 0.66399711419454399 0.66109761160834013 0.58831294672434697 0.65061326704320854 0.62827573222629607 0.41012567000394418 0.18484110454134245 0.04549436390584425 0.58624842839788849 0.62825297109165079 0.025970491752072038 0.55051746523511502 0.64020851638834508 0.0047016735701316025 0.00097956077408132419 0.14899848877999497 0.057679719135971232 0.00047461064416709481 0.2740961874422661 0.62828165326544738 0.32347262965900941 0.70457814021037535 0.66287070041187757
decision_type=2 2 2 2 2 2 2 2 2 2 2 2 2 2 2 2 2 2 2 2 2 2 2 2 2 2 2 2 2 2
left_child=5 2 3 7 8 -1 -5 29 11 -3 17 12 13 -4 24 16 -16 -6 -19 -20 -8 23 -17 -21 -14 28 -27 -28 -13 -2
right_child=1 9 4 6 10 -7 20 -9 -10 -11 -12 25 14 -15 15 22 -18 18 19 21 -22 -23 -24 -25 -26 26 27 -29 -30 -31
leaf_value=0.025789793116211969 0.0049824589114720519 0.0084866620629289683 0.020064329657549576 -0.040523782453618241 -0.019121445058701274 -0.04470773766075925 -0.022429622720199115 -0.03200088977826436 -8.0856509218938161e-05 0.00070978841065865968 -0.0077733670946738519 0.047153724610040561 -0.013702174836346226 0.0018102549664109635 0.013334351483961629 -0.021266992802171918 -0.0201282540331452 -0.0034312335541868857 0.044938004147716953 0.0088732440009031428 0.027914732747306322 -0.02725915442595523 0.035983536750328816 0.055475991065674558 0.016237795103467775 0.014237717545015134 -0.037978823336512209 0.00093277305925142193 0.013423898020471052 0.055557107417319285
leaf_weight=4.8022185117006293 106.69702345132828 1489.7948559522629 171.99912175536156 125.57643178105354 36.080752447247505 109.59708517789841 145.6625794172287 16.921755209565163 922.63441075384617 552.91720186173916 765.46998426318169 18.64356341958046 178.74995419383049 296.93995928764343 49.635182395577431 5.4637224674224845 61.979191839694977 142.39132845401764 19.098087593913078 97.908498227596283 6.8514023572206488 11.854349076747893 43.779175758361816 8.9296159893274289 21.585973367094994 95.1862713098526 24.895263388752937 45.088021993637085 371.17505918443203 6.6536356061696997
leaf_count=20 431 5978 690 548 148 487 617 70 3723 2229 3103 75 719 1192 200 22 249 575 77 395 28 48 176 36 87 382 100 181 1490 27
internal_value=0.000744305 0.00157971 -0.0010048 -0.019021 0.00116337 -0.0413339 -0.0293803 0.00295795 0.00396198 0.00639524 -0.00478219 0.00667107 0.0033937 0.0085872 -0.00328511 0.00529093 -0.00503909 0.00238042 0.00529641 0.0144553 -0.019838 0.00900722 0.0288369 0.0134785 -0.0102874 0.0115134 0.00258165 -0.0128971 0.0152176 0.00862968
internal_weight=5954.96 5840.56 3797.85 408.363 3389.49 114.399 278.09 130.272 2307.75 2042.71 1081.73 1385.12 830.132 468.939 361.193 160.857 111.614 316.263 280.182 137.791 152.514 118.692 49.2429 106.838 200.336 554.988 165.17 69.9833 389.819 113.351
internal_count=24103 23596 15389 1721 13668 507 1193 528 9286 8207 4382 5563 3335 1882 1453 647 449 1279 1131 556 645 479 198 431 806 2228 663 281 1565 458
is_linear=0
shrinkage=0.05


Tree=11
num_leaves=31
num_cat=0
split_feature=16 15 17 14 2 15 4 22 4 21 2 7 2 2 16 22 6 8 16 15 21 7 21 21 18 6 7 9 10 4
split_gain=137.595 31.0969 19.3868 11.956 11.3986 21.7943 11.8936 10.4276 12.4268 12.0473 8.69983 8.42349 8.08213 12.9375 8.29418 8.05207 11.0337 7.90895 7.23409 6.90495 6.71366 10.9749 6.70692 6.31007 10.1916 9.96604 6.28025 6.98479 6.87529 6.75422
threshold=0.0001440875092220379 0.022885512280769484 0.66364065306838094 0.063401826484018459 0.0070181161859250241 0.010509963329551295 1.393170758800725e-05 0.43175655022720194 0.00025078103348552598 0.5950972117054959 0.0046433613784412952 0.591416949030943 0.0049858105647445899 0.0042943054554247526 0.12742012878234008 0.50006960522466226 0.62834112854541313 0.70424532975656484 0.064332841890607104 0.032761391930452924 0.58934471804056754 0.59139084081372084 0.57630520205867386 0.59185148836129164 0.62401921847066266 0.62910999913130294 0.59095541241833638 0.00020526343651369985 0.00024480349755508349 1.7005332654541001e-07
decision_type=2 2 2 2 2 2 2 2 2 2 2 2 2 2 2 2 2 2 2 2 2 2 2 2 2 2 2 2 2 2
left_child=1 10 4 7 5 22 12 8 23 15 -1 -11 13 14 26 -9 20 -3 -13 -15 21 -17 -2 -4 25 -25 -7 -28 -29 -30
right_child=2 17 3 -5 -6 6 -8 9 -10 11 -12 18 -14 19 -16 16 -18 -19 -20 -21 -22 -23 -24 24 -26 -27 27 28 29 -31
leaf_value=-0.040170516960726432 -0.041853168786929455 0.038476274830959049 -0.012512786422459177 0.0082095850450722273 0.0086263690625482756 0.020098656975840748 0.00637272595119688 0.011708231085678419 0.0016871816435208302 0.039439865262512051 -0.00059748649796855348 -0.0096993713019924033 0.0043782094242345226 -0.025611172841714182 -0.030160750090522701 -0.035839486660072785 0.010949808096060009 -0.009577678043107489 0.025674500073312276 -0.0063917954653176685 -0.048523664344066311 0.011281582928175353 0.013409543420370006 0.0012418021113267856 -0.014586729131456536 0.043310894394334457 0.026276665698284286 -0.030719731404305908 -0.019218006976095381 0.0020190945719237448
leaf_weight=249.38913401961327 34.031683728098869 8.2864059507846815 529.32700942456722 242.40061448514462 1196.6365519016981 41.682284742593765 1471.2217778265476 58.061924800276756 361.38847276568413 34.003628432750702 16.097158208489418 28.281910300254822 544.47720934450626 81.88428096473217 20.201628103852272 23.405652061104774 33.898525148630142 94.240723520517349 26.584077745676041 120.18890683352947 18.716304659843445 23.189727976918221 5.2583840936422339 111.27155216038227 96.332404747605324 15.378379032015799 23.092803180217743 18.089725390076637 40.467783957719803 384.15710234642029
leaf_count=1122 147 34 2143 976 4798 168 5903 235 1458 137 68 114 2191 335 83 95 137 390 107 486 76 94 22 450 389 62 93 73 166 1551
internal_value=0.000708422 -0.0288563 0.00266631 -0.00196623 0.00453689 0.00276816 0.00331105 -0.00380321 -0.00587194 0.00544173 -0.0378762 0.0200816 -0.000206531 -0.00366273 0.000417611 -0.0027475 -0.0114895 -0.00511826 0.00714552 -0.0143908 -0.0235026 -0.0121186 -0.0336873 -0.00953373 -0.00232599 0.00684514 0.00174093 5.11507e-06 -0.00136505 0
internal_weight=5951.64 368.013 5583.63 1602.24 3981.39 2784.75 2745.46 1359.84 1113.7 246.142 265.486 88.8696 1274.24 729.765 527.691 157.272 99.2102 102.527 54.866 202.073 65.3117 46.5954 39.2901 752.309 222.982 126.65 507.49 465.807 442.715 424.625
internal_count=24103 1614 22489 6473 16016 11218 11049 5497 4502 995 1190 358 5146 2955 2134 637 402 424 221 821 265 189 169 3044 901 512 2051 1883 1790 1717
is_linear=0
shrinkage=0.05


Tree=12
num_leaves=31
num_cat=0
split_feature=16 14 17 8 14 2 1 9 2 14 22 21 9 3 14 22 17 7 14 22 6 12 21 16 14 5 16 14 7 1
split_gain=125.359 19.1462 17.466 10.7881 10.7866 10.7588 10.5641 14.9291 15.3537 10.242 9.42246 10.8918 10.6909 8.5418 8.21435 8.85394 10.6378 7.57846 7.30063 7.29377 10.0431 7.11651 8.69958 8.60735 7.11494 7.2093 6.55927 6.52111 6.37605 6.25734
threshold=0.0001440875092220379 3.9030223961730913e-05 0.66364065306838094 0.70424532975656484 0.063401826484018459 0.00052020710798248695 0.0069168698213907089 0.00049619940329727883 0.0049858105647445899 1.7730484888019139e-05 0.43175655022720194 0.5950972117054959 0.00029614946543718353 0.0042503518674866141 0.0004327027614698887 0.55842783443887722 0.66009593660706933 0.591416949030943 0.0004240052185257675 0.50006960522466226 0.62834112854541313 0.032388946893089528 0.56616542883891718 0.047136187094354014 4.9575994781474228e-05 0.37147139467602192 0.062060061206487917 5.2511415525114187e-05 0.59135639701893139 0.00550322731927651
decision_type=2 2 2 2 2 2 2 2 2 2 2 2 2 2 2 2 2 2 2 2 2 2 2 2 2 2 2 2 2 2
left_child=1 5 6 -3 10 -1 7 -2 9 -9 12 19 -4 14 21 16 -16 -13 -15 -12 -21 22 23 -11 -23 -26 -19 28 -5 -28
right_child=2 3 4 27 -6 -7 -8 8 -10 13 11 17 -14 18 15 -17 -18 26 -20 20 -22 24 -24 -25 25 -27 29 -29 -30 -31
leaf_value=-0.0088198967275639403 0.0055818928532953118 0.025285101201402767 0.00044088205063281557 -0.031514733184844525 0.0077957703975656059 -0.042068327819556002 0.008225461019085235 -0.04056084623312161 0.0040029580789160127 0.001271829936263888 0.011119928643011378 0.037417954778640836 -0.0095301408736449197 -0.023723328278413724 0.031539910709001313 -0.0295595212817867 -0.038563140351961692 -0.0095396541490203809 -0.0049992966501136828 -0.022451000506185984 0.010407310916832281 -0.037353359249095851 -0.0059707379613764995 0.045210768397506623 0.011505374913830926 -0.021859004209395537 0.041762583586673327 -0.022231096591351862 0.031150492471348563 -0.0051161162238122192
leaf_weight=31.047894448041916 1670.758124768734 14.585523203015326 438.85256499052048 4.8311725705862072 242.55335173010826 182.00822478532791 1205.3046510517597 22.12397837638855 549.328967243433 29.863559648394585 58.128164529800415 34.100362837314606 674.11664347350597 101.14247636497021 45.96240758895874 7.9510867297649375 4.9547871798276892 27.761410430073738 116.17958538234234 65.119890451431274 33.933460861444473 27.037914454936981 120.68605411052704 18.111136928200722 28.548306435346603 33.61957523226738 17.17769339680672 120.78275567293167 11.27388224005699 9.9518716633319837
leaf_count=131 6709 61 1771 20 976 839 4831 97 2210 121 235 137 2731 417 185 32 20 112 470 265 137 111 489 73 115 136 69 516 47 40
internal_value=0.000672537 -0.0276892 0.00253337 -0.0137054 -0.00186412 -0.0374038 0.00430868 0.00259687 -0.00189276 -0.00775746 -0.00361087 0.00517344 -0.00557918 -0.00627854 -0.000945454 0.0156504 0.0236252 0.019081 -0.0138968 -0.00261341 -0.0109531 -0.00487652 0.00104165 0.0189543 -0.0162306 -0.00620228 0.00677645 -0.0181945 0.0101473 0.0241069
internal_weight=5947.8 364.529 5583.27 151.473 1601.7 213.056 3981.57 2776.27 1105.51 556.181 1359.14 246.173 1112.97 534.057 316.735 58.8683 50.9172 88.9913 217.322 157.182 99.0534 257.867 168.661 47.9747 89.2058 62.1679 54.891 136.888 16.1051 27.1296
internal_count=24103 1614 22489 644 6473 970 16016 11185 4476 2266 5497 995 4502 2169 1282 237 205 358 887 637 402 1045 683 194 362 251 221 583 67 109
is_linear=0
shrinkage=0.05


Tree=13
num_leaves=31
num_cat=0
split_feature=4 15 17 4 14 14 7 18 18 15 1 7 21 4 14 22 3 4 9 17 18 17 14 15 22 4 9 15 17 22
split_gain=109.183 26.0626 15.7504 10.7771 22.363 10.1964 10.9512 9.19114 12.1344 10.3581 9.06045 7.72915 7.58884 7.54091 7.49107 7.45839 7.60764 9.1188 7.22814 10.728 8.18809 9.33317 11.6857 8.18127 7.83554 6.91851 6.88107 6.78574 7.44995 14.8511
threshold=1.0000000180025095e-35 0.022885512280769484 0.65912716021872886 1.7005332654541001e-07 0.00018395303326810216 0.063401826484018459 0.59104523046188084 0.60447207861914631 0.59165388981094169 0.047207800550987312 0.0045675895129363882 0.59137649843878326 0.57557703640980806 0.0048127421086291752 0.00092628832354859812 0.36074034235124347 3.6119825876545352e-05 0.0023756238631915173 0.006671333719356516 0.65290806483747166 0.59018186866592071 0.64613857410016584 6.0556642748423442e-05 0.046900323592432944 0.37064611662416286 0.0055060067373295133 0.62038723212501312 0.067820169683821943 0.67430879178176195 0.39587927907680925
decision_type=2 2 2 2 2 2 2 2 2 2 2 2 2 2 2 2 2 2 2 2 2 2 2 2 2 2 2 2 2 2
left_child=1 10 3 4 -2 6 -4 8 -8 11 -1 -9 -10 -14 27 -5 -17 18 19 20 21 22 -18 -23 -20 -19 -26 28 -11 -30
right_child=2 -3 5 15 -6 -7 7 9 12 14 -12 -13 13 -15 -16 16 17 25 24 -21 -22 23 -24 -25 26 -27 -28 -29 29 -31
leaf_value=-0.037119447058063283 -0.037096627083857185 -0.0030970495898643789 -0.014478803189139003 0.0072364775610666027 0.0012456801417327903 0.0076460208000373913 -0.015359843672157095 -0.037285216778117934 0.011974456721629084 0.010585769068466418 0.0065778697241883266 -0.0053388741016582057 0.0031151539532836741 -0.023199878209289707 -0.012372942007002976 -0.018981558901324802 0.020068640316227127 0.039784053030444196 -0.035027877323530736 -0.02302369332091557 0.023840780212542486 -0.037829199812776847 -0.0093991770370156474 0.0098172540946817859 0.044489522937315812 0.0018327558326812203 0.0078095722682926597 0.019340337174739396 -0.023590772969145961 0.015765518996276998
leaf_weight=239.86784055829048 42.050118535757065 88.053060680627823 155.30990573763847 2105.4292007982731 317.51788979768753 333.44215385615826 76.286569491028786 18.660679116845131 275.47391229867935 122.92248755693436 11.173723667860029 950.70391525328159 434.98077943921089 27.921616092324257 57.435497984290123 44.665257424116135 55.895605981349945 25.957829922437668 8.2383989095687848 61.711714193224907 31.009911596775055 29.769447654485703 80.464959040284157 11.196567535400389 13.984721854329107 24.465939611196518 120.35774397850037 81.723637014627457 58.840361371636391 38.394999966025352
leaf_count=1109 179 366 626 8457 1281 1340 308 76 1109 495 48 3846 1756 113 232 179 225 104 33 249 125 120 324 45 56 98 482 329 238 155
internal_value=0.000637401 -0.0268649 0.00231026 0.0048045 -0.00325942 -0.000498016 -0.00169307 -0.000748618 0.00341524 -0.00332108 -0.0350569 -0.00601741 0.00540698 0.00142739 0.0038802 0.00592448 0.00043115 0.00239441 -1.94213e-05 -0.00488418 0.000453855 -0.00360649 0.00255615 -0.0242874 0.00899015 0.0222497 0.0121131 0.00708568 0.00235676 -0.0077935
internal_weight=5943.91 339.095 5604.81 2972.72 359.568 2632.1 2298.65 2143.34 814.663 1328.68 251.042 969.365 738.376 462.902 359.317 2613.15 507.718 463.053 412.629 270.048 208.336 177.327 136.361 40.966 142.581 50.4238 134.342 301.881 220.158 97.2354
internal_count=24103 1523 22580 11957 1460 10623 9283 8657 3286 5371 1157 3922 2978 1869 1449 10497 2040 1861 1659 1088 839 714 549 165 571 202 538 1217 888 393
is_linear=0
shrinkage=0.05


Tree=14
num_leaves=31
num_cat=0
split_feature=16 15 17 1 11 15 14 15 1 16 12 17 8 6 1 18 17 12 18 18 8 18 17 22 22 11 8 21 6 22
split_gain=104.409 25.4776 14.3637 9.29241 17.8738 12.1407 8.80671 8.24543 7.57332 7.40119 7.22884 12.1063 8.21096 7.05751 6.96292 6.84945 7.73527 7.54521 6.73467 17.4479 6.67617 6.4582 11.8981 21.3295 9.48236 8.90359 7.30768 6.37026 6.29842 6.26219
threshold=0.0001440875092220379 0.022549348116680728 0.66364065306838094 0.005794977521720048 0.00052122149007176072 0.026490710548494164 0.063401826484018459 0.047207800550987312 0.0045675895129363882 0.047516041711721156 0.025612777820772346 0.65229791012530047 0.70436013098557282 0.62828430458790319 0.00051004265129677134 0.60331244872869993 0.66462108744083592 0.022486925048529532 0.60700206995865325 0.60417741411645676 0.70424532975656484 0.61147137891387737 0.67613877522307908 0.3459799101322823 0.061104747971752159 0.0048941429657565752 0.70464471631556502 0.59645849297166875 0.62861883253924955 0.0798971356555883
decision_type=2 2 2 2 2 2 2 2 2 2 2 2 2 2 2 2 2 2 2 2 2 2 2 2 2 2 2 2 2 2
left_child=1 8 3 4 -2 14 7 9 -1 13 -7 -12 28 -4 -6 17 -17 -11 19 -16 -3 -9 -23 24 -24 26 -25 -26 -13 -8
right_child=2 20 6 -5 5 10 29 21 -10 15 11 12 -14 -15 18 16 -18 -19 -20 -21 -22 22 23 25 27 -27 -28 -29 -30 -31
leaf_value=-0.036328097659490681 0.0048587987453776573 0.035445770614109591 -0.025839605125465005 0.0069681984593960682 -0.042041578678192186 0.01067118518897614 0.043448833126684107 -0.0046354077980811882 0 -0.0064343740667778902 0.002629216446258686 -0.057374485364671685 -0.0093560130587886561 -0.0077412103004886367 -0.011956022664138572 -0.026393380784051509 -0.0010381108140879068 0.030586929857823564 -0.041933576700204575 0.050002049846675695 -0.0084966427612836164 0.021356692398272831 0.038799898355013893 0.0046958745556512299 -0.055879559695673015 -0.013787723246277786 0.040640825511325016 -0.01564280428681716 0 0.0050946804746771672
leaf_weight=237.30206763744354 1689.3674712628126 8.3581565171480161 62.805131494998932 1525.5811748057604 19.705899834632874 118.47336003184319 10.446860283613203 194.80312268435955 15.838264673948286 21.423065662384033 278.82551719248295 16.949118152260784 113.17803883552551 438.2653461843729 186.58498474955559 32.599354103207588 315.2587812691927 32.126998245716095 15.609815075993536 10.994514644145964 96.256216883659363 94.911221861839294 5.6847282350063315 25.777609184384346 11.773388102650641 15.864755466580389 36.836801126599312 69.742121040821075 6.6689416021108618 232.37201173603535
leaf_count=1112 6782 34 255 6114 84 477 42 788 67 87 1125 69 458 1775 771 132 1279 130 64 45 401 382 23 104 48 64 148 282 27 934
internal_value=0.000604287 -0.0255369 0.00228826 0.0038979 0.00197879 -0.00433022 -0.00170028 -0.00328187 -0.0341026 -0.00605469 -0.000122467 -0.00327744 -0.0154299 -0.0101064 -0.0138311 -0.000922291 -0.00355478 0.0154716 -0.0109227 -0.00814797 -0.00444678 0.00215964 0.00733311 -0.000630391 -0.0176985 0.0180039 0.0265421 -0.022364 -0.041958 0.00701877
internal_weight=5940.38 357.755 5582.63 3981.94 2456.36 766.99 1600.69 1357.87 253.14 902.479 534.095 415.622 136.796 501.07 232.895 401.408 347.858 53.5501 213.189 197.579 104.614 455.394 260.591 165.679 87.2002 78.4792 62.6144 81.5155 23.6181 242.819
internal_count=24103 1614 22489 16016 9902 3120 6473 5497 1179 3658 2156 1679 554 2030 964 1628 1411 217 880 816 435 1839 1051 669 353 316 252 330 96 976
is_linear=0
shrinkage=0.05


Tree=15
num_leaves=31
num_cat=0
split_feature=16 14 17 21 17 17 10 12 9 22 16 2 10 1 10 17 17 21 16 21 16 14 16 17 17 12 8 17 22 7
split_gain=92.4419 17.4538 16.1228 14.4639 11.1695 9.76929 9.59807 9.15919 11.126 8.68584 10.6772 9.45497 8.14292 8.04005 7.74916 7.16867 8.18766 6.96818 7.52554 10.9522 7.63684 9.19883 7.2476 7.34434 13.8632 7.0862 6.95791 10.3349 6.93534 6.82229
threshold=0.0001440875092220379 0.00028593172428788901 0.65507450144759816 0.56726552736286906 0.65559437719650393 0.66386849680343241 0.00049874500810447302 0.041393997310977863 6.5065198112074878e-06 0.5288878625041431 0.013194166761512539 0.73117041497427182 0.00050962408373002278 0.00049505498503657963 0.00052309137168707125 0.6369961107105403 0.62118920920002052 0.58820912543587678 0.20442692332309528 0.5950972117054959 0.0061734116334566805 3.9030223961730913e-05 0.0058754866742151803 0.66952603167533808 0.66603200394365059 0.023510484290520901 0.70460691586221091 0.66474830651611849 0.10065965003249631 0.59138980602185331
decision_type=2 2 2 2 2 2 2 2 2 2 2 2 2 2 2 2 2 2 2 2 2 2 2 2 2 2 2 2 2 2
left_child=1 6 9 -4 -3 7 -1 8 -5 10 11 12 -2 -9 -8 16 -14 22 20 -20 21 -19 -7 24 25 -24 -27 -28 -12 -29
right_child=2 4 3 5 -6 17 14 13 -10 -11 28 -13 15 -15 -16 -17 -18 18 19 -21 -22 -23 23 -25 -26 26 27 29 -30 -31
leaf_value=-0.0064364468273428793 0.0047486605268910569 0.035621059653726278 -0.013170053222599652 0.052159683799869197 -0.012635394971349976 -0.022107476914812119 -0.045117347238725854 0.025035825311500982 0.0015379993773666169 -0.0052684958919674112 0.016276817560095701 0.047226096082778245 -0.024378825367002796 0.0027848743106789284 -0.025824704882672963 -0.015886214243347945 0.031053179449617659 -0.021660449137787179 -0.0096095097279762978 0.048087684835040029 -0.0014158025030093023 0.028171327506386092 -0.018598573553304115 -0.013316409298655685 0.0058554995407932974 -0.023057402724681045 0.018333074888925324 -0.025728422139243264 0.006664113844718449 0.0028417060761783035
leaf_weight=42.742913708090782 155.16008454561234 15.532751590013502 203.00223894417286 9.9667976945638639 42.527530118823051 60.412342935800552 91.524409487843513 84.150744214653969 1610.5283124744892 172.99536736309528 225.25627690553665 8.4914444983005506 8.9151456803083438 83.5234315097332 164.61896207928658 135.83006425201893 17.996579930186272 10.313593670725821 12.490287080407144 18.883199319243431 648.63842849433422 43.708549410104752 120.08228281140327 168.69879060983658 309.02784352004528 32.671248510479927 57.702255129814148 34.39006133377552 1299.6102806925774 47.373971328139305
leaf_count=183 624 64 818 40 177 246 440 338 6479 696 904 34 36 337 762 554 73 42 51 76 2620 177 487 685 1250 132 233 139 5219 191
internal_value=0.000198479 -0.0244286 0.00178247 -0.000239012 0.000235803 0.000540219 -0.029288 0.00307001 0.00189674 0.00534388 0.00635138 -0.00178908 -0.0033207 0.0141824 -0.0329642 -0.0111488 0.0115788 -0.00233558 0.00118523 0.024758 6.34993e-05 0.0179826 -0.00547572 -0.00411133 -0.00146922 -0.00929406 -0.00258895 0.00215801 0.00811024 -0.00903854
internal_weight=5936.77 356.947 5579.82 3555.56 58.0603 3352.56 298.886 1788.17 1620.5 2024.26 1851.26 326.393 317.902 167.674 256.143 162.742 26.9117 1564.39 734.034 31.3735 702.661 54.0221 830.359 769.946 601.248 292.22 172.138 139.466 1524.87 81.764
internal_count=24107 1626 22481 14341 241 13523 1385 7194 6519 8140 7444 1321 1287 675 1202 663 109 6329 2966 127 2839 219 3363 3117 2432 1182 695 563 6123 330
is_linear=0
shrinkage=0.05


Tree=16
num_leaves=31
num_cat=0
split_feature=4 14 17 21 10 18 17 9 17 4 21 11 17 22 21 10 16 6 4 14 2 21 16 22 21 4 18 17 2 18
split_gain=85.5842 14.8722 14.2214 13.528 10.062 9.16597 8.50683 8.02342 7.91977 7.68456 13.1256 11.3833 8.92836 8.03259 7.56148 6.78327 6.75827 6.40633 6.20836 10.7304 7.98688 7.15418 9.05035 8.00442 6.10633 6.61993 5.88643 5.84097 5.76924 5.70219
threshold=1.0605808437285639e-08 0.0002467927810393562 0.65507450144759816 0.56726552736286906 0.00049874500810447302 0.5792951456322647 0.66386849680343241 6.5065198112074878e-06 0.6573344143960228 2.9891904750912823e-07 0.57197354886072505 0.0055137236339340518 0.6369961107105403 0.5288878625041431 0.57147689923072009 0.00052309137168707125 0.0018575189544773509 0.62795415477988181 3.7364880938641024e-06 4.4901065449010831e-05 0.00044624836088697363 0.59282107620388158 0.0064977615481302126 0.45727208417605231 0.58225656598396702 5.6890380209711789e-08 0.55933560730167542 0.67868282520115664 0.0055741771731520739 0.61427341358248577
decision_type=2 2 2 2 2 2 2 2 2 2 2 2 2 2 2 2 2 2 2 2 2 2 2 2 2 2 2 2 2 2
left_child=1 4 9 5 -1 -4 7 -5 -3 11 13 12 -2 -11 17 -6 -14 26 19 20 -8 27 -23 29 -9 -26 -13 -21 -28 -24
right_child=2 8 3 6 15 -7 18 24 -10 10 -12 14 16 -15 -16 -17 -18 -19 -20 21 -22 22 23 -25 25 -27 28 -29 -30 -31
leaf_value=-0.0033331214443904182 0.019090818155381047 0.010222942664428691 0.035674054184772798 0.03988983435364065 -0.043941707000945796 -0.014972578814225904 -0.0062608076591679912 0.0018964980712263988 -0.01680831281800858 0.0065575307255501232 0.026275144271688984 0.043557927449067592 0.0005751998781271439 -0.0055058969850700374 -0.032638062828563262 -0.025274958109558317 -0.029595337977238807 0.017819678172511629 0.0004396939639275052 -0.0065586774588323408 -0.042905707563533457 0.033837796759037822 0.013417016392657292 0.021159125850919128 -0.03656899691080006 0.016964391467138049 0.036559249701564898 -0.054703138913777538 -0.0075737525873211409 -0.012936703530250466
leaf_weight=36.19366392493248 14.455609127879141 40.761521056294441 8.1591459661722165 13.724027395248411 89.126356288790703 194.36635206639767 31.396984338760376 1649.776479139924 72.92712339758873 1485.652329608798 79.165849789977074 5.9736209511756888 23.373605519533157 149.08777642250061 11.441831529140471 149.20311713218689 66.22240386903286 81.484074771404266 948.99553652107716 370.98106916248798 31.681261867284775 22.271376833319664 25.470816880464554 33.564221292734146 4.9091314971446982 105.41701073944569 6.9336354732513419 5.5993164479732505 92.086062803864479 82.812274888157845
leaf_count=156 59 169 33 55 437 784 128 6636 303 5962 318 24 97 599 46 701 276 327 3834 1503 133 90 103 135 20 424 28 23 369 335
internal_value=0.000187915 -0.0224719 0.00178263 -0.000124497 -0.028784 -0.0126441 0.000633761 0.00300437 -0.00689401 0.00513216 0.00643112 -0.00215478 -0.0155199 0.00543937 0.00478866 -0.0325145 -0.0215291 0.00738027 -0.00205843 -0.00602047 -0.0254383 -0.00366624 0.00493406 1.57759e-05 0.00268008 0.0140507 -0.000577457 -0.00748372 -0.00389886 -0.00644286
internal_weight=5933.21 388.212 5545 3529.13 274.523 202.525 3326.6 1773.83 113.689 2015.88 1713.91 301.971 104.052 1634.74 197.919 238.329 89.596 186.477 1552.77 603.777 63.0782 540.699 164.119 141.847 1760.1 110.326 104.993 376.58 99.0197 108.283
internal_count=24107 1766 22341 14236 1294 817 13419 7135 472 8105 6879 1226 432 6561 794 1138 373 748 6284 2450 261 2189 663 573 7080 444 421 1526 397 438
is_linear=0
shrinkage=0.05


Tree=17
num_leaves=31
num_cat=0
split_feature=4 14 17 15 2 17 17 16 15 6 5 5 0 17 0 15 5 4 14 3 4 18 5 17 8 6 16 15 15 16
split_gain=78.0127 13.8002 12.8481 14.3154 9.28321 7.18509 6.85032 9.9414 9.08158 10.0005 8.37566 8.11405 6.89889 6.85065 7.02268 6.65199 6.27801 6.18651 13.1691 11.5206 8.81214 6.66869 9.36952 7.21895 6.3053 6.02097 5.93213 6.16622 14.1668 11.4662
threshold=1.0605808437285639e-08 0.0002467927810393562 0.65507450144759816 0.011719700307735045 0.00052020710798248695 0.6573344143960228 0.6407136492292268 0.013194166761512539 0.045775791820394325 0.62795415477988181 0.35802740588301413 0.49022688132230469 0.0049790145373344473 0.63963359256375274 4.8487941683803423e-05 0.02386799066893917 0.44842796595230533 6.973962603852521e-05 4.2509241139378081e-05 0.00050359653949685228 1.6122373359883485e-05 0.60301423342583915 0.51635820771430485 0.65548761109794274 0.70457814021037535 0.62814942155778042 0.091784090321074804 0.03593066935315091 0.044704810235001939 0.046052745981127678
decision_type=2 2 2 2 2 2 2 2 2 2 2 2 2 2 2 2 2 2 2 2 2 2 2 2 2 2 2 2 2 2
left_child=1 4 3 -2 -1 -3 13 8 9 -8 -9 26 -13 15 -15 -5 25 18 19 21 -21 22 23 -4 -19 -11 27 29 -29 -12
right_child=2 5 17 6 -6 -7 7 10 -10 16 11 12 -14 14 -16 -17 -18 24 -20 20 -22 -23 -24 -25 -26 -27 -28 28 -30 -31
leaf_value=-0.0018179946455530501 -0.028000026489755931 0.0097073780683163136 0.029143408677091351 -0.038562601110718103 -0.031109536948968466 -0.016028638231860376 -0.034035881061971848 0.018449283936920646 0.011477218847769949 0.019802463087666637 0.016502083799325312 0.052693779491763321 0.00096901472483669265 0.024963666852723748 -0.027126951903123683 0.0031119101282728922 0.014565543748176001 0.052419035131056974 0 -0.032929502953748628 0.0093150607102149303 -0.013320268588419212 0.015091878863263082 -0.016746066048121701 0.0027341093689185383 -0.013950739309876404 0.015977489730303589 -0.0099929688143951326 0.0077692195475778675 -0.00082406580443462765
leaf_weight=32.698542520403862 31.356462404131889 40.831335291266441 8.6640450656414014 8.718366324901579 238.69232724606991 72.705181613564491 30.354982435703278 199.5297684520483 84.393300458788872 14.021033734083174 229.83274140954018 16.932072922587398 11.701944306492804 6.4941057562828055 36.85896024107933 452.2888755351305 37.286843150854111 5.4906762987375251 2109.6341225504875 73.675407469272614 13.290738567709921 128.83982166647911 71.010473430156708 61.67477223277092 1056.3380858302116 89.667341887950897 138.48200988769531 182.44428327679634 287.42043308913708 158.19305445253849
leaf_count=140 136 169 35 36 1154 303 123 800 340 57 922 68 47 26 148 1815 151 22 8504 311 54 523 287 249 4251 363 556 731 1152 634
internal_value=0.000177811 -0.0215541 0.00169465 0.00487817 -0.0276918 -0.00655093 0.00542407 0.00713868 -0.00174067 -0.00842539 0.00901328 0.00713589 0.0331449 0.000338196 -0.0183734 0.00218791 -0.00253392 -0.000117958 -0.00149829 -0.010363 -0.0261567 -0.0051095 0.00223999 -0.0104139 0.00306363 -0.00900217 0.00633089 0.00472783 0.000812651 0.00939021
internal_weight=5929.52 384.927 5544.59 2015.98 271.391 113.537 1984.62 1480.26 255.724 171.33 1224.54 1025.01 28.634 504.36 43.3531 461.007 140.975 3528.62 2466.79 357.155 86.9661 270.189 141.349 70.3388 1061.83 103.688 996.373 857.891 469.865 388.026
internal_count=24107 1766 22341 8105 1294 472 7969 5944 1034 694 4910 4110 115 2025 174 1851 571 14236 9963 1459 365 1094 571 284 4273 420 3995 3439 1883 1556
is_linear=0
shrinkage=0.05


Tree=18
num_leaves=31
num_cat=0
split_feature=15 11 9 14 15 9 0 15 2 12 11 7 12 9 14 14 1 2 11 10 6 21 2 15 8 8 12 7 6 15
split_gain=46.8764 34.5532 9.1824 43.9213 12.7436 9.00025 7.61244 13.7672 8.73901 7.01943 8.17332 7.54877 6.89148 6.28293 6.83921 6.145 6.05176 6.17957 5.959 9.26708 10.0008 5.70856 5.49599 5.59612 8.3756 6.61507 5.26997 4.93767 7.56344 4.78556
threshold=0.010509963329551295 0.64470557578513321 0.00049487507838784589 0.00018395303326810216 0.019107085307915894 0.00057385703853707923 0.004608534186409022 0.0452222328740935 0.0045985823851626218 0.020655207894882191 0.0038957474637165948 0.59155278927786881 0.095075811920106418 0.00039926748733250288 6.0556642748423442e-05 0.016870515329419421 0.0045355770218952025 0.0044400207040446969 0.00054852831501350471 0.00052309137168707125 0.62826386532380829 0.5726147134782571 0.0047428294700685115 0.01357351603575606 0.70474414127696483 0.71219996848367761 0.049977674324743163 0.59180716129945177 0.62864896612258081 0.031785824952845716
decision_type=2 2 2 2 2 2 2 2 2 2 2 2 2 2 2 2 2 2 2 2 2 2 2 2 2 2 2 2 2 2
left_child=1 -1 13 4 -4 12 7 9 16 11 -11 -5 18 -2 29 -3 17 -9 19 20 -6 -8 -23 24 -24 -26 -19 28 -12 -15
right_child=2 15 3 6 5 -7 21 8 -10 10 27 -13 -14 14 -16 -17 -18 26 -20 -21 -22 22 23 -25 25 -27 -28 -29 -30 -31
leaf_value=-0.033725434081081244 0.0026807748818707695 0.0097490517340788809 -0.027628737916430585 0.018937841137091616 0.0096734143831420094 -0.046211838858907901 0.0050831377741314453 0.012511991169544337 -0.046714744094684846 0.017582892801036504 -0.01744896874643628 -0.039171636778992491 -0.048102805096624318 0.010942083604258884 0.024484518183103567 -0.025298264771118396 0.054712023222863726 -0.04637101361515765 -0.014220950680557684 0.015591040450244573 -0.02510735720197051 0.026519116717803805 -0.010580757246611111 -0.0010266034707427406 0.044673860259180791 0.0061819457873803756 0 -0.036159156682336491 0.030350009355759957 -0.0097638970016292667
leaf_weight=170.41966086626053 2205.1087556034327 77.978796154260635 147.10924610495567 28.573202818632126 35.311465740203857 14.63724137842655 1218.3276814520359 109.00605584681034 6.1672179549932471 15.003806978464125 139.99198949337006 5.7418260425329199 8.8052786588668805 95.373388290405273 70.387207850813866 13.641747891902922 6.2069966346025458 7.3838489055633572 100.39551475644112 64.449641197919846 45.264991238713264 18.593191355466843 22.659681022167206 1148.0805334597826 22.363481536507607 25.46660390496254 22.661791086196899 35.853159502148628 7.5363737344741812 37.248879536986351
leaf_count=830 8874 313 665 117 144 61 4890 440 25 61 578 24 36 389 283 55 25 30 411 261 186 76 91 4628 90 103 92 148 31 150
internal_value=0.000169501 -0.0204594 0.00113179 -0.000593196 -0.0157521 -0.00908285 0.00162338 -0.00489075 0.00670982 -0.012543 -0.0161861 0.00767277 -0.00667449 0.00347348 0.0119061 0.004044 0.00945287 0.00687785 -0.00489749 0.00143873 -0.00962699 0.00265418 0.000239838 -0.000162053 0.0133867 0.0252376 -0.0125022 -0.019165 -0.014651 0.00490987
internal_weight=5925.75 262.04 5663.71 3255.59 415.973 268.864 2839.62 384.126 151.426 232.7 198.385 34.315 254.227 2408.12 203.009 91.6205 145.259 139.052 245.422 145.026 80.5765 2455.49 1237.16 1218.57 70.4898 47.8301 30.0456 183.382 147.528 132.622
internal_count=24107 1198 22909 13213 1764 1099 11449 1571 612 959 818 141 1038 9696 822 368 587 562 1002 591 330 9878 4988 4912 284 193 122 757 609 539
is_linear=0
shrinkage=0.05


Tree=19
num_leaves=31
num_cat=0
split_feature=16 14 17 15 12 15 17 10 10 18 12 12 22 6 16 22 12 5 22 22 11 9 14 14 22 17 5 12 9 6
split_gain=64.2957 13.84 11.4522 12.2456 9.73661 10.1903 9.06818 6.8634 7.09071 6.36772 9.90041 5.98825 5.3661 5.37447 7.37235 5.31341 9.08711 6.43058 5.19273 5.08766 4.82549 4.79339 24.8094 8.16036 7.29838 6.23189 9.06944 7.22162 9.3456 7.47344
threshold=0.0001440875092220379 0.00028593172428788901 0.65507450144759816 0.011379813331403152 0.02682459021990859 0.022008780163519894 0.65559437719650393 0.00049874500810447302 0.00052309137168707125 0.60112222728530917 0.059752454430033401 0.022486925048529532 0.47401247115085182 0.62797901501729581 0.021961356240075388 0.074758521822631332 0.018150347404552066 0.28897552784917319 0.083713670610484542 0.33405453307499694 0.00037707456028689075 0.00049619940329727883 6.621004566210034e-05 5.7403783431180395e-05 0.50006960522466226 0.6690902586215608 0.49548370979485823 0.041093752011194355 6.5065198112074878e-06 0.62828676923506344
decision_type=2 2 2 2 2 2 2 2 2 2 2 2 2 2 2 2 2 2 2 2 2 2 2 2 2 2 2 2 2 2
left_child=1 7 3 -2 15 12 -3 11 -9 -7 -11 20 13 -6 -15 16 -5 -17 -19 -10 -1 23 -23 25 -24 26 -4 28 29 -28
right_child=2 6 21 4 5 9 -8 8 19 10 -12 -13 -14 14 -16 17 -18 18 -20 -21 -22 22 24 -25 -26 -27 27 -29 -30 -31
leaf_value=0.056937756366633986 -0.027597309798843634 0.032808178199276242 -0.0081388588531512897 0 0.012137887199984118 0.0028459439997002116 -0.010561317634283328 -0.040498005144736129 -0.026253211810606678 0.0389928900102091 -0.021475199547770212 -0.016704266636192386 -0.060805705159863693 0.0071089830811922857 -0.048964929116319618 0.046982745985885171 0.045309512999086123 -0.017782211512140753 0.0090131652541292576 -0.0031730074397134118 -0.004617206236504183 -0.02074973123927867 -0.0010837938463833777 0.013542437455446614 0.010912549115322094 -0.0053038857196620612 0.062765688979338985 0.015182074029440253 0.0016993393108189281 0
leaf_weight=4.8711691796779615 28.146355226635933 15.661519259214399 162.25457970798016 16.973221227526665 12.664425507187842 1337.2911266088486 42.129830151796341 85.795585736632347 125.17694497108459 26.560525223612785 7.6753972917795172 32.505479648709297 6.5469568520784369 8.3681113123893756 13.32492835819721 10.190328493714331 26.199474811553955 17.233682110905647 513.00568878650665 32.968265056610107 5.2143580317497253 158.59942999482155 1766.832000747323 136.05333721637726 135.49320289492607 324.03120414912701 10.449876338243486 137.42206896841526 715.39674262702465 6.9619804024696341
leaf_count=21 124 64 652 68 52 5368 177 440 605 107 31 139 27 35 55 41 105 69 2058 157 23 658 7123 548 546 1312 42 552 2880 28
internal_value=0.000159061 -0.0207728 0.00145921 0.00446071 0.00493888 0.0026667 0.00112476 -0.0252649 -0.0285186 0.0034222 0.0245022 -0.00582887 -0.0215457 -0.0118494 -0.0268726 0.0103813 0.0273828 0.00892883 0.00806338 -0.021649 0.0253121 -0.000244278 -0.00181293 0.00190472 -0.000210934 0.000709974 0.00262484 0.00466746 0.00264361 0.0378832
internal_weight=5922 344.323 5577.67 2024.18 1996.03 1412.43 57.7913 286.532 243.941 1371.53 34.2359 42.591 40.9044 34.3575 21.693 583.602 43.1727 540.43 530.239 158.145 10.0855 3553.49 2060.92 1492.57 1902.33 1356.52 1032.49 870.231 732.809 17.4119
internal_count=24107 1626 22481 8140 8016 5675 241 1385 1202 5506 138 183 169 142 90 2341 173 2168 2127 762 44 14341 8327 6014 7669 5466 4154 3502 2950 70
is_linear=0
shrinkage=0.05


Tree=20
num_leaves=31
num_cat=0
split_feature=16 15 2 4 15 5 16 22 22 22 12 5 22 5 21 5 8 12 2 22 12 5 15 3 16 12 16 12 8 0
split_gain=62.0495 13.9306 10.4195 26.877 18.9551 9.71614 9.50284 8.81038 8.08087 7.73808 7.60894 7.60068 10.0582 10.2835 7.57959 7.46678 6.85668 6.56164 8.33063 6.5521 8.58765 6.49841 6.48463 9.29996 7.6191 6.35503 7.49765 6.2986 7.79022 6.24676
threshold=0.0001440875092220379 0.017041508093222052 0.0054633308127409316 2.0877868558092129e-06 0.044459581112785855 0.44397323714587639 0.43905502792734935 0.067790466816662134 0.53626036921300024 0.098371891148782503 0.020964100394187602 0.66642173136118987 0.58069851603773259 0.27708217455178907 0.56726552736286906 0.42407238370073147 0.70510440201479108 0.041093752011194355 0.0053745069080406134 0.49295046355446848 0.044231674474330955 0.49548370979485823 0.035207787114057219 0.00055611584889207223 0.0038717141250269762 0.12191193081013754 0.015997779593041179 0.019256674527783357 0.70462445507717464 0.00024750866958765135
decision_type=2 2 2 2 2 2 2 2 2 2 2 2 2 2 2 2 2 2 2 2 2 2 2 2 2 2 2 2 2 2
left_child=1 21 3 4 16 9 11 -6 10 -4 -3 12 13 25 -7 -11 -2 22 -19 -13 -21 -1 23 24 -15 26 -5 -24 -29 -30
right_child=2 8 5 6 7 14 -8 -9 -10 15 -12 19 -14 17 -16 -17 -18 18 -20 20 -22 -23 27 -25 -26 -27 -28 28 29 -31
leaf_value=-0.017341145035267073 -0.014887856490672882 0.022576217599511166 0.023822675165837699 -0.015974828138901859 0.038263530733936062 -0.0079973667974835901 -0.025406087203454067 0.0004150400263242223 0.032773943698127937 0.0045008760200027703 -0.015587899541855885 -0.0096293816867481213 -0.011541813983827327 -0.029813963128279615 0.0034946577881980754 0.020096909469330584 0.01808963749539777 0.0083865488134914883 -0.049325942267547176 -0.015901466268146848 0.026806198852705104 -0.037160661770969827 -0.015667541986358457 -0.028017849784672796 0.0063577925066494014 -0.0027312918475662314 0.035690970935336311 0.0023792283090538365 -0.031634926089187922 -0.0033885612076072721
leaf_weight=80.373096704483032 491.72248773276806 13.161629751324652 85.408800393342972 6.7315905392169944 15.6369122415781 156.89912202954292 29.166735991835594 223.69937191903591 9.8057494610548002 426.29267549514771 127.09967687726021 197.60825544595718 102.13722203671932 13.637371465563772 1473.2578367292881 95.151570722460747 14.792269647121428 657.65203247964382 5.2117067575454703 17.31465157866478 30.180329591035843 111.29611654579639 73.022966906428337 19.842616617679596 773.42827942967415 18.181762903928757 55.114284992218018 477.95676623284817 30.683786690235138 58.235779732465744
leaf_count=407 2028 57 342 27 63 630 120 904 43 1707 553 803 411 55 5923 381 60 2641 21 71 121 569 293 81 3111 73 222 1918 124 235
internal_value=0.000488114 -0.0201526 0.00176719 -6.16185e-06 -0.00836185 0.0044027 0.00241503 0.00314079 -0.00842634 0.00981163 -0.0116953 0.00275462 0.00365658 0.00438186 0.00236902 0.00742766 -0.0138418 0.0036943 0.00782151 -0.00555815 0.0107144 -0.0291126 0.00178203 0.00476947 0.00566229 0.0219292 0.0295049 -0.00194765 -0.000111804 -0.0136571
internal_weight=5890.7 341.736 5548.97 3311.96 745.851 2237.01 2566.11 239.336 150.067 606.853 140.261 2536.94 2291.84 2189.7 1630.16 521.444 506.515 2109.67 662.864 245.103 47.495 191.669 1446.81 806.908 787.066 80.0276 61.8459 639.899 566.876 88.9196
internal_count=23994 1629 22365 13382 3055 8983 10327 967 653 2430 610 10207 9212 8801 6553 2088 2088 8479 2662 995 192 976 5817 3247 3166 322 249 2570 2277 359
is_linear=0
shrinkage=0.05


Tree=21
num_leaves=31
num_cat=0
split_feature=4 10 6 11 4 18 18 5 22 4 21 21 17 22 1 17 7 11 8 21 0 11 17 22 10 17 5 18 18 21
split_gain=56.1509 10.6134 10.0704 9.90995 22.5474 9.62535 9.01364 8.41458 9.00564 8.38317 8.23164 7.98288 7.76376 10.4886 7.64753 6.90552 8.95512 10.2672 6.57396 6.33189 6.23765 7.68461 6.21905 6.13661 6.34852 6.02314 5.95646 5.92482 5.67837 8.83675
threshold=1.0000000180025095e-35 0.00049874500810447302 0.62783962621648615 0.0057246073533753087 3.3235051211471765e-06 0.62468840916288537 0.62182612200662768 0.44397323714587639 0.097202313086410419 7.2116923148193478e-08 0.57172653343652791 0.59576622168775561 0.66952603167533808 0.58069851603773259 0.00027031274679516134 0.64677948146363906 0.59138020513957901 0.00055114839648049742 0.70465089331727326 0.56726552736286906 0.00051452515943034918 0.00052122149007176072 0.64645071720946767 0.12721128753738828 0.00053977386501338602 0.681334404953989 0.42407238370073147 0.62041169008308894 0.59583867904534726 0.56128721388762048
decision_type=2 2 2 2 2 2 2 2 2 2 2 2 2 2 2 2 2 2 2 2 2 2 2 2 2 2 2 2 2 2
left_child=1 14 -3 4 9 6 7 8 -5 25 26 -7 13 15 -1 22 -17 20 -14 -9 21 27 -6 -4 -25 -2 -10 -18 29 -28
right_child=3 2 23 5 12 11 -8 19 10 -11 -12 -13 18 -15 -16 16 17 -19 -20 -21 -22 -23 -24 24 -26 -27 28 -29 -30 -31
leaf_value=-0.017408235748031031 -0.02404263729753674 0.014783539428379898 -0.035345635997107064 0.025291867723573443 0.0091819282556690005 -0.041108192640533836 0.03310072420884199 -0.0072140164490478694 0.0051666537069552923 -0.0050484738605159315 -0.048463986515814191 -0.0032781475048987655 -0.0075226127181052599 -0.012863979799641632 0.028264917666223733 -0.0031052149051603185 0.0053929897972766891 -0.019021138928614095 0.007034717678890772 0.0035889490285809541 0.02752574526977096 -0.028635687612035561 0.050953333735568998 -0.033023866193328387 -0.011462960864877454 0.025350136074108544 -0.0015642512922815002 0.029633666140448746 -0.01149540628456705 0.034555840783097674
leaf_weight=16.535397574305534 89.895485788583755 15.07252377271652 103.18498693406582 79.174538269639015 403.42858566343784 18.076532199978828 27.316504552960396 148.92883314192295 417.35769285261631 827.25242951512337 5.4883650690317145 59.376651927828789 306.61319443583488 89.955900475382805 17.663317129015923 440.00700359046459 1019.9271166473627 40.484227761626244 101.1981977969408 1318.4221697449684 32.890386909246445 15.020305916666983 8.4787976145744306 54.371812537312508 109.79048182070255 5.3360765725374213 21.976482748985291 25.449085175991058 11.244933009147642 56.966368898749352
leaf_count=71 383 65 523 317 1617 73 110 598 1671 3374 22 239 1243 362 77 1770 4094 165 409 5298 133 61 34 283 517 22 88 102 45 228
internal_value=0.000461836 -0.0199806 -0.0231757 0.00163166 -4.24667e-05 0.00427654 0.00492953 0.00452787 0.00956864 -0.00672037 0.00704902 -0.0128373 0.0024297 0.00367497 0.00560409 0.0044429 0.0029085 0.00526508 -0.00384069 0.00247131 0.0062038 0.00549359 0.0102236 -0.0254561 -0.0189122 -0.0207806 0.00779259 0.00603476 0.0194804 0.024294
internal_weight=5886.88 316.619 282.42 5570.27 3405.94 2164.33 2086.88 2059.56 592.208 922.484 513.034 77.4532 2483.45 2075.64 34.1987 1985.69 1573.78 1133.77 407.811 1467.35 1093.29 1060.4 411.907 267.347 164.162 95.2316 507.545 1045.38 90.1878 78.9429
internal_count=23994 1536 1388 22458 13769 8689 8377 8267 2371 3779 2054 312 9990 8338 148 7976 6325 4555 1652 5896 4390 4257 1651 1323 800 405 2032 4196 361 316
is_linear=0
shrinkage=0.05


Tree=22
num_leaves=31
num_cat=0
split_feature=16 15 17 2 15 2 17 7 7 22 15 15 8 6 12 22 6 17 0 12 12 17 3 12 12 6 0 16 16 17
split_gain=51.4865 12.6236 8.74678 8.78727 16.5929 10.8326 10.1472 9.18658 8.48618 7.65179 7.52921 11.8117 8.57953 7.82296 7.80123 7.33293 7.24682 7.38325 6.99589 8.48469 6.92763 6.51383 6.26905 7.55088 6.91525 6.05486 6.9406 6.04408 6.25943 6.64856
threshold=0.0001440875092220379 0.017041508093222052 0.66181683029903882 0.0057958698939743576 0.014249579370678634 0.0042943054554247526 0.65290806483747166 0.59158893144560898 0.59141103528253425 0.58069851603773259 0.037997869235729113 0.036457642278639367 0.70460779707986976 0.62828430458790319 0.009706405446135059 0.53626036921300024 0.62829545095265582 0.67135479289748912 0.0047866427065478981 0.048641955186191743 0.020964100394187602 0.65813823233501589 0.0043286188048861753 0.020813130911811091 0.015766552919349922 0.64469507176907437 0.81722262284245228 0.0028735658548445556 0.1818192594764951 0.6902705962681468
decision_type=2 2 2 2 2 2 2 2 2 2 2 2 2 2 2 2 2 2 2 2 2 2 2 2 2 2 2 2 2 2
left_child=1 -1 3 4 21 9 7 8 -7 -6 11 12 -4 -14 -15 20 17 -16 -8 -20 -3 -2 23 -18 -24 -5 -27 -12 29 -29
right_child=2 15 10 25 5 6 18 -9 -10 -11 27 -13 13 14 16 -17 22 -19 19 -21 -22 -23 24 -25 -26 26 -28 28 -30 -31
leaf_value=-0.027211534896218133 -0.0307186781276714 0.022106792861175242 -0.012862668823507818 0.0073864797886054965 0.0042749778423837063 0 -0.03048708262577355 0.028217175417062236 -0.035459114427895802 -0.011263615790818027 0.025521629650202243 -0.024027879871139954 -0.01134941844434571 0.036874326235312352 0.015273141499117468 0.031756979880411561 0.016699296385280126 -0.015140722701687618 0.001943598480593687 -0.037107518510250632 -0.014289823369030522 0.0014240140350891947 -0.016540783916224898 -0.014638486101348018 0.0047165766213905997 0.0030532415090802584 -0.02011388110234753 0.0018341165700242398 0.020744226392916239 -0.014043159703898784
leaf_weight=186.89907355606556 54.715640142560005 13.183345600962637 166.36682257056236 1229.2108429521322 1675.0423240214586 187.80462008714676 55.202948614954948 25.320081904530525 17.4888646453619 81.408910408616066 25.978729262948036 68.347246140241623 133.89794880151749 14.576391622424124 127.94858257472515 9.8536249697208387 20.827550411224365 21.977506801486015 60.031038597226143 16.696656346321106 126.04372031986713 19.838398829102516 42.766311854124069 134.90967687964439 290.6491024941206 128.4170158803463 41.683099463582039 796.16116581857204 39.110847502946854 70.761662527918816
leaf_count=976 242 57 675 4923 6726 759 227 103 71 328 105 276 545 59 517 43 86 90 243 68 553 85 173 553 1175 514 167 3212 158 285
internal_value=0.000437539 -0.0185329 0.00159419 0.00306003 0.00107028 0.00190123 -0.00593109 0.00030357 -0.00313809 0.00353456 -0.00108811 -0.00405807 -0.00257742 -0.000359445 0.00186751 -0.0073774 0.000973635 0.0105784 -0.0169376 -0.00660073 -0.0105321 -0.0219292 -0.00193481 -0.0102082 0.00187389 0.00615831 -0.00256213 0.00214353 0.00141824 0.000494659
internal_weight=5883.12 335.98 5547.14 3592.86 2193.55 2119 362.544 230.614 205.293 1756.45 1954.28 1022.27 953.92 787.553 653.655 149.081 639.079 149.926 131.931 76.7277 139.227 74.554 489.153 155.737 333.415 1399.31 170.1 932.012 906.034 866.923
internal_count=23994 1629 22365 14456 8852 8525 1471 933 830 7054 7909 4149 3873 3198 2653 653 2594 607 538 311 610 327 1987 639 1348 5604 681 3760 3655 3497
is_linear=0
shrinkage=0.05


Tree=23
num_leaves=31
num_cat=0
split_feature=4 15 15 17 21 0 4 5 21 3 21 15 4 5 4 9 2 4 5 5 0 3 5 21 17 21 7 15 18 12
split_gain=46.6003 12.5906 8.71268 7.97531 7.35152 6.8879 22.6097 6.3025 12.4613 7.20772 6.10779 6.05774 12.0633 11.3096 8.21361 7.40888 5.85636 5.84058 10.2023 5.76985 5.26454 6.01338 6.14044 5.25523 5.18914 9.62921 5.84146 6.72296 5.8561 5.18582
threshold=1.0000000180025095e-35 0.016718869079113723 0.0061625952130453911 0.66410608386063663 0.57593729155983142 0.0047866427065478981 2.0877868558092129e-06 0.44397323714587639 0.56726552736286906 0.83399363137541593 0.57533288721931963 0.044459581112785855 0.0082995766797105495 0.65393198917895834 0.0044786256779251422 0.0053789975177258266 0.00052020710798248695 3.8420313331671881e-06 0.6747213925414689 0.42407238370073147 0.00054897654053318739 4.1814294172391968e-05 0.79774764355876215 0.57320009014611095 0.67475363919872511 0.59140723404889439 0.5914013704028791 0.051703126346732443 0.60216479346765295 0.033026295283375591
decision_type=2 2 2 2 2 2 2 2 2 2 2 2 2 2 2 2 2 2 2 2 2 2 2 2 2 2 2 2 2 2
left_child=1 4 -2 5 10 6 -4 19 -9 -10 16 12 15 -14 23 17 -1 18 -5 -7 21 -19 -23 -13 26 -26 27 -25 -28 -21
right_child=2 -3 3 11 -6 7 -8 8 9 -11 -12 14 13 -15 -16 -17 -18 20 -20 29 -22 22 -24 24 25 -27 28 -29 -30 -31
leaf_value=0.02548277904845981 -0.031269077714473487 -0.0065479428997938932 -0.0093129744476003525 -0.026524325825895673 -0.041125731844141457 0.0065582377779149076 0.0033750775891221562 -0.0092094154703419966 0.0061899208465057264 -0.010831288615132226 0.03203713998883647 -0.021036120393126752 0.056521073893921296 0 -0.015729010222210026 4.0006858134386144e-05 -0.024132846850693685 -0.01838228684613278 -0.00044802043862148666 0.025180686089516981 -0.04100108684528371 0.00046820080420382408 -0.043717269479851932 -0.013822829691662439 -0.027522397902473641 0.0034221887934490092 -0.025973367589790436 0.0096332357976464424 0.020263373849311782 0.0025017997549149611
leaf_weight=5.0272943824529639 19.173799425363541 134.63625238835812 435.67799711227417 103.52919143438339 63.473570913076401 541.16364708542824 1783.9276239275932 180.86884531378746 907.57812771201134 64.866780310869217 4.3956093788146964 18.533977031707764 14.410084709525107 20.669058173894882 55.608103364706039 364.28735591471195 103.55878889560699 59.358903095126152 61.644554033875465 88.903723523020744 9.1983833461999875 258.42973193526268 7.0865940600633612 41.058020368218422 27.195953220129013 230.83333157002926 5.9517176896333686 107.28472124040127 122.16123256087303 38.928855374455452
leaf_count=23 87 596 1794 425 342 2168 7161 728 3641 260 23 75 58 84 225 1472 552 240 257 356 38 1048 29 166 111 931 24 433 491 156
internal_value=0.000414413 -0.0183809 0.00147207 0.00159532 -0.0271808 0.00275484 0.000870257 0.00503484 0.00275982 0.00501888 -0.018835 -0.00149732 -0.00411425 0.0241003 0.00232589 -0.00531587 -0.021396 -0.00926616 -0.0170041 0.00890956 -0.00532641 -0.00411689 -0.000776908 0.00421161 0.00517145 0 0.00991825 0.00292462 0.0177372 0.0185414
internal_weight=5879.42 311.092 5568.33 5549.16 176.455 4041.92 2219.61 1822.31 1153.31 972.445 112.982 1507.24 898.614 35.0791 608.627 863.535 108.586 499.247 165.174 668.996 334.074 324.875 265.516 553.019 534.485 258.029 276.456 148.343 128.113 127.833
internal_count=23994 1536 22458 22371 940 16264 8955 7309 4629 3901 598 6107 3651 142 2456 3509 575 2037 682 2680 1355 1317 1077 2231 2156 1042 1114 599 515 512
is_linear=0
shrinkage=0.05


Tree=24
num_leaves=31
num_cat=0
split_feature=4 15 5 8 15 2 15 4 4 8 22 5 21 18 15 4 21 12 22 22 18 12 15 12 12 12 22 21 21 15
split_gain=42.421 11.6842 8.02002 9.64938 10.8867 7.0682 15.2657 8.0901 8.16978 8.61908 8.18177 7.21956 6.9745 6.55378 6.30642 6.24453 8.61654 6.79431 6.13738 6.12888 8.44319 6.25327 5.88478 7.20316 5.82569 8.95944 7.89866 5.61865 5.41815 6.06533
threshold=1.0000000180025095e-35 0.016718869079113723 0.57565299203430442 0.70460779707986976 0.048499087191554088 0.0057958698939743576 0.014249579370678634 5.4912088029116161e-05 0.0055060067373295133 0.70462017590302073 0.1019169870979431 0.50064372202293939 0.57593729155983142 0.59666136643858247 0.064047334500990552 0.016559541179752908 0.56798963686093662 0.041093752011194355 0.53626036921300024 0.067790466816662134 0.57381524056432009 0.034370600524140545 0.016718869079113723 0.0093918440399154979 0.009706405446135059 0.010873510220194961 0.1862583512515836 0.57533288721931963 0.57496334837561969 0.043958142551485287
decision_type=2 2 2 2 2 2 2 2 2 2 2 2 2 2 2 2 2 2 2 2 2 2 2 2 2 2 2 2 2 2
left_child=1 12 5 4 28 6 13 19 22 10 11 -10 27 -2 -6 16 -12 -17 -3 20 -8 -22 -9 -24 26 -26 -5 -1 -4 -30
right_child=2 18 3 24 14 -7 7 8 9 -11 15 -13 -14 -15 -16 17 -18 -19 -20 -21 21 -23 23 -25 25 -27 -28 -29 29 -31
leaf_value=-0.020544683928525615 -0.032574799223701587 -0.0092445916902948577 -0.027336309910975898 -0.0063384032031413573 0.030760015470046077 0.0054451408038974263 0.038346374466543216 0.051116383289051805 0.044388591705250495 -0.033090727561907077 -0.022737402742546275 -0.014197276096786053 -0.039939809153380017 0 -0.0066944767328021154 -0.0024724253341653069 0.0072092631418609531 0.03429326414398897 0.032096700969597616 -0.0020541654008431067 0.013594269249053931 -0.028058153801514853 -0.047000004686446835 0.0064537870434407804 -0.039264074331543941 0.00016475528467255643 0.03858783015715099 0.03035636505907496 -0.0068075808882631251 -0.04077700558730861
leaf_weight=107.39445865154266 46.344811320304871 125.90680116415024 55.721316158771515 15.341826558113096 23.103784561157227 1427.7985178828239 21.691376686096191 6.4951680302619925 15.983386948704721 22.307349249720573 66.928672268986702 6.2429218888282767 62.153976067900658 21.958575397729874 18.844509482383728 40.678915143013 34.936305493116379 16.472513258457184 8.474523112177847 1136.8378608673811 26.567552670836449 12.386387541890143 5.247970536351203 983.81287243962288 13.558139711618422 1320.0799228399992 21.621839448809624 4.4606845676898947 192.5823125988245 13.647789821028708
leaf_count=575 208 559 226 62 93 5720 87 26 64 90 268 25 342 95 76 163 140 66 37 4602 107 50 21 3942 55 5349 87 23 781 55
internal_value=0.000390817 -0.0176238 0.0013962 -0.00148714 -0.00953457 0.00264299 0.00100815 0.00168616 0.00459186 -0.00444646 -0.000621517 0.0269539 -0.0261902 -0.0221018 0.0135881 -0.00477642 -0.0122534 0.00810198 -0.00623499 -0.00120403 0.0141016 0 0.00646752 0.00609772 0.000284623 -0.000246477 0.0196068 -0.0180423 -0.01337 -0.00936215
internal_weight=5875.58 308.39 5567.19 1674.5 303.9 3892.69 2464.89 2396.59 1199.11 203.55 181.243 22.2263 174.009 68.3034 41.9483 159.016 101.865 57.1514 134.381 1197.48 60.6453 38.9539 995.556 989.061 1370.6 1333.64 36.9637 111.855 261.951 206.23
internal_count=23994 1536 22458 6784 1231 15674 9954 9651 4805 816 726 89 940 303 169 637 408 229 596 4846 244 157 3989 3963 5553 5404 149 598 1062 836
is_linear=0
shrinkage=0.05


Tree=25
num_leaves=31
num_cat=0
split_feature=16 14 17 15 21 17 21 17 1 15 15 5 21 21 15 17 9 14 16 16 4 15 15 16 15 15 6 16 15 21
split_gain=49.1448 13.4276 12.8569 13.6795 11.837 8.10849 7.48237 7.21727 8.82512 7.06599 11.7278 6.51743 6.59335 6.46768 13.546 13.4208 10.4119 12.1218 7.12775 7.04115 7.07492 6.3846 7.56606 6.23673 9.0617 6.09366 5.91425 9.44423 5.94218 5.80722
threshold=0.0001440875092220379 0.00064796694933681287 0.65443100345163718 0.010509963329551295 0.57002155623683148 0.64296345123156062 0.54240883781004612 0.66109761160834013 0.84508500784216911 0.027993051182570058 0.026333216051214164 0.51635820771430485 0.58289709379841503 0.56152656087162178 0.032265067968353746 0.65229791012530047 0.00047214570474844188 0.00028593172428788901 0.10680029595276148 0.25259165162030789 1.4160813644055411e-07 0.037997869235729113 0.036457642278639367 0.17215215108315482 0.029287903864120148 0.022549348116680728 0.62623003584070414 0.047516041711721156 0.019107085307915894 0.59140723404889439
decision_type=2 2 2 2 2 2 2 2 2 2 2 2 2 2 2 2 2 2 2 2 2 2 2 2 2 2 2 2 2 2
left_child=1 5 3 -2 9 6 -1 8 -6 10 26 12 -9 15 16 19 -15 -18 -16 20 -5 22 23 -13 -25 -7 27 -4 -29 -26
right_child=2 -3 4 13 7 25 -8 11 -10 -11 -12 21 -14 14 18 -17 17 -19 -20 -21 -22 -23 -24 24 29 -27 -28 28 -30 -31
leaf_value=-0.023766028034857639 -0.039766650718553072 0.025211915431939343 0.027162814540557013 -0.0080414473775262153 0.0048801397092511755 -0.027685416156741284 0.041961343126744245 -0.043024588378788073 -0.026519970041717262 -0.012147195181375343 0.031256535705967918 -0.0010514567591375472 0.01071850166441039 0.030027180600659877 -6.7695397468286062e-05 -0.021849520392458632 -0.010284861042478164 0.016628434361832898 0.023849274445523233 -0.016854681726947533 0.0058883606181574667 0.0023862932409741142 -0.018013904378194574 -0.02860115042438174 -0.005655121944415204 -0.011152539932363837 -0.0097770130432810794 0.006961354847898487 -0.041508518542150104 0.052043164731656794
leaf_weight=6.4292767345905295 16.145556837320328 15.188545912504194 30.964382037520409 97.974310234189034 982.32645340263844 207.97742031514645 8.7559371292591077 16.813559561967853 21.69535157084465 316.64756508171558 24.652564853429794 1031.3739084303379 6.938413366675376 97.334750726819038 328.75487281382084 51.91996918618679 53.215822711586952 171.99123352766037 33.182531207799911 38.14058880507946 1000.3134758770466 939.03341072797775 79.077823847532272 46.469085857272148 12.092756152153017 86.815832287073135 149.46171423792839 12.740618020296099 9.987645745277403 5.2255860865116111
leaf_count=29 76 64 124 398 3952 1110 41 68 87 1275 99 4184 28 390 1319 209 218 690 133 154 4014 3788 320 194 49 371 608 51 40 21
internal_value=8.406e-05 -0.0187758 0.00119184 0.00454609 -0.000521345 -0.0210857 0.0128394 0.000651814 0.00415104 -0.00732411 -0.000487052 -0.000981682 -0.0265164 0.00496247 0.00884723 0.0026983 0.0162937 0.010141 0.00211581 0.00386002 0.00461681 -0.000670457 -0.00313615 -0.00202362 -0.0170976 -0.0229552 -0.00459579 0.00928489 -0.0141362 0.0122805
internal_weight=5899.64 325.167 5574.47 1888.97 3685.5 309.978 15.1852 3141.05 1004.02 544.454 227.807 2137.02 23.752 1872.83 684.479 1188.35 322.542 225.207 361.937 1136.43 1098.29 2113.27 1174.24 1095.16 63.7874 294.793 203.154 53.6926 22.7283 17.3183
internal_count=24104 1615 22489 7601 14888 1551 70 12691 4039 2197 922 8652 96 7525 2750 4775 1298 908 1452 4566 4412 8556 4768 4448 264 1481 823 215 91 70
is_linear=0
shrinkage=0.05


Tree=26
num_leaves=31
num_cat=0
split_feature=16 14 17 15 12 15 12 17 17 18 4 17 8 15 15 18 16 7 17 8 9 16 15 12 16 18 16 7 16 18
split_gain=44.7474 12.2779 11.5991 12.5574 11.1276 7.60353 8.60381 7.43288 7.19699 6.19502 6.84874 7.47656 6.00166 5.32751 10.9971 5.45326 6.40603 9.57208 8.55045 5.49285 6.44466 5.18515 4.96442 5.69095 4.94751 4.90163 4.84715 4.84696 5.06226 6.67628
threshold=0.0001440875092220379 0.00064796694933681287 0.65443100345163718 0.010509963329551295 0.025442770732465324 0.019107085307915894 0.029789437754857085 0.64296345123156062 0.63963359256375274 0.59291854124421606 0.0055060067373295133 0.65455388540663784 0.70427243802066886 0.014536497883855987 0.019369500847107993 0.59113786242961863 0.021961356240075388 0.59138605303430325 0.65636423848479519 0.70461681779562946 4.5214305031869227e-05 0.43905502792734935 0.023566744943156699 0.017709517016988262 0.0072074048773852683 0.60860156549504263 0.039373337591582333 0.60325569295297121 0.0075459612680329035 0.59556987122857097
decision_type=2 2 2 2 2 2 2 2 2 2 2 2 2 2 2 2 2 2 2 2 2 2 2 2 2 2 2 2 2 2
left_child=1 7 3 -2 27 6 -6 8 -1 10 11 26 25 -13 -15 16 18 19 -16 -18 -21 -11 23 -17 -24 -9 -4 28 29 -5
right_child=2 -3 9 4 5 -7 -8 12 -10 21 -12 13 -14 14 15 22 17 -19 -20 20 -22 -23 24 -25 -26 -27 -28 -29 -30 -31
leaf_value=-0.0089484504408167565 -0.038425572081691214 0.023913276279905644 -0.066690628623367568 -0.017327804006743296 0.011089243518819202 0.0029823382842750182 -0.04951006932827362 0.04888095909149788 0.059418678788128398 0.00045516604076248899 -0.031512670684531889 -0.033228024081250154 -0.023379949180736243 0.032469521382084074 -0.030141789223496758 -0.010601158481962799 -0.018628980795850663 0.063168560617651179 -0.00038186898231893328 0.032304465093119968 0.0021752889994168943 -0.021766609830920901 0.012415503317093256 0.047931538490049302 -0.023579674303261983 -0.01628159935190104 -0.00044976064582497553 -0.0074564372523766957 0.014402253451002475 0.040644991531050854
leaf_weight=10.754350081086157 15.914445400238035 15.264982312917708 6.8685304522514325 25.452741056680683 8.3126498162746447 1394.163714915514 13.609438151121138 4.4745763689279539 4.5051134824752799 3204.9347003549337 24.120934411883354 13.331351220607756 282.69240498542786 20.731946930289268 34.181431740522385 9.7203645408153516 23.385560661554337 5.9881619513034812 82.607666000723839 20.393755003809929 119.82479858398438 25.440013751387596 9.3620107620954496 5.4514998048543921 73.088275089859962 4.5643108636140823 5.4815154075622559 29.227302715182304 396.97531075775623 4.9898136258125296
leaf_count=49 76 64 28 103 34 5599 59 20 21 12946 97 57 1441 84 138 39 94 24 334 82 482 107 38 22 294 20 22 117 1593 20
internal_value=7.7551e-05 -0.0180038 0.00113052 0.00431684 0.00471372 0.00249865 -0.0259594 -0.0202402 0.0121113 -0.000496529 -0.00595754 -0.00439773 -0.0220534 -0.00314886 -0.00201703 -0.00402336 -0.000439353 0.00566319 -0.00948609 0.00303555 0.00693211 0.000265745 -0.0141727 0.0105481 -0.0190931 0.0151418 -0.0413985 0.0115077 0.0128772 -0.00603997
internal_weight=5895.81 322.256 5573.56 1888.65 1872.73 1416.09 21.9221 306.991 15.2595 3684.91 454.538 430.417 291.731 418.067 404.735 384.004 286.381 169.592 116.789 163.604 140.219 3230.37 97.6222 15.1719 82.4503 9.03889 12.35 456.645 427.418 30.4426
internal_count=24104 1615 22489 7601 7525 5692 93 1551 70 14888 1835 1738 1481 1688 1631 1547 1154 682 472 658 564 13053 393 61 332 40 50 1833 1716 123
is_linear=0
shrinkage=0.05


Tree=27
num_leaves=31
num_cat=0
split_feature=16 14 17 15 21 18 17 17 2 22 21 5 21 15 15 15 7 17 21 16 15 14 7 18 21 0 14 14 17 18
split_gain=40.6459 11.2133 10.4685 11.5303 10.2608 7.96181 6.92357 6.60347 7.86786 6.43457 8.11041 5.92337 6.05247 5.7543 6.84614 5.71791 8.48944 5.64021 8.88383 7.46208 6.71783 7.44979 8.59648 7.88109 6.7193 6.60441 5.86469 7.67896 5.63373 10.0521
threshold=0.0001440875092220379 0.00064796694933681287 0.65443100345163718 0.010509963329551295 0.57002155623683148 0.5932357916148997 0.65507450144759816 0.66109761160834013 0.84812800684516676 0.5288878625041431 0.56530973000662177 0.51635820771430485 0.58289709379841503 0.037997869235729113 0.036457642278639367 0.020619220909407564 0.59134387353651252 0.68343283078795691 0.60665801594513447 0.054550547415685671 0.089473621598933559 4.2509241139378081e-05 0.63780694718273867 0.6136177558858017 0.59140723404889439 0.00011519781130887871 2.3157208088715223e-05 2.0656664492281007e-05 0.65712814777935502 0.59556987122857097
decision_type=2 2 2 2 2 2 2 2 2 2 2 2 2 2 2 2 2 2 2 2 2 2 2 2 2 2 2 2 2 2
left_child=1 6 3 -2 5 -4 9 8 -6 10 -1 12 -9 14 -13 -8 -17 18 20 -20 21 23 -23 -15 26 -22 27 -25 -7 -30
right_child=2 -3 4 -5 7 28 15 11 -10 -11 -12 13 -14 17 -16 16 -18 -19 19 -21 25 22 -24 24 -26 -27 -28 -29 29 -31
leaf_value=-0.02033698140364398 -0.037135116301160072 0.022692841752971111 -0.015254089809606838 0.0044780738742046574 0.004661929893380534 0.0033188939098871594 -0.030098506940636423 -0.041210288420591046 -0.024681355173484357 0.034831849147873323 0.015476155427906025 -0.0019302824995349127 0.010205346651203255 -0.0086246883597159811 -0.017157137967302491 -0.049300985052391076 -0.0033254562033245339 -0.0060815047104151535 0.037626422824256545 -0.011944194802043773 0.0097972788242820102 0.011869554861943323 -0.0066372854295011054 0.020785258660490583 -0.0042642755376637509 -0.030284337095589749 0.040722310404918319 -0.028547681278708843 -0.038372182547073044 -0.0037572789129203619
leaf_weight=62.584549590945244 15.684768825769423 15.3336014598608 184.38630166649818 1872.6055435687304 981.91892148554325 193.44518718123436 144.59848710894585 16.742699086666111 22.165221393108368 7.0756125897169104 19.431007236242294 1094.7970445901155 6.9443888515233985 178.91985188424587 78.933212921023369 11.546515822410582 58.99067747592926 164.12437218427658 32.021464884281158 8.4356002211570722 14.133037433028219 328.12245216965675 74.979988858103752 27.257259875535965 52.69010066986084 27.917208731174469 20.91069507598877 9.7061787545680982 24.195946231484413 141.90051110088825
leaf_count=311 76 64 746 7525 3950 780 801 68 89 33 97 4448 28 722 320 51 258 662 129 34 57 1324 301 110 213 113 84 39 98 573
internal_value=7.23394e-05 -0.0172365 0.00107225 0.00409972 -0.000473158 -0.00681062 -0.0193986 0.000618262 0.00396539 -0.00716647 -0.0114668 -0.000944102 -0.0253212 -0.000647148 -0.0029893 -0.0242919 -0.0117848 0.00225329 0.00405594 0.0266487 0.00274322 0.00395839 0.00835738 -0.00208875 0.00824639 -0.0163176 0.01994 0.00676171 -0.00238086 -0.00914885
internal_weight=5892.5 319.56 5572.94 1888.29 3684.65 543.928 304.227 3140.72 1004.08 89.0912 82.0156 2136.64 23.6871 2112.95 1173.73 215.136 70.5372 939.218 775.094 40.4571 734.637 692.587 403.102 289.484 110.564 42.0502 57.8741 36.9634 359.542 166.096
internal_count=24104 1615 22489 7601 14888 2197 1551 12691 4039 441 408 8652 96 8556 4768 1110 309 3788 3126 163 2963 2793 1625 1168 446 170 233 149 1451 671
is_linear=0
shrinkage=0.05


Tree=28
num_leaves=31
num_cat=0
split_feature=17 21 12 18 7 7 5 22 17 17 21 12 14 0 9 14 21 21 22 22 5 17 18 14 7 18 7 12 21 9
split_gain=13.6819 10.7386 7.80934 7.77484 6.23308 7.67492 9.98059 5.80734 6.39923 6.91811 7.7501 6.21075 6.13448 5.56863 5.54038 6.38946 9.48081 7.61898 5.44575 7.82474 6.55429 7.57914 5.44512 5.42962 8.60946 5.42244 6.91402 5.23558 5.17215 5.47892
threshold=0.65443100345163718 0.57002155623683148 0.025442770732465324 0.59500289659353367 0.59155278927786881 0.59143878434298447 0.48009990060800245 1.0000000180025095e-35 0.65973254830626249 0.65937804566032099 0.57307455648545436 0.018948038483368922 8.8165905631659407e-06 7.6860592369335082e-05 0.80908592605100516 0.045716460100021998 0.57448586266046575 0.57593729155983142 0.36074034235124347 0.29025936198519381 0.52264306531011095 0.65682720125368677 0.58624842839788849 0.037035768645357854 0.59084677622880644 0.60417741411645676 0.59203598984121519 0.019422007002605296 0.57197354886072505 6.6234879309347614e-05
decision_type=2 2 2 2 2 2 2 2 2 2 2 2 2 2 2 2 2 2 2 2 2 2 2 2 2 2 2 2 2 2
