tree
version=v4
num_class=1
num_tree_per_iteration=1
label_index=0
max_feature_idx=22
objective=binary sigmoid:1
feature_names=Column_0 Column_1 Column_2 Column_3 Column_4 Column_5 Column_6 Column_7 Column_8 Column_9 Column_10 Column_11 Column_12 Column_13 Column_14 Column_15 Column_16 Column_17 Column_18 Column_19 Column_20 Column_21 Column_22
feature_infos=[0:0.99999999999999989] [0:0.99999999999999989] [0:1] [0:0.99999999999999989] [0:0.99999999999999989] [0:1] [0:1] [0:1] [0:1] [0:1] [0:1] [0:1] [0:1] none [0:1] [0:1] [0:1] [0:0.99999999999999989] [0:1] [0:1] none [0:1.0000000000000002] [0:1]
tree_sizes=3503 3588 3563 3550 3550 3549 3551 3561 3556 3558 3576 3554 3573 3539 3549 3570 3571 3555 3550 3550 3572 3530 3551 3573 3556 3519 3538 3538 3521 3511 3535 3537 3543 3527 3536 3545 3555 3514 3526 3543 3552 3567 3553 3512 3563 3530 3529 3547 3511 3498 3544 3545 3512 3482 3489 3532 3505 3523 3519 3516 3547 3519 3493 3481 3525 3525 3513 3541 3484 3519 3506 3483 3457 3463 3483 3497 3520 3527 3519 3525 3537 3534 3525 3524 3534 3514 3530 3515 3500 3514 3519 3500 3513 3499 3517 3494 3452 3521 3455 3455 3437 3468 3437 3485 3410 3528 3495 3530 3518 3467 3498 3490 3465 3508 3469 3494 3418 3370 3498 3512 3517 3428 3456 3469 3456 3464 3479 3510 3436 3467 3472 3475 3443 3474 3421 3438 3490 3518 3534 3451 3497 3510 3486 3537 3518 3467 3423 3438 3425 3436 3496 3473 3490 3461 3461 3445 3449 3483 3406 3479 3492 3456 3406 3481 3436 3448 3478 3424 3455 3418 3418 3446 3522 3454 3486 3486 3453 3444

Tree=0
num_leaves=31
num_cat=0
split_feature=4 14 15 15 12 4 17 14 17 15 4 11 0 15 14 15 15 14 10 4 9 10 12 14 9 15 14 14 11 18
split_gain=2389.63 186.868 221.578 178.134 78.8898 72.4213 48.3667 47.6595 43.7151 38.9259 37.2886 36.0096 34.0324 28.8197 79.0821 26.8641 26.558 20.3712 19.2634 17.2968 17.0316 15.406 14.6725 14.1659 14.0449 13.8942 13.5372 13.2723 11.7671 11.83
threshold=1.0000000180025095e-35 0.00029777023440271305 0.022462459184121878 0.015246042139572492 0.023870599781373795 2.7961235739271017e-08 0.66263528753072121 1.4544536990971109e-05 0.65605508653200706 0.014112902004408999 4.6387540786380386e-05 5.4007318925039142e-06 5.3310471721576895e-06 0.014293023987178145 5.2845944549845328e-05 0.05149633386474655 0.0087243579286944341 8.7362439863933744e-06 5.4718491935112063e-06 2.3734357716449901e-09 9.3961603988487266e-05 0.00014215777566388278 0.032148425754620603 7.5222155305185304e-07 0.0001829125922763361 0.0070054409919496101 4.8787280790499263e-05 1.0450166512334348e-06 5.2469831374190887e-05 0.60676153882979056
decision_type=2 2 2 2 2 2 2 2 2 2 2 2 2 2 2 2 2 2 2 2 2 2 2 2 2 2 2 2 2 2
left_child=3 2 4 7 13 21 10 12 -3 -6 17 23 -1 14 16 -8 -2 18 -7 -15 28 27 -20 -5 -19 -14 -13 -4 -11 -30
right_child=1 8 5 11 9 6 15 -9 -10 20 -12 26 25 19 -16 -17 -18 24 22 -21 -22 -23 -24 -25 -26 -27 -28 -29 29 -31
leaf_value=-0.29786634325279765 -0.30711904511784238 -0.23777863766916457 -0.29197340569918673 -0.28114701528203212 -0.30441732952294992 -0.25161428704043232 -0.25870323398420486 -0.27095243510634498 -0.2465282815002256 -0.27386479402600433 -0.24057394168660703 -0.29713871713322726 -0.32899144193400182 -0.30711428583994993 -0.25332753556998405 -0.24861130472282847 -0.27653948929494665 -0.24634818619565632 -0.25552318846119298 -0.25235646808867296 -0.29077132185019666 -0.28757781223867718 -0.27812661842431535 -0.25686175421320684 -0.26969880111269479 -0.3163440302968703 -0.25950936064592228 -0.26083712707247075 -0.22871555588193332 -0.2807822666496681
leaf_weight=166.98637971282005 109.43879082798958 2094.5846774876118 39.5947085916996 210.51596617698669 169.44567838311195 866.65685141086578 1829.4722808301449 54.350500613451004 4582.1652824878693 309.3797727227211 1587.9691514074802 597.60957688093185 558.75265789031982 13.772072553634642 371.10816934704781 1027.9868441820145 219.61537125706673 2100.7329241633415 142.88525274395943 538.34047892689705 148.78756955265999 111.89808949828148 139.19630473852158 86.813243061304092 64.679555028676987 504.15622740983963 26.560425639152527 240.76533982157707 30.003443777561188 15.493581622838972
leaf_count=679 445 8517 161 856 689 3524 7439 221 18632 1258 6457 2430 2272 56 1509 4180 893 8542 581 2189 605 455 566 353 263 2050 108 979 122 63
internal_value=-0.256705 -0.250265 -0.254566 -0.305616 -0.269814 -0.250961 -0.249898 -0.31768 -0.243777 -0.283616 -0.246884 -0.288727 -0.319711 -0.262359 -0.269094 -0.25508 -0.286908 -0.249919 -0.255328 -0.253856 -0.276487 -0.271877 -0.266625 -0.274165 -0.247063 -0.323078 -0.295585 -0.265433 -0.270349 -0.247123
internal_weight=18959.7 16754 10077.2 2205.74 1925.38 8151.84 7759.58 1284.25 6676.75 673.11 4902.12 921.499 1229.9 1252.27 700.162 2857.46 329.054 3314.15 1148.74 552.113 503.664 392.258 282.082 297.329 2165.41 1062.91 624.17 280.36 354.877 45.497
internal_count=77094 68125 40976 8969 7829 33147 31552 5222 27149 2737 19933 3747 5001 5092 2847 11619 1338 13476 4671 2245 2048 1595 1147 1209 8805 4322 2538 1140 1443 185
is_linear=0
shrinkage=1


Tree=1
num_leaves=31
num_cat=0
split_feature=4 14 15 15 4 16 14 17 16 17 4 11 0 4 14 15 4 18 14 3 15 14 11 4 4 1 14 15 14 3
split_gain=2171.19 168.281 200.318 164.271 65.4966 54.107 43.8618 43.5498 39.2621 39.2361 33.5112 32.8804 31.494 25.8864 30.6811 24.2252 23.1589 20.2398 18.4266 18.1174 17.4928 16.314 21.4125 15.8688 14.4523 14.3411 29.5762 12.9248 12.8498 12.6908
threshold=1.0000000180025095e-35 0.00029777023440271305 0.022462459184121878 0.015246042139572492 2.7961235739271017e-08 0.12481405370806239 1.4544536990971109e-05 0.66263528753072121 0.008969889307607606 0.65605508653200706 4.6387540786380386e-05 5.4007318925039142e-06 5.3310471721576895e-06 2.8778552287532715e-05 8.3291873864823926e-05 0.05149633386474655 6.2682387244637205e-09 0.61063866006772816 8.4029812730159649e-06 4.454112204773165e-06 0.010068630356136844 4.3800242329601748e-06 5.4775489849002176e-06 8.7526236086443929e-08 4.2500460509608222e-09 8.9128345224691354e-05 1.2306915915436885e-05 0.0070054409919496101 7.5222155305185304e-07 0.00018403472675611446
decision_type=2 2 2 2 2 2 2 2 2 2 2 2 2 2 2 2 2 2 2 2 2 2 2 2 2 2 2 2 2 2
left_child=3 2 5 6 24 8 12 10 23 -3 18 28 -1 14 20 -9 -10 21 19 -6 -7 22 -18 -2 -4 -23 -27 -14 -5 -20
right_child=1 9 4 11 7 13 -8 15 16 -11 -12 -13 27 -15 -16 -17 17 -19 29 -21 -22 25 -24 -25 -26 26 -28 -29 -30 -31
leaf_value=-0.039454005864220529 -0.028069527919730875 0.017827689537503192 -0.029705411959884472 -0.023414480896535278 0.0062902235107451798 -0.061056804060154471 -0.013684414352902597 -0.0020093766360476419 -0.042072148665566994 0.0095452140287882563 0.015183693031505456 -0.037255560865178984 -0.069533780870616846 -0.00026019317467497553 0.0059304591792524713 0.0075711782669067116 -0.0017268404524972631 -0.024437063753782448 0.0095702508026654434 -0.006656543940421096 -0.032490568704965549 0.017461796948363844 -0.029488465522206887 -0.0074509091811308052 -0.0082859914202736921 -0.047954367190513006 0.0043995461461435242 -0.05726941609091523 -0.00025951652498272792 -0.016237151859752715
leaf_weight=166.03975006937981 288.38663336634636 2099.4350457787514 112.58057324588299 209.82625651359558 674.27160173654556 84.537488296627998 54.248231634497643 1828.9767825007439 36.724946647882462 4587.9368302822113 1591.1169801652431 620.83609905838966 552.90362310409546 62.84457166492939 37.149033784866333 1029.0176916122437 377.27781966328621 92.20369878411293 2146.902835547924 448.58706560730934 181.89078105986118 177.39579916000366 84.8439811617136 144.61906473338604 278.88768877089024 28.40409991145134 325.63252966105938 499.88894164562225 86.810218498110771 47.137624740600586
leaf_count=679 1176 8517 459 856 2740 346 221 7439 150 18632 6457 2538 2272 256 151 4180 1536 376 8719 1825 742 721 346 589 1136 116 1324 2050 353 192
internal_value=-0.000114124 0.00600166 0.0019182 -0.0469179 0.00534189 -0.0125958 -0.0585693 0.00635055 -0.00849044 0.0121514 0.00920826 -0.030677 -0.0605337 -0.0298846 -0.0359141 0.00143279 -0.00352238 -0.00215795 0.00633059 0.00109437 -0.0418425 -4.27746e-05 -0.00693043 -0.0212738 -0.0145696 0.00590139 5.57656e-06 -0.063794 -0.0167458 0.00899726
internal_weight=18957.3 16766.8 10079.4 2190.55 8157.48 1921.91 1273.08 7766.01 1555.49 6687.37 4908.02 917.473 1218.83 366.422 303.577 2857.99 1122.48 1085.76 3316.9 1122.86 266.428 993.554 462.122 433.006 391.468 531.432 354.037 1052.79 296.636 2194.04
internal_count=77094 68125 40976 8969 33147 7829 5222 31552 6334 27149 19933 3747 5001 1495 1239 11619 4569 4419 13476 4565 1088 4043 1882 1765 1595 2161 1440 4322 1209 8911
is_linear=0
shrinkage=0.05


Tree=2
num_leaves=31
num_cat=0
split_feature=4 15 14 15 4 14 15 17 14 17 12 4 11 0 15 14 5 9 0 14 7 12 4 0 4 5 14 15 14 2
split_gain=1974.5 152.196 151.594 181.649 72.0672 67.8319 59.555 47.6832 40.5248 35.309 34.1535 31.1105 30.0536 29.337 26.9708 20.8856 20.0184 18.7202 15.8722 21.6808 15.7835 14.9268 13.7033 12.7461 27.2219 12.6484 12.4504 12.1461 11.6579 10.9443
threshold=1.0000000180025095e-35 0.015246042139572492 0.00029777023440271305 0.019055735838451725 2.7961235739271017e-08 5.2845944549845328e-05 0.012274796535372882 0.66173243218177469 1.4544536990971109e-05 0.65673511914742744 0.02369333007452178 4.6387540786380386e-05 5.4007318925039142e-06 5.3310471721576895e-06 0.05149633386474655 7.7840648053150351e-06 0.36631408913634883 5.7033616255313145e-06 0.0001382838465417979 1.0450166512334348e-06 0.59197539161612378 0.020221927586189143 1.2406479068810226e-08 5.0015011959181585e-05 2.2335652373149132e-07 0.31588326740274136 4.8787280790499263e-05 0.0070054409919496101 7.5222155305185304e-07 8.2782847989918689e-07
decision_type=2 2 2 2 2 2 2 2 2 2 2 2 2 2 2 2 2 2 2 2 2 2 2 2 2 2 2 2 2 2
left_child=1 8 3 5 18 6 16 11 13 -4 22 15 28 -1 -9 17 -2 25 19 -5 -18 -19 -8 24 -24 -6 -14 -15 29 -3
right_child=2 12 9 4 7 -7 10 14 -10 -11 -12 -13 26 27 -16 -17 20 21 -20 -21 -22 -23 23 -25 -26 -27 -28 -29 -30 -31
leaf_value=-0.037731363280637469 -0.062049317414492704 0.0094809512617808414 0.016411327580078624 -0.037118129747947495 0.02227347355472134 0.0031300981142281152 -0.040014710303656789 -0.0024045050802840267 -0.013037362231754931 0.0088052162023255203 -0.025382522218479864 0.014334035255219247 -0.037107638711005406 -0.0669145585290256 0.0073098075751472638 0.0087268509018658021 -0.025007078498284638 0.013825318325029876 -0.028532493072423355 -0.0022809331084764784 -0.054412034002391245 -0.018882406660161055 -0.041746687049768173 0.01562501560881379 0.0016675056379433706 0.0017222889313928758 -0.00099517733560482591 -0.05495907428198199 -0.00024669854361574839 -0.026320377347867043
leaf_weight=165.01136788725853 73.604489803314209 22.474782288074493 2391.6420870274305 53.297022387385368 81.448622241616249 372.9165303260088 21.723467454314232 2150.117726624012 54.145877033472061 4305.2694798707962 296.56546655297279 1618.6979691833258 590.82896187901497 546.03103685379028 1067.9280617535114 2231.3316596895456 213.29131752252579 41.561395242810249 143.54729501903057 263.78825038671494 61.924948781728745 179.52886556088924 42.662745997309685 94.26346093416214 203.10458701848984 869.40169638395309 26.414149224758148 495.02341598272324 86.80734121799469 186.63840943574905
leaf_count=679 303 92 9685 218 331 1516 89 8747 221 17464 1214 6559 2430 2272 4334 9054 875 169 588 1075 255 732 174 383 827 3533 108 2050 353 764
internal_value=-0.00011225 -0.0449438 0.00569607 0.00181895 0.00449464 -0.015023 -0.0217658 0.00557327 -0.0562341 0.0115273 -0.0128256 0.00861804 -0.0292907 -0.0581403 0.000812752 0.00588858 -0.0384821 0.000460472 -0.0147166 -0.00831339 -0.0318869 -0.0125868 -0.00242095 1.77803e-05 -0.00590609 0.00353049 -0.0356068 -0.0613119 -0.0159565 -0.0223268
internal_weight=18951 2173.38 16777.6 10080.7 8700.65 1380.06 1007.14 8240.02 1260.21 6696.91 658.32 5021.97 913.164 1206.07 3218.05 3403.27 348.821 1171.94 460.633 317.085 275.216 221.09 361.754 340.031 245.767 950.85 617.243 1041.05 295.921 209.113
internal_count=77094 8969 68125 40976 35340 5636 4120 33459 5222 27149 2687 20378 3747 5001 13081 13819 1433 4765 1881 1293 1130 901 1473 1384 1001 3864 2538 4322 1209 856
is_linear=0
shrinkage=0.05


Tree=3
num_leaves=31
num_cat=0
split_feature=16 15 10 15 1 15 10 17 17 11 11 1 2 1 15 11 16 6 6 15 1 17 22 6 15 2 15 5 3 5
split_gain=1797.14 141.535 130.278 140.743 66.6278 87.4018 35.3349 34.4312 32.0544 27.5211 27.1105 27.0134 26.76 23.6193 23.2037 22.2336 17.7805 15.5089 12.5362 12.4249 12.3835 12.042 16.7817 13.0096 11.43 11.42 11.5205 11.2564 11.0466 11.5437
threshold=1.0000000180025095e-35 0.015246042139572492 0.0053361483888982588 0.022462459184121878 0.0047885430959426377 0.014112902004408999 0.005133092863432792 0.66461839870462647 0.65605508653200706 5.4007318925039142e-06 5.2606764299851013e-06 5.3093163613417055e-06 2.510886699687012e-06 8.9128345224691354e-05 0.05149633386474655 4.9927992320275922e-05 0.0034174201125687941 0.59194674271125758 0.59194623153940606 0.0070054409919496101 0.00011163629350260388 0.66636124821970288 0.19608390061640213 0.59192718974742364 0.05700159685222702 0.0060474513139287837 0.034217924963149342 0.37369353727587473 0.00016936161025061256 0.51552287267733743
decision_type=2 2 2 2 2 2 2 2 2 2 2 2 2 2 2 2 2 2 2 2 2 2 2 2 2 2 2 2 2 2
left_child=1 6 3 4 5 10 11 12 -4 -3 -2 -1 -5 15 18 17 28 -7 -9 -13 -15 22 -10 -24 -18 26 -11 -12 -14 -30
right_child=2 9 8 7 -6 13 -8 14 21 25 27 19 16 20 -16 -17 24 -19 -20 -21 -22 -23 23 -25 -26 -27 -28 -29 29 -31
leaf_value=-0.036100079097621744 -0.016859683958119719 -0.015201321385574899 0.016225364734724978 0.012185311472414438 0.004911985633726375 -0.0046183394837783463 -0.011375548313136754 -0.013845817403115003 0.0070184442402748352 -0.038487197606096132 -0.059825306846727905 -0.064507849546530452 -0.0018462197577772494 -0.047404499544001534 0.0061586098786211435 0.012668686695475327 0.0042879747344000668 -0.029432629724099379 -0.0017121079445263328 -0.052467891769986945 -0.01572468208216329 0.0031534996157763112 0.0069084192893529963 0.017220099640113843 0.010996636147225142 0.021895293167147931 -0.020771955366545171 -0.035886412360786178 -0.038154284593312722 0.0249550536770255
leaf_weight=163.91778603196144 177.08515931665897 295.17724262177944 2011.5579332113266 1756.1310397088528 575.07620911300182 599.83149306476116 48.663989007472992 254.76179951429367 2156.6060790717602 478.35364627838135 72.827217310667038 538.31548404693604 391.09795685112476 38.399472489953041 960.13629661500454 174.47279465198517 2627.3494630753994 70.184255853295326 1317.8659682571888 495.04876524209976 180.65129134058952 841.00095167756081 457.06870983541012 1000.4040860533714 849.00246904790401 7.825265407562255 127.24340742826462 227.69606982171535 39.90821461379528 7.576916590332984
leaf_count=679 727 1209 8130 7110 2333 2446 199 1037 8739 1980 303 2272 1592 158 3894 708 10663 287 5365 2072 741 3408 1852 4054 3442 32 526 941 164 31
internal_value=-0.000110085 -0.0430898 0.00540705 0.00191698 -0.00957277 -0.0149936 -0.0540603 0.00488468 0.0109718 -0.0279759 -0.0327539 -0.0557634 0.0070491 -0.00697118 2.76235e-05 -0.0031307 0.00473623 -0.00729489 -0.00370118 -0.0588204 -0.0215819 0.00859098 0.00984815 0.0140104 0.00593626 -0.0340476 -0.0348466 -0.0419497 -0.00471057 -0.0272617
internal_weight=18941.2 2154.55 16786.7 10320.1 2116.22 1541.15 1245.95 8203.83 6466.64 908.6 477.608 1197.28 5671.07 1063.54 2532.76 844.489 3914.94 670.016 1572.63 1033.36 219.051 4455.08 3614.08 1457.47 3476.35 613.422 605.597 300.523 438.583 47.4851
internal_count=77094 8969 68125 41942 8644 6311 5222 33298 26183 3747 1971 5023 23002 4340 10296 3441 15892 2733 6402 4344 899 18053 14645 5906 14105 2538 2506 1244 1787 195
is_linear=0
shrinkage=0.05


Tree=4
num_leaves=31
num_cat=0
split_feature=4 15 0 15 12 4 0 17 15 2 5 15 0 11 4 15 2 16 11 5 12 5 4 12 15 6 6 12 15 4
split_gain=1636.77 132.074 117.448 129.933 70.2745 51.5541 33.1266 32.8684 32.3715 65.1667 30.1493 26.6894 26.0442 25.2351 23.449 17.2656 15.5322 14.8524 14.3388 15.131 14.3066 13.1136 12.6032 12.1521 17.7287 12.0972 11.8346 11.3292 11.3266 11.0959
threshold=1.0000000180025095e-35 0.015246042139572492 0.0052924481464142028 0.022462459184121878 0.02369333007452178 2.7961235739271017e-08 0.00019967445198377574 0.66173243218177469 0.012474866342438965 0.0001950993590342634 0.572181314054655 0.014112902004408999 5.3310471721576895e-06 5.4007318925039142e-06 4.6387540786380386e-05 0.05149633386474655 1.0504015321737093e-06 0.0019027688741262733 5.7245857545345767e-05 0.35333134707303526 0.045391716933633836 0.43828620203069718 4.2500460509608222e-09 0.035051021115532321 0.024089235115780174 0.59192718974742364 0.58608219660286787 0.0067791577654500966 0.0070054409919496101 2.2335652373149132e-07
decision_type=2 2 2 2 2 2 2 2 2 2 2 2 2 2 2 2 2 2 2 2 2 2 2 2 2 2 2 2 2 2
left_child=1 6 3 4 8 22 12 14 9 16 21 -6 -1 -3 18 -9 -2 29 19 -7 -13 -4 -5 -15 -25 -23 -12 -11 -14 -10
right_child=2 13 10 5 11 7 -8 15 17 27 26 20 28 23 -16 -17 -18 -19 -20 -21 -22 25 -24 24 -26 -27 -28 -29 -30 -31
leaf_value=-0.034551936179730278 -0.0028612128345523727 -0.014478833840728653 0.016090200377786121 -0.027222079915885135 -0.039161246584465036 0.012384441708067075 -0.014881071161540901 -0.0012573583211131802 -0.031504128909834318 -0.012679590251453342 -0.034062797462996675 -0.012269831098928142 -0.062453882062839687 -0.021113947047412387 0.013246083761024308 0.0066061686759779767 -0.038095746168856831 0.0061174417680166637 0.008830269977909224 -0.00030074480919110923 -0.033181589472223459 0.0068559701405813403 -0.0071831575182327821 -0.048628482594403014 -0.027544492859436678 0.013382578188014539 0.0054211563131384768 0.0067954470726402511 -0.050769290417421314 0.017691828484720212
leaf_weight=162.77350343763828 39.423533767461777 294.47922919690609 1697.4421298503876 111.81033302843571 174.79351498186588 289.15799967944622 59.914746433496475 1995.2418575435877 45.772088885307312 101.2119187861681 18.026625826954842 429.91472467780113 526.41654421389103 179.60039708018303 1527.9742781072855 1069.652210727334 191.23874531686306 708.81033650040627 1714.145815372467 1220.0477494001389 103.77016051113605 1299.8397243469954 280.04492962360382 194.47957788407803 235.34677647054195 1636.259705632925 1852.6050349920988 273.60521693527699 481.45829647779465 13.752480506896971
leaf_count=679 162 1209 6851 460 728 1173 247 8119 188 411 73 1761 2257 748 6173 4334 796 2882 6943 4952 427 5260 1144 811 979 6620 7501 1111 2039 56
internal_value=-0.00010763 -0.0413402 0.0051334 0.0018059 -0.00934211 0.00463786 -0.0520261 0.00552783 -0.00271991 -0.0113674 0.010393 -0.0221261 -0.0538916 -0.0267236 0.00813272 0.00148013 -0.0322199 0.00406807 0.00569771 0.00211973 -0.0164371 0.0125595 -0.0130194 -0.0325659 -0.0372329 0.010505 0.00500931 0.00145033 -0.0569528 -0.0196204
internal_weight=18929 2134.47 16794.5 10290.4 2082.29 8208.08 1230.56 7816.22 1373.81 605.479 6504.17 708.478 1170.65 903.906 4751.33 3064.89 230.662 768.335 3223.35 1509.21 533.685 4633.54 391.855 609.427 429.826 2936.1 1870.63 374.817 1007.87 59.5246
internal_count=77094 8969 68125 41820 8522 33298 5222 31694 5606 2480 26305 2916 4975 3747 19241 12453 958 3126 13068 6125 2188 18731 1604 2538 1790 11880 7574 1522 4296 244
is_linear=0
shrinkage=0.05


Tree=5
num_leaves=31
num_cat=0
split_feature=4 15 9 15 4 0 0 0 18 5 9 15 6 5 4 0 10 15 9 11 0 5 10 22 5 21 4 15 18 9
split_gain=1415.76 132.162 92.3416 129.733 53.3099 53.1512 63.8953 48.5296 32.7715 32.4017 30.7999 29.0172 22.7167 31.505 21.3117 24.2831 19.491 18.9823 18.5289 16.8551 14.9566 14.7794 14.3917 13.3423 11.9057 11.4939 11.3851 11.3424 11.8462 11.002
threshold=1.0000000180025095e-35 0.012822450637383699 0.0052771391472399834 0.020987177608618866 2.5746114826580656e-08 0.00021155816858788148 8.9415781868620585e-05 0.00021155816858788148 0.6036540598151412 0.45189821409900949 0.00010259205433670204 0.010475873570764366 0.59194599806544101 0.54456089162216448 0.00035461627426964539 5.3689242869165521e-05 5.3136888637851322e-06 0.023019663679557403 0.00014543673085631943 0.00018224386770814913 0.00013076079923582648 0.44233558218605568 0.94310532165063776 0.46364587348021485 0.36396024344431133 0.57524342417293661 4.6387540786380386e-05 0.055765649568999077 0.63632573485278565 0.00014326167739807331
decision_type=2 2 2 2 2 2 2 2 2 2 2 2 2 2 2 2 2 2 2 2 2 2 2 2 2 2 2 2 2 2
left_child=1 7 3 5 18 6 11 16 21 -6 17 -2 -11 26 15 -13 -1 -3 -5 -12 -8 22 -4 -20 -22 -23 -14 28 -15 -26
right_child=2 10 8 4 9 -7 20 -9 -10 12 19 14 13 27 -16 -17 -18 -19 23 -21 24 25 -24 -25 29 -27 -28 -29 -30 -31
leaf_value=-0.032777245492048211 -0.031171218769158227 -0.027777301858537159 0.016555295334528753 -0.00586451767710765 0.009934775608381333 0.0040121359223568177 -0.045733800737768872 0.0020716208553130861 0.0037972938723417043 -0.0032509674014665636 -0.042584777702705211 -0.011958755466724065 0.0071323479259379485 0.00073180687891191915 0.019274207363721877 0.011475880178995449 -0.05607063212663102 -0.010021082403957359 -0.035462193693577754 -0.020810163351139763 -0.049755827499998698 0.0075652225381790872 -0.0017233372700590202 0.014047096942768329 0.0063349781850650577 0.014303979227899485 0.01613470945522693 0.0072910493399236586 -0.015921038923043338 -0.024528786156504279
leaf_weight=111.85250177979469 120.97943739593029 298.72280353307724 1700.2255293428898 292.44350333511829 2799.0858564972878 480.87000674009323 145.55417568981647 39.937886953353882 1746.9384542703629 1062.4350057244301 313.0708442479372 599.42385725677013 903.1761227697134 1908.013446226716 80.338296234607697 133.60002391040325 877.04914493858814 318.21104408800602 105.86842457950115 136.04633778333664 38.847205385565758 2099.3770934045315 112.14808204770088 14.269630789756773 33.764027759432793 930.76440630853176 595.05994556844234 673.26384769380093 112.08176811039448 150.0378427952528
leaf_count=470 506 1250 6853 1196 11327 1950 611 164 7068 4306 1320 2460 3662 7762 327 542 3798 1318 438 569 163 8486 452 59 139 3764 2403 2726 456 623
internal_value=0.000248955 -0.0385029 0.00507357 0.00210117 0.00468527 -0.010147 -0.0153925 -0.0513157 0.00969197 0.00558595 -0.0260774 -0.00838751 0.00326291 0.00492032 -0.00493385 -0.00764371 -0.053497 -0.0186902 -0.0128057 -0.0361053 -0.0330297 0.0118121 0.0154101 -0.0293078 -0.0244453 0.00964744 0.0107329 0.00167488 -0.000187201 -0.0187203
internal_weight=18933.5 2094.89 16838.6 10249.1 8465.7 1783.41 1302.54 1028.84 6589.45 8053.12 1066.05 934.342 5254.03 4191.6 813.362 733.024 988.902 616.934 412.582 449.117 368.203 4842.52 1812.37 120.138 222.649 3030.14 1498.24 2693.36 2020.1 183.802
internal_count=77168 8889 68279 41656 34335 7321 5371 4432 26623 32642 4457 3835 21315 17009 3329 3002 4268 2568 1693 1889 1536 19555 7305 497 925 12250 6065 10944 8218 762
is_linear=0
shrinkage=0.05


Tree=6
num_leaves=31
num_cat=0
split_feature=4 15 14 15 12 10 14 10 5 5 4 0 3 4 15 3 12 15 6 5 5 0 15 12 14 5 10 14 8 6
split_gain=1290.16 124.391 85.5176 147.556 59.5414 56.0521 46.6559 39.4642 32.3602 30.8832 26.0654 24.4048 22.3503 20.1394 18.8363 34.69 17.8867 17.3007 16.2443 34.5543 15.2179 14.6304 13.6053 13.5012 13.1198 12.8579 12.7564 11.3789 11.1326 10.6206
threshold=1.0000000180025095e-35 0.017201393201120307 0.0002475665870803577 0.020987177608618866 0.023870599781373795 0.00018419391928899725 1.4877799704348381e-05 5.3136888637851322e-06 0.40562660411044577 0.44233558218605568 2.3734357716449901e-09 8.0551600601985472e-05 9.9721840702731554e-05 2.5746114826580656e-08 0.012474866342438965 0.00019072452514126218 0.024943611843146824 0.029598969041687243 0.5919459678994744 0.54456089162216448 0.50447776444210446 5.3689242869165521e-05 0.0067400305009676018 0.033584913967932631 1.4211274277593447e-05 0.572181314054655 0.94310532165063776 8.4029812730159649e-06 0.55599746779271675 0.59162976477649631
decision_type=2 2 2 2 2 2 2 2 2 2 2 2 2 2 2 2 2 2 2 2 2 2 2 2 2 2 2 2 2 2
left_child=1 6 3 4 10 8 7 -1 16 26 -2 21 24 -10 15 20 -5 -18 27 -20 -12 -6 -22 -14 -3 -11 -4 -15 -17 -27
right_child=2 12 9 5 11 -7 -8 -9 13 25 14 -13 23 18 -16 28 17 -19 19 -21 22 -23 -24 -25 -26 29 -28 -29 -30 -31
leaf_value=-0.026768085842353202 -0.036394665743617431 -0.015281654225165149 0.015530411197963024 0.026778136615924375 -0.020245867014741722 -0.02410253349182687 -0.0067603446849616809 -0.05256052244952221 -0.010022924250162426 0.0090852043578896428 -0.041080510114166684 -0.038982664761894853 -0.0082875929290516289 -0.0051356771838453122 0.003714930209857293 -0.0032736947970861381 -0.0039372431227528903 0.011318028448387639 0.010850474293119894 0.0018854581363980526 -0.041832787242153391 0.016287431297633517 -0.0019963647724455277 -0.036480512182093798 0.043329537316332947 -0.021620248550226106 -0.0016381847400152431 0.0031588995996748651 0.022763992435560487 0.0043983456198512334
leaf_weight=181.80228145420551 60.985179618000984 461.73906892538071 1800.2983480244875 163.26152108609676 310.18299475312233 167.29634837806225 71.688401967287064 1041.9963688403368 267.33575116097927 2998.4737562984228 88.912794515490532 211.95663030445576 54.701705887913704 692.25335758924484 496.55571115016937 161.871123239398 210.44363358616829 1429.6770355403423 1815.6392709165812 2654.225947484374 28.737496972084045 28.545002520084381 82.544797852635384 253.38618884980679 8.5955825448036176 38.751893773674965 112.1312417536974 1022.7314278632402 53.490884557366371 1947.9124814420938
leaf_count=767 255 1921 7248 660 1284 687 297 4566 1097 12111 375 892 230 2805 2023 658 854 5779 7341 10783 122 116 344 1072 36 157 452 4141 217 7878
internal_value=0.000234104 -0.0369667 0.00481778 0.00184753 -0.012461 0.00444023 -0.0464757 -0.0487743 0.00502452 0.00909652 -0.00498385 -0.0255954 -0.02107 0.00336295 -0.00281874 -0.0106761 0.0109503 0.00934419 0.00394711 0.00553421 -0.0256192 -0.0170547 -0.0127873 -0.0315987 -0.0140678 0.00701212 0.0145104 -0.000175678 0.00315323 0.00386763
internal_weight=18918.1 2073.91 16844.2 9946.65 1523.78 8422.86 1295.49 1223.8 8255.57 6897.57 973.098 550.685 778.423 6452.19 912.113 415.557 1803.38 1640.12 6184.85 4469.87 200.195 338.728 111.282 308.088 470.335 4985.14 1912.43 1714.98 215.362 1986.66
internal_count=77168 8889 68279 40433 6286 34147 5630 5333 33460 27846 3994 2292 3259 26167 3739 1716 7293 6633 25070 18124 841 1400 466 1302 1957 20146 7700 6946 875 8035
is_linear=0
shrinkage=0.05


Tree=7
num_leaves=31
num_cat=0
split_feature=4 15 14 15 10 14 17 4 5 16 4 9 4 14 10 5 10 15 11 0 15 4 15 17 4 14 4 17 10 5
split_gain=1175.98 117.484 77.085 133.55 50.7514 44.4543 34.388 31.61 27.8033 27.4602 27.5628 26.4912 20.5901 23.2048 25.8486 17.7622 17.4132 16.2161 14.9194 14.2069 13.2128 12.5386 12.4508 12.43 12.1219 11.8795 17.5952 12.5351 11.6094 11.5811
threshold=1.0000000180025095e-35 0.012822450637383699 0.0002475665870803577 0.020987177608618866 0.00018419391928899725 1.3497139891784908e-05 0.66294552817612662 0.00031474667206656773 0.44233558218605568 0.10543528242078629 2.3734357716449901e-09 0.00010259205433670204 4.6387540786380386e-05 7.7840648053150351e-06 5.4718491935112063e-06 0.31588326740274136 5.3136888637851322e-06 0.023019663679557403 0.00018224386770814913 0.0051162755196287957 0.054639397277287248 0.0095174426922541994 0.010664258975126862 0.67132971886005788 3.0388730243241976e-09 4.3800242329601748e-06 7.208088399330951e-08 0.6503979055071204 0.94649308400208043 0.572181314054655
decision_type=2 2 2 2 2 2 2 2 2 2 2 2 2 2 2 2 2 2 2 2 2 2 2 2 2 2 2 2 2 2
left_child=1 5 3 7 6 16 12 9 28 10 -2 17 13 14 15 -5 -1 -3 -13 22 21 -8 -11 25 -15 26 -12 -27 -4 -10
right_child=2 11 8 4 -6 -7 20 -9 29 19 23 18 -14 24 -16 -17 -18 -19 -20 -21 -22 -23 -24 -25 -26 27 -28 -29 -30 -31
leaf_value=-0.030260194835222371 -0.033623769382383227 -0.025370547597296081 0.014642446929829795 0.02596761377127187 -0.022996087702209473 0.0030853126491982639 -0.0024097491420998624 0.017266825956958814 0.0086233875326009006 -0.043958425713231802 -0.030157519810185815 -0.039344301480996539 0.011733635896492704 -0.020162891196974363 -0.01471187262258738 0.0011342961042621579 -0.052464602139445704 -0.008882055882338263 -0.018720934869884808 0.003712940981714756 0.0055267772568998071 0.02280474002456041 -0.021996062777705855 -0.030905192031157144 0.0083513576549743059 -0.025141986898878234 -0.0061255962305449994 0.0033561835396293386 -0.0033782723733638805 0.0036716521148832909
leaf_weight=110.30912339687347 107.48494429886341 295.03061662614346 1823.264388859272 77.544506698846817 166.64347518980503 40.133569911122322 2000.526489764452 86.130600184202194 3001.0856267362833 100.39174908399582 94.873211339116096 306.84215180575848 1691.3691551238298 36.447490975260735 254.15721707046032 904.51549272239208 848.65102303028107 316.80031257867813 134.6565438657999 35.023657023906708 884.52387952804565 49.407801866531372 217.85038031637669 50.756328254938126 2361.0810567289591 41.810232162475586 398.13378447294235 386.99429954588413 91.279490888118744 1987.4528773576021
leaf_count=470 454 1250 7332 313 687 165 8146 350 12111 431 397 1320 6816 151 1036 3669 3797 1318 569 142 3579 201 907 212 9549 175 1640 1578 368 8035
internal_value=0.000219741 -0.0355029 0.00457462 0.00175357 0.00421638 -0.0478134 0.00477116 -0.0118815 0.0086346 -0.0136613 -0.0096504 -0.0237683 0.00716603 0.00503046 -0.000514949 0.00314501 -0.0499707 -0.0169022 -0.0331672 -0.0257917 0.000415762 -0.00177901 -0.0291186 -0.00694345 0.00789923 -0.00556493 -0.0108525 0.000467296 0.0137689 0.00665674
internal_weight=18901.2 2052.42 16848.7 9945.67 8426.22 999.094 8259.57 1519.45 6903.08 1433.32 1080.05 1053.33 5325.11 3633.75 1236.22 982.06 958.96 611.831 441.499 353.266 2934.46 2049.93 318.242 972.568 2397.53 921.812 493.007 428.805 1914.54 4988.54
internal_count=77168 8889 68279 40433 34147 4432 33460 6286 27846 5936 4456 4457 21534 14718 5018 3982 4267 2568 1889 1480 11926 8347 1338 4002 9700 3790 2037 1753 7700 20146
is_linear=0
shrinkage=0.05


Tree=8
num_leaves=31
num_cat=0
split_feature=4 15 14 15 12 11 14 17 18 9 4 9 12 4 14 10 10 15 3 5 15 5 1 12 14 15 15 12 4 12
split_gain=1072.37 110.465 69.4991 120.888 51.9055 46.1107 41.4571 31.1083 27.6268 24.4362 22.0183 21.7905 19.3552 18.5441 20.9014 23.3855 16.5943 16.4816 29.1831 16.0056 14.8224 13.9769 12.9223 12.5319 12.3589 12.0224 11.6204 11.7594 11.8105 11.1077
threshold=1.0000000180025095e-35 0.012822450637383699 0.0002475665870803577 0.020987177608618866 0.023870599781373795 0.00018224386770814913 1.3497139891784908e-05 0.66294552817612662 0.60271586949206368 0.00010259205433670204 2.3734357716449901e-09 8.0975935363794004e-05 0.033584913967932631 4.6387540786380386e-05 7.7840648053150351e-06 5.4718491935112063e-06 5.3136888637851322e-06 0.012474866342438965 0.00019072452514126218 0.31588326740274136 0.023019663679557403 0.50447776444210446 5.361325133924729e-05 0.020735949869856427 2.8244014958734873e-05 0.0067400305009676018 0.054639397277287248 0.10763246899913727 0.0095174426922541994 0.027903564556808366
decision_type=2 2 2 2 2 2 2 2 2 2 2 2 2 2 2 2 2 2 2 2 2 2 2 2 2 2 2 2 2 2
left_child=1 6 3 4 10 7 16 13 -4 20 -2 22 -11 14 15 19 -1 18 21 -5 -3 -12 -6 -17 -14 -23 27 28 -9 -16
right_child=2 9 8 5 11 -7 -8 26 -10 12 17 -13 24 -15 29 23 -18 -19 -20 -21 -22 25 -24 -25 -26 -27 -28 -29 -30 -31
leaf_value=-0.028986835573211106 -0.033449991201003643 -0.024256526545826697 0.010253908721534142 0.024628593127176704 -0.018611513947286308 -0.022342072960852499 0.0029333139268456496 -0.0018466498607838803 0.003310436025361305 -0.012676869015498228 -0.038520496812326221 -0.0364295699895128 -0.042751142455261265 0.011136215807222766 0.012708951001917971 0.010594178802721874 -0.050755004551461862 0.00373693951092728 0.0028877934566974637 0.0010774978319867898 -0.0084544025668633355 -0.03886844296296485 0.015691278393478031 -0.018944115101587746 -0.017731512055849403 -0.0011443203390014423 0.0051700014745666486 -0.03513741499989239 0.022720935785095993 0.0052352136348269643
leaf_weight=109.46297600865364 60.046521246433258 293.2436717748642 4857.4237760603428 77.722037822008133 308.03378483653069 161.57951354980469 40.153793290257454 1978.5503931343555 2050.580871745944 105.90900850296021 87.512054741382599 208.82528385519981 263.89211645722389 1693.0101976692677 721.21985790133476 41.342549905180931 833.7890337407589 496.41905952990055 215.46659769117832 904.63514895737171 316.24894258379936 28.16338287293911 28.583361551165581 212.2936057895422 67.83430939912796 82.229082182049751 887.96309508383274 24.972042441368103 49.054191902279854 1676.5081754773855
leaf_count=470 255 1250 19562 313 1284 669 165 8059 8284 453 375 892 1147 6816 2916 168 3797 2023 875 3669 1318 122 116 868 289 344 3591 102 199 6777
internal_value=0.000206108 -0.03411 0.00434416 0.00166446 -0.0113288 0.00400433 -0.046171 0.00452492 0.0081972 -0.022726 -0.00434818 -0.0236644 -0.0318037 0.00680368 0.0047757 -0.000487021 -0.0482887 -0.00236538 -0.00974535 0.00298938 -0.0161255 -0.0235706 -0.0155868 -0.0140085 -0.0377787 -0.0112555 0.000387583 -0.00167067 -0.00122905 0.00749804
internal_weight=18882.7 2030.53 16852.1 9944.13 1515.28 8428.85 983.406 8267.27 6908 1047.13 969.837 545.442 437.635 5326.73 3633.72 1235.99 943.252 909.79 413.371 982.357 609.493 197.905 336.617 253.636 331.726 110.392 2940.54 2052.58 2027.6 2397.73
internal_count=77168 8889 68279 40433 6286 34147 4432 33478 27846 4457 3994 2292 1889 21527 14711 5018 4267 3739 1716 3982 2568 841 1400 1036 1436 466 11951 8360 8258 9693
is_linear=0
shrinkage=0.05


Tree=9
num_leaves=31
num_cat=0
split_feature=4 15 14 15 4 14 17 0 5 4 18 8 9 14 4 9 15 14 9 0 5 22 4 16 4 22 15 4 14 7
split_gain=978.211 104.074 62.6538 109.811 50.4723 38.5067 33.3529 32.1847 32.1547 25.8658 24.8843 23.4172 17.0983 15.9186 14.7204 14.4096 13.9558 12.9448 14.7478 12.5396 13.335 11.8826 11.6622 11.3248 13.9646 11.163 10.7464 9.8654 9.82923 9.81778
threshold=1.0000000180025095e-35 0.017201393201120307 0.0002475665870803577 0.019055735838451725 2.5746114826580656e-08 5.2845944549845328e-05 0.66294552817612662 5.3310471721576895e-06 0.33770176541726904 0.00035461627426964539 0.60271586949206368 0.55599746779271675 0.00010259205433670204 1.6068023680696238e-05 4.6387540786380386e-05 0.00014543673085631943 0.022836286931237813 7.7840648053150351e-06 0.00017937395835375525 4.1875122388343951e-06 0.31162569852788874 0.46364587348021485 2.3144860111561933e-08 0.0960324647816517 2.3734357716449901e-09 0.43992742915063249 0.0091502312829263039 1.0685609423100167e-08 1.4211274277593447e-05 0.59197168871457706
decision_type=2 2 2 2 2 2 2 2 2 2 2 2 2 2 2 2 2 2 2 2 2 2 2 2 2 2 2 2 2 2
left_child=1 5 3 8 15 7 14 -1 13 11 -4 23 28 -2 17 22 -8 19 -19 20 -6 -17 27 24 -10 -12 -9 -5 -3 -18
right_child=2 12 10 4 6 -7 16 26 9 -11 25 -13 -14 -15 -16 21 29 18 -20 -21 -22 -23 -24 -25 -26 -27 -28 -29 -30 -31
leaf_value=-0.023807194472705483 -0.043333924476731199 -0.013175351788615071 0.0097332855662363299 -0.0088378690635407472 0.029526469323173946 0.0014603750854687188 -0.014341081449682359 -0.051598169115560789 -0.029852562960434027 0.027076232523142757 0.0017674252554303492 0.019001051903844407 -0.02758153058390117 0.0085728882396292599 0.010562657639213255 -0.032504912834468179 -0.0044306167860832099 0.0080266528196335177 -0.010649821757900269 -0.0044825168786360482 0.0033869698120096701 0.012633996049862165 -0.018017453748467065 -0.022131935233503236 -0.0073797855319761175 0.013163216469237689 -0.040248389589804305 0.014399518775595133 0.036185613764277313 0.0026096698942112383
leaf_weight=184.0417372584343 108.64930331707001 457.81210796535015 4861.3292093425989 103.3472458422184 52.452629655599594 48.384983465075493 156.35974708199501 599.11020475625992 77.740128323435783 44.587253004312515 1806.7017493247986 58.733832404017448 299.84602549672127 15.825922608375548 1746.1616990417242 113.54721716046333 642.87340144813061 2232.2218710929155 108.98470681905746 586.84001892805099 622.98112763464451 15.306824177503584 135.17357654869556 260.66708263754845 654.0211157053709 244.5461278706789 410.10269179940224 79.877666980028152 9.1154024899005872 2125.5764837116003
leaf_count=793 469 1922 19562 425 211 199 642 2792 334 181 7296 238 1299 65 7026 478 2611 9010 445 2390 2525 64 555 1102 2702 988 1846 326 38 8634
internal_value=0.000193291 -0.0327811 0.00412577 0.00158036 0.00354845 -0.041741 0.00443547 -0.0435134 -0.0124577 -0.00967073 0.00778231 -0.0112774 -0.0182043 -0.0365195 0.00678242 -0.0127795 0.000133364 0.00494125 0.0071424 0.000836454 0.00549451 -0.0268942 -0.00692273 -0.0131119 -0.00983883 0.00314395 -0.0470552 0.00118004 -0.012083 0.000964779
internal_weight=18862.9 2008.41 16854.5 9941.93 8721.7 1241.64 8274.45 1193.25 1220.22 1095.75 6912.58 1051.16 766.774 124.475 5349.64 447.253 2924.81 3603.48 2341.21 1262.27 675.434 128.854 318.398 992.428 731.761 2051.25 1009.21 183.225 466.928 2768.45
internal_count=77168 8889 68279 40433 35342 5630 33494 5431 5091 4557 27846 4376 3259 534 21607 1848 11887 14581 9455 5126 2736 542 1306 4138 3036 8284 4638 751 1960 11245
is_linear=0
shrinkage=0.05


Tree=10
num_leaves=31
num_cat=0
split_feature=15 14 14 15 3 9 15 11 11 17 17 11 9 21 14 9 3 11 11 21 17 9 14 5 6 18 6 11 6 1
split_gain=342.272 254.311 145.01 344.769 60.4969 57.7244 39.3671 31.5378 36.0112 27.3919 18.8624 18.1144 23.0591 16.9682 16.0736 15.8467 15.4803 14.9598 12.6909 11.9925 14.8237 11.6829 11.3797 12.2249 11.2603 11.2474 11.123 11.037 10.6402 10.1114
threshold=0.0070054409919496101 5.2845944549845328e-05 4.5752209650812165e-05 0.019055735838451725 0.00010199541986921415 0.00010259205433670204 0.032309137177657356 5.1100425284738133e-05 5.2606764299851013e-06 0.64691509035739392 0.66063766956477188 6.2420285289560261e-05 3.4751853554477502e-06 0.57009050502108061 1.8115208920014602e-06 5.42747050554939e-06 0.00018403472675611446 0.00013780242719554513 5.2606764299851013e-06 0.59437638333825338 0.67852940195573475 0.00010259205433670204 9.274225223702585e-07 0.64094376054402369 0.59192221130987022 0.6055327859902907 0.59194593742353674 0.00010496597049471146 0.59192563288193401 6.4677566002043775e-07
decision_type=2 2 2 2 2 2 2 2 2 2 2 2 2 2 2 2 2 2 2 2 2 2 2 2 2 2 2 2 2 2
left_child=1 21 3 5 9 7 16 8 29 -5 -4 12 22 -12 15 18 27 -7 -14 20 -15 -1 23 26 -19 28 -11 -6 -13 -2
right_child=2 -3 10 4 6 17 -8 -9 -10 11 13 25 14 19 -16 -17 -18 24 -20 -21 -22 -23 -24 -25 -26 -27 -28 -29 -30 -31
leaf_value=-0.038554231218346662 -0.00038000069284488543 0.0045848949487947589 0.0086518419815630725 0.0090097791738308532 -0.043617750435414493 -0.043131317226110806 -0.00098250341895944962 0.0098196798431357413 -0.031552474212656743 -0.0044043109338916244 -0.029355744553199389 -0.018548668343031482 -0.005068182122525626 0.0029769646401988058 0.00086519890882411738 -0.01543574677156878 -0.034613480413399608 -0.048566604802530201 0.01739412474362664 0.013070630373544837 -0.041557734199907596 -0.054685478760257838 0.016677374396809698 -0.0069006512389227816 -0.022957106322597742 0.00084817517874389539 0.0056051437550225488 -0.011790184843532961 0.012289111802042845 -0.015261130333334053
leaf_weight=194.09501796960831 164.69370485842228 340.72629915177822 4585.7836108207703 1539.9793300032616 29.360063090920448 313.05379946529865 694.88168333470821 105.20891492068768 347.4653045386076 324.62502124905586 37.889170870184898 27.657568201422691 804.34606657922268 2333.4561690986156 1255.130671620369 393.54201686382294 124.31978714466095 54.244235932826996 66.846772268414497 311.68454569578171 17.772528931498528 399.10380688309669 156.12957045435905 286.6406261920929 278.74874547123909 442.17660704255104 1796.6029550880194 383.10754172503948 691.79747398197651 398.97937844693661
leaf_count=897 683 1378 18452 6225 125 1418 2836 435 1523 1312 153 112 3282 9420 5099 1620 527 243 272 1262 72 1892 632 1166 1230 1795 7267 1599 2797 1680
internal_value=-0.000275942 -0.0297723 0.00125753 -0.00245116 0.00140441 -0.0233678 -0.00888267 -0.0158688 -0.01887 0.00303598 0.00669617 0.00155779 0.000265006 0.00336435 -0.00312581 -0.00710382 -0.0190423 -0.0350837 -0.00329802 0.00385014 0.00261218 -0.0495232 0.00360713 0.00274268 -0.0273366 0.00718903 0.0040602 -0.0142162 0.0110448 -0.0109658
internal_weight=18900 933.925 17966.1 10679.5 9017.14 1662.39 1231.67 1016.35 911.138 7785.47 7286.59 6245.5 5083.86 2700.8 2519.87 1264.73 536.787 646.047 871.193 2662.91 2351.23 593.199 2564 2407.87 332.993 1161.63 2121.23 412.468 719.455 563.673
internal_count=77404 4167 73237 43878 36666 7212 5087 4321 3886 31579 29359 25354 20650 10907 10273 5174 2251 2891 3554 10754 9492 2789 10377 9745 1473 4704 8579 1724 2909 2363
is_linear=0
shrinkage=0.05


Tree=11
num_leaves=31
num_cat=0
split_feature=4 15 2 15 4 14 17 14 17 15 2 9 17 7 4 21 15 14 21 22 15 7 17 22 15 7 10 15 17 22
split_gain=884.711 83.7007 54.266 71.4573 45.1859 41.8064 26.2086 25.9922 24.1591 20.6456 18.8164 17.0729 15.1791 14.357 13.2427 13.0989 12.2335 11.2594 10.6127 10.6321 10.4517 10.5401 10.3967 10.6964 9.58709 9.33165 9.21608 9.46947 9.18907 12.1595
threshold=1.0000000180025095e-35 0.012822450637383699 0.0065688115257832745 0.019055735838451725 2.5746114826580656e-08 8.3291873864823926e-05 0.65281870858915669 6.6652542675480126e-05 0.66421431733847081 0.0072904745253175316 5.7958540192648537e-06 0.00010259205433670204 0.66063766956477188 0.59197194226919991 1.1854307731480673e-09 0.59578895169450685 0.011210132021735103 1.0831038184765597e-06 0.56688080348053527 0.42038813601593134 0.034685212075105769 0.59183685146904519 0.64691509035739392 0.19754090740355104 0.039854067706132708 0.59197172473596893 0.94649308400208043 0.010068630356136844 0.67236109834282953 0.26220784158798555
decision_type=2 2 2 2 2 2 2 2 2 2 2 2 2 2 2 2 2 2 2 2 2 2 2 2 2 2 2 2 2 2
left_child=1 7 3 5 14 6 16 11 22 -8 -3 -1 26 -11 -5 28 -2 -16 -7 -20 21 -12 23 -6 -10 -26 -4 -28 -14 -30
right_child=2 10 12 4 8 18 9 -9 24 13 20 -13 15 -15 17 -17 -18 -19 19 -21 -22 -23 -24 -25 25 -27 27 -29 29 -31
leaf_value=-0.034744006211303677 -0.049497544194330188 -0.011974182896019411 0.0097104046313950896 -0.031751257784263867 0.014026848822846539 0.01904060588559095 -0.035710843451589695 -0.0022363985269336375 -0.0033908721206800199 -0.0012233359084182069 0.039582132963227851 -0.049701204104389024 0.0035889619239487312 -0.015802558238674103 -0.029142864585692679 0.016797980177206139 -0.022190552428163424 -0.0049033533335680595 -0.0027144174204309828 0.023111517420313726 -0.013124373054748699 -0.030218242305445533 0.0043202815409702257 0.0058874215440647875 -0.0038732670336612028 0.0049571201475506373 -0.0381750814074171 0.0019154300955663527 -0.029710426105429628 0.0011796486665852236
leaf_weight=326.1685144752264 61.278175726532936 332.32584384083748 3656.7253303527832 69.820952922105789 651.82686997950077 72.592995181679726 72.56390580534935 39.505896329879761 1182.0947237461805 387.64598901569843 4.3340829759836188 581.46846956014633 1825.3191278874874 304.1635757535696 55.053697749972343 178.70304270088673 152.04762078821659 370.83829352259636 603.8948633223772 41.578564792871475 126.23884956538677 566.33149123191833 4236.927084416151 1112.5762281417847 403.75846128165722 1123.0521259307861 14.906990900635718 192.12612815201283 48.262268111109734 85.906876280903816
leaf_count=1516 276 1398 14691 295 2627 292 322 162 4820 1615 18 2801 7362 1285 229 721 645 1525 2440 168 538 2498 17112 4485 1637 4551 60 773 195 347
internal_value=-0.000265298 -0.0319115 0.00343496 0.00132986 0.00306935 -0.00809499 -0.0148193 -0.0426699 0.00390758 -0.0104195 -0.0219552 -0.0443979 0.00725357 -0.00768293 -0.0115871 0.00385059 -0.0303455 -0.00815621 0.0010338 -0.000978976 -0.0266549 -0.0295761 0.0056765 0.00891479 -2.73038e-06 0.00260459 0.00912881 -0.00102066 0.00264909 -0.00988453
internal_weight=18880 1976.37 16903.7 10901.7 9205.95 1695.77 977.699 947.143 8710.24 764.373 1029.23 907.637 6001.95 691.81 495.713 2138.19 213.326 425.892 718.066 645.473 696.904 570.666 6001.33 1764.4 2708.91 1526.81 3863.76 207.033 1959.49 134.169
internal_count=77404 8931 68473 44324 37281 7043 4143 4479 35232 3222 4452 4317 24149 2900 2049 8625 921 1754 2900 2608 3054 2516 24224 7112 11008 6188 15524 833 7904 542
is_linear=0
shrinkage=0.05


Tree=12
num_leaves=31
num_cat=0
split_feature=16 9 14 2 14 2 14 1 3 14 12 3 14 2 12 17 5 12 21 3 12 16 3 18 12 12 17 5 5 16
split_gain=807.675 51.7383 64.2242 48.9507 25.4224 25.3573 34.6325 49.838 28.295 32.2921 24.4131 23.7026 21.4331 14.8798 14.3806 13.6735 13.271 12.1765 11.8022 11.3528 24.7922 14.7169 11.9256 10.9401 10.5391 10.1238 19.5999 9.36399 9.23122 11.7001
threshold=1.0000000180025095e-35 0.00010259205433670204 1.3497139891784908e-05 0.0065688115257832745 7.0937348990333079e-07 2.510886699687012e-06 8.081620799401976e-06 9.4587939086152978e-05 8.6455327712968007e-05 2.8244014958734873e-05 0.0482589601341201 4.7044836627226426e-06 3.4692648462587815e-07 0.00018298469884430103 0.033812109127751726 0.66063766956477188 0.64094376054402369 0.0067791577654500966 0.59578895169450685 5.4429009103359215e-06 0.030608708057606224 0.012568428948794662 5.4460553526349671e-05 0.57202767458664983 0.11836416097584092 0.027710188555063846 0.6552060400113161 0.47259663327763551 0.67308072089616078 0.0070118541032934559
decision_type=2 2 2 2 2 2 2 2 2 2 2 2 2 2 2 2 2 2 2 2 2 2 2 2 2 2 2 2 2 2
left_child=1 4 -3 5 11 16 7 12 25 10 13 -1 -7 -10 27 -5 -2 -11 28 23 21 22 -21 -14 -18 26 -8 -4 29 -17
right_child=3 2 14 15 -6 6 8 -9 9 17 -12 -13 19 -15 -16 18 24 -19 -20 20 -22 -23 -24 -25 -26 -27 -28 -29 -30 -31
leaf_value=-0.01866805080614959 0.0064608113425545441 -0.047296699197468171 0.013420860810902352 0.0086669883083205501 -0.010804063976483773 -0.024211893794271269 0.024624141552561162 -0.038850453855896423 -0.0016545544395079029 -0.013867467799375985 -0.027646306836685078 -0.039204771946578357 0.011795126270879454 -0.020828124846453654 -0.027984900548670921 0.019901587877156648 -0.0073801895596111835 0.0030250277439544289 0.015938570018081469 -0.025782654534103666 -0.016086115054953727 0.0054449830841766583 0.016308124919698561 -0.0013832239660118064 0.028205082572230755 0.0043231248360887028 0.0052695962408171679 -0.016070283606062771 -0.0055381357982416174 0.0028494335496058111
leaf_weight=313.64170926809311 2568.1024098694324 686.48435132205486 38.728419199585915 3865.9384651631117 335.11799862980843 117.49053028225899 200.34274695813656 102.31654587388039 532.44920589029789 111.25770071148872 151.92165745794773 270.47499676048756 175.469114407897 125.10304525494576 229.63197833299637 107.39237874746323 275.24822589755058 2009.5891501307487 178.96862716972828 74.883043587207794 403.24625244736671 365.56514815986156 20.110372841358185 1462.2791998386383 21.305485531687737 1794.1449684947729 388.84723751246929 79.514766544103622 298.15026307106018 1554.3882957845926
leaf_count=1348 10364 3340 165 15524 1448 510 807 464 2187 452 635 1274 707 535 1018 433 1121 8128 721 310 1658 1499 82 5957 86 7249 1573 338 1204 6267
internal_value=-0.000254916 -0.0306861 -0.0383979 0.00326204 -0.0219491 0.00126193 -0.000175206 -0.00476401 0.00217068 -0.00111263 -0.00960775 -0.028271 -0.00340851 -0.00536648 -0.0206805 0.00688756 0.0053003 0.00212096 0.00365712 -0.00241217 -0.00704668 0.000831412 -0.0165344 1.97911e-05 -0.0046534 0.00621677 0.0119237 -0.00616979 0.00251535 0.00397777
internal_weight=18858.1 1953.59 1034.36 16904.5 919.235 10899.7 8035.02 2721.36 5313.66 2930.32 809.474 584.117 2619.04 657.552 347.875 6004.84 2864.66 2120.85 2138.9 2501.55 863.805 460.559 94.9934 1637.75 296.554 2383.33 589.19 118.243 1959.93 1661.78
internal_count=77404 8931 4861 68473 4070 44324 32753 11187 21566 11937 3357 2622 10723 2722 1521 24149 11571 8580 8625 10213 3549 1891 392 6664 1207 9629 2380 503 7904 6700
is_linear=0
shrinkage=0.05


Tree=13
num_leaves=31
num_cat=0
split_feature=4 15 2 15 4 14 5 10 17 7 1 2 5 21 22 15 21 18 15 21 5 17 17 22 5 15 7 6 15 21
split_gain=737.497 76.0799 44.1605 60.0871 39.5921 35.7195 29.4953 23.7598 20.9064 18.8779 17.7569 16.8493 12.6712 13.6526 11.6629 11.5034 10.7749 9.82267 9.56393 9.461 9.24439 9.21833 10.7924 8.53412 10.6817 8.14872 8.56447 7.91689 7.89692 7.66306
threshold=1.0000000180025095e-35 0.012822450637383699 0.0065688115257832745 0.019055735838451725 1.0685609423100167e-08 8.3291873864823926e-05 0.33439894559340294 0.00018960268345273162 0.64767495783401741 0.59197194226919991 0.00010191758251409492 5.7958540192648537e-06 0.44233558218605568 0.57116080325642116 0.19754090740355104 0.0093474404142029777 0.59209117906281561 0.59095475560568611 0.023895313588945272 0.56673452412558067 0.45189821409900949 0.64836762475785004 0.66421431733847081 0.42038813601593134 0.49557151489630807 0.039854067706132708 0.59197172473596893 0.59187748479877234 0.016617172982112186 0.59578895169450685
decision_type=2 2 2 2 2 2 2 2 2 2 2 2 2 2 2 2 2 2 2 2 2 2 2 2 2 2 2 2 2 2
left_child=1 7 3 5 16 6 -2 10 14 -8 -1 -3 13 -4 -6 -11 -5 -15 27 28 -16 -10 -23 -21 -25 -24 -27 -13 -7 -14
right_child=2 11 12 4 8 19 9 -9 21 15 -12 18 29 17 20 -17 -18 -19 -20 23 -22 22 25 24 -26 26 -28 -29 -30 -31
leaf_value=-0.032333851358812185 -0.038198407868986178 -0.010544308629956771 0.0092935238185105126 -0.022265824407647031 0.012903823763074385 0.026470205775968508 -0.0039172671116717702 -0.0092539490374310418 -0.011065315095573373 -0.037401538770242576 -0.047868649511984343 0.029897331009246953 0.0046487635969587769 0.0083702087059345336 0.0054070992672486488 -0.014550818905127794 0.0062915592741692346 0.048733787919157529 -0.017362427123468398 -0.002459977627687879 -0.030418517459669871 0.0039221647136243615 -0.0031360997071522901 -0.023132532411492948 0.034128845691470518 -0.0038756931858291242 0.004545863551265546 -0.030529558247444057 -0.014810059600887491 0.015250955613299139
leaf_weight=317.67824041843414 109.02603179216385 330.01599830389023 1612.2681878805161 194.80694453418255 734.69703894853592 56.759628355503082 483.21861144900322 61.411613658070564 129.88329647481441 69.688360139727592 536.2519665658474 4.3273561000823966 4149.3658609092236 27.949508339166641 1187.506972566247 308.99095302820206 37.727392837405205 38.395788237452507 293.43758000433445 606.18029136955738 17.107345014810562 4128.0030922740698 1234.0803511440754 9.4161008298397046 32.75255386531353 406.89688394963741 1137.9535273015499 387.89317657053471 12.96246264874935 179.44713188707829
leaf_count=1513 490 1398 6461 816 2959 228 2029 269 524 313 2697 18 16700 112 4787 1311 158 154 1277 2450 69 16672 5037 38 132 1650 4609 1759 52 722
internal_value=-0.000244525 -0.0295107 0.00309853 0.00119811 0.00279027 -0.00746431 -0.0137141 -0.0399951 0.00332106 -0.0105474 -0.0421632 -0.0200073 0.00654102 0.0102435 0.00792083 -0.0189093 -0.0175184 0.0324777 -0.0245036 0.000958819 0.00485278 0.00204888 0.00230068 -0.000897306 0.0205238 -9.95316e-05 0.00231047 -0.029725 0.0183411 0.00509746
internal_weight=18836.1 1931.02 16905.1 10897.7 9208.66 1688.99 970.924 915.342 8976.13 861.898 853.93 1015.67 6007.43 1678.61 1939.31 378.679 232.534 66.3453 685.658 718.071 1204.61 7036.82 6906.93 648.349 42.1687 2778.93 1544.85 392.221 69.7221 4328.81
internal_count=77404 8931 68473 44324 37281 7043 4143 4479 36307 3653 4210 4452 24149 6727 7815 1624 974 266 3054 2900 4856 28492 27968 2620 170 11296 6259 1777 280 17422
is_linear=0
shrinkage=0.05


Tree=14
num_leaves=31
num_cat=0
split_feature=16 15 11 15 12 12 15 14 5 17 16 17 1 3 15 12 18 14 3 17 14 8 22 22 16 12 11 17 21 12
split_gain=673.374 71.9936 39.9736 54.0458 36.4629 22.3122 39.4154 22.1676 19.4899 18.3067 17.1848 16.7489 15.1919 14.9473 13.9754 13.2403 13.3453 12.1268 17.1785 11.8406 11.6675 11.2253 11.1875 9.69372 11.289 12.0068 9.42348 11.524 9.14566 8.97977
threshold=1.0000000180025095e-35 0.012822450637383699 0.0066600023591892252 0.019055735838451725 0.02851641197897635 0.024943611843146824 0.026452017155477296 6.6652542675480126e-05 0.44089300518403418 0.64767495783401741 0.65746122592125966 0.65770812888760166 0.00010191758251409492 5.4429009103359215e-06 0.062106036283370934 0.047366533226236303 0.62452427169343483 6.2248713962993756e-06 7.3783992515477379e-05 0.66063766956477188 2.4450771146114297e-07 0.55589519644595919 0.050906007381528694 0.19754090740355104 0.016900871381729975 0.12586797539825925 5.7245857545345767e-05 0.64691509035739392 0.59578895169450685 0.043636163694660897
decision_type=2 2 2 2 2 2 2 2 2 2 2 2 2 2 2 2 2 2 2 2 2 2 2 2 2 2 2 2 2 2
left_child=1 7 3 4 10 8 15 12 26 23 17 -6 -1 -3 20 21 -17 18 -2 -4 -11 -7 -16 24 -8 -26 27 -5 -21 -22
right_child=2 13 19 5 11 6 9 -9 -10 14 -12 -13 -14 -15 22 16 -18 -19 -20 28 29 -23 -24 -25 25 -27 -28 -29 -30 -31
leaf_value=-0.03113185280587339 -0.0061110184715856457 -0.0102404974451633 0.0079136652945028859 0.033860653236498332 -0.037659200050500947 0.0029605253894331128 0.0020133710744283757 -0.0013158555684231264 0.004629927811226375 0.01646016483575868 -0.042784554683249085 -0.012629959235905833 -0.045566028011243126 -0.023412056347968134 0.037670589842216183 -0.033551231972062293 0.0050116675482141035 0.00067020475124533057 -0.038784933532415973 0.0021966358433421779 0.00099165557720416199 -0.011573123810363583 0.0051634476525532118 0.0039699171615376538 0.018407986987158578 -0.012786321714076135 0.025103923124692014 0.0054977836838431453 0.014271151034821853 -0.0041533138546692655
leaf_weight=313.59097002446651 477.77499583363533 330.96886505186558 3828.590651512146 42.516086727380753 119.8311003446579 197.25190143287182 212.5135148614645 39.383118569850922 1700.2077647596598 96.888864874839783 26.724649056792259 162.99016079306602 546.42638854682446 678.39370515942574 26.534147456288338 95.727027744054794 27.501860380172729 864.72281746566296 43.505169630050659 1915.7280738949776 2144.6627365648746 389.4698378443718 988.95826990902424 1112.2508384138346 419.27968426048756 31.637428507208824 184.65915787220001 227.99313046038151 171.18517617881298 1396.164414703846
leaf_count=1513 2005 1406 15361 171 529 806 858 162 6876 392 122 703 2804 3046 107 397 114 3523 202 7721 8684 1594 3991 4482 1685 127 744 919 688 5672
internal_value=-0.000234574 -0.0283787 0.00294317 0.00115636 -0.00704636 0.00265607 0.00130522 -0.038695 0.00711596 0.00254337 -0.00373686 -0.0234182 -0.0403742 -0.0191323 0.000888441 -0.00985933 -0.0247726 -0.00293563 -0.00895484 0.0062577 -0.000553447 -0.00664775 0.00607366 0.00686312 0.0116627 0.0161405 0.0163168 0.010156 0.00320542 -0.00103057
internal_weight=18814 1908.76 16905.3 10989.8 1695.55 9294.22 7138.84 899.4 2155.38 6428.89 1412.73 282.821 860.017 1009.36 4653.21 709.951 123.229 1386 521.28 5915.5 3637.72 586.722 1015.49 1775.68 663.431 450.917 455.168 270.509 2086.91 3540.83
internal_count=77404 8931 68473 44703 7084 37619 28909 4479 8710 25998 5852 1232 4317 4452 18846 2911 511 5730 2207 23770 14748 2400 4098 7152 2670 1812 1834 1090 8409 14356
is_linear=0
shrinkage=0.05


Tree=15
num_leaves=31
num_cat=0
split_feature=16 10 14 14 11 14 2 17 14 14 11 2 14 16 12 14 12 9 17 17 1 7 16 12 22 22 17 22 17 21
split_gain=612.434 44.2704 44.2565 43.0248 26.1128 69.2473 24.0748 19.481 19.2114 13.7192 13.6374 20.4633 18.7618 16.3778 13.5907 12.1381 18.6955 11.7429 11.4109 11.3903 11.1749 11.1748 11.0274 10.2044 9.53001 9.46211 9.2677 9.09614 12.7182 10.3485
threshold=1.0000000180025095e-35 5.3136888637851322e-06 0.00029777023440271305 1.4211274277593447e-05 0.00010215832569761259 1.2306915915436885e-05 0.00010259572999507299 0.6552060400113161 7.5222155305185304e-07 7.0937348990333079e-07 5.5619705804918001e-05 4.5995114262613413e-06 6.4450628319237141e-07 0.045027284573141819 0.024422638300296406 3.5944764085705663e-05 0.040341641524052792 0.0001829125922763361 0.65707293841180803 0.65311199932966135 0.00019427505167558386 0.66805735484605611 0.0016830604365128459 0.031917577747785482 0.1833706032058702 0.40202042342567018 0.66071946083749711 0.18843507908738025 0.663620007908439 0.57009050502108061
decision_type=2 2 2 2 2 2 2 2 2 2 2 2 2 2 2 2 2 2 2 2 2 2 2 2 2 2 2 2 2 2
left_child=1 9 4 6 7 26 8 10 -3 -1 11 25 -13 -14 -12 16 19 -17 21 20 -7 -4 -9 -19 -11 -2 -6 -20 29 -29
right_child=2 3 18 -5 5 15 -8 22 -10 24 14 12 13 -15 -16 17 -18 23 27 -21 -22 -23 -24 -25 -26 -27 -28 28 -30 -31
leaf_value=-0.017176108317843025 0.0082220645834370446 -0.037294589043100235 0.008171648937162896 -0.015357965165343469 -0.044370156476648943 0.015164420861374987 -0.042550003552912649 -0.0097107174070650473 -0.016975154310035292 -0.014568702805932286 0.024506395421120923 -0.028900528986523379 -0.0066378419489746682 0.0085033621004062861 0.0075023689545272556 0.0075733928415116156 -0.016675095102560152 0.00043371020524493451 0.0019979863140763749 -0.004810648354406223 -0.049304949017261741 0.039839495266806836 0.00054733601902564753 -0.01737644476855478 0.020355263409966993 -0.0025233735264186294 -0.02053118830665368 -0.0066657210969242355 0.0022033870490305706 0.011511406366725324
leaf_weight=338.17674359679222 1258.5111882090569 246.49097180366516 2554.1908386200666 329.30211600661278 98.748493209481239 130.54712845385075 644.27577702701092 276.61599668860435 237.50086431205273 31.720882594585419 142.9046685397625 64.887821897864342 484.58126100897789 280.93612514436245 709.933265209198 505.98838320374489 271.06331038475037 368.1823967397213 2149.5251902937889 405.4438818693161 5.9627343267202368 27.673515528440475 4649.1410806328058 101.0098644644022 46.170373022556305 240.18847784399986 83.386487692594528 82.094492077827454 903.60247100889683 1062.6336074918509
leaf_count=1478 5078 1213 10235 1464 456 533 3324 1137 1066 132 576 283 1970 1140 2860 2042 1125 1492 8650 1667 26 111 18895 419 192 967 377 330 3642 4271
internal_value=-0.000226487 -0.0273387 0.00278683 -0.0314575 0.000682619 -0.00447496 -0.0361165 0.00193949 -0.0274307 -0.0128091 0.00498829 0.00299007 -0.0032836 -0.00104473 0.0104063 -0.00146056 -0.00597703 0.00228152 0.00591049 -0.000559384 0.0118285 0.00853605 -2.55058e-05 -0.00337617 0.00581135 0.00648275 -0.0337642 0.00428806 0.00667692 0.0101813
internal_weight=18731.4 1873.64 16857.8 1457.57 10078 1970.33 1128.27 8107.7 483.992 416.068 3181.94 2329.1 830.405 765.517 852.838 1788.2 813.017 975.181 6779.72 541.954 136.51 2581.86 4925.76 469.192 77.8913 1498.7 182.135 4197.86 2048.33 1144.73
internal_count=77151 8869 68282 7067 41043 8137 5603 32906 2279 1802 12874 9438 3393 3110 3436 7304 3351 3953 27239 2226 559 10346 20032 1911 324 6045 833 16893 8243 4601
is_linear=0
shrinkage=0.05


Tree=16
num_leaves=31
num_cat=0
split_feature=4 10 14 14 4 17 2 14 16 4 18 6 14 14 22 0 6 9 18 17 4 0 2 9 21 2 21 22 22 14
split_gain=559.191 41.4314 40.5669 39.9486 56.2952 24.7301 23.0963 18.0566 16.5863 23.5945 15.2912 15.2363 12.4675 12.3965 12.3619 11.3906 11.0402 10.4601 13.333 9.46529 9.27213 15.3894 14.9761 11.8579 9.7061 9.12423 8.93574 8.60987 8.21894 8.20216
threshold=1.0000000180025095e-35 5.3136888637851322e-06 1.4211274277593447e-05 0.00029777023440271305 2.5746114826580656e-08 0.66173243218177469 0.00010259572999507299 7.5222155305185304e-07 0.23284659299538144 1.2149584250121167e-06 0.60325626533169163 0.63673838203418642 7.0937348990333079e-07 6.2248713962993756e-06 0.63119995414737706 0.90632536391440099 0.59311085678712672 9.3961603988487266e-05 0.59607761866906517 0.67043614210094893 6.7008372943389285e-05 1.0285465836782253e-06 6.2383336250204427e-05 0.00017532398403344293 0.57662761133016938 0.00018638746969266431 0.59374140618941917 0.1833706032058702 0.61216278905074417 3.7527761974248314e-05
decision_type=2 2 2 2 2 2 2 2 2 2 2 2 2 2 2 2 2 2 2 2 2 2 2 2 2 2 2 2 2 2
left_child=1 12 6 4 13 8 7 -3 14 -10 11 15 -1 26 20 -5 19 -15 -19 -12 22 -22 24 -24 -6 -7 -2 -14 -17 -11
right_child=3 2 -4 10 5 25 -8 -9 9 29 16 -13 27 17 -16 28 -18 18 -20 -21 21 -23 23 -25 -26 -27 -28 -29 -30 -31
leaf_value=-0.016402982057460713 -0.026921822090379161 -0.036028476404958605 -0.014663904668150395 0.0077318961631704297 0.0015918928975544372 -0.0011375932270671569 -0.04127889127197041 -0.016220145628209264 -0.030977016057921081 -0.0021684692551583833 -0.00088004771310871012 0.025140676759027633 -0.013902740375756444 0.0019469758147678798 -0.016336899317150579 0.0018182501735124611 0.004646572936500842 -0.025139081212202447 -0.0062771715124254369 -0.017964006307088932 0.0059147046866064763 0.020598599688506969 0.0087883886801846233 -0.0014967692263536114 -0.010087145717418094 -0.016937083907487379 0.021684309580992669 0.019284047204858764 -0.036827880483261063 0.032268281535053955
leaf_weight=336.50116582214832 165.82587425410748 242.53276148438454 327.7322802990675 3993.3895594030619 1945.6129588037729 3463.2129458934069 631.27446521818638 236.2084126919508 78.920524269342422 199.68644739687443 585.77602829039097 114.29668894410133 31.628647476434708 157.82760901749134 69.72222788631916 771.31321988999844 1210.1868416965008 147.19447422027588 271.45321409404278 93.882442757487297 1297.0925147235394 208.75596216320992 1411.5829509943724 344.30072386562824 194.56236664950848 93.195360243320465 8.7272011637687665 46.349147200584412 12.969282209873198 17.884708732366562
leaf_count=1478 717 1213 1464 16018 7910 14120 3324 1066 346 820 2361 459 132 644 281 3095 4875 631 1146 379 5209 838 5693 1403 791 385 37 192 52 72
internal_value=-0.000217336 -0.0262884 -0.0303158 0.00264716 0.000647264 0.00171079 -0.0348971 -0.0263614 0.00373371 -0.00773637 0.00561414 0.00709133 -0.0122186 -0.0125086 0.00436111 0.00664913 0.0017754 -0.00887739 -0.0130126 -0.00329954 0.00463586 0.00797924 0.0033355 0.0067577 0.000514266 -0.00156329 -0.0242396 0.00550098 0.00110126 0.000682591
internal_weight=18709.6 1852.23 1437.75 16857.4 10075.6 9324.53 1110.02 478.741 5768.12 296.492 6781.81 4891.97 414.479 751.028 5471.63 4777.67 1889.85 576.475 418.648 679.658 5401.91 1505.85 3896.06 1755.88 2140.18 3556.41 174.553 77.9778 784.283 217.571
internal_count=77151 8869 7067 68282 41043 37868 5603 2279 23363 1238 27239 19624 1802 3175 22125 19165 7615 2421 1777 2740 21844 6047 15797 7096 8701 14505 754 324 3147 892
is_linear=0
shrinkage=0.05


Tree=17
num_leaves=31
num_cat=0
split_feature=4 15 14 15 2 4 17 14 2 5 5 15 9 18 5 8 15 14 5 5 0 0 4 16 2 18 14 14 16 9
split_gain=510.538 62.9217 36.513 75.7087 25.6533 24.6685 23.1562 23.0699 27.1995 13.7105 12.5274 11.9899 11.8728 10.3586 8.87912 8.66283 8.63457 8.61067 8.46417 8.13863 7.992 9.16716 7.83439 13.6008 12.7714 9.99087 8.37437 7.69701 9.10129 7.78692
threshold=1.0000000180025095e-35 0.020987177608618866 3.4409375156216973e-05 0.014112902004408999 1.005644150933132e-06 2.5746114826580656e-08 0.66173243218177469 1.3497139891784908e-05 5.0468464477303856e-06 0.44637786804135765 0.572181314054655 0.044342447698621411 0.0001988149073484044 0.59909762432967673 0.63421765846611022 0.55589560055405518 0.0070054409919496101 1.6924984943666661e-05 0.14367247254585877 0.73923474609047468 5.4016749369500373e-06 3.7685070724258592e-06 2.12219137759667e-05 0.12481405370806239 6.2383336250204427e-05 0.55728955032028793 2.9065269502415105e-05 1.2306915915436885e-05 0.033083166882073405 4.2144004319177028e-06
decision_type=2 2 2 2 2 2 2 2 2 2 2 2 2 2 2 2 2 2 2 2 2 2 2 2 2 2 2 2 2 2
left_child=1 7 3 4 14 -5 12 8 15 -6 -4 17 18 -12 -2 -1 -10 27 -7 -11 21 -3 23 24 -20 -26 -25 29 -29 -8
right_child=2 20 10 5 9 6 11 -9 16 19 13 -13 -14 -15 -16 -17 -18 -19 22 -21 -22 -23 -24 26 25 -27 -28 28 -30 -31
leaf_value=-0.0087330008409367606 0.019425345568363499 -0.011471484438843542 0.0062255507582176578 -0.0098940060465236637 -0.038209616288605336 -0.0292412757067541 -0.00054735981444188934 -0.011557619434628488 -0.042965035394154694 -0.01318779049171551 -0.027537455051052928 0.0025285370374339214 -0.050688347387326874 0.0022118269206613797 -0.030522079501592733 -0.030873395366224934 -0.032646737865022445 -0.012929466740352395 0.0010938777286308148 -0.036931567427754358 -0.015400859276832633 0.010792870716993662 0.0069179783567979401 -0.010497947428422453 0.041292970096148726 0.0074087605530873324 0.021704691549425326 0.021979636101615904 -0.0013005580471963586 -0.0078782206938157687
leaf_weight=131.76820251345634 49.138917088508606 115.06013141572475 5697.144402757287 458.17893545329571 126.47820796072483 17.59045384824276 841.76876521110535 136.9868144094944 415.89269976317883 210.89268758893013 28.546147644519806 1202.4336946904659 8.7827041149139387 2241.4635466784239 9.5709448754787427 70.403234481811523 528.50184100866318 229.61936324834824 1647.2036284655333 45.591170087456703 357.45070990920067 75.162550687789917 1901.8973534703255 249.00060828030109 21.655326098203659 1028.4843784272671 20.582996591925621 64.965483814477921 110.21739467978477 645.90294903516769
leaf_count=592 204 488 22879 1924 587 74 3431 610 2288 927 115 4865 37 9040 40 315 2664 942 6676 208 1598 314 7641 1017 87 4143 83 265 452 2645
internal_value=-0.000208742 -0.0252763 0.00251426 0.000308201 -0.0198446 0.00136696 0.00201699 -0.0313393 -0.0336689 -0.0245753 0.00497234 -0.00136191 0.00415819 0.00181475 0.0104894 -0.0166801 -0.0372578 -0.00384704 0.00427224 -0.0176325 -0.0109898 -0.00253301 0.00440443 0.00278295 0.00386001 0.0081699 -0.00787572 -0.00257083 0.00726661 -0.00375015
internal_weight=18688.3 1831.23 16857.1 8889.96 441.672 8448.28 7990.11 1283.55 1146.57 382.962 7967.15 3094.91 4895.2 2270.01 58.7099 202.171 944.395 1892.47 4886.41 256.484 547.673 190.223 4868.82 2966.93 2697.34 1050.14 269.584 1662.85 175.183 1487.67
internal_count=77151 8869 68282 36248 1966 34282 32358 6469 5859 1722 32034 12600 19758 9155 244 907 4952 7735 19721 1135 2400 802 19647 12006 10906 4230 1100 6793 717 6076
is_linear=0
shrinkage=0.05


Tree=18
num_leaves=31
num_cat=0
split_feature=15 11 14 15 12 3 12 8 15 15 15 12 14 9 21 12 12 0 19 12 7 11 21 7 11 7 9 2 6 3
split_gain=189.712 97.9765 85.9238 185.892 66.4136 36.5119 27.3255 22.7911 19.2368 19.2271 16.4383 14.1743 13.7931 13.7506 11.1167 9.32831 8.96096 10.0383 7.78597 7.5916 7.55525 7.10083 6.89731 7.1997 6.53808 6.50302 6.4385 6.3009 8.70712 6.20479
threshold=0.0057151531860469848 0.0051511477631677504 3.4409375156216973e-05 0.019055735838451725 0.029130960821685335 0.00010199541986921415 0.040341641524052792 0.55589564993383045 0.0091502312829263039 0.039320987931349423 0.012822450637383699 0.011509320424259012 1.0807233705238608e-05 5.4644920948234857e-06 0.56627761795988607 0.028937028292755601 0.031492738994659701 5.1189496137750967e-05 0.75000000000000011 0.039129251851433636 0.59197190714722547 0.00018417112535922743 0.55885221364127069 0.59197073448563942 0.00019457526887309482 0.59197359733418009 3.5795674329431898e-06 0.00018493084497862809 0.59193534616972598 0.92041242883206953
decision_type=2 2 2 2 2 2 2 2 2 2 2 2 2 2 2 2 2 2 2 2 2 2 2 2 2 2 2 2 2 2
left_child=1 -1 3 4 8 7 27 -5 14 -8 -6 -10 13 22 -2 18 -15 -18 -14 -12 -13 -21 -9 -24 -22 -19 -16 28 -7 -3
right_child=2 29 -4 5 10 6 9 12 11 -11 19 20 15 16 26 -17 17 25 -20 21 24 -23 23 -25 -26 -27 -28 -29 -30 -31
leaf_value=-0.041489528857939717 -0.04730782724969218 0.0069426300005828922 0.0046205651276963996 0.00396455272748511 -0.03933790482197607 0.014574536413001441 -0.025436309654741442 0.015279258996193409 0.014707449439189627 0.0020891685928720954 -0.014998850918062346 -0.00395296522418386 0.017728021675959243 -0.0038467648210919595 0.001558399997326821 0.00067761421181700317 -0.020764317875031375 -0.020547042690733167 -0.006029895976455024 -0.032038201955314531 -0.012790490568371927 0.0014745310151834342 -0.013508159213261241 -0.00095262204402968851 -0.055116219846599993 0.016329727401202417 -0.022505638499945625 -0.015772439095443524 -0.0028141930648434826 -0.021945180470593035
leaf_weight=410.94762000441551 39.823965847492218 151.60900704562664 7891.6170658767223 4656.3535220175982 273.84173087775707 89.750074312090874 286.58296059072018 58.067045286297798 73.351745471358299 79.114789754152298 180.71072290837765 453.59958757460117 160.45783610641956 266.9230057746172 33.623228654265404 802.49219314754009 247.40287926793098 17.044150203466415 41.500211700797081 197.93999940156937 286.05737814307213 15.536730438470839 125.6408004462719 1236.2803466171026 8.9709081053733808 33.41244138777256 118.11748147010803 65.2027478069067 344.33132803440094 19.920659139752388
leaf_count=2254 202 614 31744 18847 1416 368 1258 234 305 324 817 1977 649 1092 150 3251 1033 70 167 931 1271 71 512 5032 41 137 605 284 1415 80
internal_value=-0.000201017 -0.0282635 0.000703006 -0.00232801 -0.0175144 0.000671392 -0.00905451 0.00177604 -0.00939615 -0.0194238 -0.0297617 -0.00601431 -0.00162486 -0.00404589 -0.0236708 0.00313344 -0.0106443 -0.0166189 0.0127172 -0.0229631 -0.00809492 -0.0294871 -0.00139821 -0.00213831 -0.0143438 0.00322975 -0.0170345 -0.00138595 0.000748851 0.00333508
internal_weight=18666.2 582.477 18083.7 10192.1 1681.57 8510.56 864.982 7645.57 1013.54 365.698 668.029 821.98 2989.22 1984.77 191.565 1004.45 564.782 297.859 201.958 394.187 748.628 213.477 1419.99 1361.92 295.028 50.4566 151.741 499.284 434.081 171.53
internal_count=77151 2948 74203 42459 7786 34673 3649 31024 4551 1582 3235 3594 12177 8110 957 4067 2332 1240 816 1819 3289 1002 5778 5544 1312 207 755 2067 1783 694
is_linear=0
shrinkage=0.05


Tree=19
num_leaves=31
num_cat=0
split_feature=16 15 14 15 2 12 14 2 17 12 7 18 6 15 14 17 18 15 7 5 3 14 9 6 3 18 3 15 12 16
split_gain=432.672 54.6983 29.8432 43.0759 25.6653 24.923 20.5281 24.6875 18.5031 16.1271 13.5252 13.084 13.8109 12.6479 11.1383 11.3259 11.0952 10.4031 10.692 10.3835 10.2076 12.7268 13.3152 10.0125 9.95919 9.84195 9.75043 9.27446 9.21797 9.18402
threshold=1.0000000180025095e-35 0.020987177608618866 0.00029777023440271305 0.019055735838451725 0.00018638746969266431 0.018061277126025687 1.3497139891784908e-05 5.0468464477303856e-06 0.6512664396185347 0.035051021115532321 0.59197148689909906 0.60325626533169163 0.63673838203418642 0.014112902004408999 9.0457022202438918e-06 0.64691509035739392 0.59898693814259429 0.048928433726789157 0.59197494768978076 0.45855899338922418 1.0610075788771537e-06 5.3560078935653739e-06 5.5003838627423507e-06 0.59311085678712672 4.3430123502155508e-07 0.59731126790487477 0.90638726254975532 0.025541264492628144 0.036329205549344441 0.023191183204294696
decision_type=2 2 2 2 2 2 2 2 2 2 2 2 2 2 2 2 2 2 2 2 2 2 2 2 2 2 2 2 2 2
left_child=1 6 3 5 8 20 7 -1 9 14 -10 12 26 16 15 29 -7 24 -19 -20 -2 22 -22 -13 27 -12 -4 -11 -8 -5
right_child=2 -3 11 4 -6 13 28 -9 10 17 25 23 -14 -15 -16 -17 -18 18 19 -21 21 -23 -24 -25 -26 -27 -28 -29 -30 -31
leaf_value=-0.015330942859046499 0.013525108362647892 -0.010220172539761556 0.0067963406328637793 -0.003811669864862522 -0.019024581656138826 -0.03569239155471092 -0.00085513406751906327 -0.035082503515670181 -0.0031418557837036842 -0.029941708529504264 0.0081363907449663164 -0.0035304017942643356 0.023382673455472326 -0.008940146139188138 0.020216091393875243 0.00032487413902935303 -0.014137554129996921 0.0049655793198909786 0.033936382551039354 -0.0040117975320860403 -0.0024140633680785361 0.00071049919657754359 -0.028871148561276528 0.0040368094902108066 -0.0025436785102086537 0.0011908732433226399 0.00065615731020854384 0.029747077555063492 -0.028434200061134774 0.022913847177764124
leaf_weight=200.07594068348408 94.80424576997757 544.59244512021542 3998.793345078826 39.530338138341904 143.81056934595108 113.45958402752876 89.521278947591782 912.36428713798523 1674.4742038846016 6.4510010480880728 591.85419981181622 679.90217597782612 114.50112318992615 334.91136676073074 269.75080914795399 257.62225310504436 141.57010930776596 987.9011572599411 62.440701827406883 23.345648616552353 107.4286475777626 440.66430449485779 88.020541712641716 1211.3446786999702 736.54507227241993 3772.5599286258221 782.44224409759045 41.407095864415169 46.447707280516624 137.67236866056919
leaf_count=907 389 2400 16027 160 610 526 389 4952 6784 26 2384 2740 459 1432 1085 1039 632 3970 251 94 456 1799 402 4875 2980 15305 3138 166 221 553
internal_value=-0.000193527 -0.0235387 0.00228991 0.000559316 0.001833 -0.00784981 -0.0293157 -0.0315695 0.0021868 0.00574709 0.00067111 0.00485253 0.00621817 -0.0154906 0.0121965 0.00712912 -0.0239266 0.00328282 0.00648165 0.023394 -0.00163586 -0.00395232 -0.0145426 0.00130276 -0.00106657 0.00214012 0.00579708 0.0207415 -0.0105976 0.0168237
internal_weight=18646.2 1793 16853.2 10066.2 8745.37 1320.86 1248.41 1112.44 8601.55 2562.67 6038.89 6786.98 4895.74 589.941 704.576 434.825 255.03 1858.09 1073.69 85.7864 730.918 636.113 195.449 1891.25 784.403 4364.41 4781.24 47.8581 135.969 177.203
internal_count=77151 8869 68282 41043 35407 5636 6469 5859 34797 10324 24473 27239 19624 2590 2837 1752 1158 7487 4315 345 3046 2657 858 7615 3172 17689 19165 192 610 713
is_linear=0
shrinkage=0.05


Tree=20
num_leaves=31
num_cat=0
split_feature=4 15 1 4 8 4 14 15 8 12 2 0 15 4 15 12 12 5 14 14 22 0 5 12 15 12 15 15 16 0
split_gain=360.442 47.0998 28.5998 35.4397 22.9052 22.63 19.7028 26.989 14.1828 14.0117 14.0684 19.2736 14.1224 14.2168 12.5285 16.3593 10.4275 10.4033 11.7939 10.3859 10.1797 9.37165 9.20688 9.14733 26.6023 9.13828 8.53874 8.11664 8.06885 7.69977
threshold=1.0000000180025095e-35 0.0070054409919496101 0.0065704388428166295 6.7008372943389285e-05 0.55589658587889934 2.5746114826580656e-08 8.7362439863933744e-06 0.013551036258990382 0.55589309563658118 0.021091273348252958 5.7425240433957674e-06 5.0015011959181585e-05 0.025356287093948642 3.6390729711000299e-05 0.023554670690221744 0.037141967028485677 0.021091273348252958 0.64094376054402369 5.4274213321463758e-07 6.2248713962993756e-06 0.13562042622393258 3.0754820500308312e-07 0.44233558218605568 0.027903564556808366 0.024980583641492096 0.0067791577654500966 0.019758955148011469 0.0070054409919496101 0.0060978127410572886 0.93062766356609605
decision_type=2 2 2 2 2 2 2 2 2 2 2 2 2 2 2 2 2 2 2 2 2 2 2 2 2 2 2 2 2 2
left_child=1 19 3 5 14 -2 7 8 -7 -9 12 20 13 -11 15 21 26 28 -19 -1 -12 -3 29 25 -25 -8 -6 -10 -5 -4
right_child=2 4 22 17 16 6 23 9 27 10 11 -13 -14 -15 -16 -17 -18 18 -20 -21 -22 -23 -24 24 -26 -27 -28 -29 -30 -31
leaf_value=-0.037735078190400735 -0.008472083846264699 0.021220503857383312 0.0091805563108791951 -0.017173496654709488 -0.012104099771472601 -0.051422529220412641 -0.012930542703331025 0.0059260201041530444 -0.033540289077686018 -0.0070100153488075641 -0.027404683728968589 0.010212418313328473 0.0012705663108199868 -0.043754682671915665 -0.0041352769268371654 -0.027896848998904461 -0.029501521492772999 -0.010598307866209763 0.011327404981360156 -0.004932875506031862 -0.010065216711409204 -0.012322853715564035 0.0037071706249924238 -0.019414898269514785 0.0014925799026031705 0.0058758482251032793 0.050012817127181024 -0.0093879258749576464 0.0072381449181158457 -0.0029226380583779951
leaf_weight=413.50043496489525 895.55661155283451 20.609626188874245 1502.8608504384756 32.85380993783474 38.836219668388367 28.947448432445526 65.7708810120821 481.01850286126137 44.022823050618172 283.55707956850529 116.66358210146427 92.648221924901009 1260.8698308616877 28.581696778535843 314.42880068719387 210.3509898930788 363.83938375115395 185.62848506867886 89.626650378108025 27.848186254501343 344.31905934214592 381.50475911796093 4304.2953134924173 159.91681948304176 2776.8071047067642 1512.4834934771061 5.3708022832870475 187.40168951451778 2251.5374224483967 140.20132306218147
leaf_count=2395 3783 92 6013 132 192 141 267 1957 212 1172 480 379 5103 117 1370 1055 1790 757 363 126 1419 1846 17285 680 11204 6106 24 823 9058 562
internal_value=-0.000117247 -0.0215304 0.0021484 0.000616768 -0.0167914 -0.000970599 -5.62619e-05 -0.00329971 -0.0186277 -0.00175309 -0.00350373 -0.0103562 -0.00107102 -0.0105834 -0.0123725 -0.016547 -0.026713 0.00575887 -0.00335335 -0.0357377 -0.0145574 -0.0104933 0.00493482 0.0019988 0.00033935 0.0050686 -0.00306501 -0.0142144 0.00686876 0.00813144
internal_weight=18561.9 1776.29 16785.6 10838.2 1334.94 8278.56 7383.01 2868.03 260.372 2607.66 2126.64 553.631 1573.01 312.139 926.894 612.465 408.046 2559.65 275.255 441.349 460.983 402.114 5947.36 4514.98 2936.72 1578.25 44.207 231.425 2284.39 1643.06
internal_count=76903 8890 68013 44153 6369 33843 30060 11803 1176 10627 8670 2278 6392 1289 4363 2993 2006 10310 1120 2521 1899 1938 23860 18257 11884 6373 216 1035 9190 6575
is_linear=0
shrinkage=0.05


Tree=21
num_leaves=31
num_cat=0
split_feature=4 9 10 11 4 4 8 10 17 3 10 11 5 3 18 4 17 5 21 5 5 5 7 1 10 10 7 7 18 18
split_gain=328.653 41.9967 38.169 26.1525 31.899 21.1474 15.9626 14.0072 10.6709 12.7334 25.914 10.4355 10.2722 9.23298 8.66756 8.91843 8.48508 10.4808 8.68429 8.44107 8.23652 8.22628 8.23884 10.4738 7.91528 11.4766 7.55008 7.53436 7.46476 7.35012
threshold=1.0000000180025095e-35 0.00010259205433670204 0.00014587464313522587 0.0066600023591892252 0.00011327235091302457 2.5746114826580656e-08 0.55589443374350644 5.1439806360878888e-06 0.64537314263181511 6.8836279528312538e-06 5.4393196225423255e-06 0.0063076466116964774 0.14367247254585877 0.0067109210466028725 0.63912889426887853 1.1854307731480673e-09 0.65510006237237184 0.43946151949126983 0.57137220968672098 0.44233558218605568 0.85918089498787009 0.5618961258723697 0.59198078342146654 0.00019427505167558386 3.3435512539769503e-07 3.5085070928511036e-06 0.59197152618185189 0.59197132194738 0.59675778409218305 0.59132553817103195
decision_type=2 2 2 2 2 2 2 2 2 2 2 2 2 2 2 2 2 2 2 2 2 2 2 2 2 2 2 2 2 2
left_child=1 6 -3 4 5 14 -1 24 12 10 -10 -4 -7 -5 15 21 17 29 -19 -15 -11 -2 -23 -24 -8 -26 27 -18 -27 -6
right_child=3 2 11 13 16 8 7 -9 9 20 -12 -13 -14 19 -16 -17 26 18 -20 -21 -22 22 23 -25 25 28 -28 -29 -30 -31
leaf_value=0.0051922944706067073 -0.029971176016353809 -0.037085936989183416 -0.017435055757397729 0.02309621148977907 0.0085692802230162204 -0.028200616380826271 0.015993066817981454 -0.02202100053571274 -0.0013497801642707928 0.00098558930672264103 -0.015626033932401296 0.032884814038224637 0.0050366186092062675 0.0076260806708198072 0.023069633029698434 -0.0066657083578722772 0.0076272285493277515 0.025529162537044583 -0.0026977770432347324 0.0033264664482078469 -0.031364776328740879 0.027171997066440901 -0.047270456295144037 0.0077614014464110585 -0.018453248601236861 0.014266586891691375 0.0047668914354735319 -0.013678712269992531 -0.0086609609210551546 -0.0081772888278757398
leaf_weight=106.8816764652729 85.97410623729229 519.58362211287022 372.74645134806633 67.402183681726456 633.54163347184658 22.526295408606529 29.441853985190392 380.39117088913918 1849.2028276026249 4259.7858587801456 384.2755075097084 9.3678306490182859 1176.7230072170496 1592.2252734899521 20.431526616215706 742.44185568392277 61.742580756545067 148.23092484474182 31.206621363759041 4195.6658440381289 18.727239921689034 13.920833796262739 14.712985485792158 17.318779245018959 191.25148688256741 56.225806444883347 1260.3303513973951 116.44430115818977 92.510419607162476 70.756971508264542
leaf_count=506 380 2919 1875 270 2539 101 129 1912 7558 17286 1610 39 4755 6371 86 3120 249 594 125 16845 83 62 66 72 853 246 5088 469 411 284
internal_value=-0.000113677 -0.0206743 -0.0282284 0.00204006 0.000592586 -0.000808266 -0.0126708 -0.0152538 3.32244e-05 -0.00076187 -0.00382313 -0.0160536 0.0043685 0.00473678 -0.00807995 -0.00886191 0.00579288 0.00966236 0.0204938 0.0045147 0.000830853 -0.0208902 -0.00309145 -0.0174251 -0.00817775 -0.0103849 0.00339328 -0.00615522 0 0.00684219
internal_weight=18542 1758.4 901.698 16783.6 10928.3 8606.04 856.702 749.821 7711.24 6511.99 2233.48 382.114 1199.25 5855.29 894.8 874.369 2322.25 883.736 179.438 5787.89 4278.51 131.927 45.9526 32.0318 369.43 339.988 1438.52 178.187 148.736 704.299
internal_count=76903 8890 4833 68013 44527 35179 4057 3551 31393 26537 9168 1914 4856 23486 3786 3700 9348 3542 719 23216 17369 580 200 138 1639 1510 5806 718 657 2823
is_linear=0
shrinkage=0.05


Tree=22
num_leaves=31
num_cat=0
split_feature=16 15 11 15 12 8 16 8 15 3 12 2 15 12 17 14 15 17 12 15 12 14 17 8 17 3 15 16 15 16
split_gain=299.529 43.8263 23.6092 28.3878 47.6427 20.0662 15.7704 13.6398 13.5191 13.3547 12.3064 11.4886 11.3279 14.7173 10.1592 13.9517 10.0855 10.1168 12.5287 9.99566 9.77386 9.67776 9.57917 9.25318 8.97142 8.3374 8.17278 11.6147 8.13481 7.79534
threshold=1.0000000180025095e-35 0.0070054409919496101 0.0066600023591892252 0.024980583641492096 0.02811088805115065 0.55589658587889934 0.5019114639229898 0.55589564993383045 0.062106036283370934 8.8889604883364285e-05 0.11836416097584092 2.510886699687012e-06 0.023554670690221744 0.037141967028485677 0.67398116189362067 1.3854207084689167e-05 0.026636233698025154 0.65311199932966135 0.035051021115532321 0.048496553700744745 0.02851641197897635 6.2248713962993756e-06 0.64568594026302117 0.5558953664292744 0.66764824793191846 0.0067109210466028725 0.012474866342438965 0.00081371389847714412 0.023019663679557403 0.038217968845234519
decision_type=2 2 2 2 2 2 2 2 2 2 2 2 2 2 2 2 2 2 2 2 2 2 2 2 2 2 2 2 2 2
left_child=1 21 3 4 6 12 26 11 10 -6 -9 -5 13 -3 15 -11 24 18 22 -20 28 -1 -18 -21 -13 -4 -2 -28 -7 -16
right_child=2 5 25 7 9 20 -8 8 -10 14 -12 16 -14 -15 29 -17 17 -19 19 23 -22 -23 -24 -25 -26 -27 27 -29 -30 -31
leaf_value=-0.03581688369053776 -0.0039542995046692973 -0.0093857168488250993 0.021945674507290961 0.0070714407546307607 -0.0094694320674896682 -0.01502613540582276 -0.029700850538496915 -0.0017611229709157601 0.0054990506704828829 -0.045231388964394943 -0.040020139095315523 0.011120028188093208 -0.0032881770071715084 -0.026044344306287687 0.023206008464231268 -0.018296350253730734 0.023582755790894586 -0.0022861014860795239 -0.0040483373220362214 0.0039723464447910519 -0.028972855885715795 -0.004046307439976333 0.0065158076383953767 0.03699583835546269 0.062374633981561671 0.0042885718971732876 -0.01695989542326375 0.0037327584444292261 0.031824834911225085 -0.017369820984482698
leaf_weight=398.31410610675812 670.66617619991302 397.88653180003166 67.440403580665588 1725.5924869328737 440.12403704226017 81.678486123681068 42.846350982785225 2556.8134807050228 759.00234119594097 80.009607717394829 20.268019869923592 139.44206003844738 312.74223056435585 205.65010333061218 17.036144524812698 137.68320739269257 113.03593039512634 1173.725007429719 524.27058278024197 683.9506321400404 307.99572563171387 27.694527953863144 325.44771613180637 21.16040626168251 8.4947879016399366 5788.8253558725119 69.972755312919617 1384.096313610673 9.20739598572254 32.720179438591003
leaf_count=2395 2828 1938 270 6933 1851 418 201 10384 3059 379 83 567 1370 1055 76 583 454 4753 2122 2752 1547 126 1310 85 35 23216 292 5634 41 146
internal_value=-0.00010901 -0.0198435 0.00193799 0.000562293 -0.00369856 -0.0152736 -7.70259e-06 0.00208726 -0.000352548 -0.0149539 -0.00208712 0.0038185 -0.0111281 -0.0151371 -0.0238173 -0.0284718 0.00193076 0.00125591 0.00376339 0.00114943 -0.0246823 -0.0338244 0.011016 0.00504978 0.0146301 0.00449989 0.000593004 0.00270883 -0.00971302 -0.00280096
internal_weight=18523.8 1741.17 16782.6 10926.4 2875.15 1315.16 2167.58 8051.2 3336.08 707.573 2577.08 4715.12 916.279 603.537 267.449 217.693 2989.53 2841.59 1667.87 1229.38 398.882 426.009 438.484 705.111 147.937 5856.27 2124.74 1454.07 90.8859 49.7563
internal_count=76903 8890 68013 44527 11990 6369 8955 32537 13526 3035 10467 19011 4363 2993 1184 962 12078 11476 6723 4959 2006 2521 1764 2837 602 23486 8754 5926 459 222
is_linear=0
shrinkage=0.05


Tree=23
num_leaves=31
num_cat=0
split_feature=4 15 11 4 15 12 15 9 10 15 12 5 15 2 12 11 7 5 4 5 15 11 18 19 3 4 17 4 4 0
split_gain=273.083 41.3895 21.3067 26.6247 19.4154 19.5991 42.6131 18.7213 20.1939 15.6102 13.7074 12.5455 12.2615 12.0566 11.6808 10.5029 10.0299 9.83475 9.39296 8.90548 8.87285 8.79215 8.61193 8.96394 8.47009 10.1853 9.34851 10.0496 9.05568 9.92929
threshold=1.0000000180025095e-35 0.0070054409919496101 0.0066600023591892252 6.7008372943389285e-05 0.062106036283370934 0.02811088805115065 0.024980583641492096 0.00010259205433670204 0.00014587464313522587 0.012474866342438965 0.10763246899913727 0.30189693192460987 0.063757923973626049 0.00020111689063979004 0.029130960821685335 4.4503639360889166e-07 0.59197494768978076 0.52737705882831321 1.1854307731480673e-09 0.64094376054402369 0.020987177608618866 0.0051728813090153713 0.60751379701865027 0.75000000000000011 8.8889604883364285e-05 3.6390729711000299e-05 0.67398116189362067 2.62137228612003e-07 1.1747580348517111e-06 0.00013609756011479882
decision_type=2 2 2 2 2 2 2 2 2 2 2 2 2 2 2 2 2 2 2 2 2 2 2 2 2 2 2 2 2 2
left_child=1 21 3 4 5 9 24 17 -9 13 11 -8 -6 -2 -10 -13 -17 -3 -11 -5 -19 -1 23 -20 25 -7 28 -28 29 -26
right_child=2 7 -4 19 12 6 10 8 14 18 -12 15 -14 -15 -16 16 -18 20 22 -21 -22 -23 -24 -25 26 -27 27 -29 -30 -31
leaf_value=-0.034274361168975274 -0.014878824182842915 -0.0038588851038652812 0.0042745318583636543 0.006020798228338441 0.022354254746133978 -0.0089433568750480717 0.010982101244101032 -0.030597373424315167 0.0020632289074879874 -0.026657336727260311 -0.026945689151380282 0.016680515136112555 0.0035685868086298388 -0.00077655484808341094 -0.018857326201017967 -0.0046278438719247949 0.001562802351000832 -0.023487502787353509 0.0057076555342601221 -0.0034351820802430762 -0.0063848336553131288 0.0011570762601874978 -0.0035066322035449413 -0.0043081840084049682 -0.045588822944520963 -0.046290754351554581 0.0083163639645356027 -0.045523370616145864 0.028067127138273914 -0.021216396465637201
leaf_weight=400.97168807685375 230.82594594359398 403.43981654942036 5857.3334278613329 2286.3451747447252 94.370087891817093 365.97329640388489 189.87957984209061 293.27468483150005 97.91128171980381 25.409863114356995 52.674192860722542 70.512299284338951 1083.0655218213797 450.02937473356724 194.5904365926981 2063.1547132432461 949.85579323768616 171.22731730341911 1857.1531338244677 275.24283570051193 146.15811578929424 16.815258115530014 394.57533846795559 250.2778836786747 65.558402225375175 18.738683581352234 39.767168313264847 9.9327982962131482 5.9527355879545203 144.27868336439133
leaf_count=2451 1072 1853 23486 9190 380 1550 766 1595 469 111 216 285 4362 1824 969 8372 3863 845 7529 1120 638 70 1612 1013 307 78 178 44 26 629
internal_value=-0.000104976 -0.0190481 0.00184113 0.000533758 -0.000830041 -0.00180809 -0.00415474 -0.0146136 -0.0212828 0.00109291 -0.00185561 -0.00143613 0.00511314 -0.00560903 -0.0117861 -0.00221225 -0.00266807 -0.00913719 0.00290972 0.00499405 -0.0157349 -0.0327892 0.00323052 0.00450484 -0.0158566 -0.0109426 -0.0228156 -0.00263636 -0.0273143 -0.0291296
internal_weight=18505.3 1724.39 16780.9 10923.6 8361.99 7184.55 3976.28 1306.6 585.776 3208.27 3326.08 3273.4 1177.44 680.855 292.502 3083.52 3013.01 720.825 2527.42 2561.59 317.385 417.787 2502.01 2107.43 650.202 384.712 265.49 49.7 215.79 209.837
internal_count=76903 8890 68013 44527 34217 29475 16314 6369 3033 13161 13502 13286 4742 2896 1438 12520 12235 3336 10265 10310 1483 2521 10154 8542 2812 1628 1184 222 962 936
is_linear=0
shrinkage=0.05


Tree=24
num_leaves=31
num_cat=0
split_feature=4 15 11 4 8 4 15 12 15 12 9 8 12 15 12 5 12 21 22 11 22 15 15 12 15 22 5 11 12 18
split_gain=248.937 39.0035 19.236 24.0557 18.0966 17.2242 13.8053 13.0136 20.6893 12.1613 11.2201 11.0965 11.0344 10.9795 12.74 10.4017 13.6356 13.282 9.32361 8.27522 8.04781 8.03348 7.77384 12.7617 10.6809 9.03724 7.70737 8.96164 8.21917 7.64308
threshold=1.0000000180025095e-35 0.0070054409919496101 0.0066600023591892252 0.00011327235091302457 0.55589739755507239 2.5746114826580656e-08 0.012274796535372882 0.020060539349071402 0.025356287093948642 0.045391716933633836 0.0050277072352824768 0.55589309563658118 0.027337055537784472 0.020987177608618866 0.037141967028485677 0.35333134707303526 0.034788426997061764 0.55486112999825044 0.074673599855676315 0.0051728813090153713 0.08701291578585886 0.0070054409919496101 0.062106036283370934 0.10763246899913727 0.066688805757049149 0.23139857965620589 0.34756703049574972 0.90492293726718842 0.01678371953049845 0.63912889426887853
decision_type=2 2 2 2 2 2 2 2 2 2 2 2 2 2 2 2 2 2 2 2 2 2 2 2 2 2 2 2 2 2
left_child=1 19 3 5 13 29 10 -8 9 -9 11 -7 -6 14 -3 16 -10 -18 -19 -1 -15 -13 23 -17 25 -24 27 -4 -29 -2
right_child=2 4 26 -5 12 6 7 8 15 -11 -12 21 -14 20 -16 22 17 18 -20 -21 -22 -23 24 -25 -26 -27 -28 28 -30 -31
leaf_value=-0.033242159519681992 -0.0080329350479591954 -0.0096478561050970177 0.013300293057238458 0.0050192028718291926 -0.0063557945763248816 -0.044580337840464723 0.0056722001665836267 -0.0049214572891944164 0.031048716078865269 -0.02215998077426171 -0.0012467443429174604 -0.030470563659497914 -0.02883737177793513 0.018111024156828106 -0.026078879346237194 -0.00069738886679772112 0.0062750650724135715 0.025123177324273351 -0.044392032562016417 0.0011022260630852386 -0.0063415975790250753 -0.0057304053544171311 0.024133866716547384 -0.032246856977116538 0.0014160707278711435 0.0020312923094687476 0.0035068475137036829 0.015139979974486793 -0.016155500112038663 0.021878243030638185
leaf_weight=392.98803403973579 870.0493301153183 375.37988491356373 398.2472039014101 2323.9830097556114 73.514138951897621 29.918586075305939 1077.507650077343 808.52686668932438 52.853173390030861 117.91570623219013 279.92504468560219 43.218501091003418 262.44342811405659 35.597280994057655 178.59513212740421 3533.7426170855761 568.63645470142365 4.9857200980186489 20.846916303038597 16.819094806909561 372.51984894275665 145.65794591605663 107.69159628450871 31.397582665085793 797.56056381762028 85.454113647341728 5373.3995456695557 32.232733726501465 54.447837844491005 20.527821928262711
leaf_count=2451 3700 1864 1593 9348 373 151 4359 3355 212 508 1131 214 1364 159 958 14305 2285 20 84 70 1651 653 433 129 3210 344 21546 129 218 86
internal_value=-0.000101789 -0.0182834 0.00174836 0.000505639 -0.0139844 -0.000712107 4.59091e-05 0.000606287 -0.000280938 -0.00716402 -0.00798722 -0.0164523 -0.0240256 -0.0104308 -0.0150275 0.000940957 0.00686715 0.0046267 -0.0296076 -0.0317725 -0.0041086 -0.0116537 9.21185e-05 -0.000991215 0.00401286 0.0145446 0.00406013 0.0101197 -0.004193 -0.00729168
internal_weight=18486.6 1707.86 16778.7 10920.4 1298.05 8596.42 7705.84 7207.12 6129.61 926.443 498.72 218.795 335.958 962.092 553.975 5203.17 647.322 594.469 25.8326 409.807 408.117 188.876 4555.85 3565.14 990.706 193.146 5858.33 484.928 86.6806 890.577
internal_count=76903 8890 68013 44527 6369 35179 31393 29244 24885 3863 2149 1018 1737 4632 2822 21022 2601 2389 104 2521 1810 867 18421 14434 3987 777 23486 1940 347 3786
is_linear=0
shrinkage=0.05


Tree=25
num_leaves=31
num_cat=0
split_feature=4 15 14 9 3 14 4 9 15 5 6 21 22 16 3 9 17 22 21 3 22 6 17 7 6 14 7 22 14 7
split_gain=248.292 41.2465 22.5067 40.2307 20.765 26.1824 17.7843 18.9217 14.0575 12.4461 13.5035 13.4448 11.7175 14.3284 10.7064 11.3225 9.47622 13.3398 11.726 10.3842 9.14008 8.8973 8.68696 13.0866 8.64682 8.17971 12.0448 10.2469 7.93407 9.42348
threshold=1.0000000180025095e-35 0.020987177608618866 1.0807233705238608e-05 0.00010259205433670204 4.7044836627226426e-06 1.3497139891784908e-05 6.7008372943389285e-05 5.3897724330110684e-05 0.0428121861488431 0.43828620203069718 0.59193924122613872 0.56840954191562132 0.29276851432659629 0.11251701984940395 4.2541324665694614e-06 3.8995355499469318e-06 0.66121241176568468 0.42038813601593134 0.57009050502108061 7.9164399757624643e-05 0.5579738666778119 0.63673838203418642 0.6512664396185347 0.59197150732075021 0.59187748479877234 2.4590027351346784e-05 0.5919437819339507 0.079995625826660768 0.1199555332322438 0.52223545732799537
decision_type=2 2 2 2 2 2 2 2 2 2 2 2 2 2 2 2 2 2 2 2 2 2 2 2 2 2 2 2 2 2
left_child=1 4 3 6 -1 -6 7 8 14 10 25 -11 13 -12 15 -2 21 18 19 -18 -14 -13 -8 -24 -7 26 -4 -28 29 -27
right_child=2 -3 9 -5 5 24 22 -9 -10 11 12 16 20 -15 -16 -17 17 -19 -20 -21 -22 -23 23 -25 -26 28 27 -29 -30 -31
leaf_value=-0.0081269448613287398 -0.0050694768373290488 -0.0064463668389179597 -0.018295111646508325 -0.027141222279321295 -0.029498107009274927 0.029702280322391666 0.0079567864514671124 0.0070149864463940493 0.0023814296265815354 -0.0036344610410598411 0.028411042237168144 0.0043808450140284489 -0.0017297624251381731 -0.0071177216428851961 -0.0091118784869315718 0.0071787329611930316 0.015189241211014748 0.0083050941865392674 0.00026833643731801095 -0.052981192040670401 0.053894736353843675 0.017034558964498066 -0.0086153008552206159 0.0031723346475034174 -0.01012431369285987 0.019243412187072855 0.029831761263435643 0 -0.0025558042937083199 0.0061049480473763075
leaf_weight=195.29217633605003 761.80014060437679 535.50571598112583 83.777676239609718 137.72308330237865 849.06266269087791 14.114810422062872 704.54374986886978 464.03628562390804 682.15125343203545 865.40061742067337 175.11769227683544 3018.8024130016565 99.905141294002533 32.132787868380547 1156.6817046105862 248.54594853520393 6.679549008607867 568.19380110502243 3163.4914047122002 17.979643240571022 6.9284647703170767 146.49585068225861 274.71467903256416 1588.5307722389698 122.6905805170536 148.95264253020287 30.587314650416374 327.84684611856937 233.43605369329453 1869.2109768390656
leaf_count=914 3129 2418 349 691 5053 59 2822 1883 2761 3488 706 12141 404 130 4824 1022 27 2300 12805 73 28 587 1105 6404 575 596 123 1330 934 7501
internal_value=6.8749e-05 -0.0180375 0.00191983 -0.000526473 -0.0232615 -0.0262229 9.70571e-05 -0.00231884 -0.00384971 0.00328601 0.00602222 0.00222525 0.0158549 0.0227748 -0.00582291 -0.00202757 0.00296191 0.00125419 0 -0.0336689 0.00211215 0.00497957 0.00322371 0.00141728 -0.00564809 0.00486105 -0.00130718 0.00263375 0.00608362 0.00709608
internal_weight=18530.3 1716.67 16813.7 6018.73 1181.16 985.868 5881 3313.22 2849.18 10794.9 3007.9 7787.04 314.084 207.25 2167.03 1010.35 6921.64 3756.34 3188.15 24.6592 106.834 3165.3 2567.79 1863.25 136.805 2693.81 442.212 358.434 2251.6 2018.16
internal_count=77182 9019 68163 24641 6601 5687 23950 13619 11736 43522 12101 31421 1268 836 8975 4151 27933 15205 12905 100 432 12728 10331 7509 634 10833 1802 1453 9031 8097
is_linear=0
shrinkage=0.05


Tree=26
num_leaves=31
num_cat=0
split_feature=4 15 14 9 4 9 7 2 4 16 18 8 17 22 22 15 8 12 15 3 17 7 8 17 17 17 2 7 3 17
split_gain=226.216 38.4893 20.3162 36.8044 16.0489 17.0826 13.5352 14.8732 13.3795 14.0667 10.681 10.2552 9.98379 11.5819 11.0877 12.5383 11.3558 9.61074 21.6316 12.8857 10.2243 12.1562 9.43927 9.77058 12.2765 8.98484 8.62236 8.20654 8.14163 8.5044
threshold=1.0000000180025095e-35 0.015246042139572492 1.0807233705238608e-05 0.00010259205433670204 6.7008372943389285e-05 5.3897724330110684e-05 0.59189105736644565 4.9401864959922148e-06 1.3975250609783146e-06 0.0019027688741262733 0.61063866006772816 0.55577196677533069 0.66121241176568468 0.42038813601593134 0.25289388144350095 0.10083915645715417 0.55590048341109022 0.046955122716116265 0.030723983800866533 4.8707168201044713e-05 0.64691509035739392 0.59237851456057455 0.55589579886061302 0.65898875770717358 0.65786192063414628 0.64313601214160687 0.00018638746969266431 0.59197539161612378 4.9810231042723872e-05 0.65587619423889854
decision_type=2 2 2 2 2 2 2 2 2 2 2 2 2 2 2 2 2 2 2 2 2 2 2 2 2 2 2 2 2 2
left_child=1 6 3 4 5 8 -1 10 -2 -10 22 -3 14 -14 17 16 -16 19 -19 -4 25 -22 23 24 -8 -20 -9 -15 -21 -30
right_child=2 11 12 -5 -6 -7 7 26 9 -11 -12 -13 13 27 15 -17 -18 18 20 28 21 -23 -24 -25 -26 -27 -28 -29 29 -31
leaf_value=0.024761352623544109 -0.0078568228888351837 0.058532162322891094 0.042956961871549966 -0.026113202118965114 0.0030621411917267482 0.0066604648160253389 -0.0063166091112866144 -0.029781042064774145 0.020631462391479762 -0.0018128624257141195 -0.057027025884612538 -0.0098276897478542444 -0.00010963261845709082 -0.0019335840545882316 -0.0010118103024817646 0.025128950858932977 0.0081870573190930673 -0.04002033134687321 0.0034008255069210118 -0.0504738221455465 -0.0076823096706273436 0.036103274901985727 0.032051522634494865 -0.028474364172086854 0.055746833652316058 0.022971174905300054 -0.011918972133434803 0.011299373015850147 0.0091842892254719154 0.0044858959957863424
leaf_weight=12.483045428991316 1139.1340042501688 4.4413940459489814 23.363828912377357 136.0699333101511 2568.1191652566195 464.34418140351772 49.770341247320175 673.41706413030624 71.829269155859947 1636.1982114166021 9.5335625708103162 805.30207835137844 3222.7769386321306 158.67373311519623 1768.5169775485992 53.025582522153854 412.34828834235668 31.130411371588707 271.18496742844582 5.2236140370368949 263.77236872911453 15.727302938699721 14.502043366432188 40.071122571825981 8.3965553045272809 75.664413139224052 82.570160612463951 414.15316671133041 1629.7757486850023 2450.9236369132996
leaf_count=53 4741 19 94 691 10331 1883 239 4177 291 6704 46 3751 13046 643 7119 213 1658 135 1089 21 1064 63 70 193 40 304 431 1674 6550 9849
internal_value=6.48631e-05 -0.0173071 0.00182441 -0.000500473 9.23613e-05 -0.00220343 -0.0244938 -0.0252497 -0.00365965 -0.000842842 -0.00868131 -0.00935017 0.00312207 0.00104799 0.00424272 0.00132056 0.000718968 0.00560635 0 0.00650418 0.00204284 -0.00500946 -0.00390784 -0.00973762 0.00301067 0.00779569 -0.0278815 0.00759328 0.00627916 0.00637029
internal_weight=18512.4 1700.49 16812 6015.69 5879.62 3311.51 890.744 878.261 2847.16 1708.03 122.274 809.743 10796.3 3795.6 7000.66 2233.89 2180.87 4766.77 657.479 4109.29 626.349 279.5 112.74 98.238 58.1669 346.849 755.987 572.827 4085.92 4080.7
internal_count=77182 9019 68163 24641 23950 13619 5249 5196 11736 6995 588 3770 43522 15363 28159 8990 8777 19169 2655 16514 2520 1127 542 472 279 1393 4608 2317 16420 16399
is_linear=0
shrinkage=0.05


Tree=27
num_leaves=31
num_cat=0
split_feature=16 15 2 14 14 9 15 5 21 15 0 3 21 14 18 21 22 5 22 7 10 22 22 15 7 15 14 22 16 22
split_gain=205.989 36.6466 18.9117 24.0408 18.3372 33.6635 13.5839 10.7973 12.2969 9.77025 11.912 18.2363 12.065 11.5388 8.14742 8.07865 7.91246 7.81469 10.4 9.22768 7.738 7.89249 7.5997 15.7449 8.79665 14.4018 7.5991 7.47156 7.15022 6.97886
threshold=1.0000000180025095e-35 0.020987177608618866 5.6677028832212301e-06 1.3497139891784908e-05 1.0807233705238608e-05 0.00010259205433670204 0.0072904745253175316 0.43828620203069718 0.56840954191562132 0.043095912122848461 5.0015011959181585e-05 4.2541324665694614e-06 0.59114933019029181 7.9745006415308003e-07 0.61036537030595739 0.64556461521235176 0.18085186680352056 0.57498836788485475 0.5579738666778119 0.59179843700332313 0.97527449449112613 0.10874445676425952 0.25289388144350095 0.10083915645715417 0.59197129131912973 0.043095912122848461 1.4544536990971109e-05 0.036894879213447411 0.06788198629509265 0.33338220817207281
decision_type=2 2 2 2 2 2 2 2 2 2 2 2 2 2 2 2 2 2 2 2 2 2 2 2 2 2 2 2 2 2
left_child=1 2 14 -4 5 6 -2 22 26 10 11 12 -8 -14 -1 -11 -5 20 19 -19 -10 -22 24 -24 27 28 -9 -6 -26 -25
right_child=4 -3 3 16 7 -7 9 8 17 15 -12 -13 13 -15 -16 -17 -18 18 -20 -21 21 -23 23 29 25 -27 -28 -29 -30 -31
leaf_value=-0.0044323500935125023 -0.029272822134252537 -0.0056751060826735963 -0.028053599606278307 0.0078924415608930196 -0.024556002674071667 -0.025119471719382266 0.001408266796852495 0.0094839483098694156 0.0043168339339202284 0.0029723833987828209 0.0059131080468981939 -0.0072102857172922355 -0.017651385167530616 0.020642213757254099 -0.034174719844806654 0.032727825674371741 -0.016017950184721633 -0.012298211215592186 0.011584127118749468 0.00060731255369549867 -0.066739834914804994 -0.0031256658844156337 0.001389759251812811 -0.0027974570531648056 0.018144941674061259 0.046170867599829662 -0.0053038355230825189 0.0067039303942917411 -0.0031689519507459908 0.04264308494032619
