tree
version=v4
num_class=1
num_tree_per_iteration=1
label_index=0
max_feature_idx=22
objective=binary sigmoid:1
feature_names=Column_0 Column_1 Column_2 Column_3 Column_4 Column_5 Column_6 Column_7 Column_8 Column_9 Column_10 Column_11 Column_12 Column_13 Column_14 Column_15 Column_16 Column_17 Column_18 Column_19 Column_20 Column_21 Column_22
feature_infos=[0:1] [0:1] [0:1.0000000000000002] [0:1] [0:1] [0:0.99999999999999989] [0:1] [0:1] [0:1] [0:1.0000000000000002] [0:1.0000000000000002] [0:1] [0:0.99999999999999989] none [0:1] [0:1] [0:1] [0:1] [0:0.99999999999999989] [0:1] none [0:0.99999999999999989] [0:1]
tree_sizes=3448 3483 3489 3475 3472 3514 3514 3491 3496 3475 3482 3470 3440 3474 3466 3500 3479 3495 3504 3473 3466 3461 3460 3498 3467 3472 3501 3476 3481 3486 3475 3460 3451 3421 3434 3497 3504 3475 3490 3467 3492 3435 3492 3486 3450 3458 3478 3495 3463 3501 3470 3484 3481 3436 3439 3448 3429 3506 3429 3447 3504 3390 3496 3420 3484 3426 3414 3443 3405 3410 3448 3391 3449 3472 3477 3433 3452 3445 3491 3504 3417 3442 3468 3435 3450 3448

Tree=0
num_leaves=31
num_cat=0
split_feature=6 15 4 21 22 7 14 14 17 7 17 6 7 15 21 15 7 10 17 12 15 12 21 12 18 18 18 14 6 18
split_gain=35.6161 30.5639 21.9166 17.8889 13.0716 11.5942 11.0827 10.9087 10.4171 10.8323 9.91597 14.4099 10.6137 9.49687 8.58005 10.4086 8.23579 11.8276 11.1872 8.57175 7.90315 10.5442 7.78277 7.74634 12.8414 7.60845 7.1066 7.08873 11.079 6.83919
threshold=0.48386994236888808 0.000108126113270709 1.0000000180025095e-35 0.00022719651580860821 0.58023399837226275 0.48240338785823644 0.046734478589054669 0.00030540271569680567 0.09360685865848585 0.4824035695720626 0.094858746157161347 0.48388879457551631 0.48240041284303931 5.3645182550599866e-05 0.00018160900072976009 0.00027170642774274821 0.48240366885525604 2.6547215756477627e-05 0.096570510375603102 0.0019591462507495831 9.87092209702439e-05 0.0010729786927064658 0.00019239782736183079 0.0028933891484408587 0.040122894683644411 0.039646607717866648 0.03692141370581483 0.00012985798496738881 0.48389297942493342 0.039486910939209488
decision_type=2 2 2 2 2 2 2 2 2 2 2 2 2 2 2 2 2 2 2 2 2 2 2 2 2 2 2 2 2 2
left_child=7 2 5 4 8 -2 10 -1 9 -3 11 12 13 -4 -10 23 18 -18 19 -12 21 -9 -21 24 -16 -13 -15 28 -7 -19
right_child=1 3 6 -5 -6 27 -8 20 14 -11 16 25 -14 26 15 -17 17 29 -20 22 -22 -23 -24 -25 -26 -27 -28 -29 -30 -31
leaf_value=-0.17247756698106864 -0.21577017058562564 -0.15857631566405359 -0.12180442877859077 -0.11468606568395659 -0.19779756825070646 -0.17890086717615181 -0.15810223220360736 -0.13830076014645787 -0.20126599513163157 -0.12742026269645201 -0.17029407337622199 -0.16082869011797526 -0.19824016417892684 -0.15198858861595305 -0.14904467801334523 -0.12999480942716407 -0.1570231999914633 -0.19178711366056117 -0.20838281156488686 -0.19772108171522007 -0.13966844021302152 -0.1614748656101273 -0.15231214554460595 -0.1702622273471211 -0.18636875423480742 -0.11093670806568509 -0.19290092302453515 -0.16262816152736559 -0.22580671324807272 -0.17439531466681887
leaf_weight=73.982423275709152 42.949527606368065 138.03431993722916 8.9374739527702314 18.123211070895195 26.067632362246513 48.907843574881554 111.22189807891846 63.555370330810547 15.640579417347906 35.501632645726204 107.49795059859753 178.74947905540466 49.156106740236282 16.385368913412094 114.69758239388466 19.612790063023567 83.664686724543571 69.513686299324036 43.446053937077522 72.244581118226051 101.04310829937458 226.91253313422203 9.4340002834796888 352.03716847300529 27.308948189020157 7.1996317952871314 24.82631653547287 26.564158692955971 17.378421574831009 345.08579984307289
leaf_count=298 173 556 36 73 105 197 448 256 63 143 433 720 198 66 462 79 337 280 175 291 407 914 38 1418 110 29 100 107 70 1390
internal_value=-0.167612 -0.170509 -0.175255 -0.162517 -0.163811 -0.19421 -0.172927 -0.155177 -0.162473 -0.151868 -0.174582 -0.16676 -0.181959 -0.166191 -0.166019 -0.164833 -0.177665 -0.173935 -0.185484 -0.179904 -0.151838 -0.156237 -0.192059 -0.166338 -0.156482 -0.158473 -0.17607 -0.183559 -0.19226 -0.177424
internal_weight=2475.68 2010.19 1263.16 747.024 728.901 135.8 1127.36 465.493 702.833 173.536 1016.14 285.254 99.3053 50.1492 529.297 513.656 730.887 498.264 232.623 189.177 391.511 290.468 81.6786 494.044 142.007 185.949 41.2117 92.8504 66.2863 414.599
internal_count=9972 8097 5088 3009 2936 547 4541 1875 2831 699 4093 1149 400 202 2132 2069 2944 2007 937 762 1577 1170 329 1990 572 749 166 374 267 1670
is_linear=0
shrinkage=1


Tree=1
num_leaves=31
num_cat=0
split_feature=6 15 4 15 22 7 8 14 15 17 3 22 22 4 8 15 22 5 15 7 17 17 15 18 3 18 16 15 8 14
split_gain=32.1709 27.6543 19.9534 14.3179 11.686 10.5483 10.1841 9.85724 8.70938 10.9905 8.62039 8.26699 8.19991 7.54352 8.02179 7.09025 7.35152 10.7853 10.9926 10.2066 7.45154 7.36217 7.19802 7.00272 6.90674 6.79523 6.67822 8.38574 6.63876 6.47009
threshold=0.48386994236888808 0.000108126113270709 1.0000000180025095e-35 0.00024978521684697574 0.58023399837226275 0.48240338785823644 0.48656729144634819 0.00030540271569680567 0.00019114055601723439 0.094870355850673119 0.00016936172675922618 0.1963505851531652 0.12352964115168402 1.1609728918297902e-05 0.48668602981325049 9.87092209702439e-05 0.3044823807052926 0.39080559224090011 5.0849545415763349e-05 0.47769189654837135 0.095203765553387706 0.092403803045749841 5.0013860041695661e-05 0.037705308543875458 0.0020902770857174745 0.039125464035177256 0.011286150265972966 0.00011378523863384596 0.4866757337578424 0.00012985798496738881
decision_type=2 2 2 2 2 2 2 2 2 2 2 2 2 2 2 2 2 2 2 2 2 2 2 2 2 2 2 2 2 2
left_child=7 2 5 4 8 -2 -4 24 9 -3 12 -10 -5 14 -8 16 17 21 19 -19 -20 -9 -18 -24 -1 -26 27 -11 -15 -7
right_child=1 3 6 10 -6 29 13 15 11 26 -12 -13 -14 28 -16 -17 22 18 20 -21 -22 -23 23 -25 25 -27 -28 -29 -30 -31
leaf_value=0.00292120330732426 -0.046518313677501734 0.014469196293585991 0.0097543118267850396 -0.027684936427139289 -0.03080572326844308 -0.024038701980034317 -0.024525486338551738 -0.0012266036519490737 -0.02285165193337543 0.027160117225649719 0.048590088943680942 0.0039461817993361537 0.021736048207985206 0.025267305841821155 -0.0081485993018296215 0.026007528274611752 -0.027308553416514017 -0.01167772924158743 -0.018279096878347847 0.031797284292692504 0.012270140444324422 0.037879448812867589 -0.033085953637328878 0.015953878975089392 -0.052029979496423101 0.011405808097210202 0.0037414852636214503 -0.021425637880222226 -0.0043534346226718401 0.0042444870847408323
leaf_weight=57.07447737455368 42.750485301017761 222.31823526322842 97.080847278237343 9.1996577531099302 25.004632517695427 66.136830985546112 100.94763396680355 13.414535716176031 55.364861845970154 9.1861269176006299 25.133067175745964 55.637870401144028 41.007437244057655 18.352943748235703 323.52496083080769 101.25539353489876 21.374248415231705 16.409716352820396 47.691051632165909 53.20146419107914 32.047152042388916 59.62825058400631 7.7001311779022208 39.245357245206833 11.911195278167726 4.9629980325698844 247.29595150053501 57.097352504730225 586.82320289313793 26.573907002806664
leaf_count=230 173 895 391 37 101 267 407 54 223 37 101 224 165 74 1304 407 86 66 192 214 129 240 31 158 48 20 996 230 2365 107
internal_value=-0.000496743 -0.00325209 -0.0077701 0.00434617 0.0019713 -0.0258831 -0.00554927 0.0113147 0.00332241 0.00599204 0.0248952 -0.00928126 0.0118284 -0.0070245 -0.0121506 0.014485 0.0103106 0.0147252 0.0067218 0.0211745 -0.00569167 0.0304403 -0.00370444 0.00686649 -0.00512496 -0.0323794 0 -0.0140171 -0.00337369 -0.0157063
internal_weight=2475.35 2009.44 1262.19 747.245 671.905 135.461 1126.73 465.916 646.9 535.898 75.3402 111.003 50.2071 1029.65 424.473 391.967 290.712 222.392 149.349 69.6112 79.7382 73.0428 68.3197 46.9455 73.9487 16.8742 313.579 66.2835 605.176 92.7107
internal_count=9972 8097 5088 3009 2706 547 4541 1875 2605 2158 303 447 202 4150 1711 1577 1170 895 601 280 321 294 275 189 298 68 1263 267 2439 374
is_linear=0
shrinkage=0.05


Tree=2
num_leaves=31
num_cat=0
split_feature=6 15 4 21 5 7 14 17 6 14 7 15 17 7 11 17 12 7 14 7 21 6 5 17 12 17 14 0 21 15
split_gain=29.0209 25.0057 18.1302 15.5718 12.1435 9.64231 9.60701 8.91611 12.9471 8.88798 8.73912 8.65178 7.99463 7.54349 10.5503 10.2308 7.80171 7.36629 7.32626 7.19723 7.09571 6.7494 6.47038 7.99141 6.45164 6.41268 9.93901 7.35911 6.38657 6.3826
threshold=0.48386994236888808 0.000108126113270709 1.0000000180025095e-35 0.00022719651580860821 0.5999557388046951 0.48240338785823644 0.046734478589054669 0.094858746157161347 0.48388892498166347 0.00030540271569680567 0.48240041284303931 5.3645182550599866e-05 0.097813833023218319 0.48240366885525604 0.37287424056810253 0.096570510375603102 0.0019591462507495831 0.48240363558354765 1.0160663622332985e-05 0.48240362836688683 0.00019239782736183079 0.48388879457551631 0.47944559528174741 0.095144688862484464 0.0020253528117174361 0.094976487775814425 0.00012985798496738881 0.00012489199858327078 0.00019307558723174347 9.87092209702439e-05
decision_type=2 2 2 2 2 2 2 2 2 2 2 2 2 2 2 2 2 2 2 2 2 2 2 2 2 2 2 2 2 2
left_child=9 2 5 4 12 -2 7 8 10 24 11 -4 -3 15 -15 16 -9 -14 19 -6 22 -17 23 -18 -1 -7 27 -27 -8 -11
right_child=1 3 6 -5 18 25 28 13 -10 29 -12 -13 17 14 -16 21 20 -19 -20 -21 -22 -23 -24 -25 -26 26 -28 -29 -30 -31
leaf_value=-0.02186660986310307 -0.044491519894765456 0.0043483766472549876 0.04352515713031313 0.048657642768551126 -0.042689620191644809 0.0096334830259443179 0.014721668823525262 -0.0027259451945173211 0.0087140901003470786 0.0097800453599449638 -0.027231683749110242 -0.0082017018144141512 0.048626478781795213 0.0097851631027273973 -0.0094786907158410545 0.0090107975653294058 -0.027821568525128477 -0.0028134181065489162 -0.025673353720326628 0.0071419120561147442 0.014340856113012404 -0.046464154649702723 -0.040779618149244856 0.026049079994082742 0.007388994167078786 -0.014438369136092997 0.0036511962097298305 -0.055208033693602582 -0.014074254902585903 0.024678548377784361
leaf_weight=31.480604708194733 42.514597058296204 591.48160511255264 8.9615884870290738 18.207159727811813 7.4426599740982047 19.053971201181412 88.4600959867239 107.40788777172565 181.52755616605282 290.89811672270298 53.452061399817467 41.148086175322533 18.88786251842976 83.703032970428467 413.95020823180676 5.1906660050153723 18.309312075376514 9.1916607767343503 52.085267171263695 50.113274320960045 9.4411993026733381 38.063456922769547 44.291214287281036 9.4030070900917035 42.42585551738739 26.719988331198692 24.098554000258446 22.686522006988525 22.843897551298141 101.42208380997181
leaf_count=127 173 2381 36 73 30 77 356 433 731 1170 216 166 76 337 1670 21 74 37 210 202 38 154 179 38 171 108 97 92 92 407
internal_value=-0.000472783 -0.00309189 -0.00739142 0.00413018 0.00291904 -0.024686 -0.00527482 -0.00681887 0.000596436 0.0107401 -0.0133407 0.00123056 0.0056638 -0.00974682 -0.00617534 -0.0172377 -0.0118985 0.0314105 -0.0122761 0 -0.0235121 -0.0391888 -0.0289463 -0.0084015 -0.0048643 -0.0149434 -0.0216935 -0.0343788 0.00851632 0.0137481
internal_weight=2474.86 2008.64 1261.23 747.409 729.202 135.074 1126.15 1014.85 285.089 466.227 103.562 50.1097 619.561 729.76 497.653 232.107 188.853 28.0795 109.641 57.5559 81.4447 43.2541 72.0035 27.7123 73.9065 92.559 73.5051 49.4065 111.304 392.32
internal_count=9972 8097 5088 3009 2936 547 4541 4093 1149 1875 418 202 2494 2944 2007 937 762 113 442 232 329 175 291 112 298 374 297 200 448 1577
is_linear=0
shrinkage=0.05


Tree=3
num_leaves=31
num_cat=0
split_feature=6 15 16 21 5 7 8 17 16 15 22 22 17 7 21 3 22 16 17 1 22 6 22 1 15 6 7 16 7 17
split_gain=26.2155 22.6314 16.5059 14.1071 11.0122 8.81132 8.58589 7.59104 7.82297 7.57603 8.98239 6.8434 7.66102 9.72873 8.34737 6.78759 6.70509 7.13596 6.67662 12.0336 8.2691 10.479 7.70953 6.60405 7.27249 6.5685 7.73177 6.54968 6.34442 6.30905
threshold=0.48386994236888808 0.000108126113270709 1.0000000180025095e-35 0.00022719651580860821 0.5986304352912849 0.48240338785823644 0.48656729144634819 0.097732995154196547 0.056394911065365622 9.87092209702439e-05 0.077681823824123572 0.58023399837226275 0.093376053323009842 0.4824035695720626 0.00018160900072976009 0.006166323386409032 0.48343425734444928 0.04043308286866492 0.094858746157161347 8.3638237811994138e-05 0.23190234752452563 0.48389047093251658 0.16801690338352829 1.272004999326558e-06 7.7132596416216171e-05 0.48389218621406599 0.48240371247699448 0.037742148925185466 0.48241184832427703 0.092625271176909565
decision_type=2 2 2 2 2 2 2 2 2 2 2 2 2 2 2 2 2 2 2 2 2 2 2 2 2 2 2 2 2 2
left_child=9 2 5 4 7 -2 -4 11 -9 15 -11 12 13 29 -14 -1 17 27 19 22 21 -21 23 -8 -25 26 -6 -17 -22 -3
right_child=1 3 6 -5 25 -7 18 8 -10 10 -12 -13 14 -15 -16 16 -18 -19 -20 20 28 -23 -24 24 -26 -27 -28 -29 -30 -31
leaf_value=-0.005323047420868198 -0.042585474941508938 0.00057189378244924067 0.0090175996902466405 0.046276255179058534 -0.027138195009986144 -0.014242542473475811 -0.0038159566248108755 0.043664171883632502 -0.014879577975320671 -0.0082439833374185322 0.027537856691909158 -0.026446693379174314 -0.02784862534467393 0.040255724414432356 0.0031936719439781451 0.0080871390659433169 -0.015812362209326605 0.023554693342209901 -0.0088176634239395535 -0.0091146618495422348 -0.0299464355522371 0.032658535227251727 0.0024177543118290034 0.062531366267277289 0.012169198832154018 -0.026160549673273328 0.0094017359593825608 -0.041168245455731778 0.013130263643097596 0.024936756126949414
leaf_weight=88.851867347955704 42.248145222663879 90.276446297764778 97.184439420700073 18.237468674778938 19.557409316301346 92.381330206990242 10.436811044812201 22.659778028726581 6.2191014289855948 19.656584858894348 97.036048844456673 16.54297237098217 21.833720222115517 29.156617492437363 392.8396253734827 139.3121333271265 20.627483621239662 95.054035231471062 751.64402176439762 62.40404349565506 53.214115753769875 18.640594527125359 91.176334351301193 16.155192136764526 15.890473589301108 44.790766045451164 47.402133196592331 5.9756772071123114 8.6782300472259504 38.052511468529701
leaf_count=358 173 363 391 73 79 374 42 91 25 79 389 67 88 117 1581 560 83 382 3035 252 215 75 367 65 64 181 191 24 35 153
internal_value=-0.000450871 -0.00294241 -0.00703643 0.00392501 0.00276984 -0.0235696 -0.00501728 0.00541342 0.0301439 0.0102012 0.0212792 0.00410881 0.00508049 0.0144494 0.001436 0.00638446 0.010471 0.0128866 -0.00637556 0.000178617 -0.00978147 0.000469581 0.0110093 0.0283939 0.0394388 -0.0115365 -0.00114519 0.0056228 -0.0233962 0.0081269
internal_weight=2474.14 2007.62 1260.05 747.569 729.331 134.629 1125.42 617.581 28.8789 466.514 116.693 588.702 572.159 157.486 414.673 349.821 260.969 240.342 1028.24 276.596 142.937 81.0446 133.659 42.4825 32.0457 111.75 66.9595 145.288 61.8923 128.329
internal_count=9972 8097 5088 3009 2936 547 4541 2485 116 1875 468 2369 2302 633 1669 1407 1049 966 4150 1115 577 327 538 171 129 451 270 584 250 516
is_linear=0
shrinkage=0.05


Tree=4
num_leaves=31
num_cat=0
split_feature=6 15 4 21 5 4 2 3 8 15 12 22 21 15 2 22 4 12 17 0 6 11 0 15 6 17 8 0 15 22
split_gain=23.617 20.4554 15.0313 12.7956 10.0791 8.69856 8.19277 11.3193 7.75514 6.82774 9.64039 8.12917 6.74095 7.55542 7.72374 6.48281 6.46144 7.86785 8.04029 10.6047 10.02 7.42016 6.89314 6.31491 6.13677 5.90239 7.70559 5.83177 5.76821 5.7002
threshold=0.48386994236888808 0.000108126113270709 1.0000000180025095e-35 0.00022719651580860821 0.6240313940227844 0.0045711940580290752 0.0001201364657472265 0.0017945112261904728 0.48656729144634819 9.87092209702439e-05 0.0010729786927064658 0.077681823824123572 0.00019040203122527966 1.556124530828276e-05 0.94234981554791408 0.58023399837226275 1.1609728918297902e-05 0.001585077543799559 0.094455054549906284 6.1480222466097181e-05 0.48389055697979239 0.37289553059973718 0.024017323597604952 1.0025588416436759e-05 0.48389095472820642 0.096320250998407117 0.48668953975972423 1.3290772976563616e-06 0.00018824308696705435 0.5105336036058622
decision_type=2 2 2 2 2 2 2 2 2 2 2 2 2 2 2 2 2 2 2 2 2 2 2 2 2 2 2 2 2 2
left_child=9 2 6 4 15 -6 27 -8 -4 10 12 -11 13 -1 -15 -3 21 24 19 -19 25 -10 -23 -9 -18 -20 -27 -2 -17 -24
right_child=1 3 8 -5 5 -7 7 23 16 11 -12 -13 -14 14 -16 28 17 18 20 -21 -22 22 29 -25 -26 26 -28 -29 -30 -31
leaf_value=-0.017840042553042373 -0.017561645769820361 0.0055762341975007564 0.0085655823887025757 0.044061731492841115 -0.027842567056237971 0.0065151002467729417 -0.044831993373944688 -0.044744954515842705 0.029403708449879298 -0.0078560169318398713 0.0016184213702143332 0.02614615995240659 -0.024914467057679759 0.037920947000514349 -0.019813784133890688 -0.03797066292568297 0.0020606221018117212 0.017236234117762567 -0.014613237995922852 -0.009148331357345196 -0.0026304996778067618 -0.016609599339321185 0 0.00022599744036352356 0.02884979738627837 -0.056014115682319822 0.0033370875694212726 0.022145920233048871 0.017668755605015952 -0.039378512074966204
leaf_weight=7.2070638239383689 22.70856574177742 634.88049519062042 97.248410165309906 18.246313691139221 46.230184555053711 28.039207369089127 55.370302855968475 8.7860246449708921 9.9057296663522703 19.645622074604034 275.72450767457485 97.141291305422783 5.7299520671367636 56.051125630736351 5.235721454024314 15.007477894425394 93.763383895158768 74.831103876233101 107.14403483271599 74.444770574569702 199.67114698886871 270.00371973216534 134.46197621524334 33.322259679436684 27.761058926582336 20.442320346832279 6.160786807537078 14.006499424576758 5.1796109378337851 8.9194370657205564
leaf_count=29 92 2554 391 73 187 113 227 36 40 79 1109 389 23 225 21 61 378 301 433 301 806 1092 543 135 112 83 25 57 21 36
internal_value=-0.000426855 -0.00279379 -0.00668917 0.00373292 0.0026308 -0.014625 -0.0224962 -0.03003 -0.00476274 0.00967957 0.00605117 0.020196 0.0219451 0.026527 0.0323484 0.00464463 -0.0060556 -0.00267425 -0.00556866 0.00393842 -0.00989891 -0.0108056 -0.0118981 -0.00939769 0.0085699 -0.0204643 -0.0417408 -0.00156512 -0.0223546 -0.00279913
internal_weight=2473.27 2006.53 1258.95 747.583 729.337 74.2694 134.194 97.4786 1124.76 466.735 349.948 116.787 74.2239 68.4939 61.2868 655.068 1027.51 604.219 482.694 149.276 333.418 423.291 413.385 42.1083 121.524 133.747 26.6031 36.7151 20.1871 143.381
internal_count=9972 8097 5088 3009 2936 300 547 398 4541 1875 1407 468 298 275 246 2636 4150 2439 1949 602 1347 1711 1671 171 490 541 108 149 82 579
is_linear=0
shrinkage=0.05


Tree=5
num_leaves=31
num_cat=0
split_feature=15 4 21 22 22 18 15 0 10 9 21 21 0 4 4 22 18 15 8 3 7 8 0 22 4 4 6 6 6 8
split_gain=30.8941 20.3681 12.3837 11.1322 9.5584 15.0537 8.64354 8.26383 13.3073 11.0572 8.20971 7.20693 6.70107 7.71637 11.5503 8.67597 8.80133 7.52018 7.45123 6.12559 6.19927 9.4272 5.96254 5.76133 5.75866 8.70141 6.36119 9.52202 7.15754 6.89846
threshold=0.00027170642774274821 1.0000000180025095e-35 0.000187373306539102 0.19502413924247938 0.59616411906110189 0.038384045703902289 1.556124530828276e-05 8.9331109318257899e-05 0.0002228570283420194 7.0562198062763074e-07 0.00018759984019722583 0.00018259545080392077 6.4389113340594881e-06 0.00011226958976271718 0.00017884277998038377 0.11073056703356494 0.040897401345694258 0.00014986993027281029 0.48656729144634819 0.0062663564155819741 0.48246665575737513 0.48642002230402753 2.2132036316921605e-05 0.12128534490372404 6.3257769366432292e-07 4.9443515819622697e-07 0.48386994236888808 0.48385327843787745 0.48388041632846568 0.48671217302461883
decision_type=2 2 2 2 2 2 2 2 2 2 2 2 2 2 2 2 2 2 2 2 2 2 2 2 2 2 2 2 2 2
left_child=1 7 4 11 6 -6 -3 9 -9 23 -4 -2 17 15 -15 19 18 -12 -17 -14 -21 -22 -5 -1 25 -20 27 29 -28 -26
right_child=3 2 10 22 5 -7 -8 8 -10 -11 12 -13 13 14 -16 16 -18 -19 24 20 21 -23 -24 -25 26 -27 28 -29 -30 -31
leaf_value=0.021765656956439988 -0.019275947399702394 -0.054030685214105069 -0.023576909946294668 0.017277414847023054 -0.046683560204293165 0.028060486023657533 0.0061442934674010435 -0.042355944199950868 -0.0089810308203619477 0.038934366475546059 -0.0064027086210229935 0.026535283989264663 -0.02342546331608442 0.030147185169614073 0.0020065551558705588 0.021721549653642633 -0.018094392646989577 -0.035402473731322291 -0.0046958285995611412 0.014397824670288743 0.0042327428244225062 -0.033326342632972787 0.057739507337608832 -0.03238074968840312 -0.043139050437087399 -0.047223901716456171 -0.032699733423269088 0.051940369706589863 0.0016900201125989525 0.013688971186469523
leaf_weight=5.4227324128150967 13.938330709934233 4.9383701980113974 45.440791845321655 16.948663771152496 19.98681448400021 8.6816072613000852 859.07476459443569 55.590980902314186 69.846506804227829 12.609553843736647 132.46461696922779 18.468753322958946 79.681977421045303 41.377736911177635 282.46039728820324 40.581107884645462 63.814195021986961 27.083078667521477 110.31545431911945 28.833206459879875 34.350088059902191 29.470567777752876 32.195729687809944 16.761204302310944 5.2285360246896735 12.881033092737196 14.828164145350454 14.448055505752562 339.39542834460735 33.414948746562004
leaf_count=22 56 20 183 68 81 35 3457 229 284 51 535 74 322 167 1139 163 258 109 445 116 138 119 129 68 21 52 60 58 1372 134
internal_value=-1.47894e-05 -0.00106362 0.000166684 0.0300476 0.00473393 -0.0230234 0.00570939 -0.0182266 -0.0241878 0.00264163 -0.00286744 0.00609626 -0.00210125 -0.000720169 0.00576086 -0.00335498 -0.000605928 -0.011671 0.00133276 -0.0132767 -0.00412489 -0.0129719 0.0449065 -0.0176987 -0.000217769 -0.00968816 0.00260213 0.0185757 9.20501e-05 0.00447519
internal_weight=2470.53 2388.98 2228.75 81.5515 892.682 28.6684 864.013 160.231 125.437 34.7935 1336.07 32.4071 1290.63 1131.08 323.838 807.243 634.907 159.548 571.093 172.336 92.6539 63.8207 49.1444 22.1839 530.512 123.196 407.315 53.0915 354.224 38.6435
internal_count=9965 9638 8984 327 3593 116 3477 654 513 141 5391 130 5208 4564 1306 3258 2563 644 2305 695 373 257 197 90 2142 497 1645 213 1432 155
is_linear=0
shrinkage=0.05


Tree=6
num_leaves=31
num_cat=0
split_feature=15 16 14 15 21 11 4 21 0 11 14 14 7 10 16 21 12 21 14 10 4 0 15 12 16 21 15 11 21 15
split_gain=28.1596 22.1544 16.8042 14.2902 8.06881 7.90707 7.81057 7.35787 7.56117 7.13264 7.04881 14.1071 9.71891 9.12865 8.53287 7.70193 7.03577 6.87415 6.80386 9.7377 6.63862 6.48371 6.15491 8.43009 6.15055 5.83815 5.78899 6.75934 15.6594 13.4522
threshold=0.00024978521684697574 0.016342820079401844 0.004209165106372508 0.00012774536905623866 0.00019569243496345652 0.92086822271678836 1.4038735166945256e-06 0.00018975237957978702 6.4389113340594881e-06 0.37286089675268758 7.4698960913241e-06 8.9910187332997704e-05 0.48240366885525604 0.0001857850760272435 0.002675562333338512 0.00018784047428398255 0.00098172306789356002 0.00018907840824717678 0.052622641586820028 0.93988253589768611 4.7201577587755053e-05 0.0064418342263720596 5.6229021613759197e-05 0.0023946460404038789 0.082153448074254523 0.00019274721933589027 1.556124530828276e-05 0.37691172272589485 0.00018927517650614217 5.5730371934762093e-05
decision_type=2 2 2 2 2 2 2 2 2 2 2 2 2 2 2 2 2 2 2 2 2 2 2 2 2 2 2 2 2 2
left_child=1 2 3 10 5 6 -4 26 9 -9 12 13 -1 -12 25 16 -13 18 -7 -20 -2 -17 -15 -24 -22 -14 -3 29 -29 -28
right_child=20 7 4 -5 -6 17 -8 8 -10 -11 11 15 14 22 -16 21 -18 -19 19 -21 24 -23 23 -25 -26 -27 27 28 -30 -31
leaf_value=-0.013190179298510652 0.047637299249276177 -0.023041393092723683 0.052364099036549587 0.0054780670145710879 -0.046570165841176306 0.048294351910906252 0.0032498645102598217 -0.0069119895605215462 0.00036863943103079545 -0.042641696750750857 -0.016774269943038173 0.039864482964600503 0.0490259024217021 -0.054243643931717836 -0.0034201770338106959 -0.0051427054770806831 -0.0021038387539203053 -0.012477850712728082 -0.018000782745387866 0.034635761976980158 0.0076223732138089272 -0.025438723858712549 0.01841324009461837 -0.035130412981343638 0.040083756597746427 -0.0015207248332288123 -0.013646459739594802 0.0089036043032536365 0.05374261680291325 0.0062888213007920857
leaf_weight=121.67425590753555 25.946272015571594 16.297723650932312 19.644696474075317 116.46885108947754 4.9401120543479911 11.436897069215773 15.44112968444824 59.319990754127502 526.37956692278385 18.595441862940788 105.58763407170773 10.421310380101202 16.859813481569294 40.711718797683716 37.472289964556694 85.993012443184853 73.165131315588951 35.272594898939133 19.436613246798515 14.203135207295416 55.326915875077248 79.150056198239326 7.8951292335987082 35.013190552592278 20.703337639570236 6.9414729326963416 98.358832284808159 217.58425821363926 20.870624274015427 552.6848124563694
leaf_count=492 104 66 79 469 20 46 62 240 2125 75 429 42 68 168 151 349 295 142 78 57 222 320 32 143 83 28 397 874 84 2225
internal_value=-1.74156e-05 -0.00114022 -0.00756002 -0.0104037 0.00959476 0.0125924 0.032131 0.00249226 -0.00174808 -0.0161884 -0.013427 -0.0168906 -0.00495337 -0.0272171 0.0109506 -0.00885767 0.00324252 0.00346315 0.0164797 0.00385965 0.0255684 -0.0151153 -0.0397538 -0.024514 0.0171919 0.0338094 0.00534755 0.00592107 0.0131406 0.00322237
internal_weight=2469.8 2367.82 857.729 737.354 120.375 115.435 35.0858 1510.09 604.295 77.9154 620.885 437.937 182.948 189.208 61.2736 248.73 83.5864 80.3492 45.0766 33.6397 101.977 165.143 83.62 42.9083 76.0303 23.8013 905.796 889.499 238.455 651.044
internal_count=9965 9556 3470 2986 484 464 141 6086 2440 315 2517 1778 739 772 247 1006 337 323 181 135 409 669 343 175 305 96 3646 3580 958 2622
is_linear=0
shrinkage=0.05


Tree=7
num_leaves=31
num_cat=0
split_feature=15 16 17 7 16 5 5 14 6 21 16 9 0 11 14 0 17 14 14 14 15 16 5 17 21 4 11 7 16 14
split_gain=25.5824 19.3265 12.4013 7.5191 11.549 12.6595 9.86541 6.75937 8.115 8.08638 8.64438 6.74421 6.96242 6.60958 12.0769 11.1065 6.24355 6.19635 12.5464 8.04142 7.03136 6.18594 6.09908 5.8934 5.86955 5.83028 10.9045 6.73866 6.32075 7.8666
threshold=0.00027170642774274821 0.00036415035403776974 0.094906000979146338 0.48239181162236677 0.013884091959175315 0.45035248989357141 0.48155113886478962 2.1448481951350902e-07 0.48389033973801071 0.00018883490371597147 0.063013638026901339 4.0032413496048009e-05 7.0021928723461189e-06 0.37290153795433706 8.9910187332997704e-05 1.3290772976563616e-06 0.096412920289910095 0.00040862353508768233 9.4367773564748827e-06 7.8373862454474821e-06 0.00010261226441089816 0.002675562333338512 0.41623173464263219 0.095186894890455773 0.00019508176336214124 4.357245806222861e-06 0.37675464002383402 0.48237263923776036 0.024560882100417351 0.0040681783176836723
decision_type=2 2 2 2 2 2 2 2 2 2 2 2 2 2 2 2 2 2 2 2 2 2 2 2 2 2 2 2 2 2
left_child=1 13 7 25 6 -6 -5 -3 9 17 -11 12 21 15 -15 -1 -13 18 19 -9 22 -8 -20 -7 -23 26 -4 28 29 -28
right_child=-2 2 3 4 5 23 11 8 -10 10 -12 16 -14 14 -16 -17 -18 -19 20 -21 -22 24 -24 -25 -26 -27 27 -29 -30 -31
leaf_value=-0.021138241281234798 0.027336146989805601 -0.029714941384845834 -0.034077941932376885 -0.034901039595078447 -0.04647945702401661 0.013008552747147475 0.012067320462937523 0.0080379214098630063 0.013378288391322901 -0.035808783444963549 0.029122154277177306 -0.0065745597805382016 0.018135674101107273 -0.03552011091102724 -0.0065411826896352478 0.026872041258479945 -0.025864934993094491 0.010612235657337805 -0.018371225107839433 0.048936278502566863 0.002855001668665369 -0.039887898453184086 0.0064185806042726286 -0.001654814316366132 0.0082801541121021345 0.017705753234434175 -0.013662417781797543 0.037353054791182554 -0.016249021359197709 0.022988524199492183
leaf_weight=25.810885146260262 81.572168484330177 12.675866663455961 19.071199402213097 42.257338315248489 14.086414054036139 74.864249542355537 16.578807309269905 120.84432561695576 237.35851009190083 23.830407932400707 5.2275751978158942 116.88711301982403 39.163573935627937 73.277995884418488 75.652471974492073 20.861775323748589 70.071198150515556 213.8491323441267 120.31765030324459 12.903907477855681 115.40332712233067 19.025943189859394 28.938584387302399 701.97486996650696 7.6795841604471198 69.609262481331825 20.601800501346588 13.859730780124663 33.091627582907677 41.577243968844414
leaf_count=105 327 51 77 171 57 302 67 486 954 96 21 473 158 305 307 84 284 858 487 52 464 77 117 2835 31 280 83 56 133 167
internal_value=-1.52619e-05 -0.000971339 0.000364439 -0.00273635 -0.00436037 -0.00110821 -0.0125037 0.00491424 0.00547543 0.00249529 -0.0227156 -0.00878201 0.00285925 -0.0159917 -0.0211082 0 -0.0140367 0.00376767 1.38246e-05 0.0125032 -0.00622699 -0.0104957 -0.0133877 -0.000194653 -0.0253352 0.00616647 0 0.00599068 0.00082787 0.0104252
internal_weight=2468.92 2387.35 2191.75 1300.4 1102.59 790.926 311.664 891.349 878.673 641.315 29.058 269.406 82.4479 195.603 148.93 46.6727 186.958 612.257 398.408 133.748 264.66 43.2843 149.256 776.839 26.7055 197.811 128.202 109.13 95.2707 62.179
internal_count=9965 9638 8837 5251 4455 3194 1261 3586 3535 2581 117 1090 333 801 612 189 757 2464 1606 538 1068 175 604 3137 108 796 516 439 383 250
is_linear=0
shrinkage=0.05


Tree=8
num_leaves=31
num_cat=0
split_feature=15 4 17 17 14 21 14 9 15 5 12 1 14 9 14 18 17 6 4 21 15 18 14 4 18 4 14 12 17 18
split_gain=23.286 15.0037 12.1434 6.73465 6.45195 8.00982 7.58546 11.1036 10.4173 7.51922 6.98463 6.35084 12.8157 9.6236 6.24272 6.15183 6.00417 6.0032 10.5265 9.93125 6.67255 6.33005 5.92969 5.82865 5.61866 7.45824 5.52027 5.4623 5.39346 5.2715
threshold=0.00024978521684697574 1.0000000180025095e-35 0.094906000979146338 0.094923690006768216 2.6884562721779456e-07 0.00019050285785954184 9.1081163507117392e-06 0.0042916481188544327 2.8610163005804701e-05 0.31275429174142449 0.0065103896083602763 8.8429165732556574e-05 8.9910187332997704e-05 7.0562198062763074e-07 1.2654049649177516e-05 0.0260439802410159 0.092328811156274657 0.48386994236888808 4.21046936228801e-06 0.0001867800101524882 2.7378364483460257e-05 0.035872559292301404 0.00096323320416592719 0.012611550097390489 0.038109563609073527 2.8607016719851545e-07 7.8373862454474821e-06 0.0076283002951702868 0.092403803045749841 0.039554768893979207
decision_type=2 2 2 2 2 2 2 2 2 2 2 2 2 2 2 2 2 2 2 2 2 2 2 2 2 2 2 2 2 2
left_child=1 11 4 -4 -3 6 26 8 -8 -10 22 13 -13 -1 23 -5 -11 18 20 -20 -17 -19 -9 -2 28 -26 -6 -16 -24 -23
right_child=14 2 3 15 5 -7 7 10 9 16 -12 12 -14 -15 27 17 -18 21 19 -21 -22 29 24 -25 25 -27 -28 -29 -30 -31
leaf_value=-0.016778504000190767 -0.021374155300556866 -0.022270869672611725 -0.044265062518210496 -0.040788771380321442 0.010791147312362054 -0.02557827045843002 -0.047573224214021589 0.034079836066998083 -0.015032460852768102 0.028866964176602245 -0.03137426384565041 -0.035671531052782139 -0.0029033632675715165 0.036147462739022383 -0.0067021031188144705 0.024574127263919516 0.00053554161626620988 0.032571575529517081 -0.021461362224786215 0.038489923224644396 -0.0086874721212512641 -0.0089358501322877506 0 0.024203719146207892 0.021189400722324263 -0.0047702693153608483 0.043123057509278181 0.034852970590698841 0.036734341736670173 -0.0015925401299351127
leaf_weight=21.788121417164803 12.709979221224787 20.601730793714523 8.9079612791538221 9.5946717411279661 276.51767115294933 19.357901349663734 11.536340042948721 30.350007399916649 74.749070540070534 19.402699768543243 7.7285720556974402 67.592955261468887 56.306510776281357 12.665060073137282 7.4850453138351432 17.710140913724899 251.63781885802746 10.876816824078558 7.2378705441951743 35.94391342997551 74.469143435359001 361.25446735322475 16.450897842645645 13.225874617695807 40.154263332486153 81.042395353317261 13.68599873781204 68.579093024134636 29.935174241662025 788.41406643390656
leaf_count=89 51 83 36 39 1111 78 47 122 302 78 31 284 229 51 30 71 1014 44 29 144 299 1461 66 53 161 325 55 275 120 3187
internal_value=-1.54209e-05 -0.00103828 1.9953e-05 -0.00302475 0.00452703 0.00521314 0.00597016 0.00252065 -0.0027512 -0.00105088 0.0117702 -0.0158553 -0.0211226 0.00244285 0.0232471 -0.00269055 0.00275423 -0.00235796 0.00751183 0.0276171 -0.00183357 -0.00353613 0.0137297 0.000975646 0.00971565 0.00372899 0.0125446 0.0304055 0.0244211 -0.00392748
internal_weight=2467.91 2365.91 2207.56 1314.41 893.151 872.549 853.191 562.987 357.326 345.79 205.661 158.353 123.899 34.4532 102 1305.5 271.041 1295.91 135.361 43.1818 92.1793 1160.55 197.933 25.9359 167.583 121.197 290.204 76.0641 46.3861 1149.67
internal_count=9965 9556 8903 5310 3593 3510 3432 2266 1441 1394 825 653 513 140 409 5274 1092 5235 543 173 370 4692 794 104 672 486 1166 305 186 4648
is_linear=0
shrinkage=0.05


Tree=9
num_leaves=31
num_cat=0
split_feature=15 16 14 15 22 17 6 16 22 5 22 5 0 5 9 14 7 9 8 7 22 22 7 8 18 22 7 11 17 8
split_gain=21.0559 17.3976 13.503 13.2624 9.74048 8.58383 8.51537 7.3761 7.29784 6.60931 7.91449 6.09538 7.68671 6.78547 5.99215 10.6878 8.04624 7.5823 7.76708 9.17336 6.75014 13.2392 8.31378 5.99963 5.9073 6.84433 5.90286 9.82965 9.51568 9.94525
threshold=0.00028442958026090112 0.016342820079401844 0.004209165106372508 0.00012774536905623866 0.59616411906110189 0.09465641917088953 0.48388985886715158 0.016612941787953368 0.19502413924247938 0.53811594937341678 0.092379587777859831 0.43444218450156619 0.0064961819136311128 0.41033709732099616 4.0032413496048009e-05 8.9910187332997704e-05 0.48240366885525604 0.00012604852074063708 0.48668905520427963 0.48240540318960079 0.13672498950627404 0.089246967423682919 0.48242187650458773 0.48675164680446442 0.038772612917492864 0.18523588941349875 0.48240321348646553 0.3767055201811334 0.092235923941189749 0.48668867247906927
decision_type=2 2 2 2 2 2 2 2 2 2 2 2 2 2 2 2 2 2 2 2 2 2 2 2 2 2 2 2 2 2
left_child=1 2 3 14 5 26 -5 -7 -2 10 -4 12 -9 -14 16 17 -1 18 -16 -20 21 23 -23 -17 -22 -26 27 -3 -28 -30
right_child=8 4 9 6 -6 7 -8 11 -10 -11 -12 -13 13 -15 15 20 -18 -19 19 -21 24 22 -24 -25 25 -27 28 -29 29 -31
leaf_value=-0.011447500268759445 0.0049611054426623429 -0.0025167261139540449 -0.012298528600495524 0.024017021508079609 -0.02140277041953598 0.048102098143492145 -0.0031908301603131 -0.038911992042572945 0.039205828202441673 -0.0069074291119430274 0.025342593848971379 0.00057011116985578232 0.034505254198528755 -0.022886997083830643 -0.0052163873679315987 -0.0070988677794928644 0.011501624147713548 -0.036007188181873782 -0.04409885213559183 0.008460736672925703 0.0047608464963907219 0.036870348073950732 -0.0022882135897597257 -0.055617359943143312 -0.037602892046428034 -0.011136216013873067 0.039478101596626361 0.015915116967665604 0.0060408768610853208 0.045528542836498404
leaf_weight=115.18117249011993 27.179138690233231 215.74557912349701 16.191425025463104 41.07048362493515 40.676068067550659 6.9462784528732291 86.627751514315605 21.461917594075203 43.603099763393402 40.887325838208199 63.306786224246025 892.55963400006294 8.7232755720615405 9.7055763900279981 76.934175595641136 29.859985411167145 55.144496470689774 79.092635318636894 33.901638433337212 9.5362658798694593 30.780832871794701 28.687800407409668 22.66116014122963 7.9044405221939078 35.473767831921577 92.811418518424034 31.671006932854652 106.47201246023178 179.09529964625835 16.942599430680275
leaf_count=467 109 869 65 165 165 28 349 87 175 165 254 3602 35 39 314 121 222 330 139 39 124 116 92 32 144 377 127 427 719 68
internal_value=-1.60052e-05 -0.00082518 -0.00649174 -0.00901689 0.00236818 0.00304811 0.00548417 0.000114961 0.026657 0.00888852 0.0173081 -0.000266885 -0.0191621 0.00337053 -0.0120578 -0.0151104 -0.00384782 -0.0237719 -0.015296 -0.0320667 -0.0079813 0.00278699 0.0193979 -0.0190719 -0.0141499 -0.0188825 0.00800391 0.00352685 0.0141867 0.00979423
internal_weight=2466.84 2396.05 866.054 745.668 1530 1489.32 127.698 939.397 70.7822 120.386 79.4982 932.45 39.8908 18.4289 617.97 447.644 170.326 199.465 120.372 43.4379 248.179 89.1134 51.349 37.7644 159.066 128.285 549.926 322.218 227.709 196.038
internal_count=9965 9681 3515 3031 6166 6001 514 3791 284 484 319 3763 161 74 2517 1828 689 822 492 178 1006 361 208 153 645 521 2210 1296 914 787
is_linear=0
shrinkage=0.05


Tree=10
num_leaves=31
num_cat=0
split_feature=15 14 21 17 15 22 14 22 18 17 15 18 5 18 8 22 18 17 17 18 17 2 15 5 21 22 15 11 22 15
split_gain=20.219 11.2109 13.8316 12.5437 11.5467 10.821 8.82557 7.04312 9.6533 8.81962 6.40723 6.31106 6.74709 6.89785 6.17838 8.12253 7.16173 6.694 5.50096 5.43317 5.45395 5.40791 5.40507 5.31047 9.43846 6.05707 7.53488 5.21323 5.14908 5.0775
threshold=0.00010912074037110765 0.00041791479558815902 0.00018971131871425346 0.095563168242036298 3.8459697628912774e-05 0.21982338122704054 0.00053981058633322811 0.07620165815521622 0.037964243358500391 0.084609097066355443 5.4514001534905734e-05 0.08431483224335079 0.5986304352912849 0.040247206393026001 0.48668814009962597 0.24033254621861103 0.038812575022388197 0.095774678708119579 0.094391908358666218 0.039583231170892776 0.094671866621239179 1.464665724865668e-06 2.8610163005804701e-05 0.40872157492020472 0.00018727066765909092 0.2125553895451654 5.2187608442182637e-05 0.92371801053378932 0.15705593016202066 7.5035117747533026e-05
decision_type=2 2 2 2 2 2 2 2 2 2 2 2 2 2 2 2 2 2 2 2 2 2 2 2 2 2 2 2 2 2
left_child=1 4 3 6 -1 22 -3 8 -2 -9 -5 12 -11 -14 15 17 -17 19 -10 20 -6 -16 27 -8 -25 28 -27 -4 -26 -24
right_child=7 2 5 10 14 -7 23 9 18 11 -12 -13 13 -15 21 16 -18 -19 -20 -21 -22 -23 29 24 25 26 -28 -29 -30 -31
leaf_value=-0.016763645845249097 -0.03189949494414298 0.035151176758361033 -0.0094965073836963034 0.048618316756254193 0.0012645203794962347 0.0038227262517665506 0.010113732116349791 0.046217347491018017 0.050260889238111686 0.0083391330185170701 0.0060239958709987461 0.053520974512633601 -0.043458281867681518 -0.0006724202874016916 -0.011144654254539196 -0.012885429610364214 -0.047018406496661141 -0.024831023907804631 -0.0007231493493354722 0.017812323687645144 -0.029804374817650366 0.0011469350516720622 -0.0071540484826221207 -0.017590405506999484 0.005717601901923882 0.047591742851439967 0 -0.06642406023023785 -0.023294840295756042 -0.036985901610067838
leaf_weight=209.6442356556654 26.388205483555794 21.604474812746048 9.11690302193165 26.283816173672676 62.6900764554739 121.44074940681458 134.46876108646393 13.960671022534369 4.9847479611635199 648.78297570347786 15.667988508939741 6.4030198752880088 9.8798114508390409 80.565287634730339 107.05140002071857 56.006334409117699 22.881146937608719 28.212661355733871 38.182903915643692 35.992123499512672 16.742100834846497 509.19318060576916 97.526521623134613 67.746494963765144 59.19724640250206 15.652953714132311 16.13987535238266 9.4129348546266538 19.350250765681267 16.818863853812218
leaf_count=859 106 87 37 106 255 491 539 56 20 2607 63 26 40 326 434 228 93 115 154 146 68 2064 394 272 238 63 65 38 78 68
internal_value=5.41195e-05 -0.00309055 0.00214703 0.00825827 -0.00626286 -0.00679001 0.0048854 0.00644755 -0.008521 0.00786049 0.033803 0.0070479 0.00653983 -0.00604367 -0.00359166 -0.0107242 -0.0235632 -0.00338585 0.00560283 0.00180942 -0.00526226 -0.000962401 -0.0166323 0.00260821 -0.00294425 0.00590085 0.0239953 -0.0416155 -0.00131836 -0.0120413
internal_weight=2507.99 1678.84 630.428 376.112 1048.41 254.316 334.16 829.148 69.5559 759.592 41.9518 745.631 739.228 90.4451 838.769 222.524 78.8875 143.637 43.1677 115.424 79.4322 616.245 132.875 312.556 178.087 110.34 31.7928 18.5298 78.5475 114.345
internal_count=10136 6801 2539 1511 4262 1028 1342 3335 280 3055 169 2999 2973 366 3403 905 321 584 174 469 323 2498 537 1255 716 444 128 75 316 462
is_linear=0
shrinkage=0.05


Tree=11
num_leaves=31
num_cat=0
split_feature=16 15 14 2 22 15 4 8 15 18 10 7 10 7 17 14 15 17 2 9 22 18 14 10 2 15 16 18 2 22
split_gain=19.1769 9.62608 8.54242 18.6966 8.36732 7.74137 7.29279 6.94549 6.88876 6.87852 5.6981 8.39823 5.38687 13.065 9.10508 5.97779 5.03393 4.97985 4.88808 4.94735 9.81905 4.80817 4.60663 4.17239 7.70102 5.68231 4.63865 6.37557 6.03407 4.75254
threshold=0.0068470503013093069 0.00010912074037110765 0.00014526483633459805 0.00016895711814246528 0.077681823824123572 0.00014083424476512887 8.4439624804873677e-06 0.48668856916766629 1.9093463679016534e-05 0.039037694115394782 6.9188719838137545e-05 0.48240490480735615 6.1801283490639492e-05 0.4824036991671154 0.095026538830339943 4.3196503047194567e-06 5.758855203741239e-05 0.093239364926434018 5.8711242117586777e-07 0.0043676173969430616 0.11385847802219498 0.042427304714353443 1.0576320410493739e-07 7.3648967275534055e-07 1.0482732821450737e-06 7.219493563987594e-05 0.002498100046589203 0.038346263954338759 1.411035928984341e-06 0.16171530002460954
decision_type=2 2 2 2 2 2 2 2 2 2 2 2 2 2 2 2 2 2 2 2 2 2 2 2 2 2 2 2 2 2
left_child=2 22 3 4 16 -5 8 10 -4 -10 -6 17 13 23 -14 -15 -1 -12 -3 -20 -21 -11 -2 24 -9 -25 28 -28 -27 -30
right_child=1 18 6 5 7 -7 -8 12 9 21 11 -13 14 15 -16 -17 -18 -19 19 20 -22 -23 -24 25 -26 26 27 -29 29 -31
leaf_value=0.002399412707413175 -0.034797751333826919 0.047098926624411147 0.026652412380327162 -0.034783951405552668 0.027920870505254127 0.0072025485741246745 0.047259169752312688 -0.014946573404982809 0.0090920845276366898 -0.013819568314888606 0.016575184140278372 0.042720399350155404 0.022967641963624701 0.011515545424009677 -0.044721342912391972 0.072682609360282688 -0.050132596209798 -0.033449873240786882 0.0053636604345413874 -0.028653028929278204 0.03322921656811792 0.02299518176473243 0 -0.036930559550259208 0.032721480555960712 -0.025592568308915115 0.0099824500923363316 -0.04884569967241411 -0.0057440626171601609 0.047365112694165448
leaf_weight=5.1563758701086071 8.5877926796674711 6.736677259206771 17.490825921297073 97.341023087501526 29.572376400232315 10.930325448513029 6.6763788461685172 20.644836321473122 56.888949990272522 128.94947078824043 5.6613366007804933 6.3559998571872702 5.3747609853744533 14.418761834502222 19.004147946834564 5.7115410715341559 14.073933094739912 15.43423956632614 665.5240216255188 6.4924207329750052 36.624959886074066 8.1468498110771161 1240.3761851787567 24.102579057216644 12.743239089846609 6.9021511822938946 6.4509084820747402 9.896160885691641 5.4642807692289344 9.4405161738395673
leaf_count=21 35 27 71 410 119 44 27 84 229 523 23 26 22 58 78 23 57 63 2676 26 147 33 5010 98 52 28 26 40 22 38
internal_value=4.85016e-05 0.00235774 -0.00825093 -0.0133829 -0.00470902 -0.0302894 -0.000472623 -0.00142728 -0.00231252 -0.00517568 0.0129868 -0.00263813 -0.00751948 -0.00268213 -0.0284961 0.0326719 -0.0353887 -0.0187508 0.00697951 0.00649705 0.0229063 -0.0113002 -0.000272966 -0.0106428 0.00294239 -0.0182551 -0.00517708 -0.0249525 0.00899501 0.0271858
internal_weight=2507.17 1964.34 542.832 324.679 216.408 108.271 218.152 197.178 211.476 193.985 57.024 27.4516 140.154 115.775 24.3789 20.1303 19.2303 21.0956 715.378 708.641 43.1174 137.096 1248.96 95.6447 33.3881 62.2566 38.154 16.3471 21.8069 14.9048
internal_count=10136 7921 2215 1332 878 454 883 800 856 785 231 112 569 469 100 81 78 86 2876 2849 173 556 5045 388 136 252 154 66 88 60
is_linear=0
shrinkage=0.05


Tree=12
num_leaves=31
num_cat=0
split_feature=16 14 2 22 17 5 16 7 6 9 12 12 5 17 5 21 5 18 14 12 7 16 7 2 8 5 16 22 17 8
split_gain=17.2695 7.78655 17.0838 7.62647 7.08318 10.6631 9.24097 7.08639 7.68608 9.33141 6.66127 12.0919 11.2255 7.96718 6.74539 12.4282 9.04 6.98788 8.51909 6.63449 6.81867 7.35188 6.39161 7.13206 10.8743 7.03192 6.38646 6.76743 6.08351 7.11017
threshold=0.0068470503013093069 0.00014526483633459805 0.00016895711814246528 0.077681823824123572 0.0944715032681996 0.35035024144720045 0.15115918188309016 0.48244605529797829 0.48389036286385878 0.004146611812431914 0.0020918066240865206 0.0038669703450337281 0.44239301002797338 0.098375891565289322 0.58395049936008547 0.00018892972732415479 0.76259064275859545 0.040448880400531913 8.9910187332997704e-05 0.0022043094920457863 0.48236863836231764 0.05493426524327738 0.4824036991671154 6.2823659787302556e-05 0.48668861621503479 0.26933872754074611 0.0045724633664976054 0.1759408418165086 0.093376053323009842 0.48668800477313462
decision_type=2 2 2 2 2 2 2 2 2 2 2 2 2 2 2 2 2 2 2 2 2 2 2 2 2 2 2 2 2 2
left_child=1 2 3 -1 5 -2 7 8 9 28 -6 13 -13 19 15 -14 -16 -17 -19 -12 21 -21 25 -24 -25 -5 -27 -28 -7 -30
right_child=4 -3 -4 22 10 6 -8 -9 -10 -11 11 12 14 -15 16 17 -18 18 -20 20 -22 -23 23 24 -26 26 27 -29 29 -31
leaf_value=-0.033810614183257211 -0.00024311372811190745 -0.00040578784518314516 -0.028978963028905399 0.037602488253464253 0.0041315730231132478 0.017751004914289735 -0.011733391056661161 -0.020017881028549064 0.028811067540153591 0.032315471297575608 -0.030583280581698596 -0.057151890876116967 -0.0066121655040104928 0.022462190381525915 -0.0071052216593224223 0.016346464423384329 0.024272859808812733 0.07275645933223282 0 0 -0.010271048518232165 0.055744659120675423 0.030297498857689644 0.02212106222277262 -0.04092735602053988 -0.0043279900462057505 0.0030313563549390736 -0.050199600737325684 -0.016497181200207246 0.0096974460693917061
leaf_weight=19.152265205979347 303.80436722934246 218.0121023952961 107.52855025231838 7.1803593039512625 580.08510734140873 62.33212623000145 33.560784384608269 12.222319811582564 93.737872913479805 40.931966632604599 36.131295338273048 6.2081824094057074 51.256938517093658 18.250689506530762 129.55586072802544 86.678530216217041 26.739450320601463 12.404338836669924 5.2281768023967734 28.109426960349083 328.23803997039795 6.7078876644372931 27.895115405321121 14.269790053367617 11.186114773154257 112.47970907390118 7.6560771316289928 16.311737075448036 45.54494446516037 56.755153104662895
leaf_count=78 1223 883 454 29 2342 250 135 49 376 164 146 25 206 74 524 349 108 50 21 113 1327 27 112 58 46 458 31 66 184 228
internal_value=5.01042e-05 -0.00783554 -0.0127464 -0.00445911 0.00224003 0.00651138 0.0125136 0.015235 0.0168197 0.0111175 0.000110947 -0.00302742 0.00425714 -0.00863464 0.00573827 0.0130908 -0.00145785 0.0229808 0.051625 -0.0101714 -0.00799293 0.012473 -0.00132262 0.0131458 -0.00513917 -0.00692356 -0.0097051 -0.0327543 0.0055329 -0.00176944
internal_weight=2506.16 541.672 323.66 216.131 1964.48 648.89 345.085 311.524 299.302 205.564 1315.59 735.509 318.071 417.437 311.863 155.568 156.295 104.311 17.6325 399.187 363.055 34.8173 196.979 53.351 25.4559 143.628 136.448 23.9678 164.632 102.3
internal_count=10136 2215 1332 878 7921 2609 1386 1251 1202 826 5312 2970 1283 1687 1258 626 632 420 71 1613 1467 140 800 216 104 584 555 97 662 412
is_linear=0
shrinkage=0.05


Tree=13
num_leaves=31
num_cat=0
split_feature=15 15 14 4 21 17 22 9 14 1 14 15 21 17 14 22 9 7 15 22 17 7 15 22 6 5 21 15 15 4
split_gain=15.9593 9.16358 7.85752 17.9935 10.798 10.1081 10.0368 8.67533 11.1651 9.45409 7.56532 7.24684 6.18118 7.61054 8.50331 12.0047 6.35261 8.10562 5.885 6.60592 7.87743 5.38313 5.32236 5.2525 5.75939 6.06952 6.71793 5.21764 7.1769 4.88053
threshold=0.00011617048297170737 4.5345248955636612e-06 0.00041791479558815902 6.0834519056762777e-06 0.00018971131871425346 0.095563168242036298 0.21982338122704054 4.0032413496048009e-05 8.9910187332997704e-05 1.272004999326558e-06 0.00053981058633322811 5.4514001534905734e-05 0.00018415375556682755 0.095549690477164342 0.00019681977581809327 0.12636681736098396 0.0043676173969430616 0.48245035779493023 0.00037886205874450204 0.64302068935484236 0.093069971717878786 0.48227579265733478 2.8610163005804701e-05 0.50089348362500308 0.48413602349607393 0.64282294386713601 0.00018996000507057488 2.6113001915151315e-05 4.0053302147428412e-05 2.0882546611593846e-06
decision_type=2 2 2 2 2 2 2 2 2 2 2 2 2 2 2 2 2 2 2 2 2 2 2 2 2 2 2 2 2 2
left_child=1 -1 3 7 5 10 22 9 -9 -3 -4 -7 -10 14 15 -14 17 27 -2 20 -20 -8 -6 24 25 26 -23 -15 -29 -30
right_child=18 2 4 -5 6 11 21 8 12 -11 -12 -13 13 16 -16 -17 -18 -19 19 -21 -22 23 -24 -25 -26 -27 -28 28 29 -31
leaf_value=-0.048459976179100528 0.0050684562641899744 -0.008140416736852325 0.031829107392797672 -0.00058229328478182193 -0.039919491734985067 0.046037582453302486 0.029764633398072039 -0.028624433659930271 0.023135599841784579 0.047884733630434731 0.0023300874752688341 0.0023834575449083253 0.065691845426808476 0.031227892648511987 -0.031521934380744104 -0.014632918429405168 0.040551191214922865 -0.033371894462052201 0.03409736226900386 0.061488921746170835 -0.015649913455578847 -0.04530104636062586 -0.010672068274171956 -0.032856907336276796 0.015920261377057734 -0.046658672824169023 0.0083383940703796646 -0.030961493771054296 0.038699748962798979 -0.005082575557006897
leaf_weight=9.8568563312292081 710.54909731447697 21.816492527723316 22.648712411522865 771.20095326006413 18.450926527380943 26.36437138915062 16.901669085025787 125.18673077225685 12.625265493988989 9.9615256488323194 316.79587602615356 16.674175426363945 4.9098341017961529 12.964603364467619 61.254286676645279 20.478441968560219 7.6184099316596976 17.631548151373863 16.694013431668285 8.8293517231941205 12.863174408674238 5.928165689110755 116.6661099344492 9.857225373387335 49.029871582984924 7.4068636894226065 36.063153982162476 14.581454038619993 9.3285656124353427 14.022852376103399
leaf_count=42 2857 90 91 3120 75 106 68 528 51 40 1272 67 20 53 249 84 31 72 67 36 52 24 472 40 198 30 146 60 38 57
internal_value=4.72999e-05 -0.00254872 -0.00224769 -0.00481268 0.00211785 0.00748436 -0.00567033 -0.014522 -0.0171766 0.00958429 0.00445949 0.0301308 -0.00874911 -0.0115007 -0.0215471 0.00185445 0 -0.00495839 0.00616348 0.0251547 0.0118258 0.00436282 -0.0151136 0 0.00376583 -0.00787844 0 0.00485608 -0.00408567 0.0122522
internal_weight=2505.16 1756.22 1746.37 1103.58 642.787 382.483 260.304 332.38 300.602 31.778 339.445 43.0385 175.415 162.79 86.6426 25.3883 76.1474 68.529 748.936 38.3865 29.5572 125.187 135.117 108.285 98.4281 49.3982 41.9913 50.8975 37.9329 23.3514
internal_count=10136 7124 7082 4493 2589 1536 1053 1373 1243 130 1363 173 715 664 353 104 311 280 3012 155 119 506 547 438 398 200 170 208 155 95
is_linear=0
shrinkage=0.05


Tree=14
num_leaves=31
num_cat=0
split_feature=16 15 5 17 21 18 14 18 16 16 22 22 18 1 12 12 12 17 21 16 5 12 16 15 17 16 21 18 21 15
split_gain=14.5676 7.67469 7.54505 7.43895 7.22334 6.95825 7.75342 6.50071 10.323 6.45457 6.34855 9.03745 6.1649 5.87036 5.74154 5.92004 7.21841 6.65044 6.90106 9.29129 7.60817 5.85066 5.82774 6.38789 5.43289 5.43116 5.31848 5.22543 5.34063 5.48585
threshold=0.0068470503013093069 9.4631393014074432e-05 0.58540377324151616 0.097186436010608127 0.00017264077625434468 0.040448880400531913 1.6800447991927885e-05 0.041857975048599512 0.0011580732078468822 0.077433032899122137 0.07195061995641798 0.063290864855860648 0.042026521088864864 7.902031057137156e-06 0.0020918066240865206 0.0038389833556956594 0.0062958895684806513 0.098375891565289322 0.0001866168480647412 0.12404633496829598 0.64282294386713601 0.0020747820424901176 0.0093724379128924049 6.5523322440110178e-05 0.098083387387949306 0.038202149488666286 0.00018833768358888958 0.039241086160421025 0.000181465058839813 5.0013860041695661e-05
decision_type=2 2 2 2 2 2 2 2 2 2 2 2 2 2 2 2 2 2 2 2 2 2 2 2 2 2 2 2 2 2
left_child=4 14 5 13 -1 10 -7 -6 -9 12 11 -3 -5 -4 21 17 -17 18 27 22 -21 -2 23 -20 -14 -8 -27 28 -16 -30
right_child=1 2 3 9 7 6 25 8 -10 -11 -12 -13 24 -15 15 16 -18 -19 19 20 -22 -23 -24 -25 -26 26 -28 -29 29 -31
leaf_value=0.043861369497755556 0.0019266077248765575 0.00060229346004238142 0.00084393650085623061 -0.016770932714012577 -0.0090123302102655106 0.055221360397743086 -0.0093384411716619688 0.052377910787703853 -0.015586787101332839 0.020472859051232625 0.0076144362184919212 -0.055159354897282714 0.050034876027520929 -0.05534206503634951 -0.019234425574116469 0.0096176527805672749 -0.026919505197365381 0.029248422152579397 -0.0092613141517526639 -0.055723202918430942 0.0029971530453578492 0.04999669085247687 -0.013326376073896348 0.052443818165943984 0 0.064664048431738272 0 -0.036874878811050255 -0.021406206946010926 0.0105816510310248
leaf_weight=5.7119324952363959 621.3327023088932 25.605870589613914 6.1943964064121273 58.861056879162788 514.27108779549599 15.170620396733282 14.926605343818666 10.262283697724344 9.5930089652538282 27.955694779753685 630.46168726682663 8.690461263060568 5.4558473676443091 10.865589112043379 23.781748101115227 103.81190717220306 14.302638903260229 10.383430093526838 7.867682069540022 21.215590342879299 6.1617210358381262 5.4514783620834342 166.44718061387539 6.4230935126543045 37.574379026889801 5.7199800461530668 6.7195277363061905 8.3972253501415235 14.089651092886923 100.2458139359951
leaf_count=23 2508 103 25 238 2111 61 60 42 39 113 2533 35 22 44 96 420 58 42 32 86 25 22 675 26 152 23 27 34 57 404
internal_value=4.61872e-05 0.00205602 0.00561893 -0.0045615 -0.00721032 0.00777218 0.0273394 -0.00788414 0.0191694 -0.000184055 0.00644338 -0.0139815 -0.00623852 -0.0346398 -0.000666126 -0.00477467 0.00479459 -0.00794413 -0.00918259 -0.0150192 -0.0419863 0.0024635 -0.0105883 0.0184535 0.00765467 0.00959957 0.0331881 -0.000676873 0.00159343 0.00627158
internal_weight=2503.95 1964.11 854.202 146.907 539.838 707.295 42.5367 534.126 19.8553 129.847 664.758 34.2963 101.891 17.06 1109.91 483.128 118.115 365.013 354.63 208.115 27.3773 626.784 180.738 14.2908 43.0302 27.3661 12.4395 146.514 138.117 114.335
internal_count=10136 7921 3436 594 2215 2842 171 2192 81 525 2671 138 412 69 4485 1955 478 1477 1435 844 111 2530 733 58 174 110 50 591 557 461
is_linear=0
shrinkage=0.05


Tree=15
num_leaves=31
num_cat=0
split_feature=17 17 16 8 7 16 14 17 14 17 22 16 8 16 19 21 14 8 6 1 7 21 9 11 12 12 8 14 16 16
split_gain=13.3713 11.969 11.0398 10.0251 7.96011 9.55655 7.57617 6.99543 6.22554 5.8972 5.8347 7.58559 5.84218 5.51573 7.07863 6.57381 5.54399 5.26091 5.19087 6.47225 6.40201 8.00428 5.72372 5.06843 4.77389 9.43612 9.42204 7.67018 10.5704 6.39732
threshold=0.094762101790316314 0.10773026490949138 0.0068470503013093069 0.4866885103092799 0.48225944616186961 0.066404890523172333 0.0029171714198633438 0.096747550132056173 3.2713557493471911e-07 0.10228938466729436 0.56501606206925337 0.027351902978480273 0.48668894931991852 0.091712116713194361 1.0000000180025095e-35 0.00017264077625434468 2.3419893283810308e-05 0.48261463220640499 0.48384080185690198 0.00016782947779743764 0.48240383415475091 0.0001867800101524882 0.00014948861074694933 0.37410309796400493 0.0037766398919710084 0.0015415415843889446 0.4866886010248333 0.00041791479558815902 0.12404633496829598 0.043584580677462563
decision_type=2 2 2 2 2 2 2 2 2 2 2 2 2 2 2 2 2 2 2 2 2 2 2 2 2 2 2 2 2 2
left_child=3 2 6 13 5 -5 -2 -8 -4 10 24 -12 -13 18 -15 16 -16 -17 -1 20 21 -20 -21 -6 25 26 27 28 -10 -26
right_child=1 -3 8 4 23 -7 7 -9 9 -11 11 12 -14 14 15 17 -18 -19 19 22 -22 -23 -24 -25 29 -27 -28 -29 -30 -31
leaf_value=0.01213246570831587 -0.013631821640888853 0.03614514903309303 -0.020727948575952906 -0.016491386794431937 0.01351828482191695 0.027537206310161641 0.0099645568607672937 -0.045654456993263121 -0.029801529735006063 -0.039929920491164297 -0.059868091661289535 0.038136589927282173 -0.020758311184850532 0.028498631770438161 -0.020265294603951253 0.020669513860603016 0.032230840046391297 -0.018898561285377306 0.004637372684825585 -0.027153509492578692 0.026559452421165267 -0.046833641926086939 -0.0021310451210359276 0.044838729480164118 0.012829757766632336 -0.0051941762115857793 0.01342022714327934 0.0045792560849274664 0.029471224947070593 -0.0028411915024705251
leaf_weight=129.39973881840706 317.94514536857605 18.619558200240135 36.268154829740524 44.618363797664642 270.73917406797409 15.687804713845251 60.939956560730934 5.1363362073898307 41.625562712550163 8.1505508273839933 8.0986770838499087 4.9383597224950817 13.048524633049963 11.191706135869024 6.2354298532009151 7.7260252535343161 13.633810609579085 103.79512158036232 141.61450952291489 29.836385518312454 31.379674449563026 6.9383060187101355 99.709144458174706 13.678934857249258 165.63989782333374 503.30538555979729 178.15197652578354 92.981918051838875 7.8849829137325278 102.72528301179409
leaf_count=519 1312 76 148 180 1089 63 246 21 169 33 33 20 53 45 25 31 55 418 571 125 126 28 404 55 668 2035 719 374 32 414
internal_value=0.000237316 -0.00256909 -0.0030743 0.0050054 0.0117546 -0.00436782 -0.010417 0.00465221 -0.000621043 2.19155e-05 0.000370816 -0.0225166 -0.00211487 0.000947819 -0.00750536 -0.0109531 0.0143768 -0.0157758 0.00376173 0.000153413 0.00635355 0.00176912 -0.00824947 0.015264 0.000960352 -0.000900999 0.00575534 -0.00368025 -0.0194703 0.00675012
internal_weight=2491.64 1565.46 1546.84 926.184 344.724 60.3062 384.021 66.0763 1162.82 1126.55 1118.4 26.0856 17.9869 581.46 142.582 131.39 19.8692 111.521 438.878 309.478 179.932 148.553 129.546 284.418 1092.32 823.95 320.644 142.492 49.5105 268.365
internal_count=10087 6353 6277 3734 1387 243 1579 267 4698 4550 4517 106 73 2347 574 529 80 449 1773 1254 725 599 529 1144 4411 3329 1294 575 201 1082
is_linear=0
shrinkage=0.05


Tree=16
num_leaves=31
num_cat=0
split_feature=17 17 16 6 22 14 18 14 4 6 17 2 4 14 10 21 4 16 18 6 11 4 14 17 17 4 14 6 14 0
split_gain=12.1072 10.8941 9.98759 9.24033 9.33117 6.89479 6.57465 8.04739 7.13782 6.67237 6.47922 6.24329 6.1428 5.97845 5.98433 5.63873 6.02592 7.31346 6.18083 5.41705 5.20966 4.84142 5.9979 4.72468 5.01472 5.5534 5.43423 4.71542 5.26847 5.83716
threshold=0.094762101790316314 0.10773026490949138 0.0068470503013093069 0.483890353249192 0.12636681736098396 0.0043806605116300775 0.039386856164100086 6.0610451583213594e-07 1.7681093352120724e-05 0.4838736166898579 0.10228938466729436 1.8760274896593563e-06 1.9817697900693941e-06 0.0012669326145546631 0.88371653577854026 0.00018814075933033298 1.0000000180025095e-35 0.097450463021483497 0.032901108079252998 0.48389032491941203 0.37285867040925574 0.0043463095221649706 2.0828140081119923e-06 0.095792100173639594 0.095102546130405155 0.006227350380122211 0.0007357128848457813 0.48389246093813265 0.00022774441897639803 0.00021125876396308187
decision_type=2 2 2 2 2 2 2 2 2 2 2 2 2 2 2 2 2 2 2 2 2 2 2 2 2 2 2 2 2 2
left_child=3 2 5 11 -5 -2 7 -4 9 -9 23 -1 13 -11 -15 16 -13 19 -19 21 -6 22 -18 24 26 -26 -8 28 29 -10
right_child=1 -3 6 4 20 -7 10 8 27 12 -12 15 -14 14 -16 -17 17 18 -20 -21 -22 -23 -24 -25 25 -27 -28 -29 -30 -31
leaf_value=0.025725552922868478 -0.012650408514300807 0.034544570992870512 -0.036034379770796328 0.033458627350517904 0.03051429697139494 0.0062771190105380048 0.0015839585516206067 -0.003034973278122027 0.0037455627949757198 -0.03403297675002271 -0.041068342853457229 -0.021016679371129339 -0.035022920709478524 0.052138215940625045 -0.007062164479034576 -0.017881177223338054 -0.040396759011496107 0.027598247234770168 -0.010552060619832278 -0.037223755977615285 0.0047071500851871241 0.026017306988085027 0.0060177161035896085 0 0.014647802739646146 -0.020782431149333758 -0.043400875466206634 -0.035874076730062453 0.032486132520910115 -0.04467029085148938
leaf_weight=25.413458719849586 329.57425218820572 18.556102231144905 20.532253861427307 46.302405282855034 22.149363458156586 53.793570891022682 31.481501772999763 98.547527551651001 146.9956663697958 8.7540910989046115 7.6202252209186545 25.935960546135902 42.739151865243912 5.6992081403732291 9.6763784736394864 36.598130360245705 5.9605782330036154 10.363442197442053 122.14608147740364 5.9938569366931906 160.97237129509449 29.942727223038673 434.33261282742023 580.33314682543278 166.18863892555237 10.419693589210508 7.219729706645011 6.4418859183788291 14.44690492749214 5.4618046134710303
leaf_count=102 1362 76 84 186 89 217 127 396 593 36 31 111 174 23 39 148 24 42 492 24 647 120 1749 2347 671 42 29 26 58 22
internal_value=0.000224821 -0.00244642 -0.00292863 0.00476209 0.0134599 -0.00992006 -0.000595094 -0.00622395 -0.00424283 -0.01167 0.00189618 0.00184681 -0.0237951 -0.00231099 0.0151986 0.000868687 0.00201564 0.00307082 -0.00719674 0.00598922 0.00811319 0.0066709 0.0052426 0.00239009 0.00869736 0.0123115 -0.00706009 0.00272742 0.00457097 0.00156836
internal_weight=2490.59 1564.48 1545.93 926.111 229.424 383.368 1162.56 359.295 338.763 165.416 803.263 696.687 66.8688 24.1297 15.3756 671.273 634.675 608.739 132.51 476.23 183.122 470.236 440.293 795.643 215.31 176.608 38.7012 173.346 166.904 152.457
internal_count=10087 6353 6277 3734 922 1579 4698 1451 1367 668 3247 2812 272 98 62 2710 2562 2451 534 1917 736 1893 1773 3216 869 713 156 699 673 615
is_linear=0
shrinkage=0.05


Tree=17
num_leaves=31
num_cat=0
split_feature=15 16 6 0 14 4 0 17 8 8 18 16 19 4 5 5 1 5 4 4 8 4 17 8 8 14 14 6 18 0
split_gain=15.3915 10.8073 8.61855 7.59885 10.2303 8.50042 7.05628 6.93567 13.0714 11.6334 11.1421 9.16431 8.26723 7.87044 6.804 6.752 6.58748 6.55984 5.54011 5.5834 5.32501 5.76842 5.30393 6.70302 5.29524 5.21969 5.14724 4.90858 5.82589 4.93254
threshold=0.00027170642774274821 0.0061973536325068664 0.48387520810728912 6.7651908985345632e-05 6.3811452613746263e-05 0.00011226958976271718 0.00012069156716121511 0.094495066057659477 0.4866885103092799 0.48668840421888576 0.038543283900492664 0.092863822429586199 1.0000000180025095e-35 1.2490387581907014e-05 0.30755046812396608 0.39443446380702279 1.9990714932598064e-05 0.51743709800389759 2.9050224021145022e-06 6.8046710595992957e-06 0.48261463220640499 0.00043981129729655063 0.096782172266600103 0.48668861339925656 0.48668690562335676 2.4739714526644377e-07 7.4698960913241e-06 0.483890353249192 0.038812575022388197 0.00022578525596435769
decision_type=2 2 2 2 2 2 2 2 2 2 2 2 2 2 2 2 2 2 2 2 2 2 2 2 2 2 2 2 2 2
left_child=1 2 -1 5 18 17 16 8 9 11 -9 14 -13 -10 -3 -16 -2 -4 26 -20 -14 -22 23 -7 -23 -12 -5 28 -17 -29
right_child=6 7 3 4 -6 22 -8 10 13 -11 25 12 20 -15 15 27 -18 -19 19 -21 21 24 -24 -25 -26 -27 -28 29 -30 -31
leaf_value=0.0075048354435370019 0.024355588006828324 -0.0062837943389409305 0.021425339060094549 0.012438339766565719 -0.0054526701675793564 -0.00026003126964090046 0.038396142314493918 -0.018651284516044541 -0.0072269276323388976 -0.02913812312534992 -0.021956252421939951 0.034177510760400071 0.023511487192335701 0.018805300236934677 0.020954570448402703 0.0029002393827158857 -0.01476464282197827 -0.0059868258409444177 0.016096673083520273 -0.022771314505068006 -0.023891213656467427 0.039034399303601551 0.013749347989476976 -0.036391928561439253 -0.010839850900215654 0.00084331939973113039 -0.03466975518460997 0.033226416038177761 -0.031239257520426517 -0.0094278517167591218
leaf_weight=83.109616547822952 23.390190571546555 62.580768808722496 48.787083506584167 4.9104684740304938 143.79767654836178 24.337735593318939 35.359971135854721 81.456355810165405 31.972556352615356 30.421922564506531 24.617504701018333 8.7152720391750318 7.4799055755138388 196.63581569492817 105.02063794434071 48.28140552341938 17.621448025107384 36.251509889960289 13.625764161348341 22.567652449011803 72.078889757394791 6.689461529254916 12.081442862749098 30.022972032427788 15.424037650227545 1172.5996391177177 86.7266685962677 19.220940381288532 15.369227185845373 8.4725451469421369
leaf_count=335 94 252 198 21 590 98 144 329 129 122 101 35 30 789 422 194 71 148 56 92 291 27 49 122 62 4737 376 77 62 34
internal_value=0.000209405 -0.000484055 -0.00697829 -0.00989309 -0.0148874 -0.000734691 0.0221681 0.00122948 0.00553186 8.07633e-06 -0.000867926 0.00254855 -0.00935836 0.01504 0.00773707 0.0123413 0.0070004 0.00951534 -0.0251818 -0.00742713 -0.0136302 -0.0170583 -0.0141709 -0.0209639 0.00420185 0.000335711 -0.0317685 0.00204809 -0.00531216 0.0194317
internal_weight=2489.63 2413.26 506.219 423.109 271.628 151.481 76.3716 1907.04 628.363 399.755 1278.67 369.333 110.388 228.608 258.946 196.365 41.0116 85.0386 127.831 36.1934 101.672 94.1924 66.4422 54.3607 22.1135 1197.22 91.6371 91.3441 63.6506 27.6935
internal_count=10087 9778 2085 1750 1135 615 309 7693 2526 1608 5167 1486 445 918 1041 789 165 346 545 148 410 380 269 220 89 4838 397 367 256 111
is_linear=0
shrinkage=0.05


Tree=18
num_leaves=31
num_cat=0
split_feature=15 21 15 21 0 12 1 14 12 9 15 2 14 10 6 15 8 11 12 15 6 15 15 6 15 15 15 12 21 7
split_gain=13.9654 7.555 6.79753 8.03713 6.43405 6.04462 5.98418 5.61563 5.59201 5.24452 5.16558 5.06178 14.6517 11.49 6.74148 5.7 6.29267 4.83016 4.96855 4.70943 5.12558 4.88735 9.14648 6.81921 4.65481 5.0124 4.55688 6.5765 7.17533 4.77088
threshold=0.00027170642774274821 0.00018600826797683843 9.6356054371840103e-05 0.00018566513401909035 0.00012069156716121511 0.0088877419785410913 1.9990714932598064e-05 2.4739714526644377e-07 0.0058431034462832782 3.9522415784079564e-06 0.00010412436647133363 6.9091238342108223e-05 1.6342818743396919e-05 6.7496916986498878e-05 0.48389074669008941 6.2514042630138912e-05 0.4866884406220327 0.37297391125741053 0.0028933891484408587 0.00017066881426594139 0.48389207309893417 0.00012402157647345687 0.00010091163840961263 0.48389088004320263 5.4111092937256988e-05 4.4983731742503477e-05 4.5345248955636612e-06 0.0010729786927064658 0.00018948100614367194 0.48239495694839546
decision_type=2 2 2 2 2 2 2 2 2 2 2 2 2 2 2 2 2 2 2 2 2 2 2 2 2 2 2 2 2 2
left_child=1 2 3 8 6 -6 -2 -3 -1 -4 -11 13 17 14 15 24 -17 18 -13 20 21 22 23 -16 25 -9 -14 28 29 -28
right_child=4 7 9 -5 5 -7 -8 11 -10 10 -12 12 26 -15 19 16 -18 -19 -20 -21 -22 -23 -24 -25 -26 -27 27 -29 -30 -31
leaf_value=-0.0023898646272580088 0.023210037917275095 -0.019095401241098445 0.022264597105152214 0.021853231464161134 -0.0039949657225631834 0.04610684073164184 -0.014058409274236922 0.018619790039179466 -0.03704927126752653 0.024216433189414244 0.0034589627263470579 -0.0076507859403422227 -0.03381319455929848 0.05560938369409283 -0.0017823561726588459 0.033119907132126918 -0.0055854496108637781 -0.043824838366707891 -0.038228542630650446 -0.0057049416027530548 -0.010079585585161584 0.044033160979466607 -0.030035112407527251 0.035293610841955723 0.03033211518801314 -0.020925265456891228 0.02459917154577055 -0.0037806252380004793 -0.0045193106081401853 0.005331906088782902
leaf_weight=293.58936449885368 23.367326587438583 47.586390256881714 58.31304869055748 32.585934847593307 6.2283165454864493 28.978592365980148 17.631308704614639 16.34619823098183 11.302273333072661 33.396781712770462 285.7556300163269 59.124918326735497 10.124393627047537 8.9224858582019788 17.367950320243835 9.700687572360037 332.90285663306713 20.674951419234276 17.839916527271271 27.576417282223701 13.032933607697485 19.132793813943863 8.7038102596998197 33.220819994807243 21.739811033010483 13.883806452155111 53.24578832089901 774.18431571125984 99.982330203056335 91.888675764203072
leaf_count=1189 94 196 234 132 25 119 71 66 47 135 1147 243 44 36 70 39 1345 91 74 111 53 77 35 134 88 56 214 3145 405 372
internal_value=0.00019813 -0.000461547 0.0038335 -0.00125816 0.0211381 0.0366875 0.0066345 -0.00228676 -0.00387333 0.00844311 0.00577801 -0.00177546 -0.00366881 0.00225984 0.0011782 -0.00191952 -0.00432356 -0.0221019 -0.0154586 0.0115852 0.0170742 0.0219715 0.0138256 0.0222924 0.0132393 0 -0.00187644 -0.00150189 0.00557989 0.0126916
internal_weight=2488.33 2412.13 714.943 337.478 76.2055 35.2069 40.9986 1697.18 304.892 377.465 319.152 1649.6 1127.07 522.531 513.608 394.573 342.604 97.6398 76.9648 119.035 91.4583 78.4254 59.2926 50.5888 51.9698 30.23 1029.43 1019.3 245.117 145.134
internal_count=10087 9778 2884 1368 309 144 165 6894 1236 1516 1282 6698 4588 2110 2074 1594 1384 408 317 480 369 316 239 204 210 122 4180 4136 991 586
is_linear=0
shrinkage=0.05


Tree=19
num_leaves=31
num_cat=0
split_feature=15 22 17 16 6 5 6 22 17 22 18 15 12 11 7 7 2 14 22 22 5 5 22 15 15 17 16 10 5 18
split_gain=12.6646 12.7123 11.4413 8.84657 7.96439 8.05776 7.92412 7.77681 7.74693 7.3193 7.26864 7.28719 11.4814 7.04703 7.01989 7.89199 6.78505 6.65411 5.93578 5.85035 5.78509 7.73877 5.49698 5.41409 6.9752 5.69802 5.12118 4.9507 5.01421 4.90843
threshold=0.00027170642774274821 0.56501606206925337 0.094762101790316314 0.0068470503013093069 0.47988872541420619 0.66401562709388406 0.483890353249192 0.12636681736098396 0.092957830704160999 0.19233493663390058 0.039386856164100086 8.638955369537044e-05 0.0015415415843889446 0.37287018259966515 0.48240363168334088 0.48257072973135623 0.94724849587049931 2.5335094801500668e-06 0.12754290975426824 0.52853844366639946 0.61984790810379031 0.61562600877074247 0.48343425734444928 3.5479120429282056e-05 3.9064732210476384e-05 0.094168753010690387 1.0000000180025095e-35 0.0024868600147433567 0.4129605896790966 0.03929084635819189
decision_type=2 2 2 2 2 2 2 2 2 2 2 2 2 2 2 2 2 2 2 2 2 2 2 2 2 2 2 2 2 2
left_child=1 2 6 16 -3 -6 23 -8 -9 27 11 12 14 17 -5 -16 -4 -13 -15 20 21 -12 -22 25 -25 -1 -26 28 -2 -20
right_child=9 4 3 10 5 -7 7 8 -10 -11 19 13 -14 18 15 -17 -18 -19 29 -21 22 -23 -24 24 26 -27 -28 -29 -30 -31
leaf_value=-0.045771403568742486 -0.038689103839015186 0.032355329299383451 -0.010237531519504635 0.0081635041544163237 -0.034143027533023416 0.016645359806731215 0.031158149195061952 0.030184021915780075 0.0026496809602444952 0.032160964150066078 0.0036936903316211571 -3.7508949980853443e-06 -0.025055010615049146 -0.0089645115272674117 -0.039546598411833167 0.0071383666248078974 0.029741868308315156 -0.037040515831226931 0.024567035844773471 0.036344100287334605 -0.0030473462049640837 0.043229797671695561 -0.0420113603123001 0.044019962145782063 -0.023216002535546471 -0.0014487021726091384 0.0031693015359789928 0.040415028980375474 0.006260689919764007 -0.010808033836730103
leaf_weight=10.683060273528097 8.4808671921491676 4.9773902744054785 366.80947104096413 69.170976012945175 53.509352192282677 7.7894256860017768 46.34629799425602 30.94180129468441 142.79260256886482 46.937418192625046 530.9449080824852 43.420290052890778 94.217958137392998 25.268527060747147 19.376929357647896 14.428720742464064 9.681377097964285 16.601410910487175 55.913800701498985 11.627869337797163 212.64237953722477 11.842678517103193 8.64126108586788 9.2785849869251233 17.841069608926773 22.635749906301498 563.67631235718727 5.1701191514730445 15.3984397649765 10.170863032341002
leaf_count=44 34 20 1519 279 218 32 186 124 574 192 2144 175 384 102 79 58 39 67 225 47 861 48 35 38 77 93 2269 21 62 41
internal_value=0.000188083 -0.000438991 0.000165162 -0.00244286 -0.0218712 -0.0271243 0.00482852 0.0129833 0.00784125 0.0201585 -0.000196226 -0.00620391 -0.0125309 0.00190223 -0.000700747 -0.0192699 -0.00906718 -0.0110966 0.0107412 0.00247572 0.00188079 0.00468018 -0.00486354 0.00189675 0.00304949 -0.017308 0.00227841 0 -0.00961203 0.01867
internal_weight=2487.22 2411.23 2344.95 1500.76 66.2762 61.2988 844.195 220.081 173.734 75.9868 1124.27 348.569 197.195 151.375 102.977 33.8057 376.491 60.0217 91.3532 775.699 764.071 542.788 221.284 624.115 590.796 33.3188 581.517 29.0494 23.8793 66.0847
internal_count=10087 9778 9508 6103 270 250 3405 884 698 309 4545 1410 800 610 416 137 1558 242 368 3135 3088 2192 896 2521 2384 137 2346 117 96 266
is_linear=0
shrinkage=0.05


Tree=20
num_leaves=31
num_cat=0
split_feature=16 21 12 16 12 10 10 3 8 21 3 0 15 5 16 21 14 5 8 5 21 5 5 22 5 22 8 16 15 22
split_gain=9.57455 6.05625 8.52745 7.75731 8.55117 7.99312 5.95738 8.40407 8.88428 9.65481 6.76013 6.54222 7.33771 6.4745 7.13618 5.54498 5.3392 4.98548 6.07676 5.81754 4.84079 6.85274 6.28384 5.38925 4.80647 6.0713 4.91309 4.74764 7.18373 4.70035
threshold=0.012186741905571495 0.00019060643934596275 0.0037766398919710084 0.13505091418693935 0.0020085353399423318 0.91727725909120184 0.0065223629124821726 0.00012089411068898152 0.48668866957459128 0.00018766332408468573 0.030374777427962189 0.000115726583528566 7.9984272094361106e-05 0.30755046812396608 0.025784982062769961 0.00017111195693555228 0.00041791479558815902 0.5986304352912849 0.48819971319936323 0.36645918754555246 0.00018524530233288169 0.41623173464263219 0.43808905894010908 0.11631826591499178 0.46993960314459132 0.17243409729366466 0.48668970461933009 0.049130873073630586 6.8838272873618633e-05 0.24947340699878093
decision_type=2 2 2 2 2 2 2 2 2 2 2 2 2 2 2 2 2 2 2 2 2 2 2 2 2 2 2 2 2 2
left_child=15 6 3 5 -5 -3 7 11 9 13 20 -2 -13 14 -9 -1 -11 19 -19 -17 27 -22 -23 -24 25 26 -10 28 -8 -4
right_child=1 2 29 4 -6 -7 10 8 24 16 -12 12 -14 -15 -16 17 -18 18 -20 -21 21 22 23 -25 -26 -27 -28 -29 -30 -31
leaf_value=0.037088211644273415 0.005030532302037611 -0.012375534386822934 0 0.03082603443808728 -0.0076784615593480585 0.019458927741618323 -0.017210424869419424 0.026516062339350385 0.037120546096256861 -0.036254445880737139 0.004903521843952376 -0.0070556383764862592 0.049628696041275469 0.00083862324434087396 -0.032229454201766775 -0.016156772321568313 0.0053982806650406771 -0.017997204027078013 0.019543170746986319 -0.0011225215445039936 0.065615255408948067 -0.019085061719766119 -0.0086935348615441981 0.033925887480816368 -0.0021720601266677496 0.044578879185424553 -0.0037847536467129359 -0.0073475983890062546 0.049008628295428062 0.01452737226467652
leaf_weight=6.9110472649335852 495.03711827099323 267.41420622169971 136.07974199950695 25.723238080739975 29.04326981306076 19.820252195000648 4.9751731902360907 4.9444492310285559 8.6920021474361402 40.634298428893089 199.91099520027637 7.1187106221914318 16.328922599554062 142.88785937428474 30.075751230120659 72.472612008452415 7.9144156724214545 105.5484274327755 10.546966299414633 563.99098511040211 10.453521549701689 7.2114256024360648 7.4339738786220542 42.936419039964676 50.670249193906784 15.358085528016089 26.541827395558357 24.063824534416199 10.686996087431906 90.430528193712234
leaf_count=28 1992 1084 549 104 118 80 20 20 35 165 803 29 66 577 122 299 32 438 44 2312 42 29 30 173 205 62 107 97 43 366
internal_value=0.000427278 0.00249837 -0.00169156 -0.00670128 0.0101869 -0.0100322 0.00458407 0.00237371 -0.00383927 -0.00938451 0.0105549 0.00634871 0.031812 -0.00376318 -0.0227353 -0.00423396 -0.0289878 -0.00469532 -0.0142355 -0.00289631 0.0206676 0.0287834 0.0206642 0.0271024 0.00828779 0.0190875 0.00636238 0.00578916 0.0267029 0.00575878
internal_weight=2481.86 1722.39 568.511 342.001 54.7665 287.234 1153.88 846.204 327.719 226.457 307.672 518.485 23.4476 177.908 35.0202 759.47 48.5487 752.559 116.095 636.464 107.761 68.0353 57.5818 50.3704 101.262 50.5919 35.2338 39.726 15.6622 226.51
internal_count=10071 6950 2301 1386 222 1164 4649 3412 1325 916 1237 2087 95 719 142 3121 197 3093 482 2611 434 274 232 203 409 204 142 160 63 915
is_linear=0
shrinkage=0.05


Tree=21
num_leaves=31
num_cat=0
split_feature=17 22 21 18 18 22 22 8 8 9 4 17 8 5 18 4 4 5 0 9 21 1 21 6 6 5 21 17 22 17
split_gain=8.70793 11.3979 10.8233 6.93612 9.62697 7.94163 7.77526 6.41136 6.36097 5.81484 5.25622 6.60966 6.49405 6.32437 6.3087 7.90074 5.06202 6.12335 7.03113 9.18569 5.04344 5.60411 5.21069 5.11055 7.39358 4.78316 4.77388 4.77056 4.68807 4.50325
threshold=0.096132595471265306 0.24947340699878093 0.00019239782736183079 0.039658165028230628 0.039241086160421025 0.07195061995641798 0.16038026359957433 0.48693657841083277 0.4866887038858726 0.60360213185722489 0.0059860614181712702 0.0966862251842278 0.48668970461933009 0.57202589559565642 0.04063730516934503 2.8607016719851545e-07 0.00022201807825314161 0.63698756935185341 0.00013170848817169444 9.3526279555150661e-05 0.00019493536321813076 2.0235261348277626e-05 0.00019569243496345652 0.48389104166416824 0.48389059233356296 0.59480515631815623 0.00018624609146817577 0.097001511851885172 0.17821311804481826 0.096060131204010066
decision_type=2 2 2 2 2 2 2 2 2 2 2 2 2 2 2 2 2 2 2 2 2 2 2 2 2 2 2 2 2 2
left_child=3 16 7 4 5 26 -6 -3 -8 29 11 12 13 -4 15 -13 17 18 25 -20 21 -18 -22 24 -24 -2 -1 -27 -26 -10
right_child=1 2 10 -5 6 -7 8 -9 9 -11 -12 14 -14 -15 -16 -17 20 -19 19 -21 22 -23 23 -25 28 27 -28 -29 -30 -31
leaf_value=0 -0.035265800040399094 -0.023492234636715771 0.027756836701464893 0.0094043938653773848 0.0032064909948804274 0.0042794290178358825 -0.019386224470755928 0.015084469803189613 0.0043166984454907006 -0.048861939393145308 0.028079615759220935 -0.05680447487092749 0.042646033403836867 -0.038819627239044793 0.0098489711413177472 -0.0036843470078219 -0.0017233053736002023 -0.026119492438504466 0.058478707410892589 -0.0053573413214344926 0.042649421423208454 -0.034981882862769036 0.023077615984390554 0.018467260371339386 -0.003932340635930078 0.027338668666306232 -0.022733348399013309 -0.025112611881685089 -0.047050638923600743 -0.039233617671617628
leaf_weight=52.180973500013351 33.062162280082703 48.96195550262928 6.6813451200723666 282.9722770601511 129.1115986853838 1084.2575248479843 126.53064738214016 12.154464215040205 84.053189307451248 5.1981450766324988 28.552547797560692 7.0484735071659079 19.706722423434258 5.5796045362949371 88.930133581161499 67.333050131797791 42.206158727407455 76.83243790268898 4.8791932910680762 120.63900378346443 7.9263789504766455 18.338603049516678 10.631207227706907 25.80794931948185 16.133199915289882 6.8657338470220557 43.215959578752518 8.5895296186208707 11.419713884592054 5.346632942557334
leaf_count=211 135 200 27 1148 525 4387 516 49 342 21 116 30 80 23 364 274 171 315 20 492 32 74 43 104 65 28 176 35 46 22
internal_value=0.000410961 -0.00445127 0.00305004 0.00221858 0.000867874 0.00304362 -0.00637695 -0.0152985 -0.0120743 -0.00193211 0.008217 0.00505718 0.0255053 -0.00129764 0.000771505 -0.0097365 -0.0100858 -0.0142646 -0.00876886 -0.00223568 -0.00193681 -0.012608 0.00675365 0.00133495 -0.00978224 -0.0247793 -0.0106416 -4.73675e-05 -0.0237009 0.0010304
internal_weight=2481.15 668.28 284.948 1812.87 1529.89 1179.65 350.24 61.1164 221.129 94.598 223.832 195.279 31.9677 12.2609 163.312 74.3815 383.331 250.868 174.036 125.518 132.463 60.5448 71.9184 63.9921 38.1841 48.5174 95.3969 15.4553 27.5529 89.3998
internal_count=10071 2723 1163 7348 6200 4774 1426 249 901 385 914 798 130 50 668 304 1560 1025 710 512 535 245 290 258 154 198 387 63 111 364
is_linear=0
shrinkage=0.05


Tree=22
num_leaves=31
num_cat=0
split_feature=16 6 16 8 22 15 17 7 22 8 12 8 15 22 7 17 7 2 8 16 2 6 16 12 6 22 12 7 17 17
split_gain=8.38941 5.2038 7.2313 6.71988 7.78614 7.28427 5.62281 7.67653 5.56668 5.54934 5.35221 5.16507 5.107 5.00556 4.9099 6.98621 6.68088 5.79795 10.101 6.6283 5.52643 5.18698 4.9058 4.69628 9.13129 8.50215 6.24592 5.74149 4.73942 4.68026
threshold=0.012186741905571495 0.4838904197194609 0.013304417583184736 0.48668866693500057 0.07195061995641798 4.8048143555317703e-05 0.094517955414722604 0.48241347018016828 0.11834602503752607 0.4866887038858726 0.0021725956581384073 0.48668892335557395 0.00011296114048084178 0.13672498950627404 0.47769189654837135 0.093906778596618765 0.48232942702900738 0.030810820986226967 0.48664719962481662 0.2353335719223246 0.87148002487010634 0.483816108792263 0.014104347644422179 0.0037766398919710084 0.48389491244596383 0.40394077277920887 0.0016351930626920255 0.48240371247699448 0.097669849863382771 0.09642965464402832
decision_type=2 2 2 2 2 2 2 2 2 2 2 2 2 2 2 2 2 2 2 2 2 2 2 2 2 2 2 2 2 2
left_child=29 2 -2 14 -5 -6 8 23 -3 -7 -11 12 -12 -14 15 -4 17 18 19 -16 -19 -18 -9 26 27 28 -8 -25 -26 -1
right_child=1 6 3 4 5 9 7 22 -10 10 11 -13 13 -15 16 -17 21 20 -20 -21 -22 -23 -24 24 25 -27 -28 -29 -30 -31
leaf_value=-0.0019991860268351283 0.035253518881976142 0.036063742517358825 0.039816328079703596 -0.0079915416779159087 -0.0038879684663212129 0.050759148677997537 0.001946344995082872 -0.02474731972365259 0.0049633305642730972 0.027167425881772025 -0.04608591495130137 0.01444140762753288 -0.023891156685134765 0.022858558793096291 0.014241062980054266 -0.0018071192989908996 0.024619719034402715 -0.054096789747028799 -0.043339138382124019 -0.04090326119518034 -0.0029309963339729603 0.00055800898304689533 0.0066321547060548131 -0.0079947535831588028 -0.008599888740460547 0.026916156215834843 -0.012393442592725488 0.013433598797059141 -0.055667243237008501 -0.012005055957809889
leaf_weight=611.97738683223724 18.8667883425951 17.215038895606995 17.822793930768967 46.070753753185272 44.420948505401611 11.951286867260931 102.08749732375145 11.814243033528326 85.544014915823936 66.044071167707443 6.1534296721220043 99.425995215773582 8.9569390714168566 12.203489050269125 39.247834429144859 19.215658709406853 23.148860707879066 13.447662353515627 11.959648728370665 5.1752345561981192 10.226702421903608 349.17370164394379 263.02863642573357 42.62173692882061 11.652458786964422 5.6254034638404837 264.34843477606773 101.57560889422894 13.085879594087599 146.67333120107651
leaf_count=2512 76 69 72 186 179 48 412 48 343 266 25 401 36 49 158 77 93 54 48 21 41 1408 1064 172 47 23 1072 409 53 609
internal_value=0.000385647 0.0023245 0.00526192 0.004465 0.0104163 0.0139384 -0.000220655 -0.00163969 0.0107118 0.0179277 0.0155119 0.00907744 -0.0093856 0.00175673 0.000810141 0.0180849 -0.000585855 -0.0136392 -0.00420118 0.00650737 -0.0340223 0.00218293 0.00510784 -0.00511686 0.00150724 -0.0227843 -0.00833598 0.0069162 -0.035664 -0.00397983
internal_weight=2480.76 1722.11 803.512 784.645 295.227 249.156 918.599 815.84 102.759 204.735 192.784 126.74 27.3139 21.1604 489.418 37.0385 452.38 80.0571 56.3827 44.4231 23.6744 372.323 274.843 540.997 174.561 30.3637 366.436 144.197 24.7383 758.651
internal_count=10071 6950 3238 3162 1190 1004 3712 3300 412 825 777 511 110 85 1972 149 1823 322 227 179 95 1501 1112 2188 704 123 1484 581 100 3121
is_linear=0
shrinkage=0.05


Tree=23
num_leaves=31
num_cat=0
split_feature=17 7 21 18 4 2 21 12 5 12 21 0 5 5 15 17 12 4 9 0 21 18 18 21 12 4 5 7 0 17
split_gain=7.35441 7.29133 8.34623 6.34366 5.08397 7.31215 7.71346 5.33262 5.01063 4.95798 10.241 5.0743 5.03882 4.71679 5.31211 4.4277 6.42023 4.23563 7.16986 11.6086 6.68748 7.56067 8.47804 16.587 8.12796 7.17347 6.99883 9.02325 7.34674 6.60683
threshold=0.0960766300362038 0.48053123038981843 0.00019266387858096873 0.040702299390676155 0.00022201807825314161 0.00012769171323928605 0.0001947631803147203 0.0048786316108924777 0.54302347769051884 0.0016515708007985193 0.00019195855619351106 2.6759419485495421e-05 0.64282294386713601 0.59325164481102222 0.00016880825088436325 0.098975596842406297 0.0057022035375017587 3.97159789470776e-08 8.1502184206071613e-05 0.001813852312091151 0.00019082284444995205 0.039563652473889516 0.039241086160421025 0.00018833768358888958 0.0043345644782034941 1.2029912463680028e-07 0.54302347769051884 0.48240389856971072 0.006556977631581919 0.095117117854585612
decision_type=2 2 2 2 2 2 2 2 2 2 2 2 2 2 2 2 2 2 2 2 2 2 2 2 2 2 2 2 2 2
left_child=3 -2 9 17 5 -4 -7 -6 -5 10 11 -3 -12 14 -8 16 -15 18 -1 -20 21 22 -19 24 25 -24 27 -25 -29 -21
right_child=1 2 4 8 7 6 13 -9 -10 -11 12 -13 -14 15 -16 -17 -18 20 19 29 -22 -23 23 26 -26 -27 -28 28 -30 -31
leaf_value=0.014947963862483666 0.035833624836917065 0.020965380035182453 -0.019319743675202512 0.0036173935901104453 -0.0019401277949381219 0.011320838109060989 0.023555403269513761 0.015003252124259639 0.045636968766566269 -0.01905010477785915 0.045089684939149194 -0.019740913609992722 -0.0052948893202549351 -0.011230828167780597 -0.016760593382401313 0.00062535333052389595 -0.048141436075104786 0.0038844028785465072 -0.033762722722160285 0.016890427294009896 -0.0075477958399549966 0.012790140849546758 0.020914820395307839 0.022922921033906675 0.031555083346731384 -0.032160424073710003 -0.027206397131705407 -0.029047654890316889 0.012856947073120512 -0.010163399718677744
leaf_weight=32.267557695508003 10.183230847120283 7.6406653225421897 68.23667985200882 16.65853920578957 101.50617232918739 83.083814218640327 21.058653712272644 81.077289253473282 13.888808026909826 129.13017763197422 12.795272946357729 48.528035387396812 6.1733632236719123 60.460147723555565 11.423962250351904 38.980730831623077 15.095091804862021 1046.6079130321741 38.406808868050575 31.56161080300808 148.01642809808254 191.43246610462666 5.6889681220054618 56.823977872729301 4.9807033985853186 74.919160678982735 13.087627872824667 19.532691687345505 19.549536675214767 71.373181357979774
leaf_count=133 41 31 280 67 412 339 86 327 56 528 52 197 25 249 46 161 63 4221 173 128 601 773 23 230 20 304 53 80 79 293
internal_value=0.000364642 -0.00398162 -0.00466114 0.00207327 -0.000999962 -0.00505933 -0.00065694 0.00548825 0.0243557 -0.0131123 -0.00246307 -0.0134964 0.027996 -0.00762553 0.00855272 -0.0124644 -0.0194642 0.00165736 -0.00569144 -0.0106509 0.0024834 0.00354179 0.00208612 -0.00742895 -0.0238249 -0.0278979 0.00531847 0.0102498 -0.0076648 -0.00154499
internal_weight=2480.17 695.373 685.19 1784.8 480.923 298.339 230.102 182.583 30.5473 204.268 75.1373 56.1687 18.9686 147.019 32.4826 114.536 75.5552 1754.25 173.609 141.342 1580.64 1432.62 1241.19 194.583 85.5888 80.6081 108.994 95.9062 39.0822 102.935
internal_count=10071 2837 2796 7234 1963 1224 944 739 123 833 305 228 77 605 132 473 312 7111 727 594 6384 5783 5010 789 347 327 442 389 159 421
is_linear=0
shrinkage=0.05


Tree=24
num_leaves=31
num_cat=0
split_feature=21 22 22 15 9 10 22 22 4 9 0 21 0 10 22 12 21 15 15 8 22 5 21 15 18 8 22 21 8 10
split_gain=6.09579 9.95797 5.83616 6.04399 6.03419 7.35097 8.00433 5.6514 5.52564 7.08899 12.5675 6.08585 7.8368 4.95519 8.42062 4.94961 4.70195 4.64979 10.2422 4.36339 4.35802 4.24855 4.18426 4.17043 4.70498 4.14366 4.12899 4.05196 3.98892 5.17642
threshold=0.00019060643934596275 0.32045589103488475 0.3641650774132123 0.00015100521370812542 0.0011832498479596274 0.0018410146498442036 0.44769901144752156 0.38108629431325841 3.97159789470776e-08 8.1502184206071613e-05 0.001813852312091151 0.00019040203122527966 6.7651908985345632e-05 0.9340238463532945 0.20971210821153199 0.00096052798580831245 0.00019009230514140305 2.3374123044222645e-05 3.5479120429282056e-05 0.48668894931991852 0.1411514011665401 0.5464335295843924 0.00018987974374621056 7.9984272094361106e-05 0.039125464035177256 0.48668800477313462 0.42583542526199347 0.00018804249402067452 0.48939711679020015 0.0065223629124821726
decision_type=2 2 2 2 2 2 2 2 2 2 2 2 2 2 2 2 2 2 2 2 2 2 2 2 2 2 2 2 2 2
left_child=8 13 -3 4 19 -6 7 -7 9 23 20 16 -13 17 -15 -12 22 -2 -19 -4 27 -18 28 24 -1 -14 -5 -11 29 -10
right_child=1 2 3 26 5 6 -8 -9 11 10 15 12 25 14 -16 -17 21 18 -20 -21 -22 -23 -24 -25 -26 -27 -28 -29 -30 -31
leaf_value=0.056235150948130599 0.018552072431793586 0.021133813150996893 0.0023697762691259759 -0.017285145519812698 0.056975725997531014 -0.020553380534981479 -0.020921967818795933 0.034017128950416364 0.0012757550774198465 0.016214892864180225 -0.014037074347195847 -0.011130934591723696 0 -0.0067309375843866192 0.050603127484474743 0.0088037599459529284 -0.00024801511734529058 -0.0318947600698627 -0.0060628993529423612 -0.02290630172693902 -0.048915611909032 -0.029016482326166257 0.018683128041348401 -0.0097077502091120135 0.0040777396145305119 0.050149581081747774 0.026862158600638925 -0.036997095293276681 -0.016480931284331035 0.0086720144459701519
leaf_weight=7.7773694396019044 15.539091825485228 49.78515949845314 24.576851785182953 4.9610276669263831 5.9118593931198111 4.9391660541296032 20.395886078476906 18.265422493219376 1026.6298025548458 6.1494434326887113 43.638296902179718 9.8631339073181135 5.9136020243167904 15.099315136671068 9.1960335373878461 48.832602545619011 36.531868562102318 41.078902199864388 543.91246208548546 43.921373873949051 23.794117763638496 20.44079615175724 41.502824366092682 9.2633244991302472 11.151664704084395 18.226074725389481 29.656011372804642 5.6630408316850662 25.404855161905289 311.24441665410995
leaf_count=32 65 203 100 20 24 20 83 74 4147 28 180 40 24 61 37 198 148 170 2217 181 108 83 168 38 46 74 122 26 102 1252
internal_value=0.00034806 -0.00314114 0.0064146 0.00134433 -0.00389816 0.00899678 0.000799103 0.0209995 0.00211121 -0.00675761 -0.0118633 0.00305839 0.0237525 -0.00628198 0.0151248 -0.00174254 0.00254401 -0.00721329 -0.00797084 -0.013574 -0.0366984 -0.0113234 0.00313185 0.0151928 0.0285086 0.0388757 0.0195258 -0.00824085 0.00262675 0.00302029
internal_weight=2479.27 827.239 202.413 152.628 118.011 49.5123 43.6005 23.2046 1652.03 156.27 128.078 1495.76 34.0028 624.826 24.2953 92.4709 1461.75 600.53 584.991 68.4982 35.6066 56.9727 1404.78 28.1924 18.929 24.1397 34.617 11.8125 1363.28 1337.87
internal_count=10071 3377 827 624 482 201 177 94 6694 656 540 6038 138 2550 98 378 5900 2452 2387 281 162 231 5669 116 78 98 142 54 5501 5399
is_linear=0
shrinkage=0.05


Tree=25
num_leaves=31
num_cat=0
split_feature=16 17 17 7 9 15 21 14 9 4 15 15 8 7 7 22 16 22 4 15 10 3 17 22 4 8 21 5 22 7
split_gain=12.2334 11.5354 8.51875 7.80766 9.39459 7.11955 7.7989 7.19281 16.2115 12.9569 7.09017 6.54885 6.41917 5.53784 5.51804 5.32672 5.2211 5.92535 5.91798 4.98328 4.90068 6.78184 6.63665 6.73264 5.40635 5.52149 4.82968 5.61317 4.78972 7.63783
threshold=0.00036415035403776974 0.10030608734213754 0.096132595471265306 0.48198523642767288 0.003777508698061963 9.2636063687025067e-05 0.00018094673078222358 0.00010450809810936983 7.0392946675110088e-05 1.2806964225688067e-05 8.9431350813179401e-05 0.00010412436647133363 0.48668653737214412 0.46548726753018926 0.48240062670297651 0.1411514011665401 0.027736805260246716 0.09877996184347948 0.00047112360533598576 0.00010484765361411439 1.9186009453744186e-05 2.0225387750005295e-05 0.095330726982966532 0.11264482707026843 0.00031751486183444086 0.48668872819983239 0.00018892972732415479 0.52322522557240847 0.24640076044790724 0.48240974129365488
decision_type=2 2 2 2 2 2 2 2 2 2 2 2 2 2 2 2 2 2 2 2 2 2 2 2 2 2 2 2 2 2
left_child=1 -1 5 10 26 6 15 8 20 13 -4 12 -7 -9 -10 -2 17 -14 -19 -13 -8 -22 23 -23 25 -24 -5 -28 -29 -30
right_child=2 -3 3 4 -6 11 7 9 14 -11 -12 19 16 -15 -16 -17 -18 18 -20 -21 21 22 24 -25 -26 -27 27 28 29 -31
leaf_value=-0.01395474698821042 0.010424504537706134 0.053824843213988185 0.056994951737195855 -0.030257800401676496 -0.016773465321846159 0 -0.003367081742130722 -0.028989343329774531 0.00087057484449176107 0.025820802864854532 -0.0016319259701233495 -0.034425079516049409 -0.027504150422074998 0.0031286282689553103 -0.025105622318797025 -0.026460762610541883 0.040743032262357495 0.038704070598766897 -0.012817577539443296 0.0056825573615904429 0.037089834203859716 0.044518115627223867 -0.023050582138562252 0.0042710619216015534 -0.037277458020108525 0.026375960748303569 0.031522236329041976 -0.0059060545082810622 0.00016912399997446901 0.028315631028425027
leaf_weight=188.38415883481503 11.040673330426214 5.3881716877222052 8.9642638117074984 13.045876815915106 125.29321710765362 27.693859294056892 117.3035960495472 12.684338614344595 23.917898818850517 65.296812981367111 8.9456751346588117 6.700288698077201 6.3984550386667278 495.1975791156292 90.031060338020325 41.095751047134399 36.020704925060272 16.492451921105388 6.6859276890754691 588.88746924698353 19.836036384105682 13.884488984942434 9.4030002802610415 41.139694973826408 12.354327932000158 11.092678144574164 12.299717143177984 256.99785955250263 164.11222130060196 27.637903526425362
leaf_count=805 45 23 36 53 509 112 476 51 98 263 36 27 26 2000 368 167 145 67 27 2368 80 56 38 166 50 45 50 1046 668 113
internal_value=0.000337519 -0.011675 0.00137842 -0.00361053 -0.00463711 0.00325749 0.0004547 0.00156304 -0.00416303 0.00499418 0.0278521 0.0071382 0.0194875 0.00222196 -0.0194756 -0.0181301 0.0279044 0.0106298 0.0228929 0.0051325 0.00353263 0.0112387 0.00477029 0.0154864 -0.0123679 0.00251961 -0.00134855 -0.000412702 -0.00141173 0.00448158
internal_weight=2464.23 193.772 2270.45 617.297 599.387 1653.16 964.278 912.142 338.963 573.179 17.9099 688.879 93.2914 507.882 113.949 52.1364 65.5975 29.5768 23.1784 595.588 225.014 107.71 87.8742 55.0242 32.85 20.4957 474.094 461.048 448.748 191.75
internal_count=10014 828 9186 2511 2439 6675 3903 3691 1377 2314 72 2772 377 2051 466 212 265 120 94 2395 911 435 355 222 133 83 1930 1877 1827 781
is_linear=0
shrinkage=0.05


Tree=26
num_leaves=31
num_cat=0
split_feature=16 17 17 7 9 12 15 15 14 9 16 22 22 22 16 14 15 8 22 7 6 12 6 7 12 12 16 17 14 22
split_gain=11.0459 10.6293 7.6761 7.08086 8.51225 8.02847 6.47451 6.41106 6.89139 15.7463 6.00981 5.94777 8.47764 6.01439 6.34381 5.88172 5.87434 8.36515 5.72842 5.83424 7.13032 7.40428 10.7275 5.57776 5.57089 7.95423 5.44238 5.35205 5.30237 5.42317
threshold=0.00036415035403776974 0.10030608734213754 0.096132595471265306 0.48198523642767288 0.003777508698061963 0.0019741695046411032 8.9431350813179401e-05 9.2636063687025067e-05 0.00010450809810936983 7.0392946675110088e-05 0.072867640435460054 0.091446116091603108 0.063290864855860648 0.07195061995641798 0.02381707517175 2.896931818730936e-07 0.00010412436647133363 0.48668653737214412 0.29505867428910848 0.48236212757309344 0.48385327843787745 0.0010729786927064658 0.4825667512976281 0.48239181162236677 0.0037222075978960312 0.0033828656929764367 0.011777433271583482 0.095615424502093385 9.6330864365417221e-05 0.1411514011665401
decision_type=2 2 2 2 2 2 2 2 2 2 2 2 2 2 2 2 2 2 2 2 2 2 2 2 2 2 2 2 2 2
left_child=1 24 7 6 -5 -6 -4 8 9 15 -11 12 26 -14 -15 -2 17 -13 19 20 21 22 -10 -21 25 28 -9 -12 -1 -30
right_child=2 -3 3 4 5 -7 -8 11 18 10 27 16 13 14 -16 -17 -18 -19 -20 23 -22 -23 -24 -25 -26 -27 -28 -29 29 -31
leaf_value=-0.02113148944523081 -0.014386603186326076 0.052011456244315801 0.054335323540666738 -0.0012739338043413271 -0.0021701885013936674 -0.027975509133380563 -0.0015585572378613317 -0.02527648500090084 -0.0019539600032065078 -0.011147982414170964 -0.042151402850416554 -0.0012094960126361352 -0.043725298380895478 -0.027970503945190895 0.010638649425784581 0.0064735332111422175 0.0065491089492525738 0.032258020492068371 -0.0056160159025940241 0.026660237072561984 -0.036030560467031229 -0.0032029774413575873 0.04886798270237469 0.0075049735680966043 -0.030253377731890543 0.030710203214911552 0.022975784809505836 0.0083604540389156639 0.016396036825502634 -0.012692205447505801
leaf_weight=73.149623066186905 39.398230284452438 5.333482787013053 8.9813353121280688 473.95668672025204 59.698104083538055 65.367435604333878 8.9455330967903119 5.9254747778177252 21.204513132572174 94.103714421391487 34.230891466140747 25.956181049346924 14.817989841103552 17.863600328564644 22.445300444960594 194.58154565095901 518.61380460858345 54.327995628118515 124.85413068532944 46.785718038678169 12.137154445052145 137.44601775705814 17.685644239187241 236.72855544090271 38.679242253303528 10.621614366769789 29.07701912522316 4.8796701431274405 24.918984577059746 40.451325222849846
leaf_count=321 161 23 36 1930 242 267 36 24 85 387 140 105 60 72 90 786 2085 219 504 189 49 553 71 958 168 46 117 20 102 168
internal_value=0.000322897 -0.0111105 0.00131123 -0.00342522 -0.00440559 -0.015971 0.0265146 0.00309507 0.00043326 -0.00491909 -0.0185978 0.00677701 -0.00498031 -0.0172795 -0.00612938 0.00280837 0.00859342 0.0212485 0.00377072 0.00631325 -0.000380188 0.00212198 0.0211767 0.0108365 -0.0133013 -0.00856612 0.0136377 -0.0351746 -0.0119555 -0.0011472
internal_weight=2463.17 193.154 2270.01 616.949 599.022 125.066 17.9269 1653.06 964.036 367.194 133.214 689.027 90.1294 55.1269 40.3089 233.98 598.898 80.2842 596.842 471.988 188.473 176.336 38.8902 283.514 187.821 149.142 35.0025 39.1106 138.52 65.3703
internal_count=10014 828 9186 2511 2439 509 72 6675 3903 1494 547 2772 363 222 162 947 2409 324 2409 1905 758 709 156 1147 805 637 141 160 591 270
is_linear=0
shrinkage=0.05


Tree=27
num_leaves=31
num_cat=0
split_feature=16 17 5 16 15 21 15 14 2 11 3 22 15 18 22 16 16 9 15 7 5 15 22 17 5 16 5 11 11 2
split_gain=9.97186 9.80347 7.2559 8.71756 10.7375 7.00673 5.77831 7.52847 10.7999 6.29896 9.73936 6.10247 6.11881 6.01319 6.86169 6.56873 6.18644 6.14247 5.73322 5.62061 5.00343 5.72157 4.9804 7.18766 6.57054 5.53333 5.33622 5.27424 5.11506 4.79873
threshold=0.00036415035403776974 0.10030608734213754 0.60941438196252717 0.055680259281452989 7.1369331850615605e-05 0.00018971131871425346 9.2636063687025067e-05 8.9910187332997704e-05 8.2600223931148108e-05 0.3728702440521357 2.0225387750005295e-05 0.2027940445223915 5.3645182550599866e-05 0.039512723092095643 0.077681823824123572 0.0057868361516915136 0.053552159968087119 0.64388460138977877 2.1675457068442734e-05 0.48240401053834631 0.46110659625718203 2.4100198365981626e-05 0.20021384995093947 0.0963009375546552 0.7041869731046192 0.023469094084094425 0.61783516401844751 0.37290051734473179 0.37287349871244274 0.0021144956539092797
decision_type=2 2 2 2 2 2 2 2 2 2 2 2 2 2 2 2 2 2 2 2 2 2 2 2 2 2 2 2 2 2
left_child=1 -1 6 5 -5 -4 7 8 9 -2 -11 -12 -13 15 -15 29 20 -18 -16 -6 -17 -22 27 -24 25 -25 -27 28 -7 -9
right_child=2 -3 3 4 19 22 -8 13 -10 10 11 12 -14 14 18 16 17 -19 -20 -21 21 -23 23 24 -26 26 -28 -29 -30 -31
leaf_value=-0.012687020668513935 -0.0059942870726469016 0.050299145040155341 0.030658723790712501 -0.0093404244203501696 0 -0.018525766219503897 0.0053863710425658753 0.043009187235171033 -0.015649725231132307 0.042675503219757126 0.01326588849739887 -0.038960332193937769 0.00079911268079638589 -0.019834510268894458 -0.015016447229560276 -0.0019114312250551443 0.0076166958789988908 -0.035790865720842294 0.016447495021599444 0.032074840263086851 0.011567799737242158 -0.023454154300148047 0.035672533977416161 -0.0031197031666521336 0.01086210788764652 0.0082969311734823348 -0.039771220827271331 -0.032135587523772186 0.022407148543059561 0.0074706977691592485
leaf_weight=187.1737596988678 148.61131884157658 5.2748303413391104 7.9492184966802588 61.479664176702499 21.770415917038918 24.476892367005348 884.32367223501205 11.547692477703093 156.19672401249409 17.647648349404335 60.350458770990372 12.607543751597403 29.393519297242165 15.281374275684355 14.295216470956801 144.48562516272068 148.82361759245396 7.4799055308103553 161.00699332356453 36.241085290908813 12.369041875004767 67.869593441486359 8.1573041975498182 35.946932896971703 25.055341109633446 5.6867824643850318 30.682109206914902 55.852907225489616 9.5660634487867338 54.344703808426857
leaf_count=805 604 23 32 250 88 99 3562 47 643 71 244 51 119 62 58 582 600 30 651 147 50 275 33 148 103 23 125 230 39 220
internal_value=0.000303652 -0.0105803 0.00124185 -0.00566604 0.00487973 -0.011978 0.00240274 -6.02166e-05 -0.00523265 0.000767724 0.00932899 0.00298014 -0.0111827 0.00335013 0.0107629 0.000116257 -0.00235861 0.00516618 0.0136693 0.0202766 -0.00770282 -0.0176717 -0.0139869 -0.00619684 -0.0102856 -0.0180018 -0.0315652 -0.0226878 -0.00599903 0.0146224
internal_weight=2461.95 192.449 2269.5 322.865 119.491 203.374 1946.63 1062.31 424.807 268.61 119.999 102.352 42.0011 637.504 190.584 446.92 381.028 156.304 175.302 58.0115 224.724 80.2386 195.424 105.528 97.3712 72.3158 36.3689 89.8959 34.043 65.8924
internal_count=10014 828 9186 1317 485 832 7869 4307 1732 1089 485 414 170 2575 771 1804 1537 630 709 235 907 325 800 432 399 296 148 368 138 267
is_linear=0
shrinkage=0.05


Tree=28
num_leaves=31
num_cat=0
split_feature=14 11 14 3 10 3 0 5 6 22 21 6 6 5 22 7 12 6 6 22 14 17 5 21 9 22 11 0 22 10
split_gain=6.70654 8.08331 13.0108 16.783 6.27337 13.0615 11.3272 8.33781 8.1847 5.72603 5.43958 10.8299 5.38247 5.15913 4.98232 4.63822 7.66237 5.05251 7.65437 4.49814 4.3228 4.29323 4.7329 4.18775 5.34045 7.69232 5.81665 4.71067 4.13479 4.87795
threshold=2.896931818730936e-07 0.37289576892300419 3.1033179873007398e-05 0.00018140717861309241 1.9186009453744186e-05 2.0225387750005295e-05 2.5812480121049539e-05 0.48546516487149088 0.48389079191177459 0.18058552531311473 0.00019134067057884294 0.48389051459694116 0.48389062880122752 0.60941438196252717 0.34083578448325874 0.48240365094772403 0.0032372418277184325 0.4838906091993232 0.48389066881316456 0.67888939727267084 6.5421567965749374e-06 0.096858782050445069 0.52322522557240847 0.00019018568645855284 0.0013376868142859321 0.1963505851531652 0.96961535000300347 0.00016925905547873367 0.077681823824123572 6.3601715631851826e-06
decision_type=2 2 2 2 2 2 2 2 2 2 2 2 2 2 2 2 2 2 2 2 2 2 2 2 2 2 2 2 2 2
left_child=10 4 3 -3 19 -6 15 14 9 12 -1 -12 -9 -4 -8 16 -7 -17 -19 28 -11 22 -20 -15 27 -26 -27 -25 29 -2
right_child=1 2 13 -5 5 6 7 8 -10 20 11 -13 -14 23 -16 17 -18 18 21 -21 -22 -23 -24 24 25 26 -28 -29 -30 -31
