tree
version=v4
num_class=1
num_tree_per_iteration=1
label_index=0
max_feature_idx=22
objective=binary sigmoid:1
feature_names=Column_0 Column_1 Column_2 Column_3 Column_4 Column_5 Column_6 Column_7 Column_8 Column_9 Column_10 Column_11 Column_12 Column_13 Column_14 Column_15 Column_16 Column_17 Column_18 Column_19 Column_20 Column_21 Column_22
feature_infos=[0:1] [0:1] [0:1] [0:0.99999999999999989] [0:1] [0:0.99999999999999989] [0:1] [0:1] [0:1] [0:1] [0:1] [0:0.99999999999999989] [0:1] none [0:0.99999999999999989] [0:1] [0:1] [0:1] [0:1] [0:1] none [0:1] [0:1]
tree_sizes=3466 3447 3465 3499 3470 3448 3401 3438 3476 3468 3474 3514 3480 3490 3519 3478 3490 3487 3452 3483 3496 3490 3485 3432 3452 3480 3528 3482 3456 3455 3470 3470 3493 3463 3432 3488 3496 3481 3477 3494 3484 3434 3491 3473 3467 3486 3462 3432 3462 3462 3471 3406 3493 3489 3454 3502 3453

Tree=0
num_leaves=31
num_cat=0
split_feature=16 11 10 15 18 17 4 21 18 18 16 12 22 12 18 4 15 16 16 16 17 15 6 15 16 9 21 15 14 18
split_gain=137.572 21.4505 28.2432 20.9268 14.3096 13.1075 12.2068 11.4639 9.9859 9.94551 8.28809 8.22128 7.85042 7.43518 7.27108 7.21908 9.65289 10.9824 6.92218 6.80094 6.74152 7.93313 7.78799 9.30037 9.10118 7.09248 6.87412 6.57899 7.42242 8.09322
threshold=0.00018637833451859963 0.37215780380368485 0.00010646043253424431 2.3276273071578623e-05 0.052913445675785147 0.092671336949656749 0.0017048822155333715 0.00019789665984169431 0.016473531924232569 0.039132658688702783 0.20715481523866916 0.0014170406430834301 0.11700515810651664 0.00062561212329681319 0.042752381377836511 0.0023073012170800491 2.7484938295809159e-05 0.085470733467986879 0.0067760363870937495 0.0044250590493976607 0.096972900987532265 2.2329175012918274e-05 0.51817613059928258 2.6043315999218821e-05 0.0060469488657010784 1.6998791104650632e-05 0.00019969917825791059 2.72058765223401e-05 2.7443843390456999e-06 0.039120733192353679
decision_type=2 2 2 2 2 2 2 2 2 2 2 2 2 2 2 2 2 2 2 2 2 2 2 2 2 2 2 2 2 2
left_child=3 2 5 -1 7 -2 10 8 -3 11 14 12 -10 -9 20 -8 -17 -18 -16 -11 22 -22 23 25 -24 -7 -25 28 29 -26
right_child=1 4 -4 -5 -6 6 15 13 9 19 -12 -13 -14 -15 18 16 17 -19 -20 -21 21 -23 24 26 27 -27 -28 -29 -30 -31
leaf_value=-0.17166868959393683 -0.10218424015446777 -0.044382953534427824 -0.14351162253883087 -0.12764608150709084 -0.045220805189878754 -0.12954853570917199 -0.094095975190645151 -0.13324683922075467 -0.15538988423841416 -0.055566333464177955 -0.15559770928469685 -0.11138756164384786 -0.11805751283426295 -0.11657322006640712 -0.14068187285070816 -0.12734296249527308 -0.11736983651402451 -0.08824069389342383 -0.080047604156014265 -0.10370351323774218 -0.16384708471663206 -0.12975344229739424 -0.13626823020635206 -0.12079296989347398 -0.073451355808308597 -0.16047676569924241 -0.16509918258154455 -0.12244502155908048 -0.083270433446093292 -0.11806943681878573
leaf_weight=149.4456946849823 89.66741681098938 5.2305993139743796 148.94754236936569 34.870662093162537 6.7250562608242026 44.335556089878082 39.354032933712006 75.968228131532669 22.416854202747345 7.2232085764408103 21.669625729322433 180.33113825321198 32.379900515079498 481.46421304345131 5.2305993139743832 123.2926981151104 117.31487032771111 45.331860721111298 15.69179794192314 224.91577050089836 21.42054957151413 87.923883706331253 53.800450086593628 159.90689331293106 10.710274785757063 35.368814408779144 8.2195132076740247 113.57872796058655 27.398377358913422 93.652635335922241
leaf_count=600 360 21 598 140 27 178 158 305 90 29 87 724 130 1933 21 495 471 182 63 903 86 353 216 642 43 142 33 456 110 376
internal_value=-0.1221 -0.118771 -0.12313 -0.163552 -0.113441 -0.12041 -0.121998 -0.113985 -0.108249 -0.109181 -0.125745 -0.116607 -0.133211 -0.118907 -0.124704 -0.114038 -0.116956 -0.108943 -0.0965196 -0.101821 -0.125678 -0.13698 -0.123349 -0.129919 -0.11798 -0.143893 -0.123055 -0.113826 -0.106258 -0.112838
internal_weight=2483.79 2299.47 1262.82 184.316 1036.65 1113.87 1024.2 1029.93 472.497 467.267 698.908 235.128 54.7968 557.432 677.238 325.293 285.939 162.647 20.9224 232.139 656.316 109.344 546.971 247.831 299.14 79.7044 168.126 245.34 131.761 104.363
internal_count=9972 9232 5070 740 4162 4472 4112 4135 1897 1876 2806 944 220 2238 2719 1306 1148 653 84 932 2635 439 2196 995 1201 320 675 985 529 419
is_linear=0
shrinkage=1


Tree=1
num_leaves=31
num_cat=0
split_feature=4 11 4 15 18 5 4 18 18 5 18 5 16 15 15 11 17 16 16 22 17 4 15 14 8 4 8 18 4 11
split_gain=124.744 19.1078 24.4265 18.85 13.0639 16.1974 10.0025 11.0243 10.2741 9.57273 9.40991 8.3849 11.2349 8.87035 8.07423 7.98788 7.94139 6.97066 8.1278 7.40795 6.61664 8.61185 6.52189 6.95041 6.43399 6.08643 5.98001 5.60827 5.54354 5.44209
threshold=1.1065742129806715e-07 0.37215780380368485 9.9722042705680072e-06 2.5197528731293783e-05 0.052913445675785147 0.62799172296808325 0.0017048822155333715 0.037729257967459073 0.042752381377836511 0.043202466360986493 0.040080149820377317 0.3754273316813817 0.026012132647122026 3.9365255900680454e-05 3.4852461444800371e-05 0.37205925105079846 0.096941666790977307 0.074990365045213794 0.053455540298431116 0.2199026002571694 0.096266931971443134 1.1667738713069349e-05 1.9296289839573667e-05 3.0919257166391771e-06 0.51875989747556261 0.0021584664801491201 0.5187610642300583 0.041442753909326731 5.2701228499490427e-06 0.37552031260675084
decision_type=2 2 2 2 2 2 2 2 2 2 2 2 2 2 2 2 2 2 2 2 2 2 2 2 2 2 2 2 2 2
left_child=3 2 22 27 5 9 7 15 11 -3 -5 12 -9 -14 25 -4 -13 18 24 -19 28 -22 -2 -24 -16 -8 -10 -1 -11 -7
right_child=1 4 6 10 -6 29 14 8 26 20 -12 16 13 -15 17 -17 -18 19 -20 -21 21 -23 23 -25 -26 -27 -28 -29 -30 -31
leaf_value=-0.047439024831704868 -0.029067641065263355 0.062329908588121076 -0.02845725626945339 0.027742019493563315 0.072969174034846832 -0.017958448223794173 0.026533314900702737 0.0098802034624033627 0.044314845014136017 0.017280418114500255 -0.035318784441619344 -0.00020737186824603857 -0.04478708102618404 0.015671605042202139 0.029786664900419275 0.027156913386932685 -0.015158463355231145 0.049436780738881941 -0.015186797342927034 0.008121326776327006 -0.0086707343047883936 0.038123216633781959 0.019011329860358677 -0.015549245056011581 0.00088133526439825591 -0.00063626672335858822 -0.0003489557875539098 0 0.0063998600245534307 0
leaf_weight=156.63622738420963 81.068809926509857 7.9822992384433737 6.2181813716888419 13.942698463797571 6.7465504109859458 60.041982397437096 21.701827958226204 17.43375052511692 15.960347801446916 149.26152822375298 8.7128510624170286 450.76200123131275 38.315712153911591 5.9801179915666571 43.359532326459885 46.350569173693657 110.7311397343874 27.437013879418373 24.420761406421661 20.948093146085739 11.461018949747084 39.864413738250732 16.430701494216919 76.647369757294655 37.382999822497368 208.75525802373886 11.454226240515707 6.4599500000476828 627.70144253969193 133.2897462695837
leaf_count=631 326 32 25 56 27 241 87 70 64 599 35 1810 154 24 174 186 445 110 98 84 46 160 66 308 150 838 46 26 2519 535
internal_value=-0.000348707 0.00283405 -0.00128204 -0.039657 0.00786433 0.00734308 0.00148696 -0.00202915 -0.00385095 0.0103669 0.00196548 -0.00521716 -0.022626 -0.0359072 0.00797928 0.0197034 -0.003222 0.0168437 0.0091283 0.0325823 0.00976141 0.0272303 -0.0186216 -0.00904544 0.0168841 0.00191783 0.0254183 -0.0455678 0.00854177 -0.005594
internal_weight=2483.46 2297.71 1261.36 185.752 1036.35 1029.6 1087.21 703.206 650.637 836.271 22.6555 623.223 61.7296 44.2958 384.005 52.5688 561.493 153.548 105.163 48.3851 828.288 51.3254 174.147 93.0781 80.7425 230.457 27.4146 163.096 776.963 193.332
internal_count=9972 9224 5065 748 4159 4132 4365 2824 2613 3356 91 2503 248 178 1541 211 2255 616 422 194 3324 206 700 374 324 925 110 657 3118 776
is_linear=0
shrinkage=0.05


Tree=2
num_leaves=31
num_cat=0
split_feature=4 11 15 9 15 4 17 17 5 5 17 17 21 17 4 12 15 4 4 9 17 5 17 15 4 8 7 15 14 12
split_gain=113.131 17.2638 22.1215 18.2546 17.1406 11.5399 11.0046 10.4635 14.424 9.16885 8.77839 7.17305 7.00919 5.89287 7.80459 5.57879 8.50895 5.51149 8.25295 6.16563 5.6367 6.6306 5.48884 6.84776 7.58325 5.64257 5.80707 5.42194 6.60473 6.05947
threshold=1.1065742129806715e-07 0.37215780380368485 1.8212994063810011e-05 1.6998791104650632e-05 2.5197528731293783e-05 0.0018169140121096613 0.092578674475571041 0.10035464029272249 0.62799172296808325 0.3776653212964774 0.03455641621518471 0.096941666790977307 0.00018378430155336395 0.096266931971443134 1.1667738713069349e-05 0.0085148004959567317 4.4389294525247647e-05 7.3857512653600333e-06 3.6065780026183877e-05 2.0581735983111049e-05 0.093478931826823805 0.36830193477782974 0.093198114790619555 2.7484938295809159e-05 2.1378104281734809e-05 0.51876098682997218 0.51886935670266121 2.0545064682924111e-05 1.0651972859819587e-07 0.0023474160405304186
decision_type=2 2 2 2 2 2 2 2 2 2 2 2 2 2 2 2 2 2 2 2 2 2 2 2 2 2 2 2 2 2
left_child=4 2 3 9 -1 6 12 8 10 -2 -3 -6 -4 -12 -15 16 27 19 22 -8 21 -20 -19 -24 25 -25 -27 29 -29 -7
right_child=1 7 5 -5 11 15 17 -9 -10 -11 13 -13 -14 14 -16 -17 -18 18 20 -21 -22 -23 23 24 -26 26 -28 28 -30 -31
leaf_value=-0.043496377818640457 -0.040246495203517675 0.067368951874311161 -0.0073085700204072075 -0.027997742195834775 0.021718813120326936 0.03956904529305761 0.0032764568152896588 0.064885567981200917 -0.0052133307963119248 0.0032970758112655495 0.0081935999116673312 -0.035350261178005195 0.034959273407200245 -0.0082760765583669692 0.036196222471835043 -0.024793758901902149 0.026250916025404664 -0.025922143872357396 0 -0.027519610903673671 -0.0083888498364664953 0.061075860683216687 0.025000987636444379 0.00084146874962557684 0.020665283845992574 -0.055454368129588032 0 -0.032573173386842014 0.0057934021796923118 -0.014259064482027413
leaf_weight=162.38778257369995 12.440767988562582 5.7473269402980796 12.447031959891317 124.36635693907738 15.454866394400598 21.172261074185375 22.893432095646858 6.997054159641265 193.01527969539165 116.54755410552025 779.5682268589735 7.2000630050897589 30.929579600691795 11.455020546913145 39.93851900100708 9.968761205673216 70.848954245448112 11.704492241144179 16.423129588365558 44.476662427186966 317.19221629202366 5.2317825406789771 44.064315959811211 110.30279578268528 43.573288708925247 8.7058963924646395 8.4564629942178708 10.706102222204207 213.11389082670212 5.480195701122283
leaf_count=657 50 23 50 501 62 85 92 28 775 468 3127 29 124 46 160 40 284 47 66 179 1274 21 177 443 175 35 34 43 855 22
internal_value=-0.000325862 0.00269923 -0.00121351 -0.0144025 -0.0378369 0.0020887 -0.00162587 0.00747926 0.00700236 -0.000987632 0.00985302 0.00179691 0.0223757 0.00934467 0.0258379 0.00973011 0.0109524 -0.00334265 -0.00166964 -0.0167941 -0.00663695 0.0171582 0.00563829 0.00758329 0.00283145 -0.00318376 -0.0290524 0.00643839 0.00371027 0.0274816
internal_weight=2482.81 2297.77 1261.05 253.355 185.043 1007.69 676.401 1036.72 1029.72 128.988 836.709 22.6549 43.3766 830.962 51.3935 331.29 321.321 633.024 565.654 67.3701 338.847 21.6549 226.807 215.103 171.038 127.465 17.1624 250.472 223.82 26.6525
internal_count=9972 9224 5065 1019 748 4046 2717 4159 4131 518 3356 91 174 3333 206 1329 1289 2543 2272 271 1361 87 911 864 687 512 69 1005 898 107
is_linear=0
shrinkage=0.05


Tree=3
num_leaves=31
num_cat=0
split_feature=16 15 11 10 17 17 5 10 10 5 8 15 7 15 6 16 5 10 3 22 17 21 21 21 21 22 22 17 15 7
split_gain=103.957 15.8084 15.7877 21.5816 10.1057 9.58517 13.0908 9.14829 21.822 8.14176 7.08866 6.8043 10.0711 7.17407 6.23783 6.24062 6.06794 6.50791 5.91906 5.67633 8.79174 8.32562 5.55251 8.16314 12.8424 5.51716 5.34273 6.27079 7.92502 6.98551
threshold=0.00018637833451859963 2.2184763306350784e-05 0.37215780380368485 0.00010646043253424431 0.092671336949656749 0.10035464029272249 0.62799172296808325 2.5170272112669546e-05 3.3494293746817203e-05 0.043202466360986493 0.51875990763095203 2.7484938295809159e-05 0.51886747905607555 2.9048333390208846e-05 0.5181762740549688 0.015335269510772609 0.34218717185470077 2.839697072405993e-07 0.96553592901500218 0.049189765599280115 0.09245679741408297 0.00020386436378392369 0.00020543634376344865 0.00019965046271980326 0.00019849755667205679 0.18022274854003964 0.33053285653047293 0.096349552664332858 2.2329175012918274e-05 0.51886867993277386
decision_type=2 2 2 2 2 2 2 2 2 2 2 2 2 2 2 2 2 2 2 2 2 2 2 2 2 2 2 2 2 2
left_child=1 -1 3 4 16 6 9 14 -9 -4 25 12 -10 -13 26 -16 17 -2 22 -5 -21 -22 23 24 -11 -3 27 29 -29 -6
right_child=2 10 5 19 7 -7 -8 8 11 18 -12 13 -14 -15 15 -17 -18 -19 -20 20 21 -23 -24 -25 -26 -27 -28 28 -30 -31
leaf_value=-0.04419847759399062 0.050806201182627367 0.037812359992732386 0.05731591161016554 -0.049648519345321634 0.001869886715999889 0.062136664745525344 -0.0049556610188240102 -0.024098287083471108 -0.030377156136176753 0.010586247809899411 -0.027100070376966975 -0.04431974012314549 0.032309998865314687 3.7451016172057201e-05 -0.0076711406153076788 0.019255063131305455 0.058469264668588164 0.006822505425199867 -0.017218990975290487 0.028067138084931484 -0.027084787594664803 0.0008539965985483438 -0.036785744376109847 0.021087112943318331 -0.0081301471331938126 -0.013847812500749099 -0.012453096813834993 -0.034580872647320786 0.00031680570660325564 0.018429392084878891
leaf_weight=143.55857357382774 8.986442491412161 10.188295349478723 7.9926712214946738 13.63730053603649 297.92162612080574 6.9857419431209555 192.95226256549358 118.16839651763439 6.6817355453968039 560.69846001267433 20.599336132407188 8.4628587663173658 32.618857398629189 219.07614178955555 25.379710137844086 98.181667670607567 7.492176190018653 73.372972622513771 19.70472614467144 9.4464851468801481 89.959113791584969 35.228056773543358 5.2407475411891928 136.95199906826019 107.21905221045017 7.9576653093099585 63.264028683304787 22.144284144043922 50.092663750052452 81.733701512217522
leaf_count=584 36 41 32 55 1196 28 775 476 27 2248 83 34 131 880 102 394 30 294 79 38 363 142 21 549 430 32 254 89 201 328
internal_value=-0.000307724 -0.0365546 0.00256958 -0.00117059 0.00120037 0.00713826 0.00668143 -0.000193621 -0.00629528 0.00939404 -0.00720417 0.00155588 0.0205425 -0.00168964 0.00344936 0.0135065 0.0171853 0.0124735 0.00883394 -0.0190338 -0.0154052 -0.0190801 0.0095189 0.0098967 0.00753672 0.0143117 0.000967211 0.00292458 -0.0103658 0.00553961
internal_weight=2481.9 182.304 2299.59 1261.85 1113.58 1037.75 1030.76 1023.73 385.008 837.808 38.7453 266.84 39.3006 227.539 638.718 123.561 89.8516 82.3594 829.815 148.271 134.634 125.187 810.11 804.87 667.918 18.146 515.156 451.892 72.2369 379.655
internal_count=9972 740 9232 5070 4472 4162 4134 4112 1548 3359 156 1072 158 914 2564 496 360 330 3327 598 543 505 3248 3227 2678 73 2068 1814 290 1524
is_linear=0
shrinkage=0.05


Tree=4
num_leaves=31
num_cat=0
split_feature=16 15 11 15 10 4 17 17 5 5 17 8 16 15 22 4 15 15 16 21 16 4 5 21 22 3 0 12 12 8
split_gain=94.4064 14.5384 14.2461 19.7476 15.7521 9.47406 9.93825 8.81101 11.8178 8.73668 7.53028 6.03774 5.93479 8.58551 7.94722 7.83633 7.33295 5.95545 5.82771 6.62349 5.79745 6.74504 5.78496 5.63048 5.57486 5.3944 5.3354 5.23112 6.84028 5.98805
threshold=0.00018637833451859963 2.3417631206749872e-05 0.37215780380368485 1.8212994063810011e-05 2.6118743774353748e-05 0.0018169140121096613 0.092578674475571041 0.10035464029272249 0.62799172296808325 0.35536989731789947 0.03455641621518471 0.51875990763095203 0.073954632337369042 2.0545064682924111e-05 0.19055853113873944 0.0021584664801491201 2.5197528731293783e-05 2.2056140107884889e-05 0.1148256847964159 0.0001947427471915631 0.0060469488657010784 0.0024585456583131261 0.72551800279570644 0.00018378430155336395 0.38254678737318287 0.96553592901500218 1.4189405345805109e-07 0.0020902317161541769 0.0018081616091093946 0.51875979550494966
decision_type=2 2 2 2 2 2 2 2 2 2 2 2 2 2 2 2 2 2 2 2 2 2 2 2 2 2 2 2 2 2
left_child=1 -1 3 4 9 6 23 8 10 -2 -4 -3 13 -7 16 -15 -14 -17 -16 -20 -11 -22 -21 24 -5 -12 -23 28 29 -6
right_child=2 11 7 5 27 12 -8 -9 -10 20 25 -13 14 15 18 17 -18 -19 19 22 21 26 -24 -25 -26 -27 -28 -29 -30 -31
leaf_value=-0.041714294792375678 -0.045501492895201862 0.016816444476569249 0.062283432334711002 -0.034164240657418708 0 0.035256294694653786 -0.0029777553392122502 0.059606284316661234 -0.0047107060545424038 -0.024142006540298463 0.0091019228277007189 -0.023929275934996469 0.0040315151639208346 0.034675253035631619 -0.014469149482658934 -0.036586386421023846 0.044892823833615703 0.00013665516777267524 -0.011770020283938747 0.044285703903612118 0.01620267710274206 0.019477548936673857 -0.0073266674325154603 0.032692399016553242 0.028388298464115055 -0.016413857913250323 -0.025657676169832014 -0.035510678364789584 0.012952377533991883 -0.035168674682612817
leaf_weight=147.34511657059193 8.9400217533111555 15.697855174541472 5.7307081669569007 6.9511457681655866 18.276979148387909 18.96430791914463 628.37916254997253 6.9612162113189688 192.88995006680489 15.169122740626333 812.68444147706032 18.343911856412888 17.93604277074337 14.73306882381439 21.950976982712746 10.698351457715033 35.963144287467003 174.04957193136215 11.724802896380423 19.458805531263355 71.533645287156105 7.9690404385328319 5.9887143075466147 30.973953276872635 5.2347102612257004 19.687218680977821 20.422037646174431 65.954137951135635 15.570460408926008 34.590522468090057
leaf_count=603 36 63 23 28 74 76 2526 28 775 61 3257 74 72 59 88 43 144 698 47 78 287 32 24 124 21 79 82 267 63 140
internal_value=-0.00029171 -0.0349268 0.00244361 -0.00110951 -0.013419 0.00204735 -0.00133596 0.00678272 0.00634442 -0.00033868 0.00892114 -0.00448286 0.00896037 0.00396608 0.0182744 0.000705649 0.0320719 -0.00204082 0.00495609 0.0171605 0.00331576 0.00792962 0.0313764 0.0215276 -0.00528233 0.00844945 -0.0119065 -0.0252148 -0.0145641 -0.0232223
internal_weight=2480.77 181.387 2299.39 1261.43 258.426 1003.01 671.539 1037.95 1030.99 124.034 838.102 34.0418 331.468 218.445 113.022 199.481 53.8992 184.748 59.1233 37.1723 115.094 99.9247 25.4475 43.1598 12.1859 832.372 28.3911 134.392 68.438 52.8675
internal_count=9972 740 9232 5070 1042 4028 2699 4162 4134 498 3359 137 1329 876 453 800 216 741 237 149 462 401 102 173 49 3336 114 544 277 214
is_linear=0
shrinkage=0.05


Tree=5
num_leaves=31
num_cat=0
split_feature=4 15 8 15 8 18 21 22 22 22 21 22 7 8 4 18 4 22 8 7 5 8 4 5 3 4 8 22 6 5
split_gain=84.763 19.7507 13.6569 15.0125 11.9823 11.4066 9.5102 9.19077 9.44511 8.46772 10.3083 8.16949 8.00444 7.48778 6.59254 8.38633 6.36544 7.18393 10.6907 7.02755 5.93163 5.74818 5.6645 8.93029 5.58095 8.46954 5.56588 5.55216 5.81033 5.43535
threshold=4.3909268999096048e-07 1.9006144328206664e-05 0.5187533653629951 1.2930450518464336e-05 0.51875755122013223 0.039156595761846401 0.00019762278680303323 0.087372546458711869 0.10398198451388717 0.4706619896842289 0.00022256569560577188 0.11700515810651664 0.51886858787353984 0.51875000721887343 3.2738932868336368e-06 0.040080149820377317 0.00092725360912463924 0.22534984256635712 0.51875986370887217 0.51809239199337476 0.2689758831874452 0.51875969959453816 0.00063374576381664027 0.42351064159226043 3.4682871080983449e-06 2.3759007337243908e-05 0.51491638883758917 0.50873256572320613 0.5181761727916071 0.28194805417097718
decision_type=2 2 2 2 2 2 2 2 2 2 2 2 2 2 2 2 2 2 2 2 2 2 2 2 2 2 2 2 2 2
left_child=1 4 13 5 -1 -4 12 -6 -9 16 -11 14 -7 26 -8 -16 19 -18 20 -5 -19 -22 24 -24 25 -21 29 28 -13 -2
right_child=2 -3 3 9 7 6 11 8 -10 10 -12 27 -14 -15 15 -17 17 18 -20 22 21 -23 23 -25 -26 -27 -28 -29 -30 -31
leaf_value=0.02238473444810701 0.029223959049164274 -0.0054708047396589679 -0.032753323976897362 0.019748739777073785 -0.062120710518737993 0.038220977599057036 0.0083515521128945096 0.014487740588082575 -0.036961700655819621 -0.017455534209245047 0.043561022915746123 0.014350737709493369 -0.0069885901052860917 0.032528157908468844 -0.044634448833677572 0.015630951300006368 0.013619814871056506 0.014516555662337531 0.0075557508135636279 -0.028564363276073802 0 -0.054762621420570451 -0.041668430166046905 -8.9831545217655963e-05 0.0014771043720236937 0.033931485981380655 0.01173758289833495 0.030287761965908516 -0.011083527015421335 -0.011239516196992408
leaf_weight=6.6459956020116797 8.7059532701969129 67.649057105183601 42.465938061475754 53.616595402359962 41.564440995454788 20.709491893649101 9.4464178234338743 8.5243134349584562 100.32814379036427 75.854385673999786 6.4596555680036536 26.651421144604683 15.912528678774832 38.422621786594391 34.365471765398979 5.6945666223764411 306.67238892614841 5.4915182441473034 90.985027849674225 5.4619616717100135 7.477748557925227 15.457352891564367 18.178298324346542 43.317012920975685 882.50744971632957 27.367859661579132 342.83538936078548 10.447172373533247 107.95460346341133 50.628000199794769
leaf_count=27 35 274 172 215 171 83 38 35 412 305 26 107 64 154 138 23 1230 22 365 22 30 62 73 174 3545 110 1374 42 434 203
internal_value=0.000598858 -0.028602 0.0035337 0.00159568 -0.0383091 -0.00914917 -0.00458323 -0.0412861 -0.0326099 0.00352733 -0.0119018 -0.00908012 0.018249 0.011428 -0.0264646 -0.0352868 0.00442401 0.00957569 -0.000629661 0.00226236 -0.0270447 -0.0382313 0.00125779 -0.0132508 0.0022732 0.0222579 0.00927444 -0.00283509 -0.0057946 -0.00450206
internal_weight=2477.8 224.712 2253.09 1812.49 157.063 273.648 231.182 150.417 108.852 1538.85 82.314 194.56 36.622 440.592 49.5065 40.06 1456.53 426.084 119.412 1030.45 28.4266 22.9351 976.833 61.4953 915.337 32.8298 402.169 145.053 134.606 59.334
internal_count=9965 919 9046 7280 645 1101 929 618 447 6179 331 782 147 1766 199 161 5848 1709 479 4139 114 92 3924 247 3677 132 1612 583 541 238
is_linear=0
shrinkage=0.05


Tree=6
num_leaves=31
num_cat=0
split_feature=4 15 8 15 12 10 16 8 12 5 15 10 15 8 21 5 21 8 15 12 4 12 15 21 5 12 16 16 15 4
split_gain=76.9397 18.2068 12.338 13.535 11.0942 8.88168 7.95513 7.74513 5.81003 7.75386 6.59301 6.0635 5.96555 6.15087 5.98604 5.75101 5.57973 4.9912 4.92511 5.25522 4.85831 4.85449 4.78619 11.2488 5.25726 7.77801 6.75807 10.7391 6.73953 6.15868
threshold=4.3909268999096048e-07 2.2184763306350784e-05 0.5187533653629951 1.2930450518464336e-05 0.0024313578122750054 0.0001485704853138899 0.18829969300568261 0.51875000721887343 0.0028321788381189231 0.062287973550189953 4.8571755804711954e-05 5.1608806149555135e-07 2.7616256344497954e-05 0.51875992790129077 0.00020177903489692199 0.70227930996992061 0.00020386436378392369 0.51491638883758917 3.1154023147921609e-05 0.00050600951524264995 0.00015098421944326687 0.0021237138617080822 1.7084044895675412e-05 0.00020202713072103387 0.39154168725583438 0.0045291731852187987 0.14789091306845414 0.074990365045213794 3.2159480443113992e-05 7.3857512653600333e-06
decision_type=2 2 2 2 2 2 2 2 2 2 2 2 2 2 2 2 2 2 2 2 2 2 2 2 2 2 2 2 2 2
left_child=1 5 6 4 -4 -1 7 17 9 21 -11 12 -10 14 -14 -6 -15 -2 19 -9 -19 -5 23 -13 26 29 27 -24 -29 -26
right_child=2 -3 3 8 15 -7 -8 18 11 10 -12 22 13 16 -16 -17 -18 20 -20 -21 -22 -23 24 -25 25 -27 -28 28 -30 -31
leaf_value=-0.038648066848207797 -0.0056201936752778726 -0.00063181396359467557 -0.0054134014438099835 0.0626359168508102 -0.056370557598326709 0 0.056887965672492651 0 -0.013093748017571606 0.0047679643418061593 0.038569361244101041 -0.06327031648547124 0.012037786205788659 0.013542639205696157 0.04890294029816826 0 -0.0450130949555827 0.012511473334906856 0 0.051492691789094172 -0.0037112793393298815 0.0068776376010975639 0.0040473302765007468 0.008746862706010234 -0.030681503484723302 0.0050303094987078573 -0.023015155204128328 0 0.056850230573694295 -0.0058729677307131989
leaf_weight=156.60164859890938 58.085347920656204 51.259172528982162 250.01455421745777 8.9652933627367037 16.459009930491451 15.767276689410208 8.4584107995033246 5.7450181692838695 15.925079613924025 790.53857311606407 13.966607913374899 9.1143809854984301 29.944142952561378 9.9873618334531766 20.204340755939484 6.8983445763587943 5.2383049577474585 284.3410659879446 9.2415962815284711 22.977134957909584 51.913402929902077 8.7393540292978269 114.61213310062885 10.142169535160063 27.548123985528946 167.52398408949375 15.191774010658262 6.9571011215448406 16.966720834374428 267.4605548530817
leaf_count=648 233 207 1006 36 67 64 34 23 64 3173 56 37 120 40 81 28 21 1139 37 92 208 35 460 41 111 673 61 28 68 1074
internal_value=0.00056953 -0.0273238 0.00335995 0.00151672 -0.00869038 -0.0350679 0.0108621 0.00977465 0.00335047 0.00621646 0.00543296 2.41794e-05 0.0128292 0.0196228 0.0280449 -0.0410781 -0.00659495 0.00756713 0.0312804 0.0411942 0.00992918 0.0382883 -0.00159222 -0.0255464 -0.000763043 -0.00346218 0.00716637 0.0107964 0.0406668 -0.00836989
internal_weight=2476.79 223.628 2253.16 1812.4 273.372 172.369 440.762 432.304 1539.03 822.21 804.505 716.816 81.2992 65.3742 50.1485 23.3574 15.2257 394.34 37.9637 28.7222 336.254 17.7046 635.517 19.2566 616.26 462.533 153.728 138.536 23.9238 295.009
internal_count=9965 919 9046 7280 1101 712 1766 1732 6179 3300 3229 2879 326 262 201 95 61 1580 152 115 1347 71 2553 78 2475 1858 617 556 96 1185
is_linear=0
shrinkage=0.05


Tree=7
num_leaves=31
num_cat=0
split_feature=4 15 10 11 15 4 16 5 21 17 10 5 6 14 16 16 0 10 7 4 15 17 5 17 6 1 5 15 5 21
split_gain=69.8464 16.7456 7.42897 8.60448 14.6817 7.8536 9.25633 7.92426 7.6235 7.68294 6.63036 6.53655 5.62546 5.4219 5.16547 5.31114 5.134 4.54199 4.43545 4.32725 7.6971 6.4789 6.31272 7.37993 6.30422 4.4621 4.93023 4.443 4.30552 4.17376
threshold=4.3909268999096048e-07 1.9006144328206664e-05 0.97607317778627156 0.3729618674511988 1.2930450518464336e-05 9.345246606884713e-06 0.022129690893491785 0.60805776665460987 0.00019752698028728194 0.10035464029272249 0.0001485704853138899 0.43266720935799347 0.51817612009438341 0.00019245384883882243 0.26552184242264748 0.10682207159214442 2.77604067571363e-05 0.97163409591324412 0.51886855983241287 2.7602811608014025e-05 1.7654032733900857e-05 0.09574961173337021 0.64429287064889318 0.095242532102493296 0.51823250994666104 0.0052410976137755817 0.54265009576479528 7.5550349613107753e-06 0.45931492286780112 0.00020169560737185986
decision_type=2 2 2 2 2 2 2 2 2 2 2 2 2 2 2 2 2 2 2 2 2 2 2 2 2 2 2 2 2 2
left_child=1 10 3 4 11 6 -6 -8 13 19 -1 18 -13 -5 15 -7 28 -15 -2 22 21 -21 23 -10 25 -25 -27 -28 -3 -23
right_child=2 16 -4 8 5 14 7 -9 9 -11 -12 12 -14 17 -16 -17 -18 -19 -20 20 -22 29 -24 24 -26 26 27 -29 -30 -31
leaf_value=-0.038294655066735572 -0.047797961689487863 0.054592170724334366 -0.01844126421371374 0.050744528859656773 -0.0021409705094451166 0.0030945432235581385 -0.061127543233817687 0 -0.032214704018249718 0.05448461587685971 0 0.021496068107245914 -0.013670372484668319 0.011232550561239897 -0.017784329014591812 0.013121347054204709 -0.011496282200490263 0.046259447203264088 -0.0024856513882338918 -0.034909594197799619 0.0037543065769569946 0.0097125007010488307 -0.0064005223811030828 0.025250134285291822 0.021732364139729139 0.0097543786353241277 0.0077676825847165717 -0.022959365095742583 -0.00011613424546053346 -0.034579117277978383
leaf_weight=141.64846444129944 21.212607726454738 4.9334247112274152 37.643219232559204 9.2437299191951734 86.767088443040848 1018.1700005978346 13.317418411374094 8.9054324179887754 8.4846460372209531 6.4208021759986869 13.309582382440565 12.090867996215819 71.758178994059563 287.95290364325047 25.350322678685188 153.90601339936256 55.686364561319351 9.2421768456697446 8.8778112679719907 28.179423049092293 119.70231352746487 21.181469127535824 69.670731455087662 20.959842965006828 99.793718427419662 61.39386622607708 16.697878360748291 30.181762263178825 6.9001495391130447 5.9765600860118857
leaf_count=591 87 20 151 37 350 4086 54 36 34 26 54 49 290 1153 102 618 226 37 36 113 480 85 280 84 400 246 67 121 28 24
internal_value=0.000542419 -0.0261079 0.00319548 0.00358256 0.00122835 0.00275002 -0.00997723 -0.038087 0.00774994 0.00378908 -0.0351432 -0.0158736 -0.00811122 0.0139517 0.00393668 0.00444254 -0.00479687 0.0125571 -0.0357432 0.00295098 -0.00321685 -0.0185391 0.00654571 0.010459 0.0122818 0.00468129 0.000276109 -0.011559 0.0232204 -2.86155e-05
internal_weight=2475.56 222.478 2253.08 2215.44 1420.36 1306.42 108.99 22.2229 795.082 488.643 154.958 113.939 83.849 306.439 1197.43 1172.08 67.5199 297.195 30.0904 482.222 175.04 55.3375 307.182 237.512 229.027 129.233 108.274 46.8796 11.8336 27.158
internal_count=9965 919 9046 8895 5708 5246 440 90 3187 1960 645 462 339 1227 4806 4704 274 1190 123 1934 702 222 1232 952 918 518 434 188 48 109
is_linear=0
shrinkage=0.05


Tree=8
num_leaves=31
num_cat=0
split_feature=4 15 10 18 2 11 15 4 12 9 3 17 14 18 18 12 17 6 14 5 21 4 4 3 12 21 10 12 17 6
split_gain=63.3902 15.456 7.54796 7.13609 6.73619 6.93223 13.3126 7.55117 6.95137 7.12557 6.80793 6.19429 5.9453 5.86421 5.7091 7.60142 6.33598 5.81013 5.64714 8.25987 5.49261 5.33368 11.3695 5.98043 5.6198 5.70406 4.92961 4.80429 9.89114 7.60118
threshold=4.3909268999096048e-07 2.2184763306350784e-05 0.0001485704853138899 0.038327006991843333 0.96900008883627409 0.3729618674511988 1.2930450518464336e-05 0.0017048822155333715 0.0024313578122750054 7.2242843713463898e-05 0.001445296542716353 0.10035464029272249 7.8395283343284376e-06 0.040028163826974841 0.046917067090184499 0.0033835263196429588 0.093571802852530125 0.51817600896818916 1.7351514366615337e-07 0.56447057617186114 0.00019752698028728194 3.8789266331191101e-05 2.1378104281734809e-05 0.00013545812080227774 0.0042569299854371507 0.00019281437472915271 2.6118743774353748e-05 0.0040252194987361531 0.096811363610208798 0.5190638610809728
decision_type=2 2 2 2 2 2 2 2 2 2 2 2 2 2 2 2 2 2 2 2 2 2 2 2 2 2 2 2 2 2
left_child=1 2 3 12 5 6 8 14 9 26 -7 20 -1 -10 15 16 17 -8 19 -9 -12 22 23 24 25 -17 -2 28 -22 -30
right_child=4 -3 -4 -5 -6 10 7 18 13 -11 11 -13 -14 -15 -16 21 -18 -19 -20 -21 27 -23 -24 -25 -26 -27 -28 -29 29 -31
leaf_value=0.028913170677960693 -0.00062799336050968632 -0.00035102068359725119 0 -0.038605594926643033 -0.026953656144954791 0.04362930568703044 0.0069688400356861246 0.0067118565678123843 -0.060048901399377234 0.02874266722670249 0.011056109379802524 0.052435823848519351 -0.037388515233109682 -0.00636456591843666 0.027163855049821262 0.012001687149121703 0.0016272873476923366 0.05006906860470877 0.011995577125177426 -0.027059812252596623 0.003662184064306088 -0.012206860927015048 0.023104275547186772 -0.030440484663508977 0.0085424053211326477 -0.028414215647786935 -0.025941308866022868 0.021680008606655737 -0.0092035438240070412 -0.060536943623210097
leaf_weight=7.1513710469007474 40.760020360350609 51.223701030015945 15.7638823390007 142.39073812961578 17.403494194149971 11.729672908782957 24.393099784851074 65.801540657877922 13.315498515963556 10.096788004040716 313.26652450859547 6.3782330155372611 4.7578736543655396 10.069345638155935 18.194767877459526 10.932946890592573 541.18968863785267 12.208602607250212 287.03170257806778 23.658720672130585 408.27601879835129 180.46992509067059 39.843275174498558 22.047811433672905 53.437338247895241 27.299329489469528 39.458094045519829 29.638719275593758 37.348392799496651 8.7036759257316572
leaf_count=30 164 207 64 598 70 47 98 264 55 41 1254 26 20 41 73 44 2174 49 1150 95 1637 725 160 89 215 110 161 119 150 35
internal_value=0.000513076 -0.0249491 -0.0321666 -0.0355137 0.00303505 0.00329164 0.00115912 0.00260743 -0.0151429 -0.00828791 0.00696958 0.00634986 0 -0.039167 0.000159001 -0.000381642 0.00305914 0.0229591 0.00857292 -0.00214346 0.0058846 -0.00639933 0.000298949 -0.0076052 -0.001574 -0.0162083 -0.0135531 0.00246969 0.00111672 -0.0205171
internal_weight=2474.24 221.288 170.064 154.3 2252.95 2235.55 1420.21 1306.51 113.7 90.3149 815.341 803.612 11.9092 23.3848 930.017 911.822 577.791 36.6017 376.492 89.4603 797.233 334.031 153.561 113.717 91.6696 38.2323 80.2181 483.967 454.328 46.0521
internal_count=9965 919 712 648 9046 8976 5708 5246 462 366 3268 3221 50 96 3737 3664 2321 147 1509 359 3195 1343 618 458 369 154 325 1941 1822 185
is_linear=0
shrinkage=0.05


Tree=9
num_leaves=31
num_cat=0
split_feature=4 15 8 8 15 22 18 22 22 17 16 8 17 15 17 22 15 6 9 11 16 8 6 18 4 7 7 8 4 18
split_gain=57.5801 14.304 10.1788 9.60044 10.7645 8.91711 8.80665 8.51664 7.52282 9.08632 7.20351 7.11953 6.11389 8.54784 6.05016 5.73285 5.47773 4.98657 6.29967 11.547 7.99122 7.30507 6.33765 10.9301 11.8895 7.85057 5.50353 5.41551 5.5607 5.89956
threshold=4.3909268999096048e-07 1.9006144328206664e-05 0.51875755122013223 0.5187533653629951 1.2930450518464336e-05 0.087372546458711869 0.039156595761846401 0.10398198451388717 0.4706619896842289 0.10409570226393981 0.18829969300568261 0.51875000721887343 0.099887497637330971 3.380177304684546e-05 0.095329856993097165 0.50873256572320613 1.3388415174250993e-05 0.51720082042195281 1.6900369108588442e-05 0.37208017608176397 0.090920649943723494 0.5187598537258844 0.51817619731146458 0.040491549180638707 0.00026180181609545048 0.51886855983241287 0.51886858129358038 0.51875985723755624 0.050328157361927084 0.040028163826974841
decision_type=2 2 2 2 2 2 2 2 2 2 2 2 2 2 2 2 2 2 2 2 2 2 2 2 2 2 2 2 2 2
left_child=1 2 -1 10 6 -4 -5 -7 16 12 11 -2 13 -10 -8 -16 -6 -18 20 -20 22 -22 25 -24 -25 -19 -27 -28 29 -29
right_child=3 -3 5 4 8 7 14 -9 9 -11 -12 -13 -14 -15 15 -17 17 18 19 -21 21 -23 23 24 -26 26 27 28 -30 -31
leaf_value=0.023512104399396421 0.0063545134451390888 -0.004147458198134237 -0.055801807048791577 -0.028761008991491935 0.031375059289611762 0.018185604867724432 0.016660066663152378 -0.030893451560696457 -0.022303642376977861 0.040235188693718262 0.05329004977370834 0.029060484825013212 -0.059383935270063276 0.016081038375863645 -0.0091521879255397828 0.027233012242221438 0.019735244660820311 0.0093416779137823255 -0.019172442962077069 0.0017466951894904272 -0.0048954410507604145 0.025896090445344463 0.022925361696158789 -0.04436511292153409 0.006355156474018602 -0.031558232532860477 -0.018776625457437787 0.0087001702507386435 -0.023602709235448119 -0.023660640606943333
leaf_weight=6.6051501780748358 394.44152733683586 67.373448401689529 40.106895789504051 41.894778147339821 16.94220632314682 8.3991315513849241 29.597034692764282 97.569146990776062 50.160017311573029 6.4879007488489142 8.4458569437265378 37.975443884730339 6.9487203955650321 18.660028472542763 190.93206958472729 10.214895263314245 44.636586591601372 135.12432466447353 71.921143487095833 687.68530954420567 22.949016124010086 83.090433210134506 96.220553413033485 12.676101133227347 72.323953583836555 18.424762517213821 43.098060607910156 118.40942294895649 18.702509433031082 14.698092445731161
leaf_count=27 1580 274 171 172 68 35 119 412 202 26 34 152 28 75 769 41 179 542 290 2761 92 333 386 51 290 74 173 475 75 59
internal_value=0.000487183 -0.0238531 -0.0323024 0.00288551 0.00125723 -0.0351388 -0.00785755 -0.026636 0.00289207 -0.0116585 0.00950262 0.00846871 -0.0168939 -0.0114566 -0.00384663 -0.00705518 0.00373817 0.00337411 0.00281905 -0.000223707 0.00648869 0.0190152 0.00390272 0.011459 -0.00134601 0 -0.00601215 -0.00332089 0.000997466 0.0047906
internal_weight=2472.71 220.054 152.68 2252.66 1811.8 146.075 272.639 105.968 1539.16 82.2567 440.863 432.417 75.7688 68.82 230.744 201.147 1456.9 1439.96 1395.32 759.606 635.717 106.039 529.678 181.221 85.0001 348.457 213.333 194.908 151.81 133.108
internal_count=9965 919 645 9046 7280 618 1101 447 6179 331 1766 1732 305 277 929 810 5848 5780 5601 3051 2550 425 2125 727 341 1398 856 782 609 534
is_linear=0
shrinkage=0.05


Tree=10
num_leaves=31
num_cat=0
split_feature=15 11 9 21 18 22 21 17 22 15 14 21 18 17 14 18 6 21 22 17 21 22 11 6 17 22 18 18 19 17
split_gain=25.6736 35.5602 28.4834 6.65995 6.49285 6.93315 7.16399 6.40757 6.30871 11.5218 6.26837 7.05193 8.31415 10.5825 10.3936 9.97133 14.0747 9.69399 6.2527 6.09649 5.96619 7.18725 5.93675 5.87825 8.50947 6.62562 5.80632 6.4536 5.63605 5.60815
threshold=1.8212994063810011e-05 0.37282181277327581 1.6900369108588442e-05 0.00019730791852900844 0.039256838400731228 0.091647265524091179 0.00019825064674635541 0.096475124971573525 0.32758406797168266 6.8289379787887618e-05 0.0051785652550726214 0.00020342492070970312 0.039319679568635642 0.093526499460413359 1.9270913842427437e-05 0.040028163826974841 0.51817618028597523 0.00019919206230875484 0.08302784814415573 0.095436917470269125 0.00019436021045490334 0.11700515810651664 0.39099159238627745 0.5181762740549688 0.092121573588729758 0.4706619896842289 0.041504516356568412 0.041143664907712929 0.75000000000000011 0.097368638658552234
decision_type=2 2 2 2 2 2 2 2 2 2 2 2 2 2 2 2 2 2 2 2 2 2 2 2 2 2 2 2 2 2
left_child=1 2 -1 19 5 -5 -7 18 10 23 11 12 13 14 -2 20 -17 -18 -4 -3 21 -14 -15 24 -10 26 27 -25 -20 -19
right_child=8 3 7 4 -6 6 -8 -9 9 -11 -12 -13 15 22 -16 16 17 29 28 -21 -22 -23 -24 25 -26 -27 -28 -29 -30 -31
leaf_value=0 0.0046268620722674896 0.0086707030884908051 -0.048135026492689748 -0.054741539583513833 0.00029837402234020229 -0.035980497227713765 0.031439207813799393 -0.012491864230170995 0.018650251573475732 0.037619551389863545 0.022447647807805216 -0.003536750891748576 0.027475502192112086 -0.00093145816568571257 0.03366626347770911 -0.05572189078758423 -0.010740693465106048 0.01490901903835954 -0.029314269031637388 0.056872090508543555 0.019641109821957492 -0.027263695077694151 -0.043254150751926637 0.009957559987223509 -0.017549970744308852 -0.015314185436442564 -0.015826463259254547 0.05740242700440075 0.0070305294760942653 -0.021172974052938106
leaf_weight=136.87839703261852 106.72347581386566 128.15497973561287 53.194436252117157 10.462192714214327 324.08346934616566 6.7355647981166822 6.9883518368005753 56.153275221586227 17.232240185141563 15.169706434011458 49.889593437314034 226.84542237222195 8.4717290252447146 438.49729527533054 44.146827220916748 8.7011852413415891 62.013580918312073 147.9747359007597 127.36029593646526 6.2449330687522879 247.11835835874081 14.681471720337866 7.4981310665607444 61.011033728718758 121.49606058001518 35.979586273431778 15.897696629166601 7.7135373651981345 10.07472865283489 10.194355353713034
leaf_count=552 428 513 226 42 1301 27 28 233 69 61 200 912 34 1760 177 35 249 594 534 25 991 59 30 245 488 145 64 31 42 41
internal_value=3.17414e-05 -0.00692151 -0.0182693 0.00206599 -0.00152502 -0.0259921 -0.000148195 -0.0283818 0.00370577 -0.00314902 0.00509596 0.00440623 0.00607472 0.00203456 0.0134546 0.010842 0.00300879 0.00568417 -0.0328424 0.0114985 0.017348 -0.00589132 -0.0017941 -0.00576519 -0.0127731 0.00212919 0.00992996 0.0163882 -0.0264379 0.012308
internal_weight=2513.59 866.331 383.661 482.669 348.27 24.1861 13.7239 246.783 1647.26 274.5 1372.76 1322.87 1096.02 596.866 150.87 499.155 228.884 220.183 190.629 134.4 270.272 23.1532 445.995 259.33 138.728 120.602 84.6223 68.7246 137.435 158.169
internal_count=10136 3523 1587 1936 1398 97 55 1035 6613 1103 5510 5310 4398 2395 605 2003 919 884 802 538 1084 93 1790 1042 557 485 340 276 576 635
is_linear=0
shrinkage=0.05


Tree=11
num_leaves=31
num_cat=0
split_feature=4 15 17 15 7 4 16 16 18 21 16 16 16 21 18 15 4 2 18 21 6 15 15 8 2 18 18 22 6 15
split_gain=50.6613 16.7829 8.83196 6.94473 6.36078 11.8969 10.3863 9.04249 7.96753 8.0769 7.45711 6.57967 6.54622 6.9453 6.18071 6.04746 7.33151 7.00765 5.95752 8.30329 6.55018 5.68774 6.77917 8.47938 6.29974 5.561 6.65111 5.423 6.04612 4.93586
threshold=1.5360664874252242e-07 2.2184763306350784e-05 0.098172900520260467 1.1229234505193439e-05 0.51884573055384486 6.3105047241623768e-06 0.20715481523866916 0.0053697617257685475 0.039312033042043192 0.00020310605590466007 0.005034536246637372 0.048993575496664485 0.14789091306845414 0.00020386436378392369 0.040028163826974841 2.7905838271527694e-05 1.0613360443559411e-05 8.9984842734820808e-05 0.038836189888704027 0.00019779723583964674 0.51820847859621966 2.2329175012918274e-05 1.8387389388304338e-05 0.51875989614179885 0.0013038666783262063 0.039905515231137327 0.039664868741551215 0.52004362218707179 0.51817618028597523 1.4183986159565115e-05
decision_type=2 2 2 2 2 2 2 2 2 2 2 2 2 2 2 2 2 2 2 2 2 2 2 2 2 2 2 2 2 2
left_child=1 -1 -3 18 7 11 8 -5 9 15 -10 -6 13 -9 25 16 17 -7 -2 -20 -21 22 29 24 -24 26 -12 28 -16 -18
right_child=3 2 -4 4 5 6 -8 12 10 -11 14 -13 -14 -15 27 -17 21 -19 19 20 -22 -23 23 -25 -26 -27 -28 -29 -30 -31
leaf_value=-0.033277678004119397 -0.030630993825111797 0.015825332244145087 -0.040970453223959008 0.051864799127246689 -0.0083590049470525698 0.06908020737040399 -0.017712619972839721 0.0079276829112181774 -0.012885919855664299 0.054830275024063582 0.016785112170979728 -0.055546223131914034 0.045851721002774966 -0.031429494944321956 -0.032210579359697303 0.0031620429699734417 0.0060605133616593934 -0.0049119182555099764 0.0071921940728752647 -0.016790104440359204 0.001125412442039279 -0.019186436458005066 -0.016747891759713394 0.029819985486281776 0.038896941697294171 0.026604015497552782 0.0016745475786267873 -0.018228984545049974 0.0064104333054593871 -0.022441310488361052
leaf_weight=142.29197238385677 19.658805772662163 30.975675866007805 7.6278952211141577 11.487089827656744 153.71932344138622 4.9585644453763944 55.113576263189316 277.8756058216095 43.072674781084061 5.4733313620090476 163.64663369953632 7.0841889232397071 10.169848695397375 10.48502768576145 9.182419687509535 311.15836425125599 19.980523899197578 5.4279998242855072 126.11198590695858 115.68624034523964 86.06161530315876 90.220510736107826 28.631815612316132 26.934829518198967 4.9971934109926215 63.600392043590546 138.19390167295933 23.830019682645798 471.61760039627552 46.780195295810699
leaf_count=612 82 125 31 46 622 20 222 1113 173 22 656 29 41 42 37 1248 81 22 507 468 346 362 115 108 20 255 554 96 1893 188
internal_value=2.82464e-05 -0.0253766 0.00322034 0.00202039 0.00317017 0.00192998 0.00331897 0.00975722 0.00414288 -0.00060165 0.00699725 -0.0109228 0.00788576 0.00630656 0.00802392 -0.00131121 -0.00751417 0.0311811 -0.00446111 -0.00272754 -0.00905654 -0.00961026 -0.00253326 0.00925898 -0.00687279 0.0130044 0.00997786 0.00434918 0.00555563 -0.0135786
internal_weight=2512.06 180.896 38.6036 2331.16 1983.64 1673.62 1512.82 310.018 1457.71 544.563 913.144 160.804 298.53 288.361 870.071 539.09 227.932 10.3866 347.519 327.86 201.748 217.545 127.325 60.5638 33.629 365.441 301.841 504.63 480.8 66.7607
internal_count=10136 768 156 9368 7965 6723 6072 1242 5850 2186 3664 651 1196 1155 3491 2164 916 42 1403 1321 814 874 512 243 135 1465 1210 2026 1930 269
is_linear=0
shrinkage=0.05


Tree=12
num_leaves=31
num_cat=0
split_feature=16 7 16 16 16 9 14 2 16 16 8 21 18 16 12 17 7 7 12 1 17 12 18 8 21 3 16 16 22 22
split_gain=42.277 6.26873 7.94802 7.8003 6.83644 6.82598 21.1107 7.98542 10.3097 10.3522 6.27424 6.06135 5.80587 5.49237 5.42117 6.92529 6.39571 5.39562 7.07793 6.90211 6.7286 7.94413 7.98939 6.25502 6.19988 5.40109 5.35109 6.25961 6.51792 6.79409
threshold=1.0000000180025095e-35 0.51884573055384486 0.0053697617257685475 0.20715481523866916 0.14789091306845414 1.6423724530374731e-05 6.7108706742516049e-06 1.7667930171304248e-05 0.064079903756823445 0.053455540298431116 0.51875915041698217 0.00020526077107206039 0.039145176782255854 0.0092380293943839318 0.0042158398514357785 0.098256593265357475 0.51886882635799303 0.51887587656291123 0.0020729327529144834 0.00010467652455370487 0.09245679741408297 0.003058075752228983 0.04009580873266446 0.5187812512447324 0.00020227593386386308 0.0012099540186171068 0.13938646873456442 0.064079903756823445 0.31867043591349559 0.36189556122170158
decision_type=2 2 2 2 2 2 2 2 2 2 2 2 2 2 2 2 2 2 2 2 2 2 2 2 2 2 2 2 2 2
left_child=14 2 -2 5 11 7 10 -3 9 13 12 -4 -7 -9 -1 16 -16 19 24 -8 -21 23 -23 25 -19 -22 27 28 -20 -30
right_child=1 3 4 -5 -6 6 17 8 -10 -11 -12 -13 -14 -15 15 -17 -18 18 26 20 21 22 -24 -25 -26 -27 -28 -29 29 -31
leaf_value=-0.02906314928286325 0.043322181670524346 0.0030299202334770864 0.0055725289286540523 -0.01510955639474699 0.041689056164969672 -0.02268981369551815 0.003482979295388293 -0.021870423103832554 0.048100643686987334 -0.041719415309405192 -0.021745705260727156 -0.041989425144328851 0.039962754173804557 0.021670492112725141 -0.0081631207670456365 -0.044740048002901101 0.054250767991887751 0.0019595633056430288 0.020865746126874984 0.037040731194268928 -0.011068864556705573 -0.036250437830707298 -0.00097444203007121663 -0.033988786311886017 -0.031498413345817482 0.0063394072161748749 0.054111721144964056 -0.0064588500285831605 -0.031736506141769483 0.012017213175663075
leaf_weight=132.22395354509354 14.223727270960806 579.06274227797985 340.27634663879871 75.188492447137833 12.143331646919249 5.1204523295164091 273.39094592630863 6.9588782936334601 22.218550369143486 7.7251604050397864 136.78266601264477 5.73636370897293 7.5802299529314041 54.12808832526207 8.4874147325754183 5.3361557871103278 5.7911643832921973 329.90203419327736 117.60484385490417 6.9780072867870322 75.879300981760025 44.132580995559692 27.312904238700867 14.6953137665987 13.425298422574995 104.11215099692345 6.735634744167327 40.377508506178856 12.471553206443785 24.392891630530357
leaf_count=571 57 2324 1363 305 49 21 1098 28 89 31 560 23 31 217 35 22 24 1323 472 28 308 179 111 59 54 417 27 162 50 98
internal_value=2.66059e-05 0.00168728 0.00763666 0.000555991 0.00603317 0.00119301 -0.000986336 0.00526149 0.0189981 0.00868875 -0.0185546 0.00459325 0.0130663 0.0160354 -0.0254478 0 0.0174086 0.00141178 0.0049418 -0.00206491 -0.00770214 -0.00910316 -0.0233095 -0.00366955 0.000490956 -0.000881908 0.0123591 0.0105191 0.0151309 -0.00257202
internal_weight=2510.39 2358.56 372.38 1986.18 358.156 1910.99 1240.89 670.093 91.0307 68.8121 149.483 346.013 12.7007 61.087 151.839 19.6147 14.2786 1091.41 544.91 546.501 273.11 266.132 71.4455 194.687 343.327 179.991 201.582 194.847 154.469 36.8644
internal_count=10136 9484 1492 7992 1435 7687 4998 2689 365 276 612 1386 52 245 652 81 59 4386 2186 2200 1102 1074 290 784 1377 725 809 782 620 148
is_linear=0
shrinkage=0.05


Tree=13
num_leaves=31
num_cat=0
split_feature=4 15 17 15 6 4 4 4 18 18 22 7 15 21 17 6 15 17 14 21 17 22 6 21 5 2 6 9 7 18
split_gain=42.2112 15.0021 7.93536 6.04113 5.80809 8.86898 7.30344 6.3055 7.10289 16.2794 7.56239 7.94341 6.68792 6.3844 10.589 6.1065 5.50797 5.46158 8.26508 5.66668 10.0559 7.85543 7.99302 6.99364 5.37315 5.2096 7.10279 6.9886 8.4146 5.16262
threshold=1.5360664874252242e-07 2.2184763306350784e-05 0.098172900520260467 1.1229234505193439e-05 0.51783782303122006 6.3105047241623768e-06 3.2738932868336368e-06 1.1518982800602907e-05 0.039434360879090476 0.039657140782373583 0.52004362218707179 0.51886864459673121 6.8289379787887618e-05 0.00019875808830259483 0.095763830470030342 0.51817620827859434 4.8571755804711954e-05 0.092671336949656749 1.9747931419516536e-05 0.0001933083431254135 0.093724057599912453 0.2983870000151963 0.51817613059928258 0.00018916591869500571 0.31586036478808666 0.0011124521797901325 0.51811020326145041 1.6423724530374731e-05 0.51886853772592689 0.038836189888704027
decision_type=2 2 2 2 2 2 2 2 2 2 2 2 2 2 2 2 2 2 2 2 2 2 2 2 2 2 2 2 2 2
left_child=1 -1 -3 29 6 -6 -5 -7 13 16 11 -11 -12 17 -15 -16 -10 18 -9 20 21 23 24 -19 -23 27 -27 28 -22 -2
right_child=3 2 -4 4 5 7 -8 8 9 10 12 -13 -14 14 15 -17 -18 19 -20 -21 25 22 -24 -25 -26 26 -28 -29 -30 -31
leaf_value=-0.030904206368597222 -0.028709915566996886 0.015571201809095082 -0.03839460663306813 0.043834571069857463 -0.0084755786429672655 0.013258043520571123 0.0081714705554306877 0.0039621269643263235 0.025856051689362392 -0.018318588396672372 -0.030436590662174131 0.00515719747133183 0.025620751017042934 -0.029783720146854015 -0.0052928242449156587 0.038953171186926205 -0.015598172666718977 -0.014131899818554727 0.04417089908705011 0.0022356301494178958 0.016255182327940289 0.00010847323962836879 0.029165042793811519 0.019396369522236518 -0.048520211733805746 -0.036741373682806104 0.018674213927717658 -0.058764882045416883 -0.033724467380647674 -0.0026009533942848218
leaf_weight=140.01150946319103 19.465050682425499 30.983733087778091 7.5554242730140677 16.235846042633057 174.95869313180447 145.13288259506226 114.43625098466873 63.133012354373932 107.55529686808586 36.847031876444817 27.735056132078171 632.54524882137775 5.2428321540355673 47.372836425900459 36.145710408687592 8.7315319031476957 7.2320366501808158 19.919122770428658 15.722814857959746 367.96765878796577 11.218847483396528 6.9804482758045259 5.2280000299215308 54.5195572078228 16.136842325329781 8.2470155358314532 14.23570069670677 15.821113765239714 23.892786264419556 327.58648116886616
leaf_count=612 82 125 31 65 709 583 459 253 431 148 112 2538 21 190 145 35 29 80 63 1476 45 28 21 219 65 33 57 64 96 1321
internal_value=2.35987e-05 -0.0233266 0.00365569 0.00183273 0.00290532 0.00216664 0.0130917 0.00329583 0.002328 0.00551577 0.00260796 0.00380227 -0.0202971 -0.00128155 -0.0134933 0.00343238 0.0229162 0.000505291 0.012745 -0.00124265 -0.00861926 0.00127451 -0.0204114 0.0100247 -0.0334041 -0.0226378 -0.00128747 -0.0313746 -0.0170548 -0.00421543
internal_weight=2508.8 178.551 38.5392 2330.25 1983.19 1852.52 130.672 1677.56 1532.43 817.158 702.37 669.392 32.9779 715.273 92.2501 44.8772 114.787 623.023 78.8558 544.167 176.199 102.784 28.3453 74.4387 23.1173 73.4155 22.4827 50.9327 35.1116 347.052
internal_count=10136 768 156 9368 7965 7441 524 6732 6149 3279 2819 2686 133 2870 370 180 460 2500 316 2184 708 413 114 299 93 295 90 205 141 1403
is_linear=0
shrinkage=0.05


Tree=14
num_leaves=31
num_cat=0
split_feature=16 15 15 12 22 15 18 14 11 1 6 22 21 21 17 17 15 15 16 22 8 12 8 6 15 22 21 17 16 8
split_gain=35.1054 9.7624 7.30594 9.74139 12.8584 10.6469 11.5656 10.2445 9.61377 14.2656 8.26544 7.97263 7.86665 7.71474 10.9548 9.85126 7.71148 8.78056 7.78771 7.51454 7.68849 7.41931 6.43087 6.32161 5.79493 8.86966 12.6278 6.68129 6.50447 8.15444
threshold=1.0000000180025095e-35 2.2184763306350784e-05 1.8212994063810011e-05 0.0028903350205722743 0.32758406797168266 4.4389294525247647e-05 0.040028163826974841 0.0048995951541856994 0.37282181277327581 2.4730713495760858e-05 0.51817618028597523 0.069560501192036647 0.00018630288786094287 0.0001991458692405764 0.096219375829916728 0.093724057599912453 2.2596969149039519e-05 2.6510686908116134e-05 0.012105699394466176 0.23587340218037076 0.51875980278980582 0.0027816639374970398 0.51876098682997218 0.51817626129156247 1.96205481822062e-05 0.14795188860492994 0.00019504909742233667 0.093806006066523853 0.033542159646274862 0.51876001421911222
decision_type=2 2 2 2 2 2 2 2 2 2 2 2 2 2 2 2 2 2 2 2 2 2 2 2 2 2 2 2 2 2
left_child=1 -1 8 4 5 6 21 11 9 -2 -8 -5 -13 15 22 19 18 -18 -12 20 -14 24 -15 -6 -4 26 27 -26 -28 -30
right_child=2 -3 3 7 23 -7 10 -9 -10 -11 16 12 13 14 -16 -17 17 -19 -20 -21 -22 -23 -24 -25 25 -27 28 -29 29 -31
leaf_value=-0.029585133087178656 0.0022384104758655394 0.0018879257848138282 0.026027304887254341 0.014496260046232523 -0.02062942949879211 0.03829438209835636 -0.05477576427318908 0.024883579660259406 0.0016684315515554803 -0.020606104104369603 0.018664167700944916 0.019478009410520563 0.02688266956226203 0.032568146393405113 -0.0032462269722548561 -0.017705501247316253 0.025652946095098685 -0.0032316397062623924 -0.031163746787338999 -0.012255142319897735 -0.0059645674564288639 0.037133638289863803 -0.0072005943596161071 0.0038244046364655001 -0.0084102882352684091 0.015196721376784184 -0.014803174009383949 0.037183920473195679 0.01945396565994531 -0.0097778585171190077
leaf_weight=120.76726214587688 123.88054811954498 28.907782480120659 53.350807622075081 66.299356609582901 55.016222342848778 30.454820901155472 6.4229634553194037 36.60063847899437 482.08108350634575 146.22026838362217 8.9317710995674116 33.929939821362495 36.882645279169083 36.630845949053764 279.26622496545315 185.87966020405293 36.913859695196152 81.79196834564209 31.41521380841732 62.159553661942482 31.179818019270897 27.41266542673111 12.205491989850996 46.815484657883644 9.2315805703401548 229.61099198460579 83.577392548322678 30.696638941764832 44.943554997444153 47.640611961483955
leaf_count=535 498 117 214 266 221 122 26 147 1934 609 36 136 148 147 1123 747 148 328 126 250 125 110 49 188 37 920 335 123 180 191
internal_value=1.99849e-05 -0.0233684 0.0015248 0.0034361 0.00722637 0.00958827 0.00823529 -0.000535929 -0.00252013 -0.0100667 -0.00316179 -0.00185094 -0.00350497 -0.00478253 0.000518597 -0.010348 -0.000592073 0.005681 -0.0193439 1.84315e-05 0.0116047 0.0118642 0.0221822 -0.00921619 0.0103547 0.00836859 0.000961465 0.0260836 -0.00470661 0.00420139
internal_weight=2507.12 149.675 2357.44 1605.26 824.227 722.395 691.94 781.034 752.182 270.101 165.476 744.434 678.134 644.204 328.103 316.102 159.053 118.706 40.347 130.222 68.0625 526.464 48.8363 101.832 499.052 445.701 216.09 39.9282 176.162 92.5842
internal_count=10136 652 9484 6443 3305 2896 2774 3138 3041 1107 664 2991 2725 2589 1319 1270 638 476 162 523 273 2110 196 409 2000 1786 866 160 706 371
is_linear=0
shrinkage=0.05


Tree=15
num_leaves=31
num_cat=0
split_feature=16 17 12 17 21 17 21 14 1 8 7 22 22 12 22 12 17 12 8 11 14 9 6 8 17 22 22 22 1 12
split_gain=47.3728 13.8786 13.3205 10.6452 9.20257 9.03821 8.92599 11.5912 16.1902 9.26503 6.67321 7.82765 6.61382 6.50253 10.1005 7.66791 6.23802 6.16841 7.6581 6.08655 6.01504 5.90052 5.78917 5.31784 4.98014 4.95838 5.94941 13.2991 6.82514 7.19352
threshold=0.00029486071953693593 0.096703636969334983 0.0037851339357033542 0.092671336949656749 0.00020386436378392369 0.10035464029272249 0.00020134079236848584 3.1332644005965639e-05 0.00010467652455370487 0.51876002683869171 0.51886802239646734 0.17752926266953453 0.047506564096498012 0.003631644806024644 0.21089232682983275 0.0042569299854371507 0.095798853002583242 0.0042918780852037987 0.51876007079123776 0.37215780380368485 1.6210079450009354e-07 4.179219921553389e-05 0.51817327870620378 0.51875988520613714 0.096941666790977307 0.20955023605662179 0.4706619896842289 0.38686366748540169 1.6494201849872711e-05 0.0030003130197037617
decision_type=2 2 2 2 2 2 2 2 2 2 2 2 2 2 2 2 2 2 2 2 2 2 2 2 2 2 2 2 2 2
left_child=17 3 5 4 19 25 7 8 9 13 11 12 -11 16 15 -15 -5 -1 -19 -2 -8 -16 -10 -18 -4 -3 27 28 -27 -30
right_child=1 2 24 6 -6 -7 20 -9 22 10 -12 -13 -14 14 21 -17 23 18 -20 -21 -22 -23 -24 -25 -26 26 -28 -29 29 -31
leaf_value=-0.029117816770138499 0.013816552926055773 -0.025585741014610287 0.028562341771743723 0.0063373660490851184 -0.025674091776514987 0.036938399929295124 -0.026873819814181056 0.0049882809539704169 0.0095712198517670464 -0.032549879800198758 -0.029734099832001089 -0.040343491002553966 0.019518483428518935 -0.018732909477956774 -0.041926737506550613 0.013349350490767556 -0.022274353394576892 0.02121537891095384 -0.027331161492327224 0.040864238684949525 0.015766379902545216 0.0022523407876756155 -0.032972116826714463 0.00089039484826444011 0 0.011624651160986176 -0.032097049203778712 0.029651585981031094 -0.0095788470668782683 -0.048578627817447595
leaf_weight=153.62132677435875 95.695079490542412 97.912834316492081 15.682200014591215 391.23537811636925 10.47218109667301 6.8310212343931189 7.4517473876476279 830.86066828668118 7.8279201835393897 6.4605786949396125 44.581953048706055 9.4600692540407163 28.740448862314224 29.747958913445473 27.95176537334919 46.077493950724602 37.096146821975708 14.499075561761858 15.755364030599592 28.762664005160332 148.76007251441479 8.682069003581999 56.562272697687149 65.210879638791084 185.14172798395157 17.923527583479881 23.408504962921143 21.369059696793556 40.882886275649071 17.562091052532196
leaf_count=675 384 395 63 1577 42 28 30 3329 32 26 180 38 116 120 113 185 149 60 65 116 598 35 235 262 745 72 95 86 165 71
internal_value=-0.000690913 0.00124873 -0.00686421 0.00310451 0.0166092 -0.0151818 0.00203809 0.000897236 -0.00354521 -0.00126845 -0.0162305 -0.00184727 0.00863643 0.00091686 -0.0098237 0.000357372 0.00342969 -0.0250512 -0.00333152 0.0205425 0.0134153 -0.0310105 -0.0273505 -0.00740137 0.00239649 -0.0170811 -0.00984963 -0.00399699 -0.0139971 -0.0223385
internal_weight=2492.23 2308.35 426.714 1881.64 134.93 225.89 1746.71 1590.5 759.635 695.245 89.243 44.6611 35.201 606.002 112.459 75.8255 493.542 183.876 30.2544 124.458 156.212 36.6338 64.3902 102.307 200.824 219.059 121.146 97.7376 76.3685 58.445
internal_count=10087 9287 1720 7567 542 912 7025 6397 3068 2801 360 180 142 2441 453 305 1988 800 125 500 628 148 267 411 808 884 489 394 308 236
is_linear=0
shrinkage=0.05


Tree=16
num_leaves=31
num_cat=0
split_feature=16 17 17 21 21 14 3 3 21 10 16 4 16 2 16 21 22 18 16 16 18 6 22 18 0 11 14 4 22 21
split_gain=43.0916 12.5174 9.63562 8.37988 8.04168 10.494 14.2964 9.11804 8.80919 7.88165 6.9909 6.57809 13.7854 9.27347 6.56973 6.46328 10.6388 6.73087 6.61177 8.83368 6.60035 6.66816 6.43578 5.95281 6.64678 5.53694 5.48493 5.42919 5.40377 8.92686
threshold=0.00029486071953693593 0.096703636969334983 0.092671336949656749 0.00020386436378392369 0.00020134079236848584 3.1332644005965639e-05 2.438142030484698e-05 1.7719629672882514e-05 0.00020023535057798073 0.00010646043253424431 0.20715481523866916 0.00034008006746565712 0.061226939499529391 0.0011980839061264713 0.13548830078888682 0.00019756034236631349 0.17222288927513793 0.03828565460949996 0.013546189142357926 0.0089418776095162456 0.038084298788562225 0.51813403614141373 0.18408993006948454 0.037933273046265932 0.00015092395643064144 0.37215780380368485 1.6210079450009354e-07 0.00092725360912463924 0.21680246435248698 0.00020435481201059024
decision_type=2 2 2 2 2 2 2 2 2 2 2 2 2 2 2 2 2 2 2 2 2 2 2 2 2 2 2 2 2 2
left_child=23 2 3 25 5 6 7 -4 9 10 14 15 13 -13 -8 16 17 20 19 -17 21 -7 -20 -1 -25 -2 -6 -28 -3 -30
right_child=1 28 4 -5 26 11 8 -9 -10 -11 -12 12 -14 -15 -16 18 -18 -19 22 -21 -22 -23 -24 24 -26 -27 27 -29 29 -31
leaf_value=0.010450962371321589 0.013132374739107656 -0.012255203318581841 -3.1670711638505645e-05 -0.024523070648058767 -0.025732907959887613 0.048240930809344135 -0.0047988284075283693 0.023499004659571745 -0.039485205083432451 -0.025404647996629878 -0.044929790144322551 0.011704427204471943 0.017283402131575989 -0.039997413401734988 0.031389761089874013 0 0.0025635444386448111 0.023844887230852763 -0.0066554642983101256 0.036802847696355626 -0.040091743540481534 -0.017982477159686931 0.0072226160842503613 -0.028566791928327995 0.012949524558697377 0.038989964958690011 0.010131210048480672 0.035755529696914368 -0.014641545066507198 0.006450791119619991
leaf_weight=10.286285206675528 95.698593825101852 208.97221975028515 402.28943055868149 10.462690785527228 7.4377178251743308 6.4924335479736346 207.8887909501791 44.600723937153816 25.517516732215881 57.322313264012337 9.3237997442483884 10.232756391167639 27.216062217950821 32.96229587495327 12.236250236630438 36.419159114360809 183.6115570217371 148.36831392347813 204.3447018712759 28.200804322957993 7.7467772513627997 6.2313597053289413 139.1136561781168 163.4511189609766 8.8339464962482435 28.687965363264084 122.88833558559418 25.953361764550209 76.291450753808022 141.09917971491814
leaf_count=43 384 843 1615 42 30 26 842 179 104 239 39 41 109 132 50 146 735 594 819 113 31 25 558 720 37 116 494 104 308 569
internal_value=-0.000660782 0.00118314 0.00294578 0.0157992 0.00193051 0.000846337 -0.0033817 0.00230815 -0.0115851 -0.00888707 -0.00455973 0.0047387 -0.00965202 -0.0271961 -0.00254127 0.00611478 0.0110784 0.0201214 0.00175007 0.0163151 -0.00555502 0.0150399 -0.000957089 -0.0239827 -0.0262313 0.0195588 0.0127273 0.0149749 -0.00652435 -0.000870065
internal_weight=2490.18 2307.61 1881.25 134.849 1746.4 1590.12 759.179 446.89 312.289 286.771 229.449 830.94 70.4111 43.1951 220.125 760.529 352.45 168.839 408.078 64.62 20.4706 12.7238 343.458 182.571 172.285 124.387 156.279 148.842 426.363 217.391
internal_count=10087 9287 7567 542 7025 6397 3068 1794 1274 1170 931 3329 282 173 892 3047 1411 676 1636 259 82 51 1377 800 757 500 628 598 1720 877
is_linear=0
shrinkage=0.05


Tree=17
num_leaves=31
num_cat=0
split_feature=16 15 17 15 17 15 17 14 3 3 15 5 17 15 6 1 18 6 18 15 9 8 16 4 5 5 17 6 8 18
split_gain=39.1381 12.1762 11.3239 9.48586 9.04378 8.5079 9.54322 5.9561 11.0547 10.2733 9.09867 7.59004 6.57934 5.50707 5.63281 5.72588 4.95876 7.03949 5.28828 4.94837 5.82612 4.8973 4.81417 6.11709 5.13114 9.26854 6.87453 6.50097 5.5677 5.74459
threshold=0.00029486071953693593 2.3276273071578623e-05 0.097031711788877054 4.2846311033146209e-05 0.092671336949656749 2.0841257444910915e-05 0.10035464029272249 3.1332644005965639e-05 2.438142030484698e-05 1.7719629672882514e-05 1.7793619469292855e-05 0.63166634042925407 0.096436440551529584 2.9384563726092477e-05 0.51861577745690413 0.001186093461468125 0.038192242379786932 0.51817632770662281 0.039957030919719298 2.1247888154789824e-05 7.1044198037754021e-05 0.5187598537258844 0.090920649943723494 0.026618263729478484 0.56304966342309071 0.51966821196452073 0.095388812451951813 0.51817619053500585 0.51875989349136653 0.04067080206830772
decision_type=2 2 2 2 2 2 2 2 2 2 2 2 2 2 2 2 2 2 2 2 2 2 2 2 2 2 2 2 2 2
left_child=1 16 4 -3 -2 6 -4 8 9 21 12 19 -10 -9 15 -15 -1 -18 -19 20 -12 -6 23 24 25 26 -23 -26 29 -29
right_child=2 3 5 -5 7 -7 -8 13 10 -11 11 -13 -14 14 -16 -17 17 18 -20 -21 -22 22 -24 -25 27 -27 -28 28 -30 -31
leaf_value=0.0043677230637064251 0.015032225166443085 0.012248833552164839 -0.03239334937982357 -0.044968284772778401 -0.0083750572154291988 -0.0035599688806255366 0.025421042965443699 0.006304099902409677 -0.025750787693171118 0.02318427030787518 0.038993216252342859 0.042224396238487075 0.0067083008684666644 0.017163968909492868 0.030584699729218165 -0.0094596656796747114 -0.0425084833545612 0.00027660692236733143 -0.030125537274381858 -0.006344940722489637 -0.015482882611722322 0.0078190433120258716 0.016924738353099118 -0.018484988662163079 -0.030763117941052825 0.026315082331831115 -0.015844326824856612 -0.051684552971882652 0.01277092876831231 0.010539304244866715
leaf_weight=8.3169983029365522 134.73904654383659 34.29710565507412 51.28432309627533 8.1085825562477094 107.02365563809872 266.49250145256519 7.0165622830390921 756.32597185671329 87.880318507552147 57.59403894841671 12.343038663268091 7.9483370035886756 17.103428453207016 21.9236970692873 10.242865830659865 146.08879470825195 76.069218844175339 22.294144809246063 32.191873788833618 252.01639260351658 6.2727442830801001 115.8568245023489 57.301273003220558 33.863974720239639 20.613132134079933 49.610087379813194 40.377794355154037 7.2329732328653318 34.398397892713547 5.2344028055667877
leaf_count=37 542 139 210 33 430 1072 29 3031 371 231 50 32 71 88 41 585 345 101 145 1015 26 465 230 136 83 199 162 29 138 21
internal_value=-0.000627333 -0.0229382 0.00112431 0 0.00255261 -0.00749598 -0.0247024 0.00162117 -0.00123002 0.00342066 -0.0077026 -0.00284301 -0.0202134 0.00443058 -0.00336999 -0.00575667 -0.0300552 -0.0324546 -0.0174545 -0.00440923 0.019509 0.000909722 0.00371984 0.00112862 0.00370834 0.00768651 0.00148253 -0.00799703 0.00192746 -0.0248609
internal_weight=2488.06 181.278 2306.78 42.4057 1981.99 324.793 58.3009 1847.25 912.671 529.107 383.564 278.581 104.984 934.581 178.255 168.012 138.872 130.555 54.486 270.632 18.6158 471.513 364.489 307.188 273.324 205.845 156.235 67.4789 46.8658 12.4674
internal_count=10087 800 9287 172 7976 1311 239 7434 3689 2124 1565 1123 442 3745 714 673 628 591 246 1091 76 1893 1463 1233 1097 826 627 271 188 50
is_linear=0
shrinkage=0.05


Tree=18
num_leaves=31
num_cat=0
split_feature=14 10 15 21 11 14 9 8 12 12 15 6 10 9 8 6 6 15 3 7 6 8 12 1 14 15 9 15 6 12
split_gain=16.2802 33.8687 21.6581 8.69797 7.33681 6.67774 6.14364 5.45631 5.24256 6.77156 4.65475 5.56036 5.58881 5.16885 4.50797 4.49798 6.64933 9.3431 7.36604 5.59129 4.9875 4.21645 3.95054 3.8282 3.6191 5.45295 4.96607 3.50352 3.41845 4.91425
threshold=1.9747931419516536e-05 2.6118743774353748e-05 1.9462205744357418e-05 0.00019756034236631349 0.37214362696607833 2.5476401430095153e-05 4.77741450323619e-05 0.51875952785455037 0.0021561511061103729 0.0063186689774449951 3.0463857210455047e-05 0.51817838309057385 3.1592726551850094e-05 5.8613911305930697e-05 0.51876005675406389 0.51816786117216573 0.51817573303355291 2.7742289315087441e-05 8.0982193738446013e-05 0.5188512697647214 0.51817653278410847 0.51876317224704216 0.0052211701421934929 5.4614794984415763e-05 0.043173867087319448 1.0658613069578284e-05 0.55606851287175474 2.2596969149039519e-05 0.51646649492239149 0.0034108086023968121
decision_type=2 2 2 2 2 2 2 2 2 2 2 2 2 2 2 2 2 2 2 2 2 2 2 2 2 2 2 2 2 2
left_child=1 7 22 15 6 -6 -5 -1 -4 10 11 12 -10 -12 -11 19 17 -17 -19 24 -18 -8 -3 -16 26 -26 -2 -14 29 -7
right_child=3 2 8 4 5 28 21 -9 9 14 13 -13 27 -15 23 16 20 18 -20 -21 -22 -23 -24 -25 25 -27 -28 -29 -30 -31
leaf_value=0.03418547326480436 0.0069490987060454494 -0.025861405731533678 0.008864725291047924 0.01283768171289734 0.037544706838745029 0.026107018963082752 -0.040344577618265549 0.0018712675071481987 0 0.029214683207179189 -0.0085490433171965443 0.003922069888540004 -0.015030092118377223 0.026826357014164016 -0.027824718327976811 0.053164895230224676 -0.025791499149994093 0.043307944673132842 -5.0258824332224604e-05 -0.0080243252309982107 0.010775667913684577 0 0.014815444814165064 0.013839538352003812 0.049406439365913671 0.010913356959600143 -0.027736940702299869 -0.047535596498307721 -7.6553421836800744e-05 -0.022085570988361058
leaf_weight=12.428574874997137 181.10703608393669 239.7768312394619 54.242283046245575 9.7187927514314634 11.591213315725325 25.569440260529522 24.253512933850288 733.24417212605476 14.167597204446791 17.456980526447296 137.06096987426281 15.210495948791502 16.961387053132057 9.9184996932744962 8.8616535514593142 23.214453801512718 9.1816209107637388 12.681445375084875 30.521703809499741 61.179634094238281 85.085121914744377 9.6455463767051679 4.7242068201303473 10.905688583850859 11.494650229811667 50.86654731631279 9.7303118854761106 28.866495102643967 620.8308497518301 5.2342582941055289
leaf_count=50 726 1056 218 39 47 103 98 2950 58 70 551 62 71 40 36 93 37 51 123 245 341 39 20 44 46 204 39 117 2492 21
internal_value=-0.000596181 -0.00445579 -0.0137656 0.0036406 8.60535e-05 0.00143941 -0.0195029 0.00248841 -0.00494209 -0.00794803 -0.0113105 -0.0214805 -0.0282894 -0.00582774 0.0112386 0.00886559 0.0157301 0.0278605 0.012803 0.00523898 0.00671825 -0.0295935 -0.0249165 -0.00407508 0.00856106 0.0190709 0.00491486 -0.0366167 0.00070232 0.016695
internal_weight=2485.73 1303.83 558.153 1181.91 706.844 663.226 43.6179 745.673 313.652 259.41 222.185 75.206 59.9955 146.979 37.2243 475.063 160.684 66.4176 43.2031 314.378 94.2667 33.8991 244.501 19.7673 253.199 62.3612 190.837 45.8279 651.635 30.8037
internal_count=10087 5343 2343 4744 2839 2663 176 3000 1267 1049 899 308 246 591 150 1905 645 267 174 1260 378 137 1076 80 1015 250 765 188 2616 124
is_linear=0
shrinkage=0.05


Tree=19
num_leaves=31
num_cat=0
split_feature=16 15 17 12 15 18 17 18 22 22 16 17 16 14 3 5 15 3 5 12 18 2 17 18 16 18 11 15 16 16
split_gain=33.3583 10.5366 10.0933 11.4067 8.55367 7.9721 7.65752 6.8842 6.66019 5.96098 5.8049 6.51966 8.10811 5.62699 10.4246 9.60823 9.00937 7.18467 6.68556 9.85579 8.5646 9.59033 7.45704 6.96827 6.23553 5.4237 5.36404 5.29157 5.10275 4.8369
threshold=0.00029486071953693593 2.3276273071578623e-05 0.096703636969334983 0.0037851339357033542 4.2846311033146209e-05 0.052913445675785147 0.092671336949656749 0.039882097682791114 0.1791281713148685 0.59558480509345679 0.022409844312766557 0.097031711788877054 0.040057818776532854 3.1332644005965639e-05 2.438142030484698e-05 0.61487544231289804 1.7793619469292855e-05 1.7719629672882514e-05 0.56565170275427834 0.0025935355827802161 0.039325455699879656 5.5748501933237384e-06 0.095930053130077311 0.039784254023246153 0.028023872707020846 0.037666808283846734 0.37207491141769516 3.788559903413477e-05 0.002473452388232798 0.057255046528892677
decision_type=2 2 2 2 2 2 2 2 2 2 2 2 2 2 2 2 2 2 2 2 2 2 2 2 2 2 2 2 2 2
left_child=1 -1 6 5 8 7 -2 -4 -3 13 27 12 -12 14 15 17 -16 18 20 22 -8 -22 -20 24 -23 29 -18 -9 -27 -15
right_child=2 4 3 -5 -6 -7 9 10 -10 -11 11 -13 -14 25 16 -17 26 -19 19 -21 21 23 -24 -25 -26 28 -28 -29 -30 -31
leaf_value=-0.028038042404588827 0.014100721000158193 0.031747511102916223 0.015077064521974496 0.0026792262601273752 -0.042898144085945361 0.037118420755438378 -0.0024243686493400913 -0.038808352115870123 -0.010570567443908382 -0.025219040666227412 0.033394812614917224 -0.019664016601224982 -0.010282144616882549 -0.025184563479327571 -0.020532354591124343 0.042738967630731456 -0.035944270417678968 0.020324887355638463 0.013754953349824765 0.015113928159291724 0.021297921683291587 -0.020440853081691007 -0.039162027622087182 -0.042296287385378446 0.033604489862906199 0.036594218446206049 -0.00075227296662118729 0.0033053379654918525 0.0051719854825966749 0.011385139756339722
leaf_weight=136.3874126970768 134.6141672283411 18.32628957927227 15.620515853166578 200.67790067195892 8.0504811853170377 6.2966375946998587 249.96012628078461 44.97064346075058 16.008168920874596 19.160936295986176 13.927689775824545 101.51462151110172 35.201569050550461 26.195030957460403 95.070874497294426 14.438048973679541 10.434563532471655 49.61222405731678 6.9685536772012702 16.702953800559044 94.804471492767334 9.2229316085577064 32.580167323350906 10.21537986397743 9.7351428866386396 12.45571021735668 245.61995029449463 7.4485448747873297 829.68183808028698 11.740117460489271
leaf_count=628 542 74 63 808 33 26 1004 184 65 77 56 411 142 105 405 58 42 199 28 67 380 37 131 41 39 50 991 30 3324 47
internal_value=-0.00056221 -0.0213133 0.00104501 -0.0058804 0 -0.0136041 0.00262926 -0.0153407 0.0115688 0.00172223 -0.0178655 -0.0124606 0.00202033 0.00205033 -0.00083778 0.00380629 -0.00743796 0.00249629 0.000339831 -0.0155087 0.00282562 0.0135452 -0.0291121 -0.010691 0.00635249 0.00485071 -0.0024179 -0.0324063 0.00570924 -0.0132232
internal_weight=2483.64 178.772 2304.87 425.658 42.3849 224.98 1879.21 218.684 34.3345 1744.6 203.063 150.644 49.1293 1725.44 845.365 494.24 351.125 479.802 430.19 56.2517 373.938 123.978 39.5487 29.1735 18.9581 880.073 256.055 52.4192 842.138 37.9351
internal_count=10087 800 9287 1720 172 912 7567 886 139 7025 823 609 198 6948 3422 1984 1438 1926 1727 226 1501 497 159 117 76 3526 1033 214 3374 152
is_linear=0
shrinkage=0.05


Tree=20
num_leaves=31
num_cat=0
split_feature=4 15 19 21 15 12 12 5 0 22 8 5 21 4 4 22 4 19 21 4 0 21 10 14 22 12 22 16 5 16
split_gain=15.8227 8.77181 7.51437 7.71514 7.00712 9.0824 7.0686 6.43196 6.82165 6.30921 7.63358 6.06778 8.40102 7.04904 5.97957 5.40213 8.87808 6.63047 5.19633 5.13528 5.12798 4.81835 4.73482 4.70438 6.19027 8.82057 7.09143 6.72758 5.74246 5.62996
threshold=1.0000000180025095e-35 2.9234600914849938e-05 1.0000000180025095e-35 0.00019158637628747521 1.7232062304878003e-05 0.0021404549498006873 0.00095899081528833582 0.49941000264309826 0.0014461755586483208 0.076904542447005494 0.51814954856514672 0.55409956437465302 0.00019947903983000951 8.6530061174858446e-06 2.8420767012567958e-06 0.16380418281908574 0.00017614236102514249 1.0000000180025095e-35 0.00019938123314693049 1.0316909717186919e-05 0.96148985614586846 0.00019577493658118114 0.89875139323743303 0.00024322214811473095 0.43802033319475492 0.0046381135462540326 0.42833432578469638 0.023076435825758308 0.31586036478808666 0.087948683545237993
decision_type=2 2 2 2 2 2 2 2 2 2 2 2 2 2 2 2 2 2 2 2 2 2 2 2 2 2 2 2 2 2
left_child=1 2 -1 -4 5 9 7 -6 -9 10 22 12 20 -13 -7 16 17 -15 -16 -17 -11 -12 -2 24 26 28 -8 -27 -26 -25
right_child=4 -3 3 -5 6 14 23 8 -10 11 21 13 -14 15 18 19 -18 -19 -20 -21 -22 -23 -24 29 25 27 -28 -29 -30 -31
leaf_value=0.015377979670315801 0.043222511187554963 0.02490824547417847 0.013909139679498531 -0.027134198700453079 0.056429839587328529 0.0032329363315338568 0.0019233999586117734 -0.022907698121492053 0.039718757845566471 0.0065555519863764082 0.021564589169090216 -0.017413298761388182 0.045361279701408519 0.0068263339532478639 -0.04169856962261953 0.04735692748532648 0.034947662605909049 -0.040042441965880984 -0.011995909295751324 0.0054597739143082691 -0.021770765136725309 -0.019240109530066121 -0.0022127408622096586 0.010072209477631697 0.017228626309268719 -0.018806060285601708 0.043962485441648984 0.028584525374315679 -0.027900292992383426 -0.0056258504668222943
leaf_weight=12.740291982889174 8.3175287693738955 11.048070490360258 11.314388677477835 109.64790408313274 10.971632823348047 23.938072472810745 1116.3434190899134 8.2385571002960187 6.9922362416982642 259.11266547441483 6.4412624537944785 68.376535102725029 12.621259301900862 9.9486874043941516 27.331383869051933 7.669932857155799 6.7237084954977027 20.564345002174377 40.206164807081223 65.924415558576584 15.715932190418242 94.851709812879562 12.230982705950735 347.22097815573215 6.7032780349254599 10.640361472964289 9.1922155469655973 18.590253114700317 53.271826386451721 65.471955746412277
leaf_count=58 34 45 50 508 44 103 4490 33 28 1046 27 277 51 40 114 31 27 83 165 266 63 385 49 1392 27 43 37 75 216 264
internal_value=0.000566569 -0.0154007 -0.0190773 -0.0230076 0.00157388 -0.00267576 0.003337 0.0287241 0.00497866 -0.000342771 -0.0104629 0.0022628 0.00679196 -0.00486064 -0.0172484 0.00274655 -0.0122611 -0.024236 -0.0248139 0.0107377 0.00477203 -0.0162155 0.0161705 0.00289551 0.00130107 -0.0112567 0.00232764 0.0104553 -0.0222465 0.00751377
internal_weight=2478.36 144.751 133.703 120.962 2333.61 679.975 1653.64 26.2024 15.2308 588.499 121.841 466.657 287.45 179.208 91.4756 110.831 37.2367 30.513 67.5375 73.5943 274.829 101.293 20.5485 1627.43 1214.74 89.2057 1125.54 29.2306 59.9751 412.693
internal_count=10071 661 616 558 9410 2761 6649 105 61 2379 495 1884 1160 724 382 447 150 123 279 297 1109 412 83 6544 4888 361 4527 118 243 1656
is_linear=0
shrinkage=0.05


Tree=21
num_leaves=31
num_cat=0
split_feature=4 18 11 5 17 18 21 21 22 0 17 22 21 17 22 4 4 4 22 8 4 17 22 4 11 22 5 7 18 5
split_gain=14.3855 7.78555 9.69223 7.21576 5.27074 7.75011 8.36376 7.87646 7.46706 6.95294 7.84738 6.983 6.88272 6.78159 6.68109 9.6821 7.33871 6.68493 6.64052 6.49263 9.82723 6.45347 7.5163 6.5844 6.45098 6.39339 6.30638 5.99326 5.89353 5.7254
threshold=1.5360664874252242e-07 0.03838928739222737 0.37207706118289824 0.42018316629064789 0.093526499460413359 0.03873499544329341 0.00019756034236631349 0.00019961047090389497 0.21252099630485713 0.96782743756337919 0.097005057384633983 0.4330662811336774 0.00020386436378392369 0.094211277804139223 0.17357312419482337 6.3105047241623768e-06 3.0829966029687521e-06 1.3049844852231921e-05 0.15160634916989577 0.51875858196028157 1.3052017577855582e-06 0.097674688374288374 0.070904764194687844 0.0020336711837463961 0.37205913359605064 0.053627107015109705 0.3754273316813817 0.51886935670266121 0.039440764726464662 0.40388837636772906
decision_type=2 2 2 2 2 2 2 2 2 2 2 2 2 2 2 2 2 2 2 2 2 2 2 2 2 2 2 2 2 2
left_child=1 2 -1 -3 8 -6 13 14 12 10 11 -9 24 29 16 28 -8 -17 19 25 -21 22 -12 -24 -2 -15 -10 -22 -16 -7
right_child=4 3 -4 -5 5 6 7 9 26 -11 21 -13 -14 18 15 17 -18 -19 -20 20 27 -23 23 -25 -26 -27 -28 -29 -30 -31
leaf_value=0.067438017700850866 -0.018015267121876892 -0.037455422088392178 -0.0053879172923777391 -0.010925941981692555 -0.0067141345109679885 -0.024551386452776953 0.01174134466110714 0.0094719091846217456 -0.0039611872280947901 -0.040812686266435805 0.030223225453530591 -0.013295323176713357 -0.022769099905671296 -0.017355433855743244 0.0054801451283256492 0.03154116751361901 -0.012905682942472047 0.0031972845402479231 0.0036140944342895756 -0.043635240670028289 0.015403246564419579 0.0030806316820454222 -0.020154242095498168 0.0088335912586709718 0.023718126583541332 0.031829124865802028 0.035385754701507233 -0.023888056891920421 -0.030820646942789843 0.0078510825408422483
leaf_weight=5.2062356472015408 8.7023148536682111 34.686743974685669 14.986820951104162 114.92074476182461 295.45571522414684 28.111039683222771 32.361843958497047 416.68899208307266 111.08323341608047 7.9494377076625815 8.889568015933035 34.894625902175903 8.7171028107404691 5.9684102833271018 16.052065834403038 26.616305574774742 256.89200107753277 96.376450657844543 251.47309821844101 7.2189128994941703 121.62172794342041 200.51618787646294 98.963960915803909 22.419533804059029 108.63964818418026 70.725024044513702 10.189996555447577 9.1854225695133191 28.098134890198708 23.359924584627151
leaf_count=22 35 164 66 521 1193 114 131 1677 449 32 36 141 35 24 65 107 1033 387 1011 30 489 810 402 90 438 284 41 37 113 94
internal_value=0.000545258 -0.0134414 0.0145048 -0.0174507 0.00159084 0.000747534 0.00201429 -0.000185812 0.00848215 0.00281264 0.00333935 0.00763192 0.016956 0.00735126 -0.00542755 0.00240281 -0.0100311 0.00973759 0.0092816 0.0157558 0.00889638 -0.00245073 -0.0111137 -0.0145675 0.0202858 0.0275056 -0.000188236 0.0122942 -0.0172397 -0.00949982
internal_weight=2476.97 169.801 20.1931 149.607 2307.17 2059.84 1764.38 1246.72 247.332 790.322 782.373 451.584 126.059 517.664 456.397 167.143 289.254 122.993 466.193 214.719 138.026 330.789 130.273 121.383 117.342 76.6934 121.273 130.807 44.1502 51.471
internal_count=10071 773 88 685 9298 8300 7107 5024 998 3188 3156 1818 508 2083 1836 672 1164 494 1875 864 556 1338 528 492 473 308 490 526 178 208
is_linear=0
shrinkage=0.05


Tree=22
num_leaves=31
num_cat=0
split_feature=16 15 19 15 12 12 17 22 17 8 16 16 7 8 16 14 15 3 8 17 0 17 12 22 16 8 17 7 15 15
split_gain=13.0986 7.76736 6.86669 6.17389 8.19092 6.43839 5.87236 5.58398 8.94331 6.90094 5.23331 8.0005 5.00083 6.00883 5.07448 7.0996 6.72392 4.6361 8.39953 4.60572 4.57592 4.53469 7.29183 8.86736 5.98846 7.8853 9.64674 5.49746 5.2875 5.37861
threshold=1.0000000180025095e-35 2.9234600914849938e-05 1.0000000180025095e-35 1.7232062304878003e-05 0.0021404549498006873 0.00095899081528833582 0.093617355620312107 0.076904542447005494 0.095535269503833536 0.51814954856514672 0.0074789418423510416 0.0047286498564561982 0.51887587656291123 0.5187616135818508 0.10476831932800765 0.00014888340407434524 2.4941023672857512e-05 0.00010552284510011082 0.5187597741126837 0.096296584623841636 0.96148985614586846 0.09364855519722419 0.0034108086023968121 0.35438285203361175 0.052056030681118824 0.51875902088014725 0.095889553500357563 0.51886838663858004 3.279296936573246e-05 3.5733890930593215e-05
decision_type=2 2 2 2 2 2 2 2 2 2 2 2 2 2 2 2 2 2 2 2 2 2 2 2 2 2 2 2 2 2
left_child=1 2 -1 4 7 -5 -4 9 20 -2 11 -6 21 -14 15 -15 -16 18 -11 -3 -9 22 23 27 -23 -26 -27 28 -7 -30
right_child=3 19 6 5 10 12 -8 8 -10 17 -12 -13 13 14 16 -17 -18 -19 -20 -21 -22 24 -24 -25 25 26 -28 -29 29 -31
leaf_value=0.015237757420291582 0.0154399135806856 0.049766937788163691 0.012752223208859749 0.027323414418089428 -0.013864350405748902 0.027029954222658387 -0.024857179769145355 0.010610580628741331 -0.0049640441792416718 0.041089841454756533 -0.023370620356078037 0.048217493280907311 0.015334316044166095 -0.035882769292599363 0.0022649869709473638 0.0084037953920418022 -0.053873172340839215 -0.02708457813432566 -0.013069157933118164 -0.0083268253376842395 -0.01770056288938773 0.0024088340108902842 0.00066206682975080095 -0.018193006835892585 -0.023144307342247789 0.0074335424289895605 -0.011003329049440578 0.044014516210691655 -0.039044312084855162 0.011272956661173457
leaf_weight=12.750783875584601 20.512481525540352 6.2302201837301237 9.9320865720510465 26.180423989892006 16.917812451720241 33.939614325761795 109.28210335969925 226.98439449071884 225.79093977808952 7.2757441848516455 68.066446363925934 6.221164107322692 154.63719037175179 8.686337471008299 10.651679694652559 114.5232890099287 8.1899035871028882 45.790642321109772 48.06093841791153 4.8282972723245621 13.709311738610266 737.52212677896023 163.15011145174503 12.914690166711805 53.279838606715202 133.45949582755566 147.82071337103844 25.141652762889862 6.470477998256686 16.676310613751411
leaf_count=58 83 25 44 105 73 137 514 916 913 30 283 26 620 35 43 460 33 186 196 20 55 2968 657 52 214 536 595 101 26 67
internal_value=0.000515957 -0.0141023 -0.0176164 0.00142866 -0.00256165 0.00308398 -0.0214359 -0.000345269 0.00210249 -0.00987681 -0.0164237 0.00309738 0.00266205 0.00853628 0.000905711 0.00481655 -0.022362 -0.0153577 -0.00490153 0.0237421 0.00882805 0.00132783 0.0072626 0.0181965 -8.41547e-05 -0.00564514 -0.00217165 0.0243621 0.0146678 -0.0027919
internal_weight=2475.6 143.023 131.965 2332.57 679.33 1653.24 119.214 588.124 466.485 121.64 91.2054 23.139 1627.06 296.688 142.051 123.21 18.8416 101.127 55.3367 11.0585 240.694 1330.38 258.293 95.1427 1072.08 334.56 281.28 82.2281 57.0864 23.1468
internal_count=10071 661 616 9410 2761 6649 558 2379 1884 495 382 99 6544 1191 571 495 76 412 226 45 971 5353 1040 383 4313 1345 1131 331 230 93
is_linear=0
shrinkage=0.05


Tree=23
num_leaves=31
num_cat=0
split_feature=4 15 19 15 15 5 15 12 18 21 12 17 12 5 0 7 21 5 15 5 17 18 18 18 18 18 5 11 21 7
split_gain=12.052 8.21074 8.2446 7.16334 5.82231 5.84405 5.24268 10.0445 6.36204 6.78996 6.35844 5.90841 5.39068 5.62949 6.19922 5.13464 8.27312 7.57719 5.47224 5.14331 6.11713 4.83383 4.60834 4.57159 5.98478 5.30372 4.40135 5.6334 4.27318 4.23693
threshold=7.8723407480542743e-07 9.6293797993622995e-06 1.0000000180025095e-35 1.0885003127749866e-05 2.9234600914849938e-05 0.3277322327382815 1.7232062304878003e-05 0.0021076738666664196 0.038635402939509629 0.00019730791852900844 0.0019648132999840885 0.095418809445029895 0.00095899081528833582 0.49941000264309826 0.0014461755586483208 0.51886864979420644 0.00019618618269584285 0.41556317920274649 1.141696143366996e-05 0.3277322327382815 0.094972933600182288 0.040201359696499891 0.038556213208890029 0.03917838035739294 0.039219910293624073 0.039057247918856237 0.72183291231372515 0.37212638875252768 0.00019451496979311364 0.51886860997221473
decision_type=2 2 2 2 2 2 2 2 2 2 2 2 2 2 2 2 2 2 2 2 2 2 2 2 2 2 2 2 2 2
left_child=1 2 -1 -3 5 -5 7 8 28 11 23 15 13 -8 -15 16 19 -18 -17 -10 -21 22 -9 25 -25 -11 -23 -28 -2 -30
right_child=6 3 -4 4 -6 -7 12 21 9 10 -12 -13 -14 14 -16 18 17 -19 -20 20 -22 26 -24 24 -26 -27 27 -29 29 -31
leaf_value=0.027687302690085749 0.011008570691735376 0.0334535346687799 -0.027507918239705127 0.024757837080802619 0.015428782434054183 -0.014815978601664705 0.05172981957322819 0 0.0010969942286603608 0.0016119603709509581 0.039757961031607766 0.05033565869905076 0.0027342390226136144 -0.023106883673217754 0.036706992349752506 0.01045971434714906 -0.027042388732844449 0.015381552610561353 -0.022971402734197229 0.058745447151172296 0.0028946337692811941 0.024661263265243032 -0.03550719299671861 0.045900550448934041 -0.0024899817638743531 -0.04560144966443589 -0.052629784021125475 0.0025276600183296101 -0.049153782586074085 0
leaf_weight=6.1633043736219397 5.2290832698345211 11.172737389802931 77.165873289108276 8.9080743640661222 23.330572962760925 103.41453713178635 10.699104115366938 12.907034948468207 11.178226187825201 9.001063138246538 7.8454418480396262 8.1687622815370542 1592.5780125111341 8.2360569238662702 6.9778313934803 24.384441524744034 15.154264032840727 29.134459748864174 21.877216503024101 18.839731901884083 7.946516051888465 9.4290855824947375 40.121116518974304 5.4742794483900061 349.4705758690834 12.081634759902952 5.7395078539848354 12.103512734174727 13.660417586565019 5.7123649269342414
leaf_count=27 22 51 362 39 95 457 43 55 45 37 32 33 6402 33 28 98 61 117 88 76 32 39 166 22 1408 49 24 50 57 23
internal_value=0.000491521 -0.0103651 -0.0228491 -0.00300413 -0.00641266 -0.0112661 0.0016203 -0.00224171 0.000157545 0.00139714 -0.0019597 0.0109521 0.00312866 0.0254382 0.00335673 0.00788641 0.0153918 3.67617e-05 -0.00497248 0.0322024 0.0437767 -0.0186394 -0.0273191 -0.00299955 -0.00154657 -0.0251518 -0.000508741 -0.0157394 -0.0241249 -0.0349101
internal_weight=2474.1 230.155 83.3292 146.826 135.653 112.323 2243.95 625.459 545.158 520.557 383.873 136.684 1618.49 25.913 15.2139 128.515 82.2532 44.2887 46.2617 37.9645 26.7862 80.3003 53.0282 376.028 354.945 21.0827 27.2721 17.843 24.6019 19.3728
internal_count=10071 1031 389 642 591 496 9040 2534 2200 2098 1548 550 6506 104 61 517 331 178 186 153 108 334 221 1516 1430 86 113 74 102 80
is_linear=0
shrinkage=0.05


Tree=24
num_leaves=31
num_cat=0
split_feature=4 15 8 15 21 15 12 18 21 12 5 0 12 18 18 5 11 21 12 8 15 22 8 9 4 12 22 18 18 18
split_gain=10.8754 7.53106 10.1063 6.46056 5.29151 4.71489 9.15786 6.10342 6.188 4.95126 4.93037 5.11849 4.71243 4.40353 4.93174 4.83816 4.83941 4.55515 4.2466 4.21741 4.20028 6.42182 12.2906 4.95488 5.69096 4.49162 6.70057 4.15496 5.48005 4.8764
threshold=7.8723407480542743e-07 9.6293797993622995e-06 0.51875633864103066 1.0885003127749866e-05 0.00019158637628747521 1.7232062304878003e-05 0.0021404549498006873 0.038635402939509629 0.00019730791852900844 0.00094265164945699477 0.49941000264309826 0.0014461755586483208 0.0019648132999840885 0.040201359696499891 0.038556213208890029 0.72183291231372515 0.37212638875252768 0.00019024758864414989 0.0026709594408779384 0.51875987166831949 7.4103224598527922e-06 0.12835798452200739 0.51875978622759056 0.6268148769459857 3.6891415763174935e-05 0.0016360661725388565 0.19832227561227941 0.03917838035739294 0.039219910293624073 0.039057247918856237
decision_type=2 2 2 2 2 2 2 2 2 2 2 2 2 2 2 2 2 2 2 2 2 2 2 2 2 2 2 2 2 2
left_child=1 2 -1 -3 -5 6 7 19 20 10 -7 -12 27 14 17 -15 -17 -8 -16 -2 -9 22 -22 24 25 26 -23 29 -29 -10
right_child=5 3 -4 4 -6 9 13 8 12 -11 11 -13 -14 15 18 16 -18 -19 -20 -21 21 23 -24 -25 -26 -27 -28 28 -30 -31
leaf_value=0.033130649534389406 0.01188156430878055 0.031615470298559399 -0.027214787111727902 0.021280314138201376 -0.0096500071630945625 0.052350313736700731 -0.034942876295851438 -0.0087388850292112064 0.0015391423864779049 0.0026176089159193634 -0.020944295154894405 0.035871376622961297 0.030826804996164709 0.026021306259975868 -0.048423407786673561 -0.05088110463994916 0.00036033679927522419 0.022332843204121291 -0.010253718465615234 -0.034092102732942518 0.057362257389351801 -0.0026552129608509636 0 -0.026614910022557777 -0.0081611695730321038 -0.017912279925811913 0.039263586646115435 0.04390959871515103 -0.0023661384761703825 -0.043672442069483924
leaf_weight=6.4198765456676474 5.0727178752422359 11.286300256848333 76.18649822473526 14.236335292458532 121.08878393471241 9.1746496856212634 4.6398607343435279 21.754416152834892 9.0028253346681613 1595.6783788204193 7.489298999309538 6.2166447043418884 9.5989706069231016 9.2230607718229312 23.764022409915924 5.6759082973003414 11.858864381909369 8.0256354510784131 13.930196925997732 19.668680593371391 19.633017435669899 12.196091234683989 16.602364405989647 8.9890491515398008 24.170431390404701 5.1573930978775016 29.14996463060379 5.481498271226882 349.42718662321568 12.029981568455694
leaf_count=26 21 51 363 60 531 37 20 88 37 6414 30 25 39 38 98 24 49 34 59 82 79 49 67 36 97 21 117 22 1408 49
internal_value=0.000473712 -0.00986142 -0.0218858 -0.00281473 -0.00608049 0.00154466 -0.00211809 0.000119767 0.00133201 0.002975 0.0256993 0.00381265 -0.00186651 -0.0181365 -0.0267282 -0.000685452 -0.0167277 0 -0.0355931 -0.0235995 0.0104196 0.0142736 0.0315929 0.00579184 0.0105763 0.0208083 0.0265375 -0.00284716 -0.00145981 -0.023994
internal_weight=2472.83 229.218 82.6064 146.611 135.325 2243.61 625.052 547.935 523.193 1618.56 22.8806 13.7059 385.54 77.1175 50.3597 26.7578 17.5348 12.6655 37.6942 24.7414 137.653 115.898 36.2354 79.6629 70.6739 46.5034 41.3461 375.941 354.909 21.0328
internal_count=10071 1031 389 642 591 9040 2534 2212 2109 6506 92 55 1555 322 211 111 73 54 157 103 554 466 146 320 284 187 166 1516 1430 86
is_linear=0
shrinkage=0.05


Tree=25
num_leaves=31
num_cat=0
split_feature=4 15 5 6 15 8 3 21 6 16 17 7 10 10 5 6 4 16 4 16 17 5 22 15 5 22 16 22 16 14
split_gain=20.6071 9.62835 6.96664 5.52658 5.53479 5.09438 4.64359 4.56835 4.05819 4.04753 12.0987 4.37113 6.44698 10.1025 6.16564 9.9364 8.22368 6.05151 7.75152 5.30419 5.28621 7.59068 5.05544 5.44042 6.17988 6.41512 5.76079 5.54827 5.37795 5.34863
threshold=1.0616038454211831e-06 1.6920558371801518e-05 0.21961590364420303 0.51817498960834241 2.636658787102317e-05 0.51875755122013223 1.2692035363039343e-07 0.00019709920386398188 0.51597383471125902 0.20715481523866916 0.09245679741408297 0.51886864665495624 0.88628832532707569 0.86880071908707268 0.60462746371370091 0.51861577745690413 7.1860120934918788e-06 0.0060469488657010784 0.0017048822155333715 0.071000531215633447 0.096494735015574803 0.60097968621365594 0.049189765599280115 1.6481606225182748e-05 0.47099751539177409 0.33881856516856651 0.0080268638021298595 0.23375474478633004 0.050715583266084059 0.00036792817183944898
decision_type=2 2 2 2 2 2 2 2 2 2 2 2 2 2 2 2 2 2 2 2 2 2 2 2 2 2 2 2 2 2
left_child=1 2 -1 4 -3 7 -2 -4 -8 11 -11 20 13 17 15 -14 -17 18 -13 -18 21 -10 28 24 25 -24 -25 29 -19 -26
right_child=6 3 5 -5 -6 -7 8 -9 9 10 -12 12 14 -15 -16 16 19 22 -20 -21 -22 -23 23 26 27 -27 -28 -29 -30 -31
leaf_value=0.038155333931833485 0.026487607025896472 -0.046764125309659101 0.039225632395137662 0.0069432439908174506 0.0038183696362111734 -0.024492303541177554 0.011733629453213202 -0.015600296134844481 -0.00059399574307183079 0.054202146624529185 -0.015591172536638371 -0.013824208036841616 -0.040755441350791802 0.04231123133199946 -0.024561532138403536 0.026801309838765077 -0.032365903556073945 0.029158643553087612 0.040739829502390398 0.017439732997051993 -0.01853872039016681 0.051825033695236167 -0.041070611913593291 0.032045966091489568 -0.013263626925146182 0.01744090120307475 0.0053988984565625613 0.01319037391030712 -0.0025560729993781041 0.01296052696024614
leaf_weight=3.8078578263521186 18.17078372836113 10.041867300868036 5.3564397245645505 68.800437971949577 8.7052654325962049 149.98059272766113 95.292605429887772 7.8726602792739868 814.85575112700462 5.6713137179613105 74.311759978532791 73.248470664024353 10.487849235534666 16.826922416687012 36.225623399019241 30.653552800416946 12.732244506478311 41.337845697999001 5.9853672683238974 7.2344760447740546 40.062202751636505 5.9627227485179892 17.867648139595989 20.410583510994911 76.631250411272049 4.9150701612234107 698.12491612136364 52.762211233377457 17.29600815474987 24.190868377685547
leaf_count=17 73 43 22 290 35 704 384 32 3281 23 306 296 42 68 146 123 51 167 24 29 162 24 73 82 311 20 2805 214 70 97
internal_value=0.000326398 -0.013101 -0.020108 6.0267e-05 -0.0230061 -0.0218437 0.00189581 0.00603828 0.00166764 0.00119084 -0.00972548 0.00164277 0.00366749 0.00482585 -0.00849153 0.000874521 0.0106064 0.00415058 -0.00893443 -0.0131565 -0.00102684 -0.000120187 0.00527229 0.00429159 -0.0034718 -0.0271938 0.00623406 3.85463e-05 0.0194981 -0.00666049
internal_weight=2455.82 254.565 167.018 87.5476 18.7471 163.21 2201.26 13.2291 2183.09 2087.79 79.9831 2007.81 1146.93 1049.6 97.3337 61.1081 50.6203 1032.77 79.2338 19.9667 860.881 820.818 953.536 894.903 176.367 22.7827 718.535 153.584 58.6339 100.822
internal_count=10014 1143 775 368 78 758 8871 54 8798 8414 329 8085 4618 4227 391 245 203 4159 320 80 3467 3305 3839 3602 715 93 2887 622 237 408
is_linear=0
shrinkage=0.05


Tree=26
num_leaves=31
num_cat=0
split_feature=4 15 18 19 12 6 15 17 16 18 22 8 12 9 18 16 14 15 4 17 16 16 18 12 17 7 4 12 16 14
split_gain=18.6768 8.77657 5.69466 7.93229 5.46751 5.02549 5.1288 4.41023 8.13171 7.36966 6.25878 8.36885 5.32404 8.22563 8.21844 7.70194 7.71737 5.47628 8.63403 6.32378 5.07161 5.01591 6.11799 6.23878 5.54187 6.46605 6.62999 7.21974 6.28222 6.44652
threshold=1.0616038454211831e-06 1.6920558371801518e-05 0.052913445675785147 1.0000000180025095e-35 0.0042158398514357785 0.51817498960834241 2.636658787102317e-05 0.092671336949656749 0.20715481523866916 0.036458298284408504 0.66725314195545782 0.51873338862387219 0.0036055479681147196 0.0010637690029219455 0.039503438950071502 0.0035154647471358756 1.9270913842427437e-05 3.8609579050425552e-05 3.5292138118652048e-05 0.097143860353569658 0.018523722618807179 0.023601941789872669 0.03838928739222737 0.00036184813520947877 0.095123871856854003 0.51764130170835809 3.2349155997152226e-05 0.0024694368189666872 0.030271197894997035 1.3669960852009925e-06
decision_type=2 2 2 2 2 2 2 2 2 2 2 2 2 2 2 2 2 2 2 2 2 2 2 2 2 2 2 2 2 2
left_child=1 4 7 -4 -1 6 -3 9 12 10 11 -2 17 14 -14 -16 -17 19 -19 21 -11 22 -9 -24 25 -23 27 -27 29 -26
right_child=2 5 3 -5 -6 -7 -8 8 -10 20 -12 -13 13 -15 15 16 -18 18 -20 -21 -22 24 23 -25 28 26 -28 -29 -30 -31
leaf_value=-0.021130235546369357 -0.052054905453898251 -0.045069184730782572 0.054290139280330829 -0.0050862960445579829 0.022592690655154679 0.0065927304059072546 0.0036465938325843331 0.027831123452702736 -0.015384376384972202 -0.0069721537945302229 0.048761923737023705 0.0012757492765936677 -0.015268611891309077 0.01767740246403806 -0.038033199683222274 0.0086706750892545856 -0.013465020205742176 -0.0042064320479943858 0.020566200970583464 -0.011797132473290908 0.029106495866624262 0.013908123635198374 0.047489314682947113 0.0043104393893726965 -0.036132585998231014 -0.0099298730909023331 -0.0023126133139305316 -0.045223232494266574 0.0055201348096901616 -0.0017210865683761926
leaf_weight=159.60994972288609 7.2214474976062766 9.9387850165367144 11.145189970731735 8.8852410912513733 6.1447299420833579 68.886309698224068 8.7066338807344419 33.157524734735489 72.22874142229557 10.223557308316229 4.9670834690332404 62.697961837053299 143.56153066456318 39.166201010346413 11.366518959403036 144.9839224666357 52.433464869856834 51.543785989284515 98.878455653786659 78.119701147079468 52.066513895988464 39.630686789751053 7.7309323400259009 360.55053567886353 16.391876369714737 60.529204815626144 204.26747104525566 19.810982316732407 537.68908521533012 71.660295680165291
leaf_count=747 29 43 46 36 28 290 35 134 298 41 21 253 579 157 46 583 211 207 397 318 210 159 31 1451 66 245 821 81 2163 288
internal_value=0.000315466 -0.0125023 0.00180693 0.0277733 -0.0192337 3.54181e-05 -0.0220207 0.00154437 0.000945872 0.0102086 -7.56073e-05 -0.00453619 0.00156433 -0.00362094 -0.00610251 0.000123738 0.00262727 0.00286653 0.0119408 0.00188654 0.0227734 0.00270416 0.00738922 0.00541069 0.000692384 -0.00457119 -0.00727159 -0.0193891 0.00346262 -0.00874171
internal_weight=2454.19 253.286 2200.91 20.0304 165.755 87.5317 18.6454 2180.88 2043.7 137.177 74.8865 69.9194 1971.47 391.512 352.345 208.784 197.417 1579.96 150.422 1429.54 62.2901 1351.42 401.439 368.281 949.98 324.238 284.608 80.3402 625.741 88.0522
internal_count=10014 1143 8871 82 775 368 78 8789 8235 554 303 282 7937 1576 1419 840 794 6361 604 5757 251 5439 1616 1482 3823 1306 1147 326 2517 354
is_linear=0
shrinkage=0.05


Tree=27
num_leaves=31
num_cat=0
split_feature=16 15 18 11 22 7 7 0 17 16 18 22 22 15 7 5 16 21 16 22 17 22 9 14 22 21 15 5 15 3
split_gain=13.7926 11.5036 8.95742 5.26986 9.36438 6.98712 5.16235 5.09826 5.02674 7.46854 6.6754 5.61785 5.5347 5.38347 5.26615 4.92204 4.71973 6.81143 5.498 8.09091 8.05031 6.54106 6.48519 5.96696 6.05417 6.84181 5.23018 6.93762 5.0605 5.04682
threshold=0.0067760363870937495 1.8212994063810011e-05 0.052913445675785147 0.3729808733360635 0.11436649390972932 0.51887981568968677 0.5188648727822146 1.8816031199087143e-07 0.092671336949656749 0.20715481523866916 0.036458298284408504 0.49985192491003183 0.66725314195545782 4.5029299089693122e-05 0.5188648727822146 0.21961590364420303 0.090920649943723494 0.00018848442343046351 0.023928231969118061 0.17752926266953453 0.097565616421874737 0.17222288927513793 3.187157526330057e-06 7.0130102003113943e-07 0.16509327526060977 0.00019768520542851528 2.1649269951489946e-05 0.48635484480686669 4.4389294525247647e-05 2.653886259207951e-05
decision_type=2 2 2 2 2 2 2 2 2 2 2 2 2 2 2 2 2 2 2 2 2 2 2 2 2 2 2 2 2 2
left_child=1 6 8 5 -5 7 -1 -3 10 11 12 16 13 -2 -15 -8 17 -10 19 20 21 -19 -21 24 26 -26 27 -20 -25 -18
right_child=2 3 -4 4 -6 -7 15 -9 9 -11 -12 -13 -14 14 -16 -17 29 18 23 22 -22 -23 -24 28 25 -27 -28 -29 -30 -31
leaf_value=0.012552639290390168 0.0053525136435917386 0.034100616997120158 0.039880309830344018 -0.016283604260641817 0.050780002585390595 -0.042887219113384362 0.026443271540735665 -0.0026032174207862948 -0.02863251694491746 -0.014656166779610028 0.023536442566251592 -0.012014603223321296 0.047151467091840815 -0.043072210144292571 0.0084365975666255318 -0.021316334343986301 0.018583074397231249 0.0038622279200075577 -0.040288662237386391 0.031421635774095312 -0.036378179496359166 -0.040692383207241792 0.008717649312893044 -0.00025492941143793785 -0.043474820795833251 -0.0075442316948181433 0.011376563426823631 0.010691881292270562 0.0129854273500427 0.0032176939776792229
leaf_weight=11.664024040102957 47.773553043603897 8.967013016343115 14.508383005857466 7.4338359534740475 11.689952060580252 9.3624231964349729 4.2968865036964408 177.25647853314877 17.89856119453907 72.080188572406769 58.470173716545105 71.046419724822044 4.9153683185577384 12.699793577194216 6.2163736075162879 164.30087122321129 83.741271510720253 254.1330893933773 13.793376788496973 40.622546330094337 13.130707785487173 7.4512719959020606 160.87408623099327 832.20223686099052 22.608474165201187 36.347002908587456 38.397844359278679 10.443011224269865 77.715798750519753 160.41320295631886
leaf_count=48 193 36 60 30 47 38 19 726 72 298 236 288 21 51 25 774 337 1023 56 163 53 30 648 3347 91 146 154 42 312 650
internal_value=0.000298289 -0.00823566 0.00195189 -0.000285161 0.0239549 -0.00289224 -0.0175138 -0.000529629 0.00165092 0.000986964 0.0111424 0.00162069 0.000492812 -0.00322261 -0.0253161 -0.019803 0.00218867 0.00113421 0.00152289 0.00596473 0.000280835 0.00234774 0.0135509 -0.000507332 -0.0108784 -0.0222353 0 -0.0177782 0.000861494 0.00864407
internal_weight=2452.45 394.971 2057.48 214.71 19.1238 195.586 180.262 186.223 2042.97 1912.9 130.075 1840.82 71.6051 66.6897 18.9162 168.598 1769.77 1525.62 1507.72 476.212 274.715 261.584 201.497 1031.51 121.59 58.9555 62.6342 24.2364 909.918 244.154
internal_count=10014 1718 8296 877 77 800 841 762 8236 7710 526 7412 290 269 76 793 7124 6137 6065 1917 1106 1053 811 4148 489 237 252 98 3659 987
is_linear=0
shrinkage=0.05


Tree=28
num_leaves=31
num_cat=0
split_feature=18 17 17 14 9 14 6 17 21 12 7 12 7 18 22 12 7 14 3 14 18 22 5 12 3 21 5 5 17 14
split_gain=5.46391 5.31824 4.7998 6.27088 11.5357 11.9049 5.44407 5.36646 9.48724 10.6889 8.35573 5.27895 10.0252 5.26286 5.29027 5.13022 5.45433 5.10595 10.7831 9.68262 5.0732 7.92525 6.71141 5.04831 5.24666 8.53157 8.72103 5.02203 5.01528 4.9818
threshold=0.052913445675785147 0.11371979251580476 0.092671336949656749 0.00036792817183944898 1.6900369108588442e-05 2.9590422487357924e-06 0.51822775976462954 0.095154532875178499 0.00019752698028728194 0.0021926687577984 0.51886722392838625 0.0036055479681147196 0.51886863683347395 0.036458298284408504 0.66725314195545782 0.0040708205732617299 0.5188648727822146 2.1728406181538182e-05 0.00010552284510011082 0.00019637220750776756 0.038788615087103351 0.21838087578602436 0.35804568665914188 0.0041425852022369146 0.0062201502575131963 0.00020342492070970312 0.42351064159226043 0.38008559959980143 0.095273588505774165 8.2228460302035799e-06
decision_type=2 2 2 2 2 2 2 2 2 2 2 2 2 2 2 2 2 2 2 2 2 2 2 2 2 2 2 2 2 2
left_child=2 -2 13 4 11 -6 7 17 9 -9 -11 -4 20 14 15 -1 -17 18 29 -19 21 22 -13 24 25 26 27 -5 -12 -7
right_child=1 -3 3 23 5 6 -8 8 -10 10 28 12 -14 -15 -16 16 -18 19 -20 -21 -22 -23 -24 -25 -26 -27 -28 -29 -30 -31
