tree
version=v4
num_class=1
num_tree_per_iteration=1
label_index=0
max_feature_idx=22
objective=binary sigmoid:1
feature_names=Column_0 Column_1 Column_2 Column_3 Column_4 Column_5 Column_6 Column_7 Column_8 Column_9 Column_10 Column_11 Column_12 Column_13 Column_14 Column_15 Column_16 Column_17 Column_18 Column_19 Column_20 Column_21 Column_22
feature_infos=[0:1] [0:1] [0:1.0000000000000002] [0:1] [0:1] [0:0.99999999999999989] [0:0.99999999999999989] [0:1] [0:1] [0:0.99999999999999989] [0:1] [0:1] [0:0.99999999999999989] none [0:1.0000000000000002] [0:1] [0:1] [0:1] [0:0.99999999999999989] [0:1] none [0:1] [0:1]
tree_sizes=3435 3488 3495 3476 3471 3488 3481 3478 3512 3460 3468 3510 3462 3467 3463 3504 3489 3483 3468 3487 3471 3451 3468 3508 3492 3474 3461 3478 3489 3485 3440 3478 3493 3472 3476 3481 3435 3465 3495 3426 3492 3488 3503 3457 3400 3457 3461 3488 3477 3440 3490 3495 3470 3438 3486 3419 3469 3455 3449 3427 3480 3448 3437 3459 3453 3482 3479 3479 3492 3461

Tree=0
num_leaves=31
num_cat=0
split_feature=16 6 4 14 4 22 14 0 17 22 14 15 7 17 22 22 16 16 11 17 12 7 6 12 22 12 21 14 6 16
split_gain=43.8131 18.5333 23.4546 18.6919 14.0185 10.3614 10.272 14.2665 9.19626 10.669 8.86156 8.48236 9.09527 9.95733 7.54508 7.11804 6.99421 9.09684 9.8879 7.54006 8.40449 8.01722 7.39609 7.34041 6.88212 6.87536 6.89939 14.7846 8.99072 6.90967
threshold=0.00038605837987162824 0.49579328617138635 7.4879010162685878e-05 0.00043659813724027856 5.1124250001151198e-06 0.41407513246323308 0.00013839472444645664 0.000124228772569262 0.094437108456044916 0.64906867434648496 5.5822858949302169e-05 7.2971248770627745e-05 0.49515540799491259 0.092798078081868421 0.19595567378248627 0.19731517829326858 0.019630570613855817 0.00864553822471998 0.36914710121968985 0.096290503764163524 0.0043410233619184746 0.49512837118460074 0.49582080597537109 0.00043799661856723082 0.17277691242951235 0.0052053370108278109 0.00018720811827467785 9.1806724323722134e-06 0.49581256172330074 0.039298946954386946
decision_type=2 2 2 2 2 2 2 2 2 2 2 2 2 2 2 2 2 2 2 2 2 2 2 2 2 2 2 2 2 2
left_child=6 5 3 4 -3 -2 7 -1 9 11 -6 14 24 -14 -4 -8 17 18 -5 21 -21 -18 -19 -23 -13 -10 27 -27 -28 -30
right_child=1 2 8 16 10 -7 15 -9 25 -11 -12 12 13 -15 -16 -17 19 22 -20 20 -22 23 -24 -25 -26 26 28 -29 29 -31
leaf_value=-0.15102011066053286 -0.12466136890309112 -0.16466502919476911 -0.12187538776600268 -0.074444042336711175 -0.15149803316153845 -0.14652343005407778 -0.13277482113613906 -0.18919946303178845 -0.1399175447076122 -0.18232885249151373 -0.13377498797991219 -0.13916393803781094 -0.074097275211622252 -0.11857598547997779 -0.16693054509333241 -0.16597378195020202 -0.16833700950310437 -0.10831617236629024 -0.1386703525187806 -0.14970958174344876 -0.097663559167264033 -0.15547805391566621 -0.16476417752072603 -0.11603655417371726 -0.12197961639796248 -0.20262148535963354 -0.11410527507740027 -0.1200283690733888 -0.16470910641004533 -0.12704003662482835
leaf_weight=47.522620484232903 412.27739341557026 143.06548051536083 14.18214328587055 5.4738096892833701 209.74643491208553 60.211906582117081 37.57023923099041 56.977382674813271 519.01668235659599 7.4642859399318686 102.75833643972874 92.059526592493057 15.923810005187987 71.159525960683823 21.646429225802422 25.876191258430481 7.9619050025939933 5.2250001579523078 71.159525960683823 63.197620958089828 7.7130954712629309 11.694047972559927 55.982144549489021 113.20833675563335 145.80238536000252 8.2107145339250582 85.839288309216499 11.694047972559927 17.914286255836487 32.594048604369164
leaf_count=191 1657 575 57 22 843 242 151 229 2086 30 413 370 64 286 87 104 32 21 286 254 31 47 225 455 586 33 345 47 72 131
internal_value=-0.13814 -0.136336 -0.138592 -0.145057 -0.151683 -0.127512 -0.162711 -0.17236 -0.133675 -0.127323 -0.145595 -0.125997 -0.12342 -0.109523 -0.148458 -0.146147 -0.136281 -0.144853 -0.133642 -0.130356 -0.143215 -0.12332 -0.15914 -0.120035 -0.128711 -0.137187 -0.128004 -0.154352 -0.123886 -0.14017
internal_weight=2481.13 2313.18 1840.69 797.186 455.57 472.489 167.946 104.5 1043.51 368.238 312.505 360.774 324.945 87.0833 35.8286 63.4464 341.615 137.84 76.6333 203.775 70.9107 132.864 61.2071 124.902 237.862 675.269 156.252 19.9048 136.348 50.5083
internal_count=9972 9297 7398 3204 1831 1899 675 420 4194 1480 1256 1450 1306 350 144 255 1373 554 308 819 285 534 246 502 956 2714 628 80 548 203
is_linear=0
shrinkage=1


Tree=1
num_leaves=31
num_cat=0
split_feature=16 6 4 14 4 8 22 17 22 14 15 7 17 7 1 17 22 15 4 7 14 6 16 17 4 14 16 6 6 5
split_gain=39.7191 16.7054 21.1726 16.945 13.523 11.2159 9.35888 8.30525 9.79738 8.18112 7.79323 7.74469 9.07193 7.47514 10.3011 6.97567 6.6647 6.4199 7.61982 6.23938 5.98805 5.98173 9.80098 6.83232 7.69517 8.58225 7.64368 6.4383 6.31479 8.98698
threshold=0.00038605837987162824 0.49579328617138635 7.4879010162685878e-05 0.00039836464528315336 5.1124250001151198e-06 0.48763562374103275 0.41407513246323308 0.094437108456044916 0.59955486992146434 5.5822858949302169e-05 7.2971248770627745e-05 0.49515540799491259 0.092798078081868421 0.49513767115241664 0.00017896133973050918 0.094275230794291315 0.17277691242951235 0.00013454272139858448 0.0015270506108202445 0.49515797353989449 0.00039836464528315336 0.49580977661135939 0.053376640022267607 0.094702692783144402 0.0021918615627604565 2.3530085190025511e-06 0.031710411990218935 0.49580964492199087 0.49580947208877307 0.42526706119387986
decision_type=2 2 2 2 2 2 2 2 2 2 2 2 2 2 2 2 2 2 2 2 2 2 2 2 2 2 2 2 2 2
left_child=5 6 3 4 -3 -1 20 8 10 -6 15 16 -13 -7 -15 -4 17 18 -12 -16 -2 22 23 24 -9 -26 -25 -28 29 -24
right_child=1 2 7 -5 9 13 -8 21 -10 -11 11 12 -14 14 19 -17 -18 -19 -20 -21 -22 -23 28 26 25 -27 27 -29 -30 -31
leaf_value=0.016508666812921156 0.001389755218382022 -0.02627054354827893 -0.019541046443414145 0.0015422507283160307 -0.012617882482358395 0.0037180773960248607 -0.0078879694746194582 -0.042109597460259031 -0.035842080527884963 0.0048271255975167598 0.035016406762066715 0.060916896920903109 0.018446671736499491 -0.012608188723749681 -0.057013550149193716 0.037702302273196563 0.016057349244696088 -0.01069642693717604 -0.013264711354292977 -0.027109546520302504 0.016128231205037279 0.0072277275798146414 -0.031111161977891447 -0.00010759624491606031 0.040608815623620495 -0.033296266007599988 0.025743598397640295 -0.0081349186841583043 -0.019861437908048611 0.016587278048746754
leaf_weight=14.668781980872152 92.888649091124535 134.58562704920769 30.569879814982414 357.0342353284359 209.54534755647182 15.669470608234404 60.176437169313431 15.920339763164522 9.9288878440856916 95.571779251098633 20.152272105216984 15.97805881500244 70.501891121268272 52.186866268515587 39.912373453378677 5.226515218615531 144.21289528906345 60.208022832870483 11.693293690681456 45.187860369682312 319.75610035657883 245.37702111899853 12.935060888528822 174.66518706083298 7.712600886821745 5.9687150120735168 62.448396354913712 16.174803674221039 101.75658303499222 32.337494224309921
leaf_count=59 373 542 123 1435 843 63 242 64 40 384 81 64 283 210 161 21 579 242 47 182 1284 986 52 702 31 24 251 65 409 130
internal_value=8.39416e-05 0.00180094 -0.000341124 -0.00648735 -0.0130527 -0.0233336 0.010175 0.00432825 0.0103626 -0.007074 0.0118078 0.0142938 0.0271859 -0.0273993 -0.0311329 -0.00970624 0.00937482 -0.000885548 0.0166629 -0.0419243 0.0128823 0.000988229 -0.00252347 0.00284984 -0.0193039 0.00659179 0.00560298 0.0184453 -0.0129802 0.002041
internal_weight=2480.95 2313.33 1840.5 796.737 439.703 167.625 472.821 1043.77 368.472 305.117 358.543 322.746 86.4799 152.957 137.287 35.7964 236.266 92.0536 31.8456 85.1002 412.645 675.296 429.919 282.89 29.6017 13.6813 253.288 78.6232 147.029 45.2726
internal_count=9972 9297 7398 3204 1769 675 1899 4194 1480 1227 1440 1296 347 616 553 144 949 370 128 343 1657 2714 1728 1137 119 55 1018 316 591 182
is_linear=0
shrinkage=0.05


Tree=2
num_leaves=31
num_cat=0
split_feature=4 6 4 14 4 14 14 5 17 14 0 9 5 17 6 17 15 4 21 7 15 15 12 4 8 19 17 4 5 7
split_gain=31.0263 16.0871 21.0261 13.4337 13.55 12.2623 8.23813 7.76238 7.86366 7.02711 14.1939 11.0899 7.58325 6.79764 8.8345 6.07922 6.23913 7.83786 5.94383 5.94334 5.64986 5.62233 6.68399 6.07566 6.46224 5.32626 6.39277 7.7664 6.28626 5.69449
threshold=1.0000000180025095e-35 0.49579328617138635 8.165950627857825e-05 0.00043659813724027856 3.2636174004337677e-06 0.0004198876949513272 7.3224712498404608e-06 0.52273156699788981 0.095559426610245884 0.042802693875375414 0.0065988898310783079 0.0044796350884003739 0.58114480200289698 0.093572537137544612 0.4958094180093981 0.09501921031936815 5.3210970585861269e-05 7.4309172203879975e-06 0.0001895862430338659 0.4951446034829497 7.3980474781619733e-05 0.00012727978031999989 0.0015721255323368005 2.6690289040231714e-05 0.48766298340761471 0.75000000000000011 0.093792672204096192 4.6105071212477037e-05 0.27468747417518352 0.49035936066997426
decision_type=2 2 2 2 2 2 2 2 2 2 2 2 2 2 2 2 2 2 2 2 2 2 2 2 2 2 2 2 2 2
left_child=5 25 3 4 19 6 -1 8 15 10 11 12 -9 14 -4 -5 -17 -18 -10 -3 -16 22 -6 -23 -25 28 27 -27 29 -2
right_child=1 2 13 7 21 -7 -8 9 18 -11 -12 -13 -14 -15 20 16 17 -19 -20 -21 -22 23 -24 24 -26 26 -28 -29 -30 -31
leaf_value=-0.0040966512623598359 0.022044483687140404 0.0085203102827772163 0.0064734764642453606 0.019761990999572904 0.0028664747168680301 0.015615827027605264 -0.036630136864280981 0.016879789774720908 0.051448868537863124 0.0052020218544323125 -0.023740916769348031 0.050625779425859954 -0.039218056447073511 0.001909902251151073 -0.013526068072180653 0.003990210101371139 -0.047024402992103281 0.015815673367725769 0.0041675180835267075 -0.030685457446615286 0.037393957951334891 0.023200496221183441 -0.014442734197856992 -0.052350232902932253 0.0010347526175267159 0.040305496497467522 -0.0091032232488613106 -0.0042566202527195658 0.015931793980024724 -0.0068481763168505676
leaf_weight=27.552009537816048 21.920998454093933 9.1681217551231367 177.29907651245594 37.352248981595039 70.306166604161263 16.161434143781662 88.030684232711792 12.695256486535074 16.676242232322696 89.312594100832939 87.551878020167351 11.943030521273611 9.4531672000884992 809.05985701084137 4.9593138694763175 54.492803305387497 14.430060014128687 5.9788386970758429 12.945205584168432 103.07097396254539 41.146898493170738 27.583831593394279 228.55743379890919 5.4750424474477759 39.030022472143173 16.942450508475304 70.015112057328224 19.182156279683113 287.02435593307018 65.222822144627571
leaf_count=111 88 37 712 150 283 65 356 51 67 359 352 48 38 3251 20 219 58 24 52 416 165 111 920 22 157 68 281 77 1152 262
internal_value=7.70943e-05 0.00141565 -0.000671216 -0.00657283 -0.0119834 -0.0234299 -0.0291911 0.000779033 0.00984543 -0.00521818 -0.0130527 0.013578 -0.00664321 0.00408508 0.0118074 0.00343591 -0.00452936 -0.0275686 0.0324132 -0.0272152 0.0312153 -0.0072467 -0.0102915 0.00500227 -0.00598942 0.00957043 -8.58208e-05 0.0164923 0.0123692 0.000303776
internal_weight=2480.54 2348.8 1868.49 836.023 483.192 131.744 115.583 352.831 141.875 210.956 121.643 34.0915 22.1484 1032.47 223.405 112.254 74.9017 20.4089 29.6214 112.239 46.1062 370.952 298.864 72.0889 44.5051 480.308 106.14 36.1246 374.168 87.1438
internal_count=9972 9440 7512 3364 1946 532 467 1418 570 848 489 137 89 4148 897 451 301 82 119 453 185 1493 1203 290 179 1928 426 145 1502 350
is_linear=0
shrinkage=0.05


Tree=3
num_leaves=31
num_cat=0
split_feature=16 15 8 22 16 15 8 15 8 21 8 22 15 21 5 15 22 1 21 7 21 22 7 3 7 15 7 5 16 5
split_gain=32.9659 15.6472 14.077 14.4682 13.9247 10.9856 9.79707 9.72631 8.89052 8.61162 10.7979 7.53296 7.14699 6.87517 6.76984 6.78287 7.17453 6.51216 8.86325 11.988 6.40184 10.6417 7.22602 6.07611 6.86733 8.70729 7.83178 9.23759 6.06835 5.9902
threshold=0.00038605837987162824 0.00027474077900622892 0.4868419985528441 0.58358191115137059 0.011140891252601438 7.1045314259737382e-05 0.48763562374103275 1.6021966864059442e-05 0.4910365407240897 0.00018890886737937652 0.48766846076196529 0.55567254834988045 2.8247161828171441e-05 0.00019725739056960975 0.59738791080932274 0.0001256095705797818 0.32454835654751418 0.00017896133973050918 0.00019053957918153261 0.49514034204006296 0.00017819638854703272 0.47635352699527161 0.49411499454017149 2.0284854389467555e-05 0.49515373135752866 4.9023401254837504e-05 0.49523014111126157 0.49298394672296714 0.1410669859327707 0.61717753803097386
decision_type=2 2 2 2 2 2 2 2 2 2 2 2 2 2 2 2 2 2 2 2 2 2 2 2 2 2 2 2 2 2
left_child=6 2 -2 4 5 8 -1 -6 23 -9 29 -3 -12 28 15 -14 -17 -8 19 -19 -7 22 -22 -4 25 -25 -26 -28 -5 -11
right_child=1 11 3 13 7 20 17 9 -10 10 12 -13 14 -15 -16 16 -18 18 -20 -21 21 -23 -24 24 26 -27 27 -29 -30 -31
leaf_value=0.015839501694180944 0.016649577943391791 0.026214663818198994 0.003168490421466566 -0.045062614709803751 -0.030244679235207059 0.025485086172685197 -0.010041923007720742 0.0062139853123484978 0.022592952074003237 -0.013025360229327968 0.031642827806732013 -0.020600863031558489 0.0012885949798171132 0.01125843232938939 -0.0061470135419996533 0.0086648056677969994 0.042612252301375726 0 -0.0029001909512754382 -0.050128701658867986 0.034972459836184674 -0.062622201230699573 -0.0031211464046935387 0.0089118889929736666 -0.040103303870633884 -0.028979903577434837 0.036393565041590165 -0.023497204543616295 0.001068637154844104 0.0066529551932252105
leaf_weight=14.681137442588804 130.52688744664192 84.715262770652771 24.614735215902328 32.028216913342476 21.082561910152435 20.905905783176422 53.059275895357132 919.10403810441494 12.448784232139586 206.71716392040253 20.857850581407547 8.2052657902240735 159.94191825389862 8.213004916906355 148.94450858235359 54.543753102421761 22.907750263810158 15.155668616294859 21.485136285424232 62.488519802689552 12.217281118035315 6.2109416276216498 205.64300647377968 31.832047790288925 68.598656177520752 26.358258470892906 7.2158619314432135 26.592447742819786 7.7024775594472876 45.037676692008972
leaf_count=59 524 340 99 129 85 84 214 3692 50 831 84 33 643 33 599 219 92 61 87 254 49 25 827 128 277 106 29 107 31 181
internal_value=7.69955e-05 0.00163898 0.000781326 -0.00020536 0.000426363 -0.00739731 -0.0213073 0.00261083 -0.0161366 0.00308448 -0.00124546 0.0216391 0.00374174 -0.0270783 0.00209305 0.00737196 0.0194393 -0.0251339 -0.0327813 -0.0405899 -0.000207391 -0.00281816 -0.000720653 -0.0189814 -0.0225296 -0.00802909 -0.0303701 -0.00931792 -0.0356988 -0.0093937
internal_weight=2480.04 2313.17 2220.25 2089.72 2041.78 442.638 166.87 1599.14 197.661 1578.05 658.951 92.9205 407.196 47.9437 386.338 237.393 77.4515 152.189 99.1293 77.6442 244.977 224.071 217.86 185.212 160.597 58.1903 102.407 33.8083 39.7307 251.755
internal_count=9972 9297 8924 8400 8207 1781 675 6426 796 6341 2649 373 1637 193 1553 954 311 616 402 315 985 901 876 746 647 234 413 136 160 1012
is_linear=0
shrinkage=0.05


Tree=4
num_leaves=31
num_cat=0
split_feature=16 22 15 16 15 8 8 15 4 6 8 17 5 21 8 4 10 6 4 6 4 17 10 6 21 11 16 5 22 8
split_gain=29.9113 14.0893 17.3996 12.9439 11.3274 10.4801 8.93618 8.10941 8.05233 7.20889 7.20498 11.1228 8.01492 7.14133 10.3534 6.68634 6.32961 13.7162 10.8705 6.34758 6.00529 5.71366 5.42984 5.82184 6.39139 5.86806 5.31578 5.25172 6.34335 5.55615
threshold=0.00038605837987162824 0.59955486992146434 0.00027474077900622892 0.014307382820348859 0.00012727978031999989 0.4868419985528441 0.48763562374103275 1.4660842539288342e-05 3.7356043966164297e-07 0.49496531013288952 0.48766827782502392 0.093852625416630753 0.42925768142204385 0.00018890886737937652 0.48766846076196529 0.00011226958976271718 0.0065463880921987844 0.49509175841170211 7.4879010162685878e-05 0.49582080597537109 4.149456409122934e-05 0.092679101335265371 0.00012007316074422791 0.49578429501599675 0.00019040482866688991 0.36538119201958746 0.0065393374582856743 0.61717753803097386 0.24606851595119447 0.48766912714806737
decision_type=2 2 2 2 2 2 2 2 2 2 2 2 2 2 2 2 2 2 2 2 2 2 2 2 2 2 2 2 2 2
left_child=6 2 3 4 9 -5 -1 -7 -3 26 11 21 15 16 -15 -12 18 -18 19 20 -9 -6 -8 -24 -25 -26 -2 -16 29 -29
right_child=1 8 -4 5 10 7 22 13 -10 -11 12 -13 -14 14 27 -17 17 -19 -20 -21 -22 -23 23 24 25 -27 -28 28 -30 -31
leaf_value=0.015083617133269715 0.030043394295965323 0.029485361686864539 0.024212749934126677 0.021036727715621747 0.013209338924068054 -0.030750676672353035 -0.0083616714400733989 0.0014748601667569998 -0.029846181444693844 -0.010505052995470726 0.00037694776843562907 0 0.0093194923531527158 -0.0092526835426326708 0.0079246189010681572 -0.05185763580711128 -0.010787291389615726 0.022130741493875592 0.0077453223346504859 -0.040517036607603696 -0.019203664583943961 0.062319968556493521 0.0037039534219961965 -0.041711745867375444 -0.033900891643367424 0.011483838588492204 -0.0063974249635855148 0.010581286803147998 0.0037822353143552052 -0.029882062041111036
leaf_weight=14.695731416344641 18.968525528907776 5.2277856171131125 85.320578813552856 81.551695600152016 12.472653537988664 16.806134238839149 44.864231243729591 138.32430164515972 49.319082230329514 426.17069540917873 10.218349978327753 29.104308634996414 42.802435696125031 235.18576498329639 267.55233407020569 11.441279605031012 39.405950799584389 135.33786818385124 498.93848645687103 11.682366281747816 45.239994838833809 15.952104553580282 9.9555370509624463 71.2242471575737 12.80449563264847 12.856331571936606 17.709927380084991 9.7071121633052808 76.066422343254089 32.556239545345306
leaf_count=59 76 21 342 327 50 68 181 556 199 1717 41 117 172 946 1075 46 158 543 2003 47 182 64 40 291 52 52 71 39 306 131
internal_value=7.31084e-05 0.00155959 0.00218064 0.00129341 -0.0050424 0.00364372 -0.0203263 0.00267246 -0.0232813 -0.00863907 0.0083598 0.0211162 -0.00279139 0.00308659 -0.000972769 -0.0271826 0.00601454 0.0145461 0.00381314 -0.00609613 -0.00356241 0.0428014 -0.0239965 -0.0301916 -0.0339322 -0.0106471 0.0120819 0.00401989 -0.00459191 -0.0199808
internal_weight=2479.46 2313.06 2258.52 2173.19 584.84 1588.35 166.401 1506.8 54.5469 462.849 121.991 57.5291 64.4621 1490 621.068 21.6596 868.929 174.744 694.185 195.247 183.564 28.4248 151.705 106.841 96.8851 25.6608 36.6785 385.882 118.33 42.2634
internal_count=9972 9297 9077 8735 2354 6381 675 6054 220 1864 490 231 259 5986 2497 87 3489 701 2788 785 738 114 616 435 395 104 147 1551 476 170
is_linear=0
shrinkage=0.05


Tree=5
num_leaves=31
num_cat=0
split_feature=4 21 15 0 4 15 22 15 22 7 7 7 11 6 6 11 15 7 21 4 9 3 4 5 11 8 15 18 8 22
split_gain=19.8539 16.1737 10.9428 10.5286 20.2936 10.5577 9.59879 8.35258 11.1956 9.97499 8.13532 8.04757 8.27016 7.87701 8.36597 9.97028 7.0815 6.87729 6.74804 6.73028 6.62358 10.051 8.66277 8.85072 6.46662 6.45975 6.44957 6.41582 6.20536 6.09866
threshold=1.0000000180025095e-35 0.00018881541760521221 0.00026612660356655811 0.0065155260057063692 5.7565145717351173e-06 0.0001193041292216015 0.59955486992146434 5.5594772527972673e-05 0.19449263107371875 0.4951131448461949 0.49515249190395122 0.49515573446991118 0.3652606034233607 0.49583576842353522 0.49580145717296209 0.36535876606785106 0.00017420628332071269 0.4951131448461949 0.00018858333299390034 4.5258948182734949e-06 0.0015448081623309227 0.00015724251783315874 2.9130807166834745e-05 0.39460493681353576 0.36538045664272795 0.48766008577417713 5.7030719375870797e-05 0.038918509435016499 0.48766800741600286 0.23357714264876403
decision_type=2 2 2 2 2 2 2 2 2 2 2 2 2 2 2 2 2 2 2 2 2 2 2 2 2 2 2 2 2 2
left_child=13 3 7 4 10 20 24 8 -3 16 17 19 -13 14 25 27 -9 -2 28 -11 21 29 23 -23 -4 -1 -14 -16 -7 -6
right_child=1 2 6 -5 5 18 -8 9 -10 11 -12 12 26 -15 15 -17 -18 -19 -20 -21 -22 22 -24 -25 -26 -27 -28 -29 -30 -31
leaf_value=-0.024597330277714116 -0.021673365189315799 -0.023158621362522301 0.050135437216892599 0.012731906790695819 0.0072506570550337828 0.016930104256765659 -0.028506633768283208 0.023218318714632341 -0.0014349605167485631 -0.05176451600848532 -0.029063071515066641 0.017328989835292071 0.036827424725526893 0.011014466916947145 -0.040322927468943864 -0.042463796303462802 -0.025528838798997713 0.0063301655474208981 0.06259107917597545 -0.0080282130476647725 0.018057431867070466 -0.020133323559034383 -0.038230177744225241 0.02349444879080324 -0.0035459682968504887 0.029771857456744485 -0.0035840950930548852 0.001736978226346131 0.0046587427859696058 -0.0070719271154031623
leaf_weight=8.3699150532484072 34.877927005290985 118.12378107011318 20.961598694324497 350.76415058970451 199.75602021813393 191.42044322192669 5.6872812807559958 57.562941372394562 123.62252222001553 8.4037546068429929 57.48326700925827 67.458759114146233 9.1836614310741407 18.76612114906311 11.140492424368857 55.646876484155655 7.2262759506702414 53.627253234386444 5.4820167273282996 274.01923042535782 44.843112349510193 30.590796455740929 30.845712244510651 17.152724638581276 6.2373737990856162 11.591076970100401 268.22512382268906 31.6460902094841 240.38999670743942 115.8727502822876
leaf_count=34 140 476 84 1407 803 768 23 231 498 34 233 271 37 76 45 229 29 216 22 1102 180 123 124 69 25 47 1080 128 965 466
internal_value=0.000660817 0.00175736 -0.00317899 0.0052507 0.00264954 0.00554838 0.0246341 -0.00421052 -0.0122044 -0.00136858 -0.0145011 -0.00333964 0.00172445 -0.0177415 -0.022563 -0.0285445 0.0170959 -0.00454494 0.0110383 -0.00959588 1.1134e-05 -0.00201891 -0.0179296 -0.00378593 0.0372493 0.00569557 -0.002029 -0.00931415 0.0101829 0.0019079
internal_weight=2476.98 2339.82 966.712 1373.11 1022.34 876.354 32.8863 933.826 241.746 692.08 145.988 627.291 344.868 137.161 118.394 98.4335 64.7892 88.5052 437.292 282.423 439.061 394.218 78.5892 47.7435 27.199 19.961 277.409 42.7866 431.81 315.629
internal_count=9965 9406 3890 5516 4109 3520 132 3758 974 2784 589 2524 1388 559 483 402 260 356 1755 1136 1765 1585 316 192 109 81 1117 173 1733 1269
is_linear=0
shrinkage=0.05


Tree=6
num_leaves=31
num_cat=0
split_feature=16 14 5 15 0 21 15 5 16 11 7 21 5 15 8 12 5 12 16 3 8 4 16 7 14 15 12 4 12 5
split_gain=24.6901 13.0719 12.0226 13.9118 12.6445 11.9944 11.5005 9.83662 9.06624 8.77867 8.55807 8.12083 7.37038 9.97928 7.33195 8.234 10.0143 9.11592 7.13676 6.6078 8.17982 6.31946 6.0665 5.9884 15.1896 5.97345 7.37376 5.7675 6.39072 6.12873
threshold=0.01294415422745558 0.00036160167224745223 0.43439746649423472 5.747153291108537e-05 0.0063948557170464366 0.00018815794463235093 6.5302771768955661e-05 0.39802357285126339 0.01721120548616021 0.3652448776661093 0.49515537591230352 0.00017757237490953739 0.43071529297870309 8.899350583760537e-05 0.48739462137527073 0.0037930889453171913 0.5655856322564724 0.0032291111432838477 0.1020065541262037 0.97084198543204192 0.48768682479177677 0.0014430139017438195 0.02479169858407251 0.48580101080256066 0.11454129103954906 5.5067038579786853e-05 0.0019970403727464056 9.7315660298295789e-05 0.0073123963674320835 0.23837373143331958
decision_type=2 2 2 2 2 2 2 2 2 2 2 2 2 2 2 2 2 2 2 2 2 2 2 2 2 2 2 2 2 2
left_child=1 6 3 4 8 23 9 11 -2 -1 18 -8 13 -9 -4 17 -17 19 -5 20 -16 -14 -18 24 -3 -25 -27 -20 -29 -30
right_child=2 5 14 10 -6 -7 7 12 -10 -11 -12 -13 21 -15 15 16 22 -19 27 -21 -22 -23 -24 25 -26 26 -28 28 29 -31
leaf_value=0.029442884608234798 0.034074517323085841 -0.06338451991456924 0.01792218318584583 0.012289941284172937 0.0095462100160153673 -0.0082467003465005739 0.0047261993586642697 0.063042938371945814 -0.023921509311747222 -0.02345289785730105 0.023413612182873838 -0.028294995142142329 -0.0062682067927754175 0.0014412803390449185 -0.0046693273519607384 0.016420494236899851 -0.023344502133512326 -0.019455219602142474 0.014096167497604041 -0.046879551443677447 0.0087044565231334716 0.027533022135227209 0.0022506904350976477 0.030668226788100036 0.031932051704207411 -0.020211228057910952 0.017566122208493223 -0.020022086256930593 0.028495044168292072 -0.028929081764035337
leaf_weight=6.9493623673915854 6.213558927178382 7.238058999180792 54.612719416618347 347.71748818457127 78.093650996685028 130.59660249948502 23.862023621797562 9.4204786717891711 71.985768482089043 186.08185602724552 134.09585039317608 65.226129919290543 162.76756002008915 20.342372506856918 407.63835836946964 130.99606272578239 27.099177703261375 81.285358816385269 33.8980742841959 6.9598525762557975 157.26809990406036 13.938632696866987 125.15019756555557 48.071575298905373 7.2462782859802246 16.911000654101372 42.887402281165123 51.329130709171295 15.213825762271883 5.2406711876392356
leaf_count=28 25 29 219 1395 313 526 96 38 290 759 538 263 657 82 1640 526 109 327 136 28 632 56 503 193 29 68 172 206 61 21
internal_value=0.000625412 -0.00699312 0.00389851 0.00869963 -0.00441906 0.00214523 -0.01177 -0.00542523 -0.0186256 -0.0212778 0.0122337 -0.0192186 0.000469828 0.0231675 0.000264759 -0.000756412 0.00631639 -0.00386678 0.00882789 -0.0015773 -0.000893131 -0.00332134 -0.00226452 0.0134168 -0.015102 0.0175794 0.00631477 -0.00233716 -0.0105279 0.0119545
internal_weight=2476.34 741.539 1734.8 743.788 156.293 252.951 488.588 295.557 78.1993 193.031 587.495 89.0882 206.469 29.7629 991.01 936.397 283.245 653.152 453.399 571.866 564.906 176.706 152.249 122.354 14.4843 107.87 59.7984 105.682 71.7836 20.4545
internal_count=9965 2996 6969 2985 628 1017 1979 1192 315 787 2357 359 833 120 3984 3765 1138 2627 1819 2300 2272 713 612 491 58 433 240 424 288 82
is_linear=0
shrinkage=0.05


Tree=7
num_leaves=31
num_cat=0
split_feature=16 17 14 16 21 15 5 17 11 6 5 15 15 19 4 6 6 15 4 16 17 6 16 16 16 5 15 14 17 4
split_gain=22.2678 19.3668 11.7907 10.9243 10.8266 10.4509 8.92604 9.1417 8.02076 7.60538 6.71343 9.02475 6.61763 6.43657 8.29596 5.87682 9.04875 7.66765 8.64063 7.06309 6.68225 6.63988 5.77985 8.42331 10.2614 7.36669 8.14941 11.7126 5.73125 5.60838
threshold=0.01294415422745558 0.094437108456044916 0.00036160167224745223 0.1020065541262037 0.00018815794463235093 6.5302771768955661e-05 0.39802357285126339 0.093715637360816451 0.3652448776661093 0.49580932676964634 0.43071529297870309 8.899350583760537e-05 0.00012026950431146121 0.75000000000000011 0.0014430139017438195 0.49583060305993459 0.49581500589492089 0.00026612660356655811 0.012949653952948654 0.07614088280062993 0.095770727156253635 0.49587342086091762 0.047701974092211469 0.02479169858407251 0.019920198943400313 0.35080542638099593 0.00014110051237614218 1.6007445122153113e-05 0.095626048733397126 0.0021918615627604565
decision_type=2 2 2 2 2 2 2 2 2 2 2 2 2 2 2 2 2 2 2 2 2 2 2 2 2 2 2 2 2 2
left_child=2 3 5 22 -4 8 7 -7 -1 -5 11 -8 -11 14 -12 16 17 18 -3 -20 28 -22 23 24 -2 26 27 -24 -17 -26
right_child=1 15 4 9 -6 6 10 -9 -10 12 13 -13 -14 -15 -16 20 -18 -19 19 -21 21 -23 25 -25 29 -27 -28 -29 -30 -31
leaf_value=0.028098652532137388 0.0071344259855016974 0.00038054072196062817 0.012738389962183586 -0.005865637857061505 -0.0078425769880847967 -0.0075944577339060876 0.05994537372048471 -0.043729717226611696 -0.022360043935724105 0.0016362945234997834 -0.0034097804383479142 0.0013724468093455648 0.050544459845928494 -0.03163419909944807 0.037240623045565746 0.010555259446057683 -0.017803561276036186 0.033839228574885687 -0.040018108679162633 -0.0043121242227879908 0.015150107708165231 -0.0053817213479886552 -0.022615700218588317 0.0021153934550160957 0.05100784119426937 0.03475891133420464 0.032177755758288247 0.018046708883315676 0.043212954434168283 0.0031870017439414771
leaf_weight=6.9651409536600104 58.080068662762642 719.35405361652374 122.40500581264496 123.05414500832558 130.5135490000248 64.219390913844109 9.4623914659023303 24.715470522642136 185.48221673071384 18.689784407615665 147.0872059315443 20.344580620527267 11.228815212845801 16.834067955613136 12.713060453534125 75.028542935848236 81.706084921956062 14.990821436047552 23.623977705836296 36.512238070368767 55.132998168468475 129.98604476451874 26.141004860401154 146.615433126688 30.158430263400078 71.372817143797874 37.932738855481148 49.129590913653374 16.921791777014732 9.2343396097421628
leaf_count=28 233 2891 491 494 526 259 38 100 759 75 594 82 45 68 51 301 329 60 95 147 222 523 105 588 121 286 152 197 68 37
internal_value=0.000596978 0.00370452 -0.00664269 0.0111349 0.00203048 -0.0111855 -0.00513469 -0.0182892 -0.0202688 -0.000177561 0.000472605 0.0221205 0.0218418 -0.0031437 0 -2.76707e-05 -0.00205701 -0.000385831 -0.00111858 -0.019173 0.00628421 0.000647384 0.015221 0.00991768 0.0212591 0.0220084 0.0135165 0.00348576 0.0172345 0.0407732
internal_weight=2475.64 1734.89 740.742 581.637 252.919 487.824 295.376 88.9349 192.447 152.973 206.441 29.807 29.9186 176.634 159.8 1153.26 876.187 794.481 779.49 60.1362 277.069 185.119 428.664 244.088 97.4728 184.576 113.203 75.2706 91.9503 39.3928
internal_count=9965 6969 2996 2333 1017 1979 1192 359 787 614 833 120 120 713 645 4636 3522 3193 3133 242 1114 745 1719 979 391 740 454 302 369 158
is_linear=0
shrinkage=0.05


Tree=8
num_leaves=31
num_cat=0
split_feature=17 14 15 12 15 18 5 17 18 4 15 5 12 12 11 18 17 5 6 15 21 4 18 4 18 5 21 21 21 1
split_gain=17.7616 10.8783 15.5009 9.52552 7.68993 8.42367 7.68833 8.9409 8.25233 7.01731 7.24657 6.06353 5.804 5.6128 10.9424 12.583 9.76832 9.54875 9.39667 10.007 8.91228 8.69719 7.93895 7.78523 8.28198 9.68083 6.25039 6.23224 7.03513 6.19289
threshold=0.094556034786608997 0.00066296892878131705 7.6446083462883258e-05 0.003730141245303725 0.00026612660356655811 0.038442036124077976 0.3930446016874613 0.093715637360816451 0.037926615295852624 0.012949653952948654 4.5387428124695554e-06 0.40750276791972068 0.008483744294699674 0.0037930889453171913 0.36944315312022308 0.038802973045259273 0.10093044355208608 0.55181149305020416 0.49296552265939736 5.2263102627237035e-05 0.00018861599446626682 6.9186386513604746e-07 0.046248322526105883 1.0942039996868771e-05 0.039617618774563552 0.44708930607796776 0.00019076991399144129 0.00018802103194450877 0.00018830399559976519 0.93105336538455885
decision_type=2 2 2 2 2 2 2 2 2 2 2 2 2 2 2 2 2 2 2 2 2 2 2 2 2 2 2 2 2 2
left_child=1 2 3 -1 5 -2 7 -4 -9 10 -7 -8 -6 14 15 -12 21 18 19 -16 -19 -15 -18 24 25 -17 29 -27 -29 -22
right_child=4 -3 6 -5 12 9 11 8 -10 -11 13 -13 -14 16 17 23 22 20 -20 -21 26 -23 -24 -25 -26 27 -28 28 -30 -31
leaf_value=-0.0041666484952538286 -0.018309679028584748 0.017662156955931388 0.0077075583584071605 -0.036996794718395058 -0.016961657913430666 -0.042105331113313514 0.034318049367935338 -0.042034235604270671 -0.00078533315151126559 -0.019981194339119514 0.022641144871134795 0.009882183683874746 0.028460424595632125 -0.021612426534851632 -0.039753834425272583 -0.0056596588513786366 -0.048436885925145827 0.044188723449025441 0.012854755115108391 0.0077761084876759798 -0.03363185443387267 0.009718068799754228 0.0015217150357514106 -0.0037153968975864823 -0.004501179946047801 -0.053064550821286374 -0.0011157131613263808 0.025132305107873149 -0.028245462305617308 0.0079981018740969967
leaf_weight=118.54375152289867 83.495336771011353 176.27528417110443 304.01542377471924 26.997933059930801 7.4719462543725959 9.8808291852474195 41.903338968753815 16.661056384444237 43.000022977590561 51.851820439100266 34.207908719778061 76.018390715122223 32.12771937251091 22.639435604214668 17.96126551926136 55.977394312620163 13.919288426637651 6.7167945057153693 238.85119412839413 24.462770655751228 38.438597336411476 284.7393998503685 14.929852738976477 443.68583858013153 117.90576702356339 27.783452913165092 72.695997357368469 5.6494343280792227 56.066811427474022 9.954123452305792
leaf_count=479 336 706 1220 110 30 41 168 67 173 209 138 305 129 92 72 227 56 27 959 98 155 1145 60 1786 480 113 293 23 228 40
internal_value=0.00057458 0.00668759 0.00353988 -0.0106381 -0.00235112 -0.00289756 0.00788952 0.00417905 -0.0132197 -0.00203902 -0.00138771 0.0189912 0.0190674 -0.00107214 -0.0027467 -0.00637885 0.00457414 0.00377349 0.00895384 -0.0122232 -0.00741435 0.00726681 -0.0225602 -0.00784813 -0.0146751 -0.022663 -0.01082 -0.0328415 -0.0226379 -0.0245741
internal_weight=2474.83 803.415 627.14 145.542 1671.41 1631.81 481.598 363.677 59.6611 1548.32 1496.47 117.922 39.5997 1486.59 1150.36 741.277 336.228 409.081 281.275 42.424 127.806 307.379 28.8491 707.069 263.383 145.477 121.089 89.4997 61.7162 48.3927
internal_count=9965 3228 2522 589 6737 6578 1933 1460 240 6242 6033 473 159 5992 4639 2995 1353 1644 1129 170 515 1237 116 2857 1071 591 488 364 251 195
is_linear=0
shrinkage=0.05


Tree=9
num_leaves=31
num_cat=0
split_feature=16 17 22 15 11 5 15 14 4 6 8 22 8 4 8 17 18 18 6 16 17 0 7 14 8 8 15 4 18 16
split_gain=19.3659 16.1501 11.8938 11.0109 10.0182 8.81274 8.5704 8.71822 7.78326 7.42963 6.91342 6.14505 6.07583 14.314 7.30634 6.89071 6.04238 8.36936 6.69124 6.47964 6.81523 5.99971 5.96864 13.864 5.84516 5.6826 5.67277 7.72042 7.35757 6.83294
threshold=0.01294415422745558 0.094437108456044916 0.62171160226222433 0.00061111225384977673 0.36955772141236093 0.55454524511321945 5.747153291108537e-05 0.00057906022790104705 2.55160774887529e-06 0.49579435147968381 0.48739462137527073 0.073189701997496484 0.48766204378851691 1.0102248500002305e-05 0.48765454977313633 0.1015229147013179 0.037734980715455939 0.034897906329669375 0.4958094180093981 0.1020065541262037 0.09319866857231153 0.00021023629052481835 0.48580101080256066 0.10679121071182875 0.48763819741422254 0.4876682805652176 0.00026612660356655811 0.012949653952948654 0.038487472827802773 0.07614088280062993
decision_type=2 2 2 2 2 2 2 2 2 2 2 2 2 2 2 2 2 2 2 2 2 2 2 2 2 2 2 2 2 2
left_child=3 2 6 4 8 22 7 -2 9 -1 -3 -10 13 -12 -15 26 17 -8 19 20 -19 -22 23 -6 -21 -18 27 28 -14 -29
right_child=1 10 -4 -5 5 -7 16 -9 11 -11 12 -13 15 14 -16 -17 25 18 -20 24 21 -23 -24 -25 -26 -27 -28 29 -30 -31
leaf_value=0.0015416792565332081 -0.017714628166461899 0.014670213360876247 -0.02595851450545766 0.045000041325553901 -0.05733017876518684 -0.017697368343214434 0.022057438035595185 0.019052329861926749 -0.025540139791808077 -0.020705752399486757 -0.02422212636006664 -0.0023156221634011783 -0.016017450994294205 0.026644051713164738 -0.012839100632848169 -0.033661090451081115 0.016261324629689756 0.012276488980438392 0.041894735373209951 0.0088482221200631966 -0.033794449858290845 0.020062740152600646 0.014137060450943173 0.027011162206643381 -0.027465231438625001 0.0398376334701636 0.028708444712747722 -0.037390140204252846 0.0027642383710209419 -0.0021551494000168125
leaf_weight=43.147081315517426 44.873192593455315 74.148554801940918 20.55035737156868 9.2350584715604764 8.9599360674619692 35.88953073322773 72.666859030723572 23.483537808060646 31.253238439559937 206.45504620671272 78.972982853651047 282.84770995378494 54.483878329396248 27.412734687328339 18.177264854311943 13.653011620044706 223.1599877178669 87.361631914973259 8.7301463633775693 14.465790852904318 16.207069337368015 5.9926889538764945 113.36543162167072 8.2456455826759321 33.383851781487465 30.948407143354416 16.978182286024094 23.507828786969185 810.09002786874771 35.448034703731537
leaf_count=174 181 297 83 37 36 145 291 94 126 849 318 1141 219 110 73 55 894 350 35 58 65 24 455 33 134 124 68 95 3258 143
internal_value=0.000538618 0.00343572 0.010219 -0.00621994 -0.00696262 0.00368848 0.0116319 -0.00463053 -0.0101531 -0.0167694 0 -0.00477954 -0.00101413 -0.0113593 0.0104274 0.000320703 0.0139426 0.00800052 0.00160754 -0.000719369 0.00582084 -0.0179403 0.00984656 -0.0162735 -0.0160189 0.0193756 0.000875786 0.000306571 0.00153463 -0.0170109
internal_weight=2474.09 1734.7 581.824 739.399 730.164 166.461 561.273 68.3567 563.703 249.602 1152.87 314.101 1078.72 124.563 45.59 954.161 492.916 238.808 166.141 157.411 109.561 22.1998 130.571 17.2056 47.8496 254.108 940.508 923.53 864.574 58.9559
internal_count=9965 6969 2333 2996 2959 669 2250 275 2290 1023 4636 1267 4339 501 183 3838 1975 957 666 631 439 89 524 69 192 1018 3783 3715 3477 238
is_linear=0
shrinkage=0.05


Tree=10
num_leaves=31
num_cat=0
split_feature=21 8 15 14 5 18 14 3 22 2 22 18 14 5 9 22 5 18 6 6 14 22 18 8 9 14 8 17 3 18
split_gain=14.7226 10.4414 9.83236 9.7857 9.60289 9.64296 9.5429 9.19244 9.45363 9.01657 7.46454 7.67152 6.96004 8.64719 6.63813 5.60459 5.46871 9.13349 9.07591 6.46019 7.00891 6.33505 5.35851 5.89868 6.52296 6.96608 6.22163 5.8894 5.30744 5.28675
threshold=0.00016914319098375902 0.4868419985528441 6.8341701704998186e-05 0.00038878399170415165 0.54268594533578851 0.039563505922725346 7.6548976484420548e-06 0.0065600017592831903 0.21661243873410738 0.031071123954187967 0.58358191115137059 0.061446652382718174 1.7754956334962839e-06 0.50509354002487661 2.9230354335611428e-07 0.22695222077274954 0.36322456865929836 0.038892007110767242 0.49548977734441851 0.49579146969250226 0.00053663798507682205 0.44897363445254529 0.039692363585454631 0.48765454977313633 0.0045888670202025037 0.00023072548824035858 0.48766767768866343 0.095959902506351571 2.6727073664545248e-05 0.040166273861284539
decision_type=2 2 2 2 2 2 2 2 2 2 2 2 2 2 2 2 2 2 2 2 2 2 2 2 2 2 2 2 2 2
left_child=-1 -2 3 6 5 16 12 -6 -9 -10 11 -4 14 15 -3 28 18 -18 -5 20 -19 -20 27 -24 25 26 -25 -8 -14 -11
right_child=1 2 10 4 7 -7 22 8 9 29 -12 -13 13 -15 -16 -17 17 19 21 -21 -22 -23 23 24 -26 -27 -28 -29 -30 -31
leaf_value=0.02553563124807072 0.011832382447693041 0.02928163547188305 0.00012931122155573327 -0.010868107759601019 0.02212658938529596 0.024739795325497117 -0.01870793525327984 -0.032766176941121626 -0.035864865377729475 0.021464864389120007 -0.020909790424642801 0.040773453966435967 0.055317871661972121 -0.01475516727811696 -0.016231514828839395 -0.00017634147105052007 -0.03408288885270138 0.045416547134997598 0.047765889019221408 -0.011553589777166298 0.0031446251046343219 -0.0072998804941555697 0.025793118849260849 -0.025896779682941143 0.03327155020081337 -0.047547451384216503 0.00059246460499294844 -0.05204090445943204 0.01231036798571955 -0.010561328901605308
leaf_weight=49.1717169880867 131.28881001472473 7.7072618007659903 1433.5584113746881 17.214905053377151 16.129377961158752 48.800068855285645 187.3673053085804 50.484343871474266 15.364900469779966 27.08240319788456 40.973669335246086 10.719063073396681 14.643071398138998 22.755165800452232 73.767632260918617 17.502264454960823 21.197218969464302 11.218052282929419 19.473052352666858 58.200991198420525 59.372755363583565 5.6963166892528525 10.52460704743862 33.394518151879311 6.4006312936544409 13.321900799870489 57.313910320401192 14.858986675739287 18.200204119086266 21.838690742850304
leaf_count=197 526 31 5763 69 65 196 766 204 62 109 166 43 59 92 298 71 85 45 78 234 238 23 43 137 26 54 233 61 74 88
internal_value=-0.00124672 -0.00180095 -0.00258291 -0.00686925 -0.000712842 0.00512994 -0.0116001 -0.0116246 -0.0167339 -0.00345169 -0.000110566 0.000476262 -0.00119363 0.00975603 -0.0113202 0.0213931 0 -0.00444256 0.0156985 0.000468192 0.0107521 0.0345454 -0.0164812 -0.00773759 -0.0113604 -0.0146351 -0.00906305 -0.0215242 0.0332918 0.0067422
internal_weight=2515.54 2466.37 2335.08 849.831 372.073 241.173 477.757 130.9 114.77 64.286 1485.25 1444.28 154.576 73.1007 81.4749 50.3455 192.373 149.989 42.3843 128.792 70.5908 25.1694 323.182 120.956 110.431 104.03 90.7084 202.226 32.8433 48.9211
internal_count=10136 9939 9413 3441 1496 968 1945 528 463 259 5972 5806 625 296 329 204 772 602 170 517 283 101 1320 493 450 424 370 827 133 197
is_linear=0
shrinkage=0.05


Tree=11
num_leaves=31
num_cat=0
split_feature=16 21 8 4 14 8 2 22 18 7 17 22 14 21 17 17 21 18 8 15 17 17 2 6 16 7 8 17 22 2
split_gain=17.8771 12.6671 7.88121 10.2517 9.58786 8.67714 8.43757 8.48656 6.82051 8.02765 6.36139 6.91083 10.6801 9.06283 8.82857 6.70066 5.64738 8.0907 7.56422 6.95706 7.3151 8.29019 6.632 7.56884 7.26771 6.15421 8.67747 7.139 7.12281 9.35303
threshold=0.00038605837987162824 0.00016914319098375902 0.4868419985528441 6.5525609323700203e-06 0.00038878399170415165 0.48727482732106436 0.034428755322833869 0.58358191115137059 0.039576403533854283 0.49515249190395122 0.096807237435416457 0.12767298000761915 0.00049452767050865785 0.00019095456920483262 0.094324343765396015 0.096408977876061813 0.00018986945330190543 0.04067451071609892 0.48766837266767932 0.00037044582259280573 0.097320226751109754 0.096290503764163524 0.030810820986226967 0.49559003438773458 0.10640416725182487 0.49515542898836146 0.48766826855530682 0.093523701476839069 0.20948718571648142 0.000120787223167129
decision_type=2 2 2 2 2 2 2 2 2 2 2 2 2 2 2 2 2 2 2 2 2 2 2 2 2 2 2 2 2 2
left_child=-1 -2 -3 4 8 -6 7 16 9 -4 11 12 -7 14 -13 -15 19 18 -18 20 21 22 23 24 -5 -25 27 -27 -29 -30
right_child=1 2 3 6 5 10 -8 -9 -10 -11 -12 13 -14 15 -16 -17 17 -19 -20 -21 -22 -23 -24 25 -26 26 -28 28 29 -31
leaf_value=-0.016802387073622069 0.024993716532725026 0.011386640393649648 -0.011230254432121495 0.048727459423065361 -0.033701747990867115 0.049762713588245959 0.028359819268809667 -0.022562647940687706 -0.0036733637618887303 -0.03839155708509788 -0.021768067268996997 0.032729005247596116 -0.015222284524584235 0.048529505403109741 -0.001827225857814049 0.0056234306734383316 -0.019601423344396369 0.0042660524261872281 -0.0030070631318982436 -0.037670159413209232 0.05896945867746442 -0.023432921388168521 -0.028775048248862907 0.00032510877087814588 -0.0021328918030641972 0.023996272710810649 0.02487550406571731 0.0079528323527888953 0.00047402602987743923 -0.034440437237042605
leaf_weight=169.76756379008293 48.442125365138054 128.32996389269829 65.885757967829704 17.482296913862232 19.93975305557251 5.7219420522451392 26.191471070051193 38.68562088906765 72.711015000939369 51.890734046697617 31.220447644591331 19.460408955812454 83.269900932908058 18.877384036779404 183.69510835409164 20.092209130525589 99.630184903740883 215.69430373609066 233.00168910622597 9.2401558011770231 4.9804381877183905 27.094774216413498 13.972174882888792 540.75542233884335 9.7392331808805448 41.125476598739624 67.866460308432579 160.48314560949802 63.643518909811974 25.63427247107029
leaf_count=700 194 514 267 70 80 23 105 157 297 213 126 78 335 76 738 81 402 868 937 37 20 109 56 2172 39 165 273 645 256 103
internal_value=-0.00118314 -3.49235e-05 -0.000584449 -0.00130951 -0.00704542 -0.00238716 0.000737437 0.00024265 -0.0162019 -0.0236301 -0.000507065 0.00148183 -0.0102596 0.0059246 0.00150458 0.0277273 0.000849829 -0.00318886 -0.00809621 0.00313128 0.0035828 0.00321139 0.00402944 0.00458146 0.0302142 0.00374529 0.00881588 0.00491098 0.00158555 -0.00954447
internal_weight=2514.52 2344.76 2296.32 2167.99 572.765 382.277 1595.22 1569.03 190.488 117.776 362.337 331.117 88.9918 242.125 203.156 38.9696 1530.34 548.326 332.632 982.017 972.777 967.797 940.702 926.73 27.2215 899.508 358.753 290.886 249.761 89.2778
internal_count=10136 9436 9242 8728 2314 1537 6414 6309 777 480 1457 1331 358 973 816 157 6152 2207 1339 3945 3908 3888 3779 3723 109 3614 1442 1169 1004 359
is_linear=0
shrinkage=0.05


Tree=12
num_leaves=31
num_cat=0
split_feature=16 21 8 16 17 18 12 8 5 12 12 22 14 7 9 2 9 2 12 16 7 22 16 22 18 7 12 7 22 18
split_gain=16.1947 11.4564 7.11814 6.82108 6.03452 12.1197 11.0368 9.03661 6.91635 10.8296 7.99785 7.21477 8.39519 6.97958 6.75921 13.3268 10.955 7.93548 6.59999 6.46838 5.86851 5.79318 5.97231 5.49359 5.31992 5.22666 6.34289 6.04434 5.81524 5.21339
threshold=0.00038605837987162824 0.00016914319098375902 0.4868419985528441 0.014055222594482773 0.095754352687947172 0.039585538204123576 0.0052053370108278109 0.48766815037711347 0.45578206268137161 0.001710996338430173 0.0039278437750314274 0.11535458799660823 2.5573660879016137e-07 0.49515528307627926 0.0045012366707452975 0.030712515078114035 0.0016703636398743573 0.031659574812610454 0.0063278439262940194 0.28534949415808214 0.49411499454017149 0.038921205365541341 0.0019688837499692658 0.087105711118933532 0.042625764494410988 0.49515325660889192 0.0039278437750314274 0.49515512424018132 0.17277691242951235 0.041114450853717142
decision_type=2 2 2 2 2 2 2 2 2 2 2 2 2 2 2 2 2 2 2 2 2 2 2 2 2 2 2 2 2 2
left_child=-1 -2 -3 21 5 7 19 14 11 -10 -11 13 -13 -9 16 -16 -5 -17 -8 20 -6 -4 -23 -15 -7 26 -14 -27 -28 -20
right_child=1 2 3 4 6 24 18 8 9 10 -12 12 25 23 15 17 -18 -19 29 -21 -22 22 -24 -25 -26 27 28 -29 -30 -31
leaf_value=-0.016011025265389004 0.023771704628451074 0.010820142131823732 0.025803401838644543 -0.0047429379625482269 0.027923545420363374 0.019285493709570119 0.024735804842092004 -0.0067671295513813947 0.010156642762824627 -0.029560603273482124 0.023193718286863545 -0.034525743286290655 0.038277213123106855 0.053378881757762002 0.018731699011684599 -0.048202802224237992 -0.034057200503164485 0 0.016739235312144017 0.024213019131026629 -0.0090654919353456258 0.0043276804017033368 -0.0092411516420152356 0 -0.026138082027930207 -0.0095236738747170088 -0.022722046691884611 0.015732439716266929 0.030375175641657339 -0.0072883162418527526
leaf_weight=169.31186664104462 48.437200903892517 128.34819240868092 12.689246654510496 281.56113709509373 9.7192021757364255 124.69073075056076 43.568406268954277 92.208327025175095 53.440814614295959 44.735219672322273 7.2153468877077094 7.1831968724727622 46.093902245163918 8.4802798330783862 71.330035090446472 12.731215655803679 35.625789508223534 22.69255131483078 34.109949856996536 14.629814088344572 454.40618698298931 95.428183883428574 451.59522798657417 9.4653737396001798 5.4927234649658194 27.380215466022491 9.4748471230268496 120.90046972036362 8.985948979854582 61.423075139522552
leaf_count=700 194 514 51 1132 39 501 175 370 215 180 29 29 185 34 286 51 144 91 137 59 1831 387 1826 38 22 110 38 485 36 247
internal_value=-0.00112381 -3.14652e-05 -0.000554729 -0.00124458 0.000396882 0.00283029 -0.00345884 0.000638729 0.00571564 -0.0052493 -0.0214618 0.00929644 0.0145142 -0.000937352 -0.00451972 0.00618936 -0.00821071 -0.0182007 0.0088164 -0.00708844 -0.00817879 -0.00599587 -0.00682487 0.0264737 0.0169938 0.01644 0.0284943 0.0108688 0.0020716 0.00111625
internal_weight=2513.35 2344.04 2295.61 2167.26 1607.54 989.688 617.857 859.505 435.564 105.391 51.9506 330.173 220.019 110.154 423.941 106.754 317.187 35.4238 139.101 478.755 464.125 559.713 547.023 17.9457 130.183 212.835 64.5547 148.281 18.4608 95.533
internal_count=10136 9436 9242 8728 6464 3976 2488 3453 1749 424 209 1325 883 442 1704 428 1276 142 559 1929 1870 2264 2213 72 523 854 259 595 74 384
is_linear=0
shrinkage=0.05


Tree=13
num_leaves=31
num_cat=0
split_feature=4 14 1 21 22 5 22 14 4 21 17 21 3 18 1 18 15 1 7 6 5 7 5 14 17 4 18 17 15 22
split_gain=12.1172 22.3 9.95369 8.12375 7.64962 6.04852 8.5285 6.46501 9.23547 7.60866 6.03965 10.3343 5.99163 5.78651 6.1522 5.76757 8.00277 7.93651 9.1144 6.60476 6.94658 6.64304 6.4659 5.68799 5.52755 7.66282 7.76545 7.26114 13.5099 11.1333
threshold=6.5525609323700203e-06 0.00038878399170415165 0.034076658203287653 0.00016914319098375902 0.58358191115137059 0.53822800519149905 0.33171121040334001 0.042802693875375414 2.4180699645894639e-06 0.00019165557752480778 0.096807237435416457 0.00019082882403455338 0.031021534754826875 0.037558770551308983 0.9566275568071968 0.039606509041159969 0.00010521016341540205 0.00022448879139308351 0.49520065461509555 0.49579328617138635 0.42148860059675769 0.4951131448461949 0.55599083772698243 0.0027925476940856907 0.095573765133370597 5.1124250001151198e-06 0.039756079301135665 0.093792672204096192 4.545080243163538e-05 0.39392596284408504
decision_type=2 2 2 2 2 2 2 2 2 2 2 2 2 2 2 2 2 2 2 2 2 2 2 2 2 2 2 2 2 2
left_child=1 15 3 -2 12 13 7 8 -7 -10 11 -8 23 -3 24 19 17 -17 -19 20 21 -1 -20 -5 27 26 -26 29 -29 -15
right_child=2 5 -4 4 -6 6 10 -9 9 -11 -12 -13 -14 14 -16 16 -18 18 22 -21 -22 -23 -24 -25 25 -27 -28 28 -30 -31
leaf_value=-0.023376553621723892 0.021043512276165202 -0.020581162854723223 0.029757825060307077 0.00074773783556135237 -0.02079350919161229 -0.041248442699134913 -0.0031719211198537657 -0.0033903793519334219 -0.028247051000497975 0.032450580754152157 -0.0098994261861299216 0.062224241316156836 -0.022877388399362517 0.052062349159267413 -0.030377061636845889 -0.02781558161545368 0.036909690970382832 0.015909374346074281 0.015118053756024109 -0.026455644972335175 -0.036569757182779057 0.022652500215644186 -0.037556798720766095 0.020922382767739611 0.014424589045991346 -0.034319908374661361 0.058967287019690312 0.01357303098257083 -0.0098239950428341254 -0.01103412743296844
leaf_weight=10.37022380530834 47.419567719101906 21.683539912104607 29.448044493794441 1483.9227135628462 41.031266391277313 36.439266309142113 10.915226742625238 67.4995476603508 9.4223786890506762 9.1719910353422147 15.30811648070812 10.684062823653219 25.120477125048637 16.484761685132984 10.476469963788984 41.245625510811806 8.3176112473010999 37.023853853344917 6.8593039810657528 156.61896605789661 11.135764971375464 22.742305099964142 18.517953619360924 34.941734954714775 53.801035732030869 4.9879206568002692 12.222812280058859 109.13891243934631 139.08106572926044 10.223688870668409
leaf_count=42 190 87 118 5968 167 148 44 272 38 37 62 43 101 66 42 171 34 152 28 651 45 92 76 140 216 20 49 438 558 41
internal_value=-0.00106436 -0.00592077 0.00140765 0.000863022 0.000230624 0.000216074 -0.0078725 -0.0142947 -0.0269236 0.000545338 0.0126043 0.029392 0.000818617 0.00370465 0.00530554 -0.0165125 -0.00699739 -0.0110788 0 -0.0216315 -0.0037963 0.0072415 -0.022338 0.00124177 0.00654265 0.0189509 0.0238004 0.00319002 0.000376227 0.0274809
internal_weight=2512.26 850.372 1661.88 1632.44 1585.02 537.541 159.441 122.533 55.0336 18.5944 36.9074 21.5993 1543.98 378.1 356.417 312.832 111.964 103.647 62.4011 200.867 44.2483 33.1125 25.3773 1518.86 345.94 71.0118 66.0238 274.928 248.22 26.7085
internal_count=10136 3452 6684 6566 6376 2161 644 495 223 75 149 87 6209 1517 1430 1291 461 427 256 830 179 134 104 6108 1388 285 265 1103 996 107
is_linear=0
shrinkage=0.05


Tree=14
num_leaves=31
num_cat=0
split_feature=16 15 11 14 3 12 17 8 17 18 19 12 17 17 18 8 6 18 8 1 15 21 17 5 18 8 6 21 6 18
split_gain=13.2042 9.93501 8.70863 8.02329 11.3997 9.88071 9.33973 8.6833 7.05356 13.5585 7.63383 11.0226 6.77631 9.43217 8.89648 6.46839 7.59868 6.17 6.16549 9.52276 6.15883 5.93691 10.7413 7.51848 7.28647 5.88854 7.50955 7.94057 9.17718 7.57074
threshold=0.014055222594482773 0.00027474077900622892 0.3652448776661093 0.00013839472444645664 0.0001211706997097362 0.0010429414088601121 0.094099844101301441 0.48766826855530682 0.095754352687947172 0.039585538204123576 1.0000000180025095e-35 0.0052053370108278109 0.095595925039456423 0.095167006671736762 0.039929017073346285 0.48766898406719311 0.49580952511293691 0.03825813499989382 0.48766824017125504 9.7670111142901379e-05 0.00011236231268857151 0.00018917684540419507 0.094811605464892618 0.5257645671583614 0.039032905778004036 0.48766815037711347 0.49579328617138635 0.00018511995135656758 0.49580969498483968 0.039245336398068327
decision_type=2 2 2 2 2 2 2 2 2 2 2 2 2 2 2 2 2 2 2 2 2 2 2 2 2 2 2 2 2 2
left_child=2 8 -1 4 5 -4 -5 21 9 25 -10 15 13 14 -11 16 -12 -8 19 -13 -6 22 24 -23 -7 26 29 28 -28 -2
right_child=1 -3 3 6 20 7 17 -9 10 12 11 18 -14 -15 -16 -17 -18 -19 -20 -21 -22 23 -24 -25 -26 -27 27 -29 -30 -31
leaf_value=0.015687707128740663 0.0020782417187155898 0.020649986284459153 0.044554443843945572 0.023328539155108033 -0.029221310171654559 0 -0.030496961926241212 -0.017408905769477203 0.010573289813607917 0.049745383723195008 0.0083473516100618633 0.079367496089713871 0.038355292135208843 -0.00098585291861162465 0.0058397290030964078 -0.003660507143184168 -0.020105857370230309 -0.0026966638337153964 0.0031183232140437386 0 -0.0065540380553893917 0.066670815456945851 -0.027010433948490332 0.0026329262527376605 0.044624174641778348 0.0051298812517662591 -0.0051494481453811247 -0.020353666053133948 0.038188622442753506 0.043821092788756955
leaf_weight=40.438135400414467 177.97096394002438 63.594828516244888 8.38379257917404 31.610582962632179 113.19485324621201 51.552178129553795 20.822027012705803 111.75359639525414 80.464267432689667 22.943605214357376 25.334476217627525 6.2384238839149457 30.357432916760445 64.533897668123245 25.695694610476494 231.58480769395828 168.17377489805222 288.15065404772758 96.54223345220089 7.9613581746816635 45.796320497989655 6.4161178469657925 31.039397060871124 14.587722405791281 10.403515234589575 428.77250395715237 195.23402425646782 88.701072826981544 11.956899359822271 10.73226661980152
leaf_count=163 714 255 34 127 475 209 84 453 324 92 102 25 122 259 103 933 679 1169 388 32 185 26 126 59 42 1722 785 358 48 43
internal_value=-0.00101302 0.00139623 -0.00644523 -0.0077188 -0.0125888 -0.00539248 -0.00200388 -0.00754592 0.000637605 0.00312828 -0.00359134 -0.00578069 0.0173672 0.0112318 0.027639 -0.00946493 -0.0162284 -0.00474315 0.00809599 0.037862 -0.0229302 0.00197271 -0.00328337 0.0254719 0.00844686 0.000846827 -0.00289412 -0.00788649 -0.00235693 0.00480258
internal_weight=2510.94 1736.79 774.149 733.711 393.127 234.136 340.583 225.753 1673.2 1056.9 616.299 535.835 143.531 113.173 48.6393 425.093 193.508 308.973 110.742 14.1998 158.991 113.999 92.9951 21.0038 61.9557 913.368 484.595 295.892 207.191 188.703
internal_count=10136 6984 3152 2989 1609 949 1380 915 6729 4246 2483 2159 576 454 195 1714 781 1253 445 57 660 462 377 85 251 3670 1948 1191 833 757
is_linear=0
shrinkage=0.05


Tree=15
num_leaves=31
num_cat=0
split_feature=16 22 12 21 22 6 16 10 1 6 12 17 12 16 21 12 12 16 9 14 22 19 7 9 6 6 21 21 12 11
split_gain=10.6915 10.0054 11.9256 8.4592 13.1461 8.37183 6.35347 6.08618 7.35917 6.87353 5.8394 5.66989 10.6924 7.02985 7.16307 7.17298 9.04797 6.64708 8.44703 8.77013 7.21524 7.03354 6.5067 9.02812 8.98088 6.32182 6.1324 6.3408 6.11658 8.22587
threshold=0.00010091020918180539 0.58358191115137059 0.008483744294699674 0.00018969877654289699 0.3203648911778198 0.50349178890056556 0.058000566829153478 1.7909024954776127e-05 2.1015718961143442e-05 0.4958109831565804 0.0017882211668802919 0.093572537137544612 0.0056470833585015347 0.12568769124133053 0.0001818656121332267 0.0019070527106823101 0.0026104429264211483 0.046217236857053985 0.64537537611614348 1.7754956334962839e-06 0.05720306490714535 0.75000000000000011 0.49515623329479352 0.64263727408156801 0.49580982088623271 0.49580916195522862 0.00018953888521362785 0.00018741637192256995 0.0046334743474870351 0.36535016912279883
decision_type=2 2 2 2 2 2 2 2 2 2 2 2 2 2 2 2 2 2 2 2 2 2 2 2 2 2 2 2 2 2
left_child=-1 2 3 5 6 11 10 -6 -9 -10 -5 13 17 14 28 -16 -17 21 19 -19 -21 22 -13 24 -24 -23 27 -26 -2 -30
right_child=1 -3 -4 4 7 -7 -8 8 9 -11 -12 12 -14 -15 15 16 -18 18 -20 20 -22 25 23 -25 26 -27 -28 -29 29 -31
leaf_value=-0.012954955838677715 -0.0021618067381768647 -0.017856335474540849 0.015152843984365699 -0.024089559925311026 -0.0079566522851100257 0.038817442804707281 0.0011390748746514122 0.049667337144600518 -0.010339506115451931 0.016561373934966969 -0.0078690990299182233 0.0043253658524989537 -0.02314486601378471 -0.0072426176334940019 -0.022949444233742792 0.062005341569020204 0.016985244846586693 -0.010500427107524607 -0.021529915824606574 0.059468012944853522 0.010967774038734349 -0.022805467228296267 -0.042864610463723661 0.018060511568925169 0.0047540928663256619 0.0086180004169167084 0.034780204266950561 -0.017641606224649511 0.026196591559627426 -0.0011121433512780779
leaf_weight=141.16507153213024 91.527226477861404 65.985086888074875 153.42347592115402 69.640581533312798 41.076991006731987 15.208747297525404 147.86206923425198 12.150553822517393 30.535662665963173 87.034290060400963 322.72263132035732 412.63388535380363 43.551582768559456 56.228821784257889 5.2304564267396918 17.459112972021103 37.354422599077225 46.527708932757378 22.456405222415924 7.2194054573774329 292.78652849793434 61.003075033426285 19.449754163622856 28.961287170648575 46.997464165091515 19.623681589961052 7.1286737769842139 85.22076615691185 65.555964231491089 44.056590840220451
leaf_count=591 368 268 616 283 166 61 596 49 123 351 1303 1662 175 226 21 70 150 187 90 29 1177 246 79 116 190 79 29 346 263 177
internal_value=0.000346947 0.00115951 0.00172576 0.00074354 -0.00369268 0.00297377 -0.0075376 0.0082962 0.0136555 0.00933546 -0.0108655 0.00254249 0.000806696 0.00842289 0.0119055 0.0270794 0.0326269 0.00184501 0.00724857 0.00924203 0.0124116 -0.00105244 0.000779013 -0.00686395 -0.0116507 -0.0148392 -0.00684142 -0.00951738 0.00714062 0.0150836
internal_weight=2497.78 2356.61 2290.63 2137.2 711.023 1426.18 540.225 170.797 129.721 117.57 392.363 1410.97 1093.56 317.413 261.184 60.044 54.8135 1050.01 368.99 346.534 300.006 681.019 600.392 187.758 158.797 80.6268 139.347 132.218 201.14 109.613
internal_count=10087 9496 9228 8612 2871 5741 2182 689 523 474 1586 5680 4405 1275 1049 241 220 4230 1483 1393 1206 2747 2422 760 644 325 565 536 808 440
is_linear=0
shrinkage=0.05


Tree=16
num_leaves=31
num_cat=0
split_feature=4 14 14 9 21 22 22 16 19 18 11 17 6 22 16 17 18 18 22 18 14 17 2 2 22 0 14 14 11 16
split_gain=9.8687 17.6637 9.70256 8.17384 5.70479 5.31699 5.69918 5.59115 5.18537 6.82002 5.4461 5.39684 5.03776 4.98132 6.67946 5.84242 5.91122 4.89427 5.78048 5.22362 4.97221 7.96089 9.91702 5.93751 4.70077 7.01589 5.68772 5.1057 4.82055 4.68359
threshold=6.5525609323700203e-06 0.00038878399170415165 5.5822858949302169e-05 0.0001628167886941039 0.00017787583169410278 0.53048740696884422 0.2009922845173068 0.022799131959508501 0.75000000000000011 0.040166273861284539 0.36934944496879912 0.096851573816129646 0.4958090655798803 0.59955486992146434 0.011140891252601438 0.093079808032026728 0.037889240211846503 0.040645976708659638 0.20261104621128878 0.041114450853717142 8.3673596097560076e-05 0.095053739824411218 1.2232854903911936e-06 0.0017435639245648529 0.23357714264876403 0.00015229612902321725 4.9106419739807963e-07 4.3470500009306957e-05 0.3652448776661093 0.036248318452817598
decision_type=2 2 2 2 2 2 2 2 2 2 2 2 2 2 2 2 2 2 2 2 2 2 2 2 2 2 2 2 2 2
left_child=1 17 3 4 5 6 7 -2 9 11 -11 29 -8 14 15 -4 -17 20 19 -19 21 -1 -23 -22 26 -26 28 -27 -6 -3
right_child=2 8 13 -5 24 -7 12 -9 -10 10 -12 -13 -14 -15 -16 16 -18 18 -20 -21 23 22 -24 -25 25 27 -28 -29 -30 -31
leaf_value=-0.0094117326898997527 -0.033826388981980565 0.010003100464890611 0.058179151976416925 -0.032096062625951688 0.01300635845850082 -0.02603037520569015 0.011008109501802981 0.01051136838484799 -0.012374090611830852 0.026938720745200279 -0.015699358885608732 -0.040095975731125541 0.040352753741867885 -0.0152572900954257 0.0076861675701015517 -0.023752183971970538 0.026763952319209052 0.008243439038741536 0.034353035720314125 -0.04360054801656349 0.014356310211425159 0.023563157746507774 -0.041238880683594159 -0.013134136362481104 -0.0027825948555849755 -0.041109029069441153 0.003760038190483836 0.0052140404610896609 -0.019422438438263832 -0.0016101893508157546
leaf_weight=62.493252873420715 8.9665649831294996 282.19341930747032 11.734709933400152 18.309034079313278 13.172089263796805 7.3110279887914649 41.844423964619637 23.204285770654678 58.935959026217461 7.1548977494239798 64.722714453935623 5.1951033920049658 25.940167963504791 19.215629756450653 411.52569524943829 6.2234800606966045 23.606665596365929 11.549425065517431 10.237079590559004 6.5165819972753516 21.308199062943459 5.3882851898670188 59.660671204328537 134.0515663176775 374.48384577035904 20.280242234468464 586.46336534619331 6.7184057980775824 48.613227859139442 119.88241352140903
leaf_count=263 36 1135 47 74 53 30 168 93 237 29 262 21 104 78 1652 25 95 48 42 27 87 22 251 553 1509 82 2360 27 196 481
internal_value=0.000330661 -0.00403322 0.00259634 0.000140411 0.000699406 0.0116351 0.0148683 -0.00173986 0.00141164 0.00318162 -0.0108006 0.00573092 0.0230247 0.00864176 0.00974175 0.0288476 0.0149853 -0.013502 0.00551993 -0.0104519 -0.0155059 -0.022939 -0.0352171 -0.00913612 -0.000404274 -0.00466948 0.00220193 -0.0289145 -0.0120137 0.00648307
internal_weight=2496.9 849.29 1647.61 1175.31 1157 107.266 99.9554 32.1709 538.085 479.149 71.8776 407.271 67.7846 472.306 453.091 41.5649 29.8301 311.205 28.3031 18.066 282.902 127.542 65.049 155.36 1049.73 401.482 648.249 26.9986 61.7853 402.076
internal_count=10087 3458 6629 4732 4658 431 401 129 2165 1928 291 1637 272 1897 1819 167 120 1293 117 75 1176 536 273 640 4227 1618 2609 109 249 1616
is_linear=0
shrinkage=0.05


Tree=17
num_leaves=31
num_cat=0
split_feature=15 8 4 14 18 4 18 18 17 1 17 1 8 14 9 15 16 5 6 4 4 17 17 5 8 14 8 4 15 8
split_gain=9.86337 8.68749 12.6076 9.32625 6.33213 6.30828 6.24486 6.16516 6.40094 5.76519 5.7282 6.33582 5.62089 5.55435 7.27722 5.09826 9.50998 7.14241 7.47638 6.99384 8.07616 10.5965 10.76 7.79115 5.28169 6.60441 5.2329 7.97359 9.71731 6.94981
threshold=0.00026612660356655811 0.4868419985528441 6.5525609323700203e-06 0.00013839472444645664 0.040645976708659638 2.3052535606238519e-06 0.03994170823418023 0.038181690877723003 0.093915959286140618 0.0001290747800263605 0.095053739824411218 9.1104903521663105e-07 0.48766652552703688 2.5573660879016137e-07 3.0817783823186022e-07 0.00017880790293841719 0.14995370373918951 0.43551037756111449 0.49580912442431724 0.00011633903862004818 0.0012203166226912932 0.09397590392207833 0.092400996506740371 0.42291240470239549 0.48766798619391361 5.0360371329171056e-06 0.48767879965693645 7.4879010162685878e-05 9.2302745916865775e-05 0.48766830689602247
decision_type=2 2 2 2 2 2 2 2 2 2 2 2 2 2 2 2 2 2 2 2 2 2 2 2 2 2 2 2 2 2
left_child=1 -1 3 4 10 -6 7 8 -5 -2 12 -12 -3 14 -4 17 -17 18 26 -20 23 22 -22 -21 25 -19 27 -15 -29 -30
right_child=9 2 13 6 5 -7 -8 -9 -10 -11 11 -13 -14 15 -16 16 -18 24 19 20 21 -23 -24 -25 -26 -27 -28 28 29 -31
leaf_value=0.011943627498990595 0.0040376844165267703 -0.024452258477275654 0.016794964790300043 0.0044987063282129367 -0.0079491399264028963 0.049432238763041668 -0.013763453916375599 0.0014881366920733298 -0.033223375243546731 0.027855346804818149 0.018762109864090278 -0.032867957216430446 0.0033437202049030885 -0.0078141396806139692 -0.030338878675017601 -0.0022501023167559985 -0.046980691477464705 0.053242433684717018 0.036169130518105212 0.0027902848043326392 0.031852964073206057 0.031664880751896052 -0.0093691919735435433 -0.047215282345469199 -0.0018886082781934196 0.0060699058856060334 0.017713326751063806 -0.011528497619021416 0.027485206379587915 -0.0023059874925793825
leaf_weight=134.2648778706789 59.642155677080154 31.177566960453987 9.9449623078107816 16.913418963551521 14.893710225820543 5.6366489976644507 111.81004223227501 386.3983608186245 26.443620264530182 48.01805853843689 5.1601258069276801 77.914197891950607 38.381547927856445 148.51005277037621 27.849362403154373 223.63841339945793 11.689699381589888 7.2188030183315268 32.776003107428551 35.279709160327911 21.840098902583122 62.843968108296394 49.63042040169239 8.7115378677844983 612.46815617382526 113.77663749456406 48.148440554738045 37.199955314397812 61.548372834920883 26.126792848110199
leaf_count=538 240 132 40 68 62 23 455 1563 107 193 21 330 161 598 113 898 47 29 132 142 88 252 199 35 2468 458 193 150 247 105
internal_value=0.000311242 -0.000348712 -0.00109702 -0.00658618 -0.0166888 0.00820809 -0.00328502 -0.000475167 -0.0181748 0.0150494 -0.020232 -0.0291786 -0.00893057 0.00143827 -0.0171787 0.00193467 -0.00476723 0.00320287 0.00760402 0.0149193 0.0106938 0.016811 0.0031483 -0.00738593 0 0.00950259 0.00269275 0 0.00926484 0.0183998
internal_weight=2495.86 2388.2 2253.93 714.729 173.164 20.5304 541.565 429.755 43.357 107.66 152.633 83.0743 69.5591 1539.2 37.7943 1501.41 235.328 1266.08 532.615 211.082 178.306 134.314 71.4705 43.9912 733.464 120.995 321.534 273.385 124.875 87.6752
internal_count=10087 9654 9116 2922 729 85 2193 1738 175 433 644 351 293 6194 153 6041 945 5096 2141 848 716 539 287 177 2955 487 1293 1100 502 352
is_linear=0
shrinkage=0.05


Tree=18
num_leaves=31
num_cat=0
split_feature=15 8 15 11 12 11 14 10 8 21 6 21 15 12 21 21 3 6 12 15 21 8 8 21 15 6 7 14 14 8
split_gain=8.93538 7.84621 7.374 5.43625 4.78987 4.39677 4.31088 10.6491 4.7001 9.55261 5.91308 5.67588 5.54016 10.8707 7.08373 6.60468 5.26206 8.50723 6.98995 5.34761 5.41821 5.73027 6.95538 4.78579 7.84946 8.03913 6.43409 7.03774 7.0398 6.21288
threshold=0.00026612660356655811 0.4868419985528441 4.5387428124695554e-06 0.36532118252500856 0.01312632904460008 0.36537008773246982 2.5573660879016137e-07 6.2769223255511218e-07 0.48766772550172344 0.00018820712841827392 0.49581023715410727 0.00018964674456326396 5.8561867065934375e-05 0.0034027922906439147 0.0001852312279642205 0.00018686086147316639 0.87175028089306872 0.50021181645986268 0.0023727082256845859 5.6549607962152596e-05 0.00017757237490953739 0.48767319645897511 0.48767097300011936 0.00018089235849918565 9.617861099112068e-05 0.49578937009062646 0.4951131448461949 0.00043659813724027856 0.0017720966849735338 0.4876669402840092
decision_type=2 2 2 2 2 2 2 2 2 2 2 2 2 2 2 2 2 2 2 2 2 2 2 2 2 2 2 2 2 2
left_child=1 -1 -3 -2 6 -5 7 -4 9 10 23 16 -12 14 -14 -16 18 -18 -10 -20 -21 22 -22 -8 25 26 -25 -28 -29 -27
right_child=3 2 4 5 -6 -7 8 -9 11 -11 12 -13 13 -15 15 -17 17 -19 19 20 21 -23 -24 24 -26 29 27 28 -30 -31
leaf_value=0.011351371080299058 0.0051071837665922137 -0.041760541132873807 0.030672675521547732 0.05142175129347748 0.029127195120202037 0.014357813417660912 -0.010946222114927906 -0.027065608921485629 0.0098127572156801648 -0.015791026546461431 0.019775859693582778 -0.0024027342213805173 0.019669359687062293 0.023167136107920185 -0.060565423704986222 -0.0063035306406299015 -0.019888452683901006 0.039782826539356407 -0.034106858984316792 0.017496711960737554 -0.0020488479593253539 0.013909801849255818 -0.040981122520011536 -0.0063302349828082381 0.015458058278117043 -0.02437779091006842 0 0.053792651064840838 0 0.0047764159876430333
leaf_weight=134.25891475379467 67.779915824532509 10.089557483792303 8.7038652300834638 13.955525428056715 12.210568010807036 25.88850511610508 149.82934199273586 39.384684860706329 361.47270227968693 138.91808837652206 57.549910351634026 700.02671511471272 6.7015161812305477 22.649081245064735 11.378734260797502 12.86059160530567 43.53111644089222 5.7288172096014014 10.040573000907896 44.065957307815552 276.34897953271866 53.226895928382874 11.110900714993475 71.474544689059258 63.227951467037201 62.793380707502365 31.214188680052757 16.215244635939602 8.7274871915578824 23.359509363770485
leaf_count=538 273 44 35 56 49 104 605 161 1461 566 236 2833 27 91 46 52 175 23 42 177 1112 214 45 287 254 259 126 65 35 96
internal_value=0.000297841 -0.000329987 -0.00104196 0.0143281 -0.000829107 0.0288928 -0.00101728 -0.0156939 -0.000675401 -0.00413909 -0.00106021 0.000866999 0.00909709 -0.00206501 -0.021465 -0.0341568 0.00373895 -0.0117979 0.00479821 0.000130543 0.00117492 -0.00090808 -0.00377718 -0.00377846 3.39204e-05 -0.00446219 0.00334585 0.0159939 0.035239 -0.016222
internal_weight=2494.72 2387.1 2252.84 107.624 2242.75 39.844 2230.54 48.0886 2182.45 676.9 537.981 1505.55 111.14 53.5899 30.9408 24.2393 805.526 49.2599 756.266 394.793 384.753 340.687 287.46 426.842 277.012 213.784 127.631 56.1569 24.9427 86.1529
internal_count=10087 9654 9116 433 9072 160 9023 196 8827 2745 2179 6082 452 216 125 98 3249 198 3051 1590 1548 1371 1157 1727 1122 868 513 226 100 355
is_linear=0
shrinkage=0.05


Tree=19
num_leaves=31
num_cat=0
split_feature=22 15 15 3 16 7 6 12 5 7 22 16 6 18 17 18 16 12 15 22 18 15 17 7 18 6 6 7 6 5
split_gain=8.69023 11.4398 7.19751 6.57782 5.61845 6.20816 5.26517 5.24805 6.17878 5.79023 5.18135 9.20652 6.61909 6.94994 8.21151 8.66516 4.99465 6.69916 4.95728 15.5244 9.10798 5.82673 7.05697 8.99738 5.55395 6.28769 7.11781 6.37252 7.277 8.49388
threshold=0.58358191115137059 0.00026612660356655811 4.5387428124695554e-06 0.00013007686617803681 0.00038605837987162824 0.49516933307790795 0.49585083860146001 0.01312632904460008 0.55760779903734259 0.50713341064310546 0.3203648911778198 0.12851935579639165 0.49582080597537109 0.040100127651846548 0.099047142686255654 0.041251192753821282 0.015958174854857485 0.018317612209915481 0.00017728914197774601 0.46170280160154825 0.040425804059327268 0.00014110051237614218 0.093523701476839069 0.49514742386855176 0.039671004185706932 0.49579328617138635 0.4958007882742132 0.49515249190395122 0.49580707096059551 0.43333350216044358
decision_type=2 2 2 2 2 2 2 2 2 2 2 2 2 2 2 2 2 2 2 2 2 2 2 2 2 2 2 2 2 2
left_child=1 2 -1 16 5 -4 -7 8 9 18 11 -10 13 -12 15 -15 17 -3 21 20 -20 24 23 -23 25 -6 -27 -28 -29 -30
right_child=-2 3 4 -5 7 6 -8 -9 10 -11 12 -13 -14 14 -16 -17 -18 -19 19 -21 -22 22 -24 -25 -26 26 27 28 29 -31
leaf_value=-0.040316311160320549 -0.017169864064020567 -0.037721323503544707 -0.014126950211181778 0.032167920588876603 0.0052922394034258888 0.03555343012862177 -0.004436788819339353 0.031541785387965537 -0.010399275345154202 0.038074117770659728 -0.038441699382896939 0.016319280779995667 0.018431002658692876 0.0025845687984137971 -0.021550428427281054 0.058739829758587228 0.015864675042960328 0.022583628677577548 -0.013835584887012909 0.050928166804196186 0.020647812681657069 -0.0073389543786151956 0.004683536648787053 0.036957294800224173 0.0087175585963384997 -0.025454780293139002 0.010174468668613469 -0.030156507918719488 0.0042006362181421118 -0.0083472709805197769
leaf_weight=9.9673990756273252 68.207573175430298 11.407049402594568 121.82273009419441 42.492780670523643 373.6976623237133 11.680292338132857 20.509533450007439 12.967384696006773 305.06409052014351 10.22245270013809 11.82813139259815 34.474355265498161 49.083773732185364 34.668917432427406 23.084902852773666 7.9602606594562522 37.076286345720291 5.9546750485897055 153.16110967099667 10.222933515906332 20.441118270158768 13.966585233807562 148.14446718990803 42.652409568428993 224.68243508040905 32.027517169713974 96.340247943997383 23.915223270654678 253.62811450660229 282.49621744453907
leaf_count=44 278 46 514 171 1500 49 84 52 1236 41 48 139 198 140 93 32 149 24 615 41 82 56 595 171 907 130 390 98 1022 1142
internal_value=0.000284822 0.000792813 7.79841e-05 0.0175347 0.000279706 -0.00890067 0.0099547 0.000948207 0.000737659 0.00215671 -0.00433359 -0.00757309 0.00414831 -0.00469381 0.00149103 0.0147496 0.00528734 -0.0155731 0.00190006 -0.00578186 -0.00953709 0.0028668 0.0107014 0.0256588 0.00159335 5.59597e-05 -0.00275381 -0.00157107 -0.00365068 -0.00236783
internal_weight=2493.85 2425.64 2328.71 96.9308 2318.74 154.013 32.1898 2164.73 2151.76 1685.6 466.164 339.538 126.626 77.5422 65.7141 42.6292 54.438 17.3617 1675.38 183.825 173.602 1491.55 204.763 56.619 1286.79 1062.1 688.407 656.38 560.04 536.124
internal_count=10087 9809 9419 390 9375 647 133 8728 8676 6790 1886 1375 511 313 265 172 219 70 6749 738 697 6011 822 227 5189 4282 2782 2652 2262 2164
is_linear=0
shrinkage=0.05


Tree=20
num_leaves=31
num_cat=0
split_feature=22 16 5 15 14 10 22 2 15 8 15 16 21 16 5 16 0 12 1 5 5 16 14 12 12 21 4 4 12 5
split_gain=9.3996 8.88074 7.31073 5.87122 6.36347 6.05602 5.90477 8.19275 7.24905 7.06019 6.78408 6.56252 6.42681 6.0656 6.97493 6.04891 5.82585 8.57544 7.48297 5.73124 5.71558 7.32063 5.67928 5.64123 6.18572 5.95913 5.53687 5.72506 5.49641 7.47066
threshold=0.58358191115137059 0.00038605837987162824 0.2800179900167763 9.4397094419489789e-05 0.00053663798507682205 0.0066873716678025391 0.32454835654751418 1.1647173225999685e-06 0.00018293597950427525 0.48783098460025104 0.00020458797052395615 0.0094040877737775388 0.00019857846826359013 0.036705548187719421 0.23126592649962882 0.0031650014403319187 0.00020418435314698813 0.0028222946497529432 0.030990736983866552 0.43683792623800238 0.66812593221910854 0.032066285592984113 0.00036160167224745223 0.0031542681129620898 0.0036676806657153717 0.00018440249539251302 2.55160774887529e-05 9.0143760331910477e-06 0.0017882211668802919 0.55321516437883589
decision_type=2 2 2 2 2 2 2 2 2 2 2 2 2 2 2 2 2 2 2 2 2 2 2 2 2 2 2 2 2 2
left_child=1 28 -2 4 5 -3 8 -8 11 12 16 15 26 -12 -15 22 19 -18 -19 23 21 -14 -5 25 -25 -9 27 -10 29 -1
right_child=2 3 -4 6 -6 -7 7 10 9 -11 13 -13 20 14 -16 -17 17 18 -20 -21 -22 -23 -24 24 -26 -27 -28 -29 -30 -31
leaf_value=0.0072296744645351761 -0.041394070535747146 -0.0035646646103510435 -0.0058186818197054173 0 0.0030101536796434507 -0.033506864554566106 0.066373847141262987 -0.043713662882196955 -0.016003331222390928 0.038608991657080372 0.044475994838292503 0.0071931774603610794 -0.0017968145197351155 0.049351906139556603 -0.013623182806474883 -0.016569205055936988 0.067352521636895132 0.019259711363135298 -0.028313245139565086 -0.012646460617428143 -0.010453656898742301 0.05337945077576698 0.04949824600725132 0.060123614118054218 0.0087292421669958632 0.011463935472442255 -0.012786589385654544 0.043139068804545842 -0.019324564349046655 -0.033802843891687161
leaf_weight=57.169237524271011 22.478083416819572 692.32802054286003 44.019337713718414 29.163284912705421 497.25788402557373 16.584357053041458 5.7099471390247336 7.4919186681509045 5.7178234457969657 7.7051018178462973 22.404255107045174 502.45151919126511 9.7143011242151278 5.2103758454322842 13.430883437395094 60.47819459438324 6.7263845652341834 38.086467742919922 9.2166448533534986 58.755927681922913 14.687283828854559 11.690858319401739 5.97611279785633 7.2378748953342429 27.897440150380135 9.7205555737018567 189.35388435423374 8.4459789246320707 88.67025537788868 12.688034266233442
leaf_count=241 92 2811 180 118 2000 67 23 30 23 31 90 2019 39 21 54 244 27 153 37 237 59 47 24 29 112 39 761 34 375 54
internal_value=-0.000240432 0.000262182 -0.0186497 0.00107543 -0.00129298 -0.00434656 0.00379967 0.0112671 0.00188738 -0.00525022 0.0093073 0.00488451 -0.00691909 0.027371 0.0043225 -0.0069372 0.00452919 0.0178799 0.00907866 -0.00184178 0.0119752 0.0282604 0.0089484 0.00982666 0.0213792 -0.0122615 -0.0104343 0.0181342 -0.0111265 -0.000242034
internal_weight=2488.47 2421.97 66.4974 2263.44 1206.17 708.912 1057.27 211.889 845.384 247.315 206.179 598.069 239.61 41.0455 18.6413 95.6176 165.133 54.0295 47.3031 111.104 36.0924 21.4052 35.1394 52.3478 35.1353 17.2125 203.518 14.1638 158.528 69.8573
internal_count=10071 9799 272 9129 4878 2878 4251 852 3399 994 829 2405 963 165 75 386 664 217 190 447 145 86 142 210 141 69 818 57 670 295
is_linear=0
shrinkage=0.05


Tree=21
num_leaves=31
num_cat=0
split_feature=22 17 4 7 6 5 5 22 8 18 18 7 22 7 4 6 8 22 6 6 3 9 9 17 21 4 7 7 7 7
split_gain=8.56216 7.39621 6.96826 7.12343 8.06725 6.713 6.67632 5.76271 6.10697 6.59254 4.90804 4.73343 9.04197 6.00443 6.73367 8.00539 6.01864 5.47739 6.01268 5.63945 6.14942 5.43051 5.49583 6.13218 6.70368 5.68023 4.82108 5.48555 4.81857 5.14523
threshold=0.58358191115137059 0.092480520655476642 1.0000000180025095e-35 0.49513531910632241 0.49580943068796962 0.36322456865929836 0.2800179900167763 0.53048740696884422 0.48811935056717642 0.039585538204123576 0.061446652382718174 0.49515373135752866 0.12673145754704818 0.49515325660889192 1.6358378575013701e-06 0.49559003438773458 0.48700506221028345 0.22695222077274954 0.49595181227038126 0.49578732427666966 0.030564701888880396 0.022337251324692008 0.0045888670202025037 0.094893013332544116 0.00018224887861889962 4.2052890172079564e-06 0.49364994310113747 0.4777495430937761 0.49515142648600202 0.49515228740653627
decision_type=2 2 2 2 2 2 2 2 2 2 2 2 2 2 2 2 2 2 2 2 2 2 2 2 2 2 2 2 2 2
left_child=1 5 3 -3 -5 -1 -2 10 9 -9 11 12 13 14 15 16 -4 28 19 21 -21 22 23 24 -19 -24 27 -23 -14 -30
right_child=6 2 7 4 -6 -7 -8 8 -10 -11 -12 -13 17 -15 -16 -17 -18 18 -20 20 -22 26 25 -25 -26 -27 -28 -29 29 -31
leaf_value=0.0066537343094070032 -0.039638159937796652 0.022962517321029836 0.020011844780585802 -0.036284815126752037 -0.0066322661487653138 0.046186891544433506 -0.0055386357735677932 0.002873798950904546 -0.024517090033487312 0.052855092676361862 0.029025324253369456 -0.0020188220215053387 0.0093734950463433882 0.028679359715896732 -0.016549008014036852 0.036037090962397156 -0.02377212278603608 -0.011666502893615809 0.050399620971582404 -0.0060008565290003042 -0.058684243633533244 -0.034296484591372904 0.002734170643701466 -0.02721666592158269 0.036585585056611573 0.052027736686744645 -0.027979957305163613 0.01838037822427431 0.060026677618696761 0.014391656830581008
leaf_weight=218.13694602251053 22.347760811448097 11.538104146718977 10.976025313138964 34.130011260509491 76.229164645075798 10.654555454850195 43.984281942248344 13.916580095887186 4.9762328267097464 14.134828731417654 13.157376050949095 1457.138854175806 185.87077116966248 9.8889823853969556 102.32827839255333 14.320959523320196 20.388187438249588 10.956252336502077 4.9783222377300254 76.977180525660515 5.2166627943515769 5.2345408499240902 10.981835067272188 10.427269145846365 15.66923914849758 15.480587825179098 15.472095340490339 20.701520353555679 9.8803938031196612 21.502196118235588
leaf_count=878 92 47 44 150 324 43 180 56 20 57 53 5886 748 40 412 58 82 44 20 312 21 21 44 42 63 62 62 83 40 87
internal_value=-0.000223902 0.00025489 -0.000628663 -0.012197 -0.0162707 0.00879653 -0.0178164 4.58728e-05 0.0204628 0.0298719 -0.000282687 -0.000499752 0.00335508 -0.00669813 -0.00940612 0.00606922 -0.0075324 0.00730081 0.000995818 -0.000446621 -0.0103103 0.00706863 0.0162685 0.00287375 0.0161216 0.0333258 -0.00650415 0.00594219 0.012731 0.0309412
internal_weight=2487.6 2421.26 2192.47 121.897 110.359 228.792 66.332 2070.58 33.0276 28.0514 2037.55 2024.39 567.251 157.902 148.013 45.6852 31.3642 409.349 192.096 187.117 82.1938 104.923 63.5152 37.0528 26.6255 26.4624 41.4082 25.9361 217.253 31.3826
internal_count=10071 9799 8878 521 474 921 272 8357 133 113 8224 8171 2285 636 596 184 126 1649 774 754 333 421 255 149 107 106 166 104 875 127
is_linear=0
shrinkage=0.05


Tree=22
num_leaves=31
num_cat=0
split_feature=22 16 17 15 11 6 16 12 12 17 6 11 12 22 16 12 12 15 8 11 16 14 15 14 6 7 16 22 12 22
split_gain=7.8022 7.44674 6.00716 5.63149 6.3967 7.33463 6.50962 4.99822 4.94983 6.54589 6.21093 6.52566 5.48633 4.743 7.43805 4.69631 4.56869 4.79068 4.56953 4.73607 4.49559 7.43579 5.50648 5.00815 4.45124 8.3837 6.78253 8.22561 6.73846 6.46365
threshold=0.58358191115137059 0.00038605837987162824 0.093572537137544612 5.0352189875958315e-05 0.36914710121968985 0.49509175841170211 0.1020065541262037 0.003204191529869001 0.0017882211668802919 0.095071306577881973 0.49584512336329711 0.36535876606785106 0.0015721255323368005 0.53048740696884422 0.022799131959508501 0.0034287005565984733 0.0025894982042158608 0.00010104367818946994 0.48766298340761471 0.36639639038220317 0.0011898773893868604 0.0040353589885895377 5.0352189875958315e-05 8.7518156414686883e-08 0.49580145717296209 0.49489676338473976 0.025238745874667307 0.1048612602240233 0.0075817830543564385 0.43034097122382936
decision_type=2 2 2 2 2 2 2 2 2 2 2 2 2 2 2 2 2 2 2 2 2 2 2 2 2 2 2 2 2 2
left_child=1 8 3 15 6 -6 16 -2 9 -1 11 -10 -11 20 -15 -3 -5 18 19 -18 21 22 -4 -22 25 -19 27 -27 -29 -26
right_child=7 2 13 4 5 -7 -8 -9 10 12 -12 -13 -14 14 -16 -17 17 24 -20 -21 23 -23 -24 -25 29 26 -28 28 -30 -31
leaf_value=0.024360741758215017 0.0015370442462220443 -0.048595035471628342 0.038100978336019553 0.029147853413016258 0.0096049934792052892 0.049603281657558257 -0.0080152818364539764 -0.026514902929035855 -0.0052419059639316487 -0.015458629220567139 0.014092595373674147 -0.035798730427285076 0.034607828283421536 -0.022725589678698515 0.031769556266665132 0.0081509942029869536 0.044213933120886423 0.026286429244873177 -0.019025868786036723 -0.010575464709945996 -0.044265139911252444 0.053187853611970287 -0.0053387116899803536 -0.00080738145065608865 0.0108794415020448 -0.044368248431069179 -0.030297059090645142 -0.0065885613804585108 0.046707199582702759 0.048222198790352763
leaf_weight=18.654267489910126 21.775126472115517 7.3786975145339948 8.2485800832509977 24.16466036438942 37.86429052054882 17.436260014772415 73.767837658524513 44.381663516163826 32.826969027519226 46.025788754224777 11.433542773127554 43.753827199339867 4.994037762284278 6.9442395269870785 24.623719692230225 4.8707101345062256 6.1524739265441877 19.640129789710045 30.606198027729988 6.9689637124538422 5.6810788661241522 8.9285475909709913 31.4388238042593 1767.605508223176 117.83152487874031 5.2186290174722698 23.924102321267128 10.209684386849405 10.671332120895384 12.696216806769369
leaf_count=78 89 30 34 97 152 70 297 183 137 196 47 191 21 28 99 20 25 79 124 28 23 36 128 7134 473 21 96 41 43 51
internal_value=-0.000207708 0.000248421 0.000992332 0.00646781 0.00756924 0.0233175 0.00488817 -0.0170241 -0.0102084 0 -0.0180221 -0.023259 -0.00950625 -0.000206466 0.0186845 -0.0252321 0.00854828 0.00629476 -0.00825825 0.014656 -0.000557573 0.014255 0.00378983 -0.000985567 0.00962307 -0.000243432 -0.0114605 0.00536427 0.0203957 0.0150408
internal_weight=2486.72 2420.56 2262.87 409.402 397.152 55.3006 341.852 66.1568 157.688 69.6741 88.0143 76.5808 51.0198 1853.47 31.568 12.2494 268.084 243.919 43.7276 13.1214 1821.9 48.616 39.6874 1773.29 200.192 69.6639 50.0237 26.0996 20.881 130.528
internal_count=10071 9799 9129 1647 1597 222 1375 272 670 295 375 328 217 7482 127 50 1078 981 177 53 7355 198 162 7157 804 280 201 105 84 524
is_linear=0
shrinkage=0.05


Tree=23
num_leaves=31
num_cat=0
split_feature=15 7 12 21 12 7 17 12 15 18 12 12 7 15 18 10 12 5 21 17 17 17 4 17 18 15 21 11 18 18
split_gain=5.79566 8.81557 9.41146 7.78534 6.32329 7.73503 10.7535 11.1094 11.5426 6.95365 6.57532 6.26969 5.99315 5.88759 10.0024 5.74222 9.19634 6.19036 7.63708 6.56996 6.10959 8.43648 6.22689 5.29843 4.99179 6.42483 4.4107 11.9975 6.3789 5.37204
threshold=9.4397094419489789e-05 0.49514384574883252 0.00070674400632878345 0.00018858333299390034 0.00038697429940732066 0.49515551410413466 0.095754352687947172 0.0018734135183783348 3.4450053638990646e-05 0.039419194945936799 0.0059359522365202812 0.0013446999438633562 0.49515549150467247 7.1045314259737382e-05 0.038892007110767242 2.6514348489938188e-05 0.0041116546453818037 0.40223242329417436 0.00018642635517040129 0.094275230794291315 0.095770727156253635 0.095573765133370597 0.00049852187487049152 0.095531126352422724 0.039541536202280604 4.9023401254837504e-05 0.00019109973960400965 0.38657901808794931 0.037081610539990095 0.037504007368743965
decision_type=2 2 2 2 2 2 2 2 2 2 2 2 2 2 2 2 2 2 2 2 2 2 2 2 2 2 2 2 2 2
left_child=1 2 3 -1 -3 6 7 8 11 12 13 -6 -10 14 -9 16 -7 19 24 -17 21 23 -22 -20 -19 -26 28 -28 -4 -30
right_child=-2 4 26 -5 5 15 -8 10 9 -11 -12 -13 -14 -15 -16 17 -18 18 20 -21 22 -23 -24 -25 25 -27 27 -29 29 -31
leaf_value=0.047928282322736319 0.002468773078419367 -0.028154407313094217 0.022821353629133099 -0.005008690214958679 -0.039566512293760576 0.0050107551463667594 -0.02620996916229917 -0.0095373684938699008 0.015335242981304169 0.04833729262514877 -0.058700846360445459 0.0091239021294621508 -0.029872319138185041 -0.00069608573312972158 -0.053034001131809595 -0.0029778724236347986 0.058355110348492223 -0.038313705670221569 0.0010719169460895932 0.034439747230360709 -0.005653575118983168 0.022425293921508212 -0.056908710179940175 -0.03603939706102282 0.035773037232665374 -0.023708167748153999 -0.004673525822414832 0.059076859450107315 -0.039044496166534007 -0.00089716817481490403
leaf_weight=20.080354839563373 1116.0127114653587 27.482861369848251 26.746611788868904 8.898618817329405 15.719366639852526 70.56741201877594 79.67112135887146 55.955961301922798 55.284871682524681 14.096779629588125 6.9301597923040381 9.2507172226905805 7.1816100925207129 76.324737757444382 17.530736297369003 22.093313306570053 8.4227352291345579 24.930164828896523 132.85683870315552 21.328002065420151 287.61869060993195 48.413013711571693 5.2028446048498145 9.3010848760604841 5.8240427523851421 12.223691970109938 17.331931188702587 10.942783355712889 8.6519566178321821 262.84959000349045
leaf_count=81 4496 114 108 36 66 285 327 233 224 57 29 39 29 309 73 90 34 102 541 87 1174 197 21 38 24 50 70 44 35 1058
internal_value=-0.000193744 -0.00238156 0.00434858 0.0312141 -0.0047672 -0.00406265 -0.010191 -0.00507116 0.00761192 0.0173855 -0.0134416 -0.0209087 0.00935515 -0.0108068 -0.0208221 -0.000821173 0.0116698 -0.00261401 -0.00415696 0.0152 -0.00227994 0.00459537 -0.00683995 -0.00141635 -0.0241684 -0.00233061 0.0017999 0.0203202 0 -0.00234337
internal_weight=2485.73 1369.71 355.502 28.979 1014.21 986.728 337.946 258.275 101.533 76.5633 156.742 24.9701 62.4665 149.811 73.4867 648.782 78.9901 569.792 526.37 43.4213 483.392 190.571 292.822 142.158 42.9779 18.0477 326.523 28.2747 298.248 271.502
internal_count=10071 5575 1432 117 4143 4029 1386 1059 415 310 644 105 253 615 306 2643 319 2324 2147 177 1971 776 1195 579 176 74 1315 114 1201 1093
is_linear=0
shrinkage=0.05


Tree=24
num_leaves=31
num_cat=0
split_feature=22 5 15 1 10 4 12 18 5 8 22 21 22 18 1 18 9 12 8 22 2 15 18 18 15 21 5 15 9 21
split_gain=7.14442 6.03498 5.98737 7.26968 10.1295 10.2247 7.43762 6.12695 16.5151 6.94853 6.39993 8.67276 6.07056 5.40339 6.52582 5.33682 7.59132 5.85487 4.93396 4.89222 7.70919 6.35858 6.80568 6.87304 6.2429 6.051 5.19469 5.5166 4.99867 5.50084
threshold=0.58358191115137059 0.2800179900167763 9.4397094419489789e-05 0.0016693035608182588 0.00018561183770406936 2.55160774887529e-06 0.0027746821881640192 0.040459139758885224 0.50230051352469085 0.4876683158771617 0.1299559764887224 0.00018730901945715291 0.1379812329092204 0.039055866349353867 0.00012001110804002127 0.039929017073346285 4.5527456689121703e-06 0.0018219119042238387 0.48766816777325467 0.32454835654751418 1.1647173225999685e-06 0.00018293597950427525 0.036883009681470978 0.037268287363950409 0.00020458797052395615 0.00019725739056960975 0.36074483970406973 0.00013673637706211771 9.1308840817262508e-07 0.00019600238734112955
decision_type=2 2 2 2 2 2 2 2 2 2 2 2 2 2 2 2 2 2 2 2 2 2 2 2 2 2 2 2 2 2
left_child=2 -2 3 4 7 -6 -7 8 10 15 -1 12 -12 -13 -15 16 -10 -17 -19 21 -21 22 28 -24 -22 -23 27 -25 -4 -30
right_child=1 -3 19 -5 5 6 -8 -9 9 -11 11 13 -14 14 -16 17 -18 18 -20 20 24 25 23 26 -26 -27 -28 -29 29 -31
leaf_value=0.012379705482986385 -0.037155154126986979 -0.0046287101576915407 0.054545280187097658 0.00096421803457361402 -0.037522551820321118 0.017185346969910528 -0.021292588629474959 0.012118696158774752 -0.01411731005151115 -0.03583282432119779 -0.053667296719215024 0.040330774339024857 -0.0081053940049567851 0.012257522745410546 -0.038902434075639064 -0.041386495245019139 0.034637234942514604 -0.029750955521622425 0.03161484706321132 0.063249376734849427 0.0033910669225130545 -0.0089655507812152393 -0.024444682879255067 0.0076407401567101761 0.025274868954979525 0.010779173240950983 0.001577544120321372 0.04598524397966211 0.017597209938905577 -0.03009980717555687
leaf_weight=85.751749739050865 22.128005132079124 43.846232146024704 7.9526214599609366 813.83678089082241 47.455598071217537 20.816164329648018 27.837467759847641 55.022098988294601 19.519044160842899 48.857296466827393 7.151863604784011 12.321694910526274 120.19272661209106 34.109117701649666 6.4994632154703131 18.361079901456836 11.847535848617552 4.9268709719181043 6.1420970559120178 5.6963341832160941 166.49537728726864 207.97178399562836 22.142174482345581 38.83291120827198 40.934970453381538 45.735166370868683 464.95825786888599 12.719495147466658 59.435427859425545 5.4579303711652747
leaf_count=347 92 180 32 3300 211 85 114 223 80 200 29 50 487 138 27 75 48 20 25 23 670 837 89 156 165 184 1872 51 239 22
internal_value=-0.000188612 -0.0163034 0.000247119 -0.00197196 -0.00654846 -0.0211853 -0.00431199 -0.00318291 -0.00551657 -0.0217617 0.00114234 -0.00410385 -0.0112572 0.0125324 0.00273029 -0.00965249 0.00402667 -0.0247065 0.0020272 0.00302844 0.00981395 0.0013187 0.00410131 0.00209322 0.00793017 -0.00527972 0.00332422 0.0182722 0.018382 0.0128103
internal_weight=2484.96 65.9742 2418.98 1340.65 526.812 96.1092 48.6536 430.703 375.681 109.654 266.027 180.275 127.345 52.9303 40.6086 60.7966 31.3666 29.43 11.069 1078.33 213.127 865.206 611.499 538.653 207.43 253.707 516.511 51.5524 72.846 64.8934
internal_count=10071 272 9799 5459 2159 410 199 1749 1526 448 1078 731 516 215 165 248 128 120 45 4340 858 3482 2461 2168 835 1021 2079 207 293 261
is_linear=0
shrinkage=0.05


Tree=25
num_leaves=31
num_cat=0
split_feature=22 16 1 3 5 5 8 22 5 17 3 16 17 14 22 1 3 16 15 15 7 22 9 5 16 16 21 5 21 16
split_gain=9.91239 10.8664 8.89644 7.10539 6.40573 7.99796 6.66621 5.83956 5.83878 7.04925 8.50137 8.10243 9.0833 7.32673 7.63213 6.43119 6.20097 6.0512 7.5651 7.13306 5.91024 5.69511 5.33543 10.0587 7.00195 5.79354 5.23227 6.57516 5.18157 5.17009
threshold=0.58358191115137059 0.014307382820348859 0.87123449391644348 0.87175028089306872 0.60447616532597748 0.72687934629230544 0.48768857195403098 0.2240334266373413 0.77419512926917644 0.095815668278616012 0.0065600017592831903 0.13761541925167906 0.095975932599149924 3.3480596558354977e-06 0.29968601557148095 1.9076165883625424e-05 8.381384899588745e-06 0.1001344984899451 0.00015402379002496229 0.00027474077900622892 0.49516512776783189 0.2717427435514983 0.64537537611614348 0.51263441958437295 0.080451764448199473 0.043903331604089095 0.00019116805418334233 0.47135253967633889 0.00017044021924367706 0.037926927529305453
decision_type=2 2 2 2 2 2 2 2 2 2 2 2 2 2 2 2 2 2 2 2 2 2 2 2 2 2 2 2 2 2
left_child=1 4 3 8 26 7 -7 -6 9 17 11 12 -11 14 16 -15 29 -3 -19 -20 21 -13 23 -4 -25 -24 28 -28 -1 -14
right_child=-2 2 22 -5 5 6 -8 -9 -10 10 -12 20 13 15 -16 -17 -18 18 19 -21 -22 -23 25 24 -26 -27 27 -29 -30 -31
leaf_value=0.029058225797779027 -0.018296012922934115 0.0061853084741415832 0.055563110459375224 -0.033780089110222934 -0.039850808331858723 -0.01027604772063739 0.050890340423884274 -0.0049939632075121443 0.031962498904480136 -0.026928789567393266 -0.019693507533448056 0.046237369177279108 0.01888422879686839 0.03793715307389 -0.034204850562240222 0.0021384333262761475 -0.032645097356196896 0.0013831862451758015 -0.03310278656963276 0.01184289954178977 -0.014828441758826373 0.0050273324992109701 0.020462257553943135 -0.010856670841418425 0.044050601528468986 -0.0049365804781282222 -0.03334590634518244 0.011181503506624535 -0.0054806850080009479 -0.0090932062055950943
leaf_weight=9.8808574527502042 71.525279492139816 772.80175121128559 19.459832012653351 12.940512284636496 35.346103668212891 11.746622771024706 5.5943933278322211 21.084245443344116 15.179470419883726 34.845845475792885 66.34758023917675 19.321984171867371 28.762204319238663 12.443634927272795 26.653014585375786 235.28250807523727 13.624920755624769 171.70442827045918 32.81832018494606 10.395498037338255 8.6871938556432706 17.309816315770149 42.770670279860497 16.625213459134105 7.4497079551219931 43.034806996583939 7.8769261240959159 95.956908091902733 567.46523831784725 35.090712979435921
leaf_count=40 295 3108 78 52 147 48 23 86 61 141 268 78 116 50 108 949 55 692 132 42 35 70 172 67 30 173 32 392 2332 142
internal_value=-7.57982e-05 0.000464523 0.00275456 0.00165592 -0.00448493 -0.0184443 0.00979259 -0.0275762 0.0020003 0.00165615 -0.00315941 -0.000522842 -0.00293895 -0.000422708 -0.0115517 0.00418246 -0.00310375 0.00411194 -0.00322179 -0.0217019 0.0191722 0.0280796 0.0153133 0.0295876 0.00621591 0.00752562 -0.00291167 0.00727928 -0.00479713 0.00322046
internal_weight=2470.03 2398.5 1643.55 1514.21 754.951 73.7714 17.341 56.4303 1501.27 1486.09 498.369 432.022 386.703 351.857 104.131 247.726 77.4778 987.72 214.918 43.2138 45.319 36.6318 129.34 43.5348 24.0749 85.8055 681.18 103.834 577.346 63.8529
internal_count=10014 9719 6619 6099 3100 304 71 233 6047 5986 2012 1744 1561 1420 421 999 313 3974 866 174 183 148 520 175 97 345 2796 424 2372 258
is_linear=0
shrinkage=0.05


Tree=26
num_leaves=31
num_cat=0
split_feature=22 16 9 12 18 7 9 12 16 8 15 15 4 15 17 12 12 19 16 4 14 12 8 15 14 15 16 8 22 7
split_gain=8.98614 9.82542 7.99617 5.7154 8.01158 6.64145 5.64383 6.43962 5.59195 5.16127 6.29529 4.96447 5.32504 4.89712 4.44822 4.4222 6.99979 6.46705 4.55161 4.33174 7.3573 8.0143 6.74913 6.57521 6.54394 6.4065 5.49828 5.41591 4.9316 5.97941
threshold=0.58358191115137059 0.014307382820348859 0.62533729519122339 0.010039276173804365 0.037383515323087743 0.49513531910632241 0.64537537611614348 0.0017430187937763585 0.045399934161571134 0.4879991070655792 1.2640994869591749e-05 7.9703926515925361e-05 5.9919324759286644e-06 3.0079833860663147e-05 0.095754352687947172 0.0017563912296967351 0.0018923546603809497 0.75000000000000011 0.0016697156846229861 1.8200279047921648e-06 7.3224712498404608e-06 0.0012576396590835929 0.48766820796964189 0.00010521016341540205 4.5569331560799632e-05 3.984492975496189e-05 0.012136756675351522 0.48770665192408341 0.3421252865877043 0.49555752054770003
decision_type=2 2 2 2 2 2 2 2 2 2 2 2 2 2 2 2 2 2 2 2 2 2 2 2 2 2 2 2 2 2
left_child=1 3 9 4 -1 15 7 13 -8 10 -3 12 -11 -4 -15 17 -17 -6 -18 20 22 -22 -7 27 25 -21 -26 -23 29 -29
right_child=-2 2 6 -5 5 19 8 -9 -10 11 -12 -13 -14 14 -16 16 18 -19 -20 24 21 23 -24 -25 26 -27 -28 28 -30 -31
leaf_value=-0.021666060984309531 -0.017446057496884142 -0.035780894182673814 0.047322072838501011 0.015362296581992493 0.028963609846770433 0.060485891793344307 0.019798104961060849 0.061556327409737925 -0.0048743887439391528 -0.0080102335831228819 0.0025356324241423102 0.0045775753016315734 -0.047340259075260717 0.019229352921070173 -0.028842158742065568 -0.045926725830894799 0.029491306370876283 -0.012330839472563113 -0.0015879537131986568 0.029973346468401302 -0.0014430166582930037 -0.028991892643572971 0 0.015140783502949257 0.023602131554226233 -0.0073534164361516614 -0.013286514280825987 0.0129636457537956 0.033407407047640843 -0.039576244376895414
leaf_weight=66.892138674855232 71.313647404313087 9.725759029388426 6.9667555540800121 33.797973155975342 36.041741818189621 4.9905513674020794 44.262225404381752 11.451834604144095 43.519520178437233 27.064540550112724 1443.2036300599575 25.356337666511536 13.670528277754782 11.195553705096247 6.9471745491027823 6.6943835318088523 13.379396691918371 11.130280151963232 58.368880018591881 10.963946357369421 88.406709522008896 105.64229899644852 21.120422556996346 10.176321029663084 38.918909355998039 210.99115486443043 11.853514179587362 8.5539795309305244 5.9307745844125739 10.513953894376753
leaf_count=272 295 41 28 137 145 21 178 46 175 109 5812 102 55 45 28 27 54 45 235 45 367 455 89 42 158 858 48 35 24 43
internal_value=-7.15637e-05 0.000441826 0.00261951 -0.00426627 -0.0052416 -0.00349214 0.0147826 0.03125 0.00736751 0.00159835 0.00223752 -0.0119041 -0.0226263 0.0146423 0 0.00671091 -0.000296889 0.0186475 0.00418968 -0.00597457 -0.0106581 -0.0135817 0.0136398 -0.0209624 -0.00147543 -0.00527128 0.0144168 -0.0240582 -0.00193415 -0.0152893
internal_weight=2469.04 2397.73 1643.36 754.367 720.569 653.677 124.343 36.5613 87.7817 1519.02 1452.93 66.0914 40.7351 25.1095 18.1427 125.615 78.4427 47.172 71.7483 528.063 255.335 229.224 26.111 140.817 272.728 221.955 50.7724 130.641 24.9987 19.0679
internal_count=10014 9719 6619 3100 2963 2691 500 147 353 6119 5853 266 164 101 73 506 316 190 289 2185 1076 966 110 599 1109 903 206 557 102 78
is_linear=0
shrinkage=0.05


Tree=27
num_leaves=31
num_cat=0
split_feature=22 16 9 5 11 5 17 16 18 17 10 14 22 0 15 0 16 17 21 18 16 11 3 10 9 5 22 5 16 11
split_gain=8.14806 8.85998 7.28882 5.79905 7.80292 5.35533 5.65435 8.58723 8.03814 7.98957 6.59802 6.48174 7.2484 6.68362 6.4029 8.60709 6.10607 5.87882 6.5844 6.28562 5.43413 8.15409 6.21839 5.39462 5.1727 5.72131 5.13092 5.307 5.0666 5.56551
threshold=0.58358191115137059 0.014307382820348859 0.62533729519122339 0.60447616532597748 0.36524485072253049 0.77419512926917644 0.095815668278616012 0.13103422914063753 0.039606509041159969 0.095945481205585589 0.0065463880921987844 3.3480596558354977e-06 0.29968601557148095 7.9910444362883894e-06 0.00010957364420741474 0.0066233002329827975 0.11911004257920886 0.096085589151207004 0.00019165557752480778 0.040582210450250622 0.1001344984899451 0.3689247474808533 0.86911346556187408 0.031446269098819014 0.64537537611614348 0.51263441958437295 0.26429550657350787 0.62227345096302578 0.045399934161571134 0.98643795185693528
decision_type=2 2 2 2 2 2 2 2 2 2 2 2 2 2 2 2 2 2 2 2 2 2 2 2 2 2 2 2 2 2
left_child=1 3 5 -1 -5 6 8 9 20 -8 11 12 13 -11 15 -10 -13 -12 -19 23 22 -22 -3 -20 25 -4 -6 -28 29 -26
right_child=-2 2 24 4 26 -7 7 -9 14 10 17 16 -14 -15 -16 -17 -18 18 19 -21 21 -23 -24 -25 28 -27 27 -29 -30 -31
leaf_value=-0.0025553580344353172 -0.016635818280175362 0.0044362031462092033 0.048313477255884141 0.031694545074123823 -0.031658567015991436 0.028729166365969325 -0.028462536316710897 0.014400673072600465 0.035118544793807632 0.0046700850136791308 0.012124487805201575 0.0050164287391148595 -0.033271479449604416 -0.028735615620795553 0.0012512544696015072 -0.0010531905692994965 -0.037990582351400883 -0.04720205586275554 -0.019584726589618379 -0.045413873689522752 -0.012289404925158696 0.0096676138469624206 -0.03252672271750056 0.030593506515079312 0.027284868045520577 0.006733079067744065 -0.040132481016471364 0.013492332087560009 -0.0046365974977308107 -0.015673344315542462
leaf_weight=680.12690079212189 71.101811811327934 659.38620695471764 19.129952371120453 6.0962014794349662 46.528475522994995 16.943165004253387 34.309482544660568 60.001563146710396 53.001667663455009 60.651153564453125 10.629245981574057 241.56374558806419 26.804423183202744 18.540190294384956 53.35572275519371 21.672940894961357 7.4490109980106345 20.948886841535568 8.9110857844352775 7.1543088257312766 138.56209935247898 58.594777852296829 10.445275604724882 10.135232314467428 36.297182768583298 17.384532034397125 5.3976600915193584 15.312579542398451 43.515271738171577 7.954918071627616
leaf_count=2796 295 2652 77 25 194 68 139 242 213 245 43 974 109 75 214 87 30 85 36 29 559 236 42 41 146 70 22 63 175 32
internal_value=-6.60059e-05 0.000421849 0.00248942 -0.00405184 -0.0173732 0.00151391 0.0011714 -0.00309622 0.00337235 -0.00552704 -0.00349612 -0.000850701 -0.011203 -0.00309988 0.0150398 0.0244148 0.00348311 -0.019034 -0.0266834 -0.00822624 0.00160525 -0.00562179 0.00377491 0.00606395 0.014106 0.0298907 -0.0225875 -0.000537038 0.00699464 0.0188344
internal_weight=2467.91 2396.8 1643.34 753.462 73.3349 1519.06 1502.12 507.098 995.019 447.097 412.787 355.009 105.996 79.1913 128.03 74.6746 249.013 57.7788 47.1495 26.2006 866.988 197.157 669.831 19.0463 124.282 36.5145 67.2387 20.7102 87.7674 44.2521
internal_count=10014 9719 6619 3100 304 6119 6051 2048 4003 1806 1667 1433 429 320 514 300 1004 234 191 106 3489 795 2694 77 500 147 279 85 353 178
is_linear=0
shrinkage=0.05


Tree=28
num_leaves=31
num_cat=0
split_feature=22 5 5 18 12 6 22 5 6 17 18 12 14 6 9 21 12 0 18 22 22 12 22 17 17 10 7 14 14 21
split_gain=7.38376 5.08059 6.54029 6.69796 6.50725 5.06934 5.48275 7.3102 5.98813 9.54428 5.81914 5.47357 5.91658 5.44136 6.12903 10.5968 5.22557 5.18296 5.5263 6.52013 6.07822 5.21841 5.15182 4.95806 6.26426 6.11012 8.17948 5.87213 6.04759 5.78299
threshold=0.58358191115137059 0.77419512926917644 0.60660018738228827 0.04026582576025127 0.0018458676518194866 0.49579328617138635 0.2180071573868351 0.51824315293652223 0.49580414414285218 0.09024726259933262 0.039701569402975583 0.010853299831650931 0.042802693875375414 0.49576160612845371 0.0016156330836363312 0.00017527899499151744 0.0028599465343626326 0.00012854434739652753 0.040048698645383553 0.084833679094796485 0.10121095204396355 0.0024568137277659018 0.073189701997496484 0.093295384748196389 0.094224476058006781 0.031335112565303719 0.49555752054770003 5.2655272070187363e-06 3.4900315735224715e-07 0.00018376544538091166
decision_type=2 2 2 2 2 2 2 2 2 2 2 2 2 2 2 2 2 2 2 2 2 2 2 2 2 2 2 2 2 2
left_child=1 2 3 5 -5 13 7 10 9 -8 22 12 -9 14 15 -1 -17 -12 19 -19 -21 -22 -7 -10 27 29 -27 28 -25 -26
right_child=-2 -3 -4 4 -6 6 8 11 23 -11 17 -13 -14 -15 -16 16 -18 18 -20 20 21 -23 -24 24 25 26 -28 -29 -30 -31
